0.252104,-0.0390942,-0.173403,-0.0804529,-0.278701,0.17242,0.00563979,-0.0709464,0.290921,-0.245044,0.0272838,-0.170219,-0.0215766,-0.231553,-0.177398,-0.0593677,-0.0644948,-0.117454,-0.239158,-0.0251229,0.314719,0.0130955,0.0232002,-0.0494553,-0.274963,0.293313,0.0792138,0.101794,-0.2141,-0.250459,-0.053856,0.337556,-0.161547,0.00455031,0.367144,0.144918,0.1266,0.3862,0.0988995,0.187183,-0.105554,-0.181309,-0.00269175,0.160991,0.326618,0.396924,0.322987,-0.131809,0.209015,-0.13292,0.0719718,0.00822473,-0.268383,0.159859,0.24499,-0.0650929,-0.285003,-0.282226,0.352296,0.153963,-0.217539,0.0991698,0.385212,0.35928,0.178693,0.286304,-0.214614,0.134647,0.280657,0.0693568,-0.0551772,0.209382,0.00558695,-0.113256,-0.162628,0.196528,-0.096312,-0.201084,0.257899,0.0920316,0.25674,-0.0603717,-0.21316,0.0270241,-0.2978,-0.0842128,-0.0710959,0.363918,-0.222764,0.302853,0.00503696,-0.197511,0.212152,0.317698,-0.202991,0.283338,0.0366982,0.351519,0.256811,0.388756,0.173257,0.126529,-0.176503,0.111612,-0.0124145,0.205108,-0.110605,-0.0624227,0.354091,0.339564,-0.170711,0.218586,0.0344371,-0.292053,0.257124,0.351335,0.127607,-0.290628,0.0823754,-0.136603,-0.0430427,-0.181072,0.197349,-0.202405,0.0541323,-0.155904,0.182348,0.0360878,-0.139145,-0.124105,0.210288,0.324331,0.320074,-0.19018,0.0489775,-0.127353,-0.0174004,0.356784,0.102045,0.340355,0.31128,-0.12993,-0.0638747,-0.213921,0.386604,0.314501,-0.27509,0.17035,0.07955,-0.275409,0.208679,-0.273534,-0.086265,-0.269309,-0.274796,-0.085538,-0.201913,-0.0320409,0.0373974,0.277871,0.231211,-0.0279174,-0.209051,-0.294238,-0.213343,0.298946,0.230643,0.103269,0.387802,0.0230293,0.0948626,-0.149275,0.373923,0.241028,0.139293,0.371911,0.276378,0.0746753,0.166357,-0.347025,-0.136695,-0.0800817,0.0176812,0.050392,0.177249,0.101764,-0.261409,0.115348,0.180863,0.128344,-0.163544,0.037474,-0.0323562,-0.00737997,0.275068,-0.151741,0.137684,0.306153,-0.0147036,-0.0372287,0.384435,-0.265509,-0.12848,0.0279224,0.293084,0.190354,-0.16054,-0.00577999,0.135807,-0.301984,0.0418615,0.108953,-0.249653,0.0174912,-0.137979,-0.431396,-0.255694,-0.371738,-0.226847,0.189811,0.216631,0.217532,0.401112,0.384272,-0.14796,-0.257785,0.39506,0.329438,0.083133,-0.22074,0.389924,-0.00867562,-0.0367086,-0.00324578,-0.143064,-0.0923311,-0.287364,-0.109316,0.286478,0.117795,0.526181,0.16442,-0.0571251,-0.0483157,0.0459054,-0.0868624,0.00463809,0.0435987,0.0964777,-0.16579,-0.0698298,-0.207955,-0.0605213,0.203781,0.068866,0.320031,-0.228017,0.0111525,-0.0478688,0.238754,0.154846,-0.201545,-0.274382,-0.113101,0.414843,-0.0919031,0.0766806,0.351512,0.508534,0.360088,0.184674,-0.0345772,0.0781488,-0.387179,-0.446793,-0.243654,-0.203579,0.26997,-0.126174,0.123659,0.343303,0.0192997,0.108048,-0.256512,0.0670887,-0.0803967,0.138204,0.210686,-0.126803,-0.068919,0.27091,-0.171558,0.258086,-0.0193605,-0.276353,0.0962592,-0.084561,-0.177908,0.367922,-0.110023,-0.231832,0.261359,-0.250382,-0.0555904,-0.155245,-0.178343,0.0758291,0.179918,-0.25877,0.135693,0.0615478,0.0494048,-0.157287,0.0803666,0.168974,-0.198212,0.164453,0.215804,0.249775,0.0746264,0.01643,0.275709,0.127741,0.273137,0.072415,-0.00753898,0.348213,0.0731218,0.35983,0.234674,-0.189816,-0.370122,-0.0145759,0.367243,-0.0978874,-0.155033,-0.15642,-0.108388,0.0313349,-0.217713,0.0266773,-0.40313,-0.435854,0.0106891,-0.0485887,-0.0318762,0.114695,0.104325,0.128924,0.112758,0.0425063,0.25858,-0.0247296,0.31081,-0.114648,-0.159497,0.190291,0.393322,0.141731,-0.226431,-0.221531,-0.111391,-0.00176102,-0.00246737,0.154881,0.392096,0.333781,0.238201,-0.218579,-0.462367,-0.408812,-0.430356,0.142922,-0.294669,0.0197785,-0.0436032,-0.404922,-0.249895,0.0353129,-0.115042,-0.00571286,-0.282499,-0.144604,0.240304,-0.0725141,0.0752589,0.400761,-0.21645,-0.0408115,-0.23346,0.158024,0.232421,-0.284576,0.246023,0.119005,-0.0831851,-0.354542,-0.438089,0.114512,0.0964073,-0.350734,-0.0980822,0.212726,-0.282961,-0.482614,-0.392592,-0.0582993,-0.359928,-0.292889,0.125291,-0.210728,-0.155967,0.061933,0.238637,0.102749,-0.22572,0.212662,0.251263,-0.219298,0.104218,0.287759,0.270057,-0.0698093,0.250145,0.362633,0.294609,-0.0767156,0.158613,0.0638418,-0.366376,0.0457252,-0.179857,-0.195113,-0.236304,-0.0808013,0.201042,0.200419,0.353019,0.0168734,0.210218,0.201415,-0.0294715,-0.222036,0.0348939,0.114051,-0.275514,0.365917,-0.0270672,0.20376,-0.190714,0.190351,0.0637695,-0.164252,0.0192831,-0.139869,-0.362371,-0.313253,-0.0184333,-0.265626,0.338103,0.236014,0.156813,-0.209081,0.406269,0.578727,0.50203,0.0447783,-0.307232,0.0765394,-0.183936,-0.387683,-0.253034,0.27048,-0.017313,0.158658,0.0653614,-0.0615681,-0.120664,-0.0241741,0.344469,0.0192197,0.134971,-0.285357,-0.259873,-0.43223,-0.28413,-0.21202,-0.223728,0.507728,0.0645135,0.457919,0.102586,-0.104133,0.324546,0.0115845,-0.0708493,-0.155191,-0.15122,-0.38722,-0.0845513,-0.132382,0.168214,0.281425,0.154116,0.225379,-0.0188092,0.210637,0.339503,0.248968,0.0416596,-0.506136,-0.396023,-0.00461673,0.151649,0.023045,-0.100058,0.0487801,0.0305122,0.206113,0.147346,0.469192,-0.269261,0.111799,-0.0480633,-0.391337,-0.117679,0.223677,0.256608,-0.192257,0.048247,-0.145419,-0.225714,-0.22006,0.292053,-0.160887,0.195955,-0.0812158,-0.217148,0.0534117,0.0373037,-0.369511,-0.146906,-0.373956,0.201659,-0.136056,0.118725,-0.191171,0.0388573,0.0800193,0.114847,-0.169346,0.188494,-0.426795,-0.259131,-0.211013,-0.0952104,0.112591,-0.132105,0.237823,0.186429,0.0458663,0.297201,-0.164388,-0.121438,0.324976,-0.0426222,-0.375694,0.166765,-0.403096,0.064508,-0.331386,-0.345799,-0.161018,0.234947,0.328743,0.251037,-0.0613139,0.0760922,-0.391311,-0.128277,-0.184467,-0.0942527,0.141662,-0.215315,0.199319,0.267931,0.00584412,0.0719431,0.230357,-0.0645375,0.337983,0.12509,-0.267405,-0.317568,-0.404907,-0.208429,-0.326878,-0.337804,0.0352067,0.0142062,-0.167325,0.20833,0.0512838,-0.130633,-0.050821,0.135941,-0.0723556,-0.115467,-0.0024597,-0.0242738,-0.0591623,-0.0370817,-0.129754,0.368525,0.270124,0.354823,-0.155907,-0.051442,0.250709,-0.2117,-0.0953892,0.023125,-0.300825,-0.00796779,-0.0360744,-0.350885,-0.318845,0.0277109,0.0241608,0.439833,-0.0128078,-0.0212142,0.12371,0.15017,0.0435122,-0.441692,-0.0574757,0.129391,-0.0159285,0.133813,0.0372359,-0.0765975,0.0795526,0.262893,-0.288934,-0.187524,-0.14868,0.129295,-0.0685355,0.221784,0.2754,-0.371485,0.136757,-0.361134,-0.262969,0.0384869,0.0261749,0.401902,-0.130882,0.404863,0.209174,0.182559,-0.149406,-0.205657,0.197147,0.248426,0.211851,0.246747,-0.161382,0.116856,0.303183,-0.0618031,-0.235804,-0.287033,0.378752,0.122675,0.23197,-0.130019,-0.336159,0.0235704,-0.332127,-0.318178,0.0999166,0.0868538,0.126313,0.0348438,0.333132,-0.15984,0.392323,-0.206884,-0.188788,0.0834499,-0.187793,0.242277,0.0573184,0.0364062,0.0724128,0.0663102,0.304871,0.314078,-0.00751978,0.0669515,-0.219034,0.276586,-0.223892,0.357557,-0.293317,-0.133036,-0.178541,-0.309511,-0.246927,-0.25662,0.33498,0.243725,0.234338,0.19443,-0.280419,-0.114097,-0.174407,-0.187712,-0.021529,0.344329,0.259212,0.0952247,0.0418868,-0.0253365,-0.28714,-0.0509293,0.0549242,0.14294,0.26567,-0.122922,0.13347,-0.255193,0.114322,-0.166812,-0.00733849,0.132837,0.0489156,0.241054,-0.0879743,0.399356,0.18292,0.117723,-0.00131082,-0.279371,-0.225681,-0.181255,0.273826,-0.260834,0.370264,-0.204593,-0.151613,0.301346,0.164965,-0.0175177,-0.272784,-0.216407,0.245418,-0.2906,-0.00762659,-0.201196,0.320285,-0.159532,-0.204564,0.0582795,0.237305,0.0728263,-0.030314,0.188699,0.214057,0.0075899,-0.185539,-0.250083,0.142921,0.341453,0.0171972,0.0523179,-0.0815424,0.167272,0.243858,0.301025,-0.249071,0.0400341
-0.103333,0.183593,0.31677,-0.207498,-0.181735,-0.00431532,0.308097,0.060329,-0.0851955,-0.170842,0.368572,0.00546849,-0.227665,0.260457,-0.284747,0.187246,-0.0693015,0.366225,0.0794702,0.277996,-0.275475,-0.262038,-0.249733,-0.1304,-0.149391,0.317667,0.0553941,-0.231446,-0.0291605,0.0258492,0.0637898,0.125507,0.210511,-0.095172,-0.255715,-0.203058,0.360417,-0.0495369,-0.0327981,0.289108,0.0515617,-0.261456,-0.0345012,-0.243687,-0.0381115,0.0639393,0.293185,0.0742363,-0.250395,-0.0566973,-0.0734459,-0.237236,0.309293,-0.0852169,-0.218586,0.0273873,-0.184085,-0.270711,-0.0725913,0.242555,0.345952,-0.0923082,-0.0985628,0.248806,0.372655,0.187774,-0.0501569,-0.14285,-0.147393,0.141448,0.00188772,0.295753,0.0976519,-0.170577,-0.259349,0.160489,0.129991,0.332532,0.221552,0.248045,0.158705,0.398035,0.395962,0.21474,-0.0100192,0.311322,0.330592,-0.000363201,-0.267282,-0.294352,0.356032,0.00303396,0.0182948,0.00348183,-0.0236592,-0.160037,0.179054,-0.211093,0.0196823,0.115192,0.120688,0.126498,-0.173634,-0.0349214,0.0100215,-0.157714,0.0142998,-0.222016,-0.0825851,0.333177,-0.112497,-0.24279,-0.0128178,-0.182141,-0.299722,0.17116,-0.167832,0.0171812,0.145209,0.342584,0.359357,0.39569,-0.269494,-0.172235,0.262675,0.146812,0.372178,0.40567,0.305763,0.327551,0.132213,0.352799,0.0964874,-0.082105,0.258444,-0.235833,-0.123261,0.29383,0.0767591,0.24044,0.15815,-0.27539,0.376691,0.384019,0.36085,-0.0876995,-0.0215944,-0.0968093,0.0623294,-0.0719072,-0.0976841,-0.0623189,0.334476,-0.203352,0.283138,0.150301,0.175484,-0.0265179,0.49161,-0.1082,0.279135,0.0653392,0.0149444,-0.270368,-0.220818,-0.0372118,0.0706443,0.109037,0.0224952,-0.237919,0.250175,-0.0300913,0.162438,0.090594,0.0536304,0.33914,-0.243367,0.259346,-0.094452,-0.340003,-0.157927,0.0294781,-0.0233286,0.134324,0.33792,0.0378297,0.0063547,0.292001,-0.0521545,-0.0387748,0.0769203,-0.028454,0.167088,0.0417629,-0.0993636,0.114164,0.0388592,-0.132194,0.110733,-0.0598548,0.205958,0.352235,-0.126599,-0.253127,-0.301648,-0.23665,-0.231735,-0.288373,-0.38655,0.146785,-0.0143639,0.0301374,0.232255,0.37933,-0.0313861,-0.157912,0.157668,0.393453,0.0236173,0.163618,0.312883,0.0231965,0.23284,0.236609,0.24828,0.318908,0.374033,-0.131535,-0.165455,0.305887,-0.0762427,0.295912,-0.281465,-0.0794771,-0.244753,-0.192053,-0.00550954,0.173237,-0.157154,-0.172987,-0.0571882,0.217505,0.295648,0.303774,-0.0842551,0.199426,0.444065,0.420635,-0.263871,0.222837,-0.193809,-0.0365787,0.0563127,-0.151863,0.382466,0.331131,0.405054,0.162334,0.355409,-0.0209013,-0.445007,-0.0580994,0.0295219,-0.234915,-0.436964,-0.0261741,0.0277795,-0.0319608,-0.0166939,-0.229254,-0.324387,-0.175588,0.270083,-0.195349,0.382955,-0.184198,-0.038143,0.118252,0.256854,0.146587,0.269857,0.296157,0.34341,0.354465,0.35085,0.145221,0.0727605,0.0818739,0.099649,-0.00160229,0.0270565,-0.109174,-0.456207,-0.138949,0.151375,-0.24787,0.197549,-0.158513,-0.269548,-0.000495105,-0.289982,0.0213897,-0.0473274,-0.196426,-0.0692988,0.241971,-0.290585,0.120816,-0.246272,0.102778,-0.139696,-0.164235,0.062103,0.0539077,0.304228,-0.199558,0.0059831,-0.386293,-0.402798,0.291381,0.00523542,-0.108992,-0.265106,0.223994,-0.0830979,0.0772614,-0.131725,-0.124177,0.0698419,0.052871,0.153445,0.143468,0.334074,0.363195,0.168482,0.214056,-0.276565,-0.103208,0.0261386,-0.25019,0.087722,0.378501,0.265851,0.355986,-0.148339,-0.0628969,0.0101081,0.0608538,0.145224,-0.440549,-0.187973,0.151273,-0.0854154,-0.11372,0.266994,0.165848,-0.246846,-0.25511,0.422084,-0.0992038,-0.178674,0.340405,0.345005,-0.185856,0.338923,0.36653,-0.196425,-0.136437,0.271971,-0.117455,-0.237352,0.320871,0.0445027,-0.305779,-0.118817,-0.0393982,-0.24881,-0.164746,-0.0479729,0.182036,0.0152978,0.0039341,0.0364,-0.145223,0.149979,-0.407091,-0.0544982,-0.0970488,0.347547,-0.227848,-0.31961,-0.260561,-0.184491,0.300027,-0.200662,0.0860197,0.167106,0.0247132,0.1278,-0.0856212,-0.269251,0.0458359,0.0337704,-0.266513,-0.155904,-0.430285,-0.529155,-0.311181,-0.352698,-0.231062,0.0364109,0.283257,-0.362867,-0.282769,-0.226948,0.43547,0.325873,-0.254414,0.23757,-0.21964,0.317496,0.161763,-0.259484,-0.0462345,-0.0579586,0.00268975,0.188899,-0.0360848,-0.275986,-0.349882,-0.170596,-0.122999,-0.379094,-0.470838,-0.197119,-0.00359182,-0.413058,-0.149249,-0.343889,0.188802,0.0623892,-0.155353,-0.164363,0.283622,0.149045,-0.0296115,-0.0418407,0.132784,0.0498184,0.180859,0.0738424,0.0622812,0.0768654,-0.081609,0.209634,0.121618,-0.0651118,-0.119238,-0.133135,-0.47225,-0.232357,0.091143,-0.447569,-0.444449,-0.413803,-0.0367757,0.165521,-0.145801,-0.38393,-0.153728,0.235652,0.211628,0.322232,-0.285706,-0.00535847,-0.274912,0.313694,-0.253108,0.104707,0.022305,0.252385,0.240611,0.314324,0.0749159,0.268058,0.304837,0.212733,-0.218758,0.0343883,0.161474,-0.397018,0.0834778,0.136864,-0.0297365,-0.0846774,0.276781,0.153487,-0.00820899,0.35715,0.0994791,-0.0599528,-0.235464,-0.260214,0.143084,-0.0582141,0.366883,0.267169,0.203337,0.283809,0.209924,0.0387993,0.0836034,-0.213999,-0.037843,0.244316,-0.282688,-0.2771,0.216147,0.253367,-0.0373731,-0.353849,0.00503684,-0.0932265,-0.0336955,-0.151961,0.28411,0.295222,0.0545315,0.082619,-0.270671,0.145594,-0.269434,0.278423,0.0869686,-0.164041,-0.224015,0.0307761,-0.040946,-0.0607394,-0.00430978,0.262976,0.0690539,0.280378,-0.109987,-0.456118,-0.404367,-0.366046,0.177029,0.222556,0.170621,-0.259827,-0.181337,0.253846,0.135137,-0.145836,0.136851,0.146426,0.0330578,0.185498,-0.0668679,0.12053,-0.167849,0.219141,-0.224945,0.136206,0.0332404,0.354261,0.292528,0.225615,0.318707,0.287823,0.0193179,-0.168653,0.0790165,0.274365,-0.116344,-0.00298741,-0.0412118,-0.328528,0.0107382,0.0980472,-0.0632845,0.404155,-0.163891,0.136072,0.0222255,-0.306595,-0.00730062,0.285089,-0.233284,-0.252706,0.0357085,-0.0662678,0.000804328,0.108614,0.403512,0.036618,0.305511,0.345593,0.213985,0.197336,0.146702,-0.155752,0.239898,0.327198,0.0196726,0.139846,0.0651411,0.135106,0.424848,0.38603,-0.156809,0.301151,0.204864,-0.172209,-0.0146931,0.0182867,-0.171245,0.303739,-0.135204,0.273462,0.326188,0.283357,-0.0668294,0.417786,-0.146059,-0.0108487,0.369308,0.296699,-0.167204,0.00990814,-0.166837,-0.0346338,0.11084,0.0263796,0.00248234,-0.256602,-0.0904751,-0.227394,-0.301021,0.364356,0.170752,0.0612209,0.265413,0.0126896,0.0416791,0.0759299,-0.163399,-0.28241,0.291105,-0.203005,-0.263551,0.0717411,-0.151246,-0.193269,0.108433,-0.207705,-0.0430381,-0.333129,0.169296,0.313101,0.372689,0.361936,0.144337,0.0392531,0.135407,0.17571,0.229367,0.224228,-0.298023,0.0722057,-0.286007,-0.152681,0.0562273,0.398461,0.32202,-0.28645,0.204932,0.176843,0.205215,0.0203984,-0.280963,0.286748,0.332722,-0.135785,0.00515938,-0.298808,0.107323,0.194453,0.393503,-0.211998,0.25458,-0.172264,-0.00620268,0.0244273,0.161747,0.348066,0.100977,0.296539,-0.198975,-0.283316,-0.174279,0.15031,-0.287887,-0.0020794,0.143503,-0.200346,-0.0373468,-0.238127,-0.0693004,-0.0411091,0.281839,0.267379,-0.105899,0.114501,0.223056,0.0489469,-0.0579932,0.234993,0.390218,0.366654,0.189474,0.30252,0.0732794,0.313675,0.21301,-0.198676,0.0787652,-0.135569,0.167956,0.282247,-0.0045076,0.0457787,0.399004,-0.252771,-0.0880719,0.309858,-0.0565063,-0.111628,0.128789,0.367583,0.235166,0.00564282,0.158214,0.200861,-0.0764561,-0.0262893,-0.0774984,-0.2604,0.0834829,-0.0957252,0.0234565,0.38261,-0.181948,0.0341807,-0.215275,-0.11301,0.216578,0.174493,-0.256334,-0.291305,-0.158428,0.370353,0.30618,0.140744,-0.0781225,0.0510673,-0.188955,-0.119547,-0.195813,-0.148537,-0.0385618,0.118183,-0.174194,0.129018,0.26079,0.272164,0.34984,0.240996,-0.15266,0.381628,0.390344,0.364922,0.282803
-0.277078,0.315424,0.0666951,0.374343,-0.126063,0.336958,0.324311,0.397159,-0.168361,0.146144,-0.232345,-0.198932,0.177761,0.154241,0.14373,0.152852,-0.0606495,0.148109,-0.0624012,0.210233,0.254091,-0.0678274,0.234053,-0.22523,-0.10079,-0.121299,0.354006,-0.0796625,0.293826,0.358663,0.349947,0.143794,0.13386,0.0742363,-0.204892,0.33542,0.0688953,-0.034028,0.150514,-0.284859,0.380496,0.115174,0.144136,-0.0679342,0.170925,-0.185324,-0.152831,0.274129,-0.0771203,0.128861,0.080987,-0.115894,-0.162529,0.215296,0.2395,-0.170156,0.0119846,0.0298654,0.0616962,0.324717,-0.234416,-0.0129032,0.0379406,-0.0543225,0.0726362,0.397542,0.384988,-0.154546,0.112496,0.354723,0.274595,0.207914,0.299093,0.291638,0.0473309,0.335742,-0.0125069,0.182185,-0.298821,0.131318,0.136808,-0.29577,-0.116749,0.353001,-0.17915,0.0435163,0.0743431,0.102799,0.352973,0.350946,0.196168,0.138952,0.335516,-0.267067,0.328985,-0.0383087,0.292864,-0.10207,-0.12566,0.0679707,0.1947,-0.2868,-0.0605582,0.119839,0.128361,-0.0719576,-0.204395,0.232962,0.0392223,0.193869,0.266887,0.315189,0.3837,0.341401,0.0179449,-0.22869,0.315206,-0.0441459,0.391592,0.203479,0.159454,-0.203443,-0.140488,0.126028,-0.110839,-0.183766,0.0464074,-0.299171,0.346775,0.0968886,0.171932,0.348179,0.348354,0.212667,-0.187651,-0.268831,-0.0936502,-0.214584,0.0780174,-0.171032,-0.114057,-0.0522965,0.0277932,-0.0490257,-0.0368594,0.115739,0.127318,0.0746842,-0.121296,0.25387,-0.229729,0.383701,0.272269,0.240836,-0.0663741,-0.0669018,0.360488,0.211002,0.13266,0.00393012,-0.0180319,-0.174118,0.0591786,0.318179,-0.241557,0.281406,-0.122004,-0.0458663,-0.132557,0.0355693,-0.142769,0.313645,0.333726,-0.00132565,0.28687,0.198125,-0.230583,0.0127461,0.235063,-0.00447639,-0.278651,0.297265,0.304339,0.109282,0.314381,0.146956,0.25725,0.193949,0.0289491,-0.0452823,0.155331,0.249466,-0.153997,0.127189,0.0907066,-0.107114,0.249327,0.208161,0.146833,0.23713,-0.258012,0.254699,-0.133221,0.361372,-0.0669798,-0.0371328,0.277658,0.0567068,0.209404,-0.260243,0.0236482,-0.0738371,0.175482,-0.108936,-0.0784917,0.227599,0.135143,0.210858,0.357177,-0.275117,-0.178375,-0.0561441,-0.295894,-0.251912,0.0719718,0.0476702,-0.210162,-0.0282689,-0.00312211,0.0305836,-0.0543534,-0.0407914,0.158937,0.142823,-0.177133,0.346043,-0.0920867,-0.0716139,-0.0640551,-0.173326,-0.269766,-0.227016,0.25875,-0.12061,0.0865066,0.0439172,0.0564635,0.0542817,-0.25185,-0.17411,0.124566,-0.277441,-0.190771,0.135089,-0.214632,-0.156447,0.299486,0.132565,-0.251768,0.325648,-0.19304,0.282574,0.0483423,-0.145065,-0.142238,0.207619,-0.222843,0.154654,-0.166162,-0.299464,-0.05061,-0.180998,-0.104831,0.0659317,-0.0150867,0.118965,0.15306,0.0632471,0.0750993,0.287995,0.0746635,-0.105851,-0.180498,0.272982,-0.0966925,0.210933,0.0123707,-0.309609,0.354551,0.388599,0.244308,0.365224,-0.273174,-0.171123,-0.199991,-0.150868,-0.171387,0.309514,0.178589,0.0844315,0.00720278,0.315065,0.311041,0.199716,0.215113,-0.0940342,-0.0223987,-0.199455,0.285281,-0.237631,0.0644041,0.141617,0.132002,0.00411345,0.0551685,0.327689,-0.110518,-0.269983,0.0962635,-0.118122,0.319115,0.167339,-0.173903,-0.287503,0.169089,0.045088,-0.00653398,-0.159232,-0.0744176,-0.169305,-0.192958,-0.0942112,0.373929,0.378679,0.309358,0.395159,-0.201325,0.142048,0.0371323,-0.223385,0.21715,0.0772058,0.114338,0.161454,-0.141687,-0.0542593,-0.206626,-0.112604,0.0794336,-0.0519178,0.365705,0.0948987,0.393121,0.370862,0.206092,0.409395,0.161868,0.0944577,0.0998762,0.338162,0.125358,0.238825,-0.22477,-0.272952,0.188998,-0.264642,0.00799402,-0.212871,0.0237468,0.319361,0.303889,-0.219796,0.255409,0.346791,-0.308851,0.172155,0.0582786,0.207843,0.409836,-0.109296,-0.0503789,-0.113456,-0.169987,0.0392259,0.28009,-0.110463,-0.0659326,-0.167059,-0.132038,0.128428,0.183168,-0.2992,-0.0227088,-0.284682,0.298838,-0.0697057,-0.145993,0.0616599,0.169051,-0.22061,0.376797,0.081304,-0.0858463,-0.150095,-0.162101,0.381765,0.369028,-0.123552,0.344249,0.0091639,0.0810356,0.0919489,0.158979,0.378092,0.273442,-0.0218349,-0.109581,-0.22652,0.073656,-0.040996,0.0821192,0.2366,-0.234514,-0.265271,-0.11468,0.00908903,-0.185795,-0.20224,0.363429,-0.0338216,0.145903,0.306591,-0.155783,-0.0785044,-0.265918,0.191402,0.270027,0.273274,0.0848388,0.275218,-0.20106,0.123423,0.28211,-0.0773679,-0.125863,-0.0645653,0.0943816,0.261254,0.105832,-0.0607531,-0.00520633,0.160379,0.0126618,0.160733,-0.277162,0.0513591,-0.270971,0.108295,-0.120375,0.216435,-0.263236,-0.0469282,0.0364091,-0.234082,0.284957,0.316293,0.319229,0.0896021,0.0886934,0.188277,-0.116502,0.316288,-0.151341,0.00105865,-0.00217355,-0.187991,0.22226,0.348274,-0.276446,0.311687,-0.187264,0.268737,0.0856221,0.0951478,0.0781085,0.086571,0.235742,0.205632,0.362827,-0.020095,-0.26252,0.354682,0.025674,0.252375,0.000751529,0.18924,-0.185354,-0.0448931,-0.167814,0.356786,0.275156,-0.247657,-0.106371,0.20859,-0.0187353,-0.0780102,0.00255405,-0.288942,0.054897,0.355471,0.36542,0.26544,0.208699,0.0647053,0.381662,-0.266916,-0.0936258,0.0346215,0.124974,0.343969,-0.100104,0.200935,0.320715,0.37451,0.392216,0.197436,0.143927,-0.187536,-0.000251368,0.269273,0.277453,0.0549259,0.396133,-0.0473403,-0.291908,0.124538,-0.0686431,0.282981,0.0422441,-0.117751,0.144825,-0.183752,0.398262,0.153218,-0.0895798,0.197597,-0.0567984,-0.0143637,0.287774,-0.285527,0.384804,-0.00881971,0.332638,0.217575,0.134848,-0.0808024,-0.208124,0.267054,-0.018576,-0.248787,-0.0710532,0.0732322,-0.164773,-0.0626598,-0.172799,0.0381174,0.262638,0.143385,0.263624,0.139128,0.199498,0.157083,-0.267517,-0.211918,0.370161,-0.0166753,-0.179624,0.20482,0.290188,0.0351008,-0.101895,0.0690862,-0.14981,-0.164695,0.205477,0.204463,0.196546,0.398972,-0.159816,-0.0294382,0.368249,0.308571,0.260522,0.373724,-0.144603,0.308885,-0.141897,-0.273761,-0.270852,0.287809,0.377119,0.102795,0.278359,-0.0246688,0.0123274,0.376822,0.115693,0.387228,0.374729,-0.206935,-0.16237,-0.0275725,-0.0784328,0.338548,0.237926,-0.112284,-0.282675,-0.237919,-0.234999,-0.016632,-0.104653,-0.00193802,0.126025,0.31587,-0.264188,0.181626,-0.0517934,0.371952,0.266158,-0.0772661,-0.166369,-0.175629,-0.14844,0.175194,-0.275153,-0.239337,-0.0668345,0.0746968,0.246184,-0.162376,0.0612562,0.103024,0.106239,0.176479,0.0489852,0.236039,-0.251753,0.0808961,-0.0415746,0.00327863,-0.119753,-0.0807448,-0.133344,0.0996887,0.181864,-0.0452816,0.118129,0.0286826,0.12965,0.307929,-0.0573586,-0.136014,0.192343,0.0745058,-0.0963886,-0.209411,-0.232859,0.208418,0.38645,-0.10773,-0.0872036,0.185858,0.359645,0.309891,0.243005,-0.0538722,-0.1825,-0.0542494,0.119787,0.275236,0.114942,0.0555028,-0.140737,0.360883,0.21306,-0.225237,0.0982348,0.0186004,-0.16779,-0.154757,0.0571253,-0.0674723,-0.223402,-0.0172601,-0.252473,0.127524,-0.204634,-0.137,-0.0944456,0.182012,-0.02931,-0.0904721,-0.248665,-0.217795,0.176811,-0.28801,-0.252905,0.242641,0.00952209,0.113356,0.31953,0.272182,0.258651,-0.170803,0.0782411,0.307925,-0.171013,0.394237,0.149297,-0.109315,0.355166,0.392235,-0.232735,-0.0469129,-0.259693,-0.272655,0.28887,-0.220145,-0.296454,0.0224952,0.00523391,0.259432,-0.0237466,-0.0227792,0.395017,0.384665,0.00742928,-0.186447,-0.100324,0.214416,-0.163515,-0.279528,0.0188474,-0.208719,-0.0264566,0.0819854,-0.102468,-0.192964,0.285649,0.29421,-0.0640248,0.216193,-0.20062,-0.293142,0.377483,0.0435591,0.390408,-0.27163,0.0879086,0.112326,0.0095706,0.0177953,0.309078,-0.110068,0.125865,-0.298328,-0.292335,0.186691,-0.172356,0.114655,0.241316,-0.00400972,-0.217317,0.33663,0.326093,-0.0738054,-0.254924,0.264879,-0.253365,-0.178979,0.159859,0.344584,-0.224674,0.212775
0.00803247,0.159389,-0.135633,0.110553,0.023606,0.374728,0.265627,0.0648579,-0.112818,-0.297226,0.0302619,0.208502,-0.00920746,-0.154241,-0.233048,0.120145,-0.164708,0.241166,-0.0067507,0.00681478,0.169707,-0.219013,0.265349,0.25298,0.232044,-0.0727836,-0.280303,0.23245,0.000790417,-0.205469,0.0117496,-0.269601,0.216514,0.0231361,0.0853023,0.372158,0.282889,-0.278835,-0.129124,-0.0812955,0.12024,-0.257732,0.154219,-0.165584,0.387011,0.233775,-0.122132,0.348601,-0.291498,-0.0808802,0.146058,0.24922,-0.242833,-0.17712,0.281542,0.314762,0.207797,0.140141,0.290066,-0.19498,0.199487,-0.252403,0.308432,-0.0571091,-0.146262,-0.21957,-0.235521,-0.0862966,-0.16152,-0.241066,0.0261857,-0.162995,0.236357,0.204163,-0.0621026,-0.228643,-0.122313,-0.252487,0.0653773,0.270647,0.0265114,0.38605,-0.0377056,0.310553,-0.0396069,-0.0999146,0.143965,0.281414,0.0386334,-0.0190207,0.192282,0.353715,0.260143,0.298167,0.3163,-0.132369,-0.0934839,0.0300007,0.125853,0.245268,0.0852028,0.158566,-0.156951,0.00243193,0.0461217,-0.123242,-0.291093,-0.0925725,0.376971,-0.166353,0.378253,-0.0807093,0.165328,0.188763,-0.223606,0.0624012,-0.0616163,-0.0951851,0.346677,0.209457,0.212067,-0.0431314,-0.121643,-0.163245,0.268653,0.156713,-0.163301,-0.133805,0.325621,0.0757308,-0.101426,0.300419,0.0547651,0.34342,-0.196062,-0.245743,0.168421,-0.283952,0.172519,-0.28496,0.139244,0.290045,0.184247,-0.036804,0.401514,0.080272,0.283773,0.302679,-0.0217586,0.135455,-0.0804598,0.181374,0.177159,0.294681,-0.196155,0.0570696,0.323154,0.283509,0.00748386,0.302079,0.289916,-0.0452999,0.307178,0.0136462,0.0479951,0.163581,-0.25392,-0.183316,0.110233,0.215146,0.297232,0.363717,0.0855736,0.000335186,0.265151,0.142355,-0.357924,0.135839,-0.333355,0.0550858,-0.162033,0.104586,0.297565,0.374816,0.382165,0.176882,0.226575,0.127932,-0.0168227,-0.0498192,0.287698,-0.266051,0.0925624,0.0181341,0.242549,0.380773,0.35204,0.0627643,0.209885,0.151013,0.235805,0.418744,0.145311,-0.287113,0.183474,0.247583,-0.117298,-0.180746,-0.559524,0.146745,-0.104319,-0.0212733,-0.125609,-0.183288,-0.17623,0.211908,0.104746,-0.197479,-0.118426,0.0265836,-0.335693,0.105395,0.206748,0.0449207,0.166289,-0.16568,0.248832,-0.198461,0.293491,0.133722,0.432232,-0.19188,0.217485,0.0117138,-0.118475,0.100219,-0.413005,0.348684,0.476659,-0.0380253,0.597482,-0.142211,-0.203108,-0.192402,-0.222417,-0.204738,0.25063,-0.130914,-0.304625,-0.27087,-0.106788,-0.000132445,0.278936,0.207889,-0.0351716,-0.244504,0.491943,-0.0944113,-0.175774,0.190068,0.0742224,-0.132578,-0.108269,-0.0424066,0.319738,0.405705,0.381684,0.169329,0.122559,-0.230924,0.0137327,-0.215737,-0.214465,-0.18519,0.0687324,-0.357661,-0.337804,0.0352436,-0.144147,0.0184171,-0.0341807,0.223159,0.0881684,-0.236222,0.527713,0.514177,-0.0285863,0.102431,0.0730245,-0.152179,-0.402204,-0.425373,-0.0617414,0.331902,0.0880477,0.407082,0.289049,0.412182,0.329041,0.0780336,0.0887694,-0.267921,-0.367417,0.214471,-0.389129,0.015289,-0.249382,-0.280483,0.173724,0.0816852,0.330721,0.014016,0.567514,-0.0804823,-0.397405,0.175285,-0.281633,-0.155607,-0.270301,0.0585063,-0.261398,-0.0879999,0.369897,0.309597,0.113077,0.414506,0.136386,0.271804,-0.278254,0.246271,-0.239278,-0.136144,-0.0258538,0.159137,-0.112921,-0.206085,-0.24828,0.114331,0.31639,0.188311,0.129107,0.228103,-0.0663359,-0.0387915,-0.0388699,0.170145,-0.0251712,0.236576,-0.416778,0.225992,-0.152594,0.140878,-0.204619,0.0387643,-0.231486,0.0660223,0.0713961,-0.278,0.0295225,-0.305901,0.050704,-0.0946114,-0.0144988,0.374185,0.259474,-0.080031,-0.0394777,0.427266,0.395376,0.044921,-0.286119,-0.203215,-0.411198,-0.293394,-0.0144502,-0.0731949,-0.287248,-0.287089,0.246477,0.0331592,0.421377,0.296452,0.245614,0.225572,0.0486444,0.289359,0.125868,-0.560141,-0.479087,-0.541879,0.139237,0.368694,0.166866,-0.0719594,0.328285,0.127509,-0.143738,0.0258742,-0.291818,-0.494353,-0.806831,-0.566915,-0.502371,-0.471631,-0.337628,0.0492832,-0.248842,-0.021676,0.402774,0.158278,-0.0348764,0.366307,-0.0939573,0.0254206,-0.120711,-0.095898,-0.0676466,0.122569,0.096291,-0.143377,0.211814,0.288399,-0.197847,0.165167,-0.284339,-0.327138,-0.626766,-0.699563,-0.578145,-0.136807,-0.327612,-0.477951,-0.210787,0.0716039,-0.194679,0.352206,0.0244175,-0.0869717,0.169159,0.303982,-0.141105,-0.23609,-0.319821,-0.019333,-0.0956853,0.23678,-0.352823,0.243487,0.031019,0.0412633,0.0865719,0.058154,0.131427,-0.307748,-0.135084,-0.316986,0.0277553,-0.22419,0.0659481,-0.0392711,0.152782,0.117996,-0.0751527,0.292164,0.382101,0.433661,0.188991,0.184998,0.128094,-0.0198261,-0.394359,0.0566863,-0.085694,0.0707096,-0.277153,0.0539605,0.129609,-0.128757,-0.125281,-0.180254,-0.0768982,-0.416073,-0.260673,-0.013443,-0.0720223,0.141443,-0.0980125,0.416287,0.0474845,0.099714,0.147863,0.0565944,0.322834,-0.213282,0.0280092,-0.318211,-0.0611999,0.0467996,-0.0493947,-0.208527,-0.108699,-0.0225486,-0.0910304,0.0642272,-0.194617,0.196072,-0.187844,0.386396,-0.161471,-0.124414,-0.325661,-0.437144,-0.141701,-0.0653699,-0.144907,0.136499,-0.121881,0.517266,0.583744,0.193787,-0.0444652,0.251125,-0.279386,-0.162204,0.254501,0.101739,-0.0517257,-0.401383,-0.190979,-0.0549758,0.120505,0.131903,0.193142,-0.00679344,0.361195,0.126456,0.023264,-0.218528,0.203269,-0.298361,-0.334357,-0.271681,-0.135385,-0.242793,-0.0399621,0.502558,0.27193,-0.0939364,0.426385,-0.270939,-0.389018,-0.310749,-0.10523,-0.283067,-0.217489,-0.279912,0.362294,-0.183578,-0.240236,0.0689391,0.244563,0.0345225,-0.295561,-0.0279227,0.179902,0.171611,0.274909,0.107148,-0.490918,-0.470569,-0.175544,-0.139274,-0.201662,0.289134,0.24358,0.224653,0.349483,-0.0349824,0.197151,0.210445,-0.179807,-0.244134,0.0987897,0.382505,-0.235573,-0.150655,-0.0230535,0.20828,-0.290194,-0.210959,0.122214,-0.214271,-0.0155905,-0.289295,-0.235768,-0.0265742,-0.42466,-0.203288,0.186363,-0.23246,-0.263859,0.0499148,-0.0467894,-0.201974,-0.122891,0.253252,0.00494872,-0.04909,0.126882,0.000524124,0.189517,0.33522,0.228347,0.0906164,-0.22306,0.0378316,-0.264174,0.0990387,-0.119373,-0.127788,0.0306294,-0.243141,0.0520687,-0.189329,0.0681001,0.056725,-0.154344,0.150663,-0.156677,-0.389118,0.0142345,0.310868,0.0786144,0.352568,-0.116879,0.255135,0.473316,0.133451,-0.0442568,0.145149,-0.260829,-0.0106352,0.338447,0.37759,-0.252596,0.197458,0.00994029,-0.0750833,0.305077,-0.266608,-0.0869349,-0.0394816,-0.198168,-0.312058,0.0545962,-0.0331468,0.200306,-0.259545,-0.435703,-0.0687076,-0.281705,-0.16025,0.0804752,-0.14166,0.383666,0.426825,0.302612,0.0530247,-0.279967,0.02506,0.311828,0.35266,0.126341,-0.267251,0.23276,0.221758,-0.0944929,0.332076,0.309859,0.361872,-0.209148,0.0983548,0.0942751,-0.000483193,-0.119871,-0.00381705,0.0190512,-0.245797,0.021476,0.343584,-0.226882,0.456993,0.372157,0.375134,0.275042,0.259178,0.389907,0.372694,-0.228498,0.347597,0.25471,0.00205082,0.0798761,-0.0411878,-0.192317,-0.235235,-0.328616,0.346952,-0.249483,-0.146855,0.278633,0.246212,-0.134909,-0.301075,0.354586,-0.255742,-0.293941,-0.01231,0.236375,0.0360258,0.156795,-0.267526,-0.268238,0.176762,0.280292,-0.07116,0.288977,0.0713309,0.0373638,0.345631,-0.185516,0.338752,-0.123023,0.264483,-0.0158962,0.102904,0.231674,0.145795,-0.288776,0.303698,-0.116568,0.000863689,0.106901,-0.129658,-0.260268,-0.203096,-0.207266,0.406167,0.3236,-0.142349,-0.244089,0.161397,0.15736,0.026426,-0.184191,0.105512,0.0697714,0.00630206,0.37069,0.119803,0.203461,0.236402,-0.094352,0.0908661,-0.175896,0.158873,0.271196,-0.132279,0.329054,0.201175,0.13715,-0.238724,0.281038,0.137143,-0.0263335,0.0186818,-0.0775903,0.172613,0.306836,0.183337,0.365307,0.187823,-0.143303,0.265755
0.166396,0.00653705,-0.266524,-0.260543,-0.175796,0.322474,0.038496,-0.196539,-0.0167486,0.127999,-0.0333034,0.00622067,-0.251976,0.109784,0.307669,0.280196,-0.232878,0.133882,-0.122217,0.183166,0.396924,0.292309,0.167614,0.0932066,0.303909,-0.0667593,-0.0607776,0.354241,-0.184405,-0.0537065,0.357744,0.319205,0.378722,-0.0749626,0.291263,0.287304,0.234332,0.378271,0.260991,-0.119136,0.0719525,0.213625,0.296347,0.0711386,-0.141273,0.359624,0.317005,0.26176,-0.0640248,0.26003,0.280859,-0.209656,0.143495,0.196539,0.277483,0.13166,0.276501,0.375134,-0.135591,0.337171,-0.141444,-0.0593223,-0.2905,0.245369,-0.204087,0.14146,-0.13183,-0.252522,-0.270758,0.135709,-0.0609626,0.335846,-0.0615211,0.0762272,0.143942,-0.147878,0.218825,0.189963,-0.191867,0.0532365,0.288208,0.296817,0.269835,-0.113565,-0.0166631,0.0411664,-0.0941038,0.0955778,0.128385,0.104885,0.238882,-0.152432,0.131802,0.0269984,-0.15774,-0.119552,-0.299459,-0.298319,0.0365849,-0.0436844,0.118515,-0.0137807,0.0442878,-0.294049,0.00834107,0.175801,-0.10397,-0.0821592,0.0535432,0.068276,-0.278701,-0.17022,-0.226704,0.0707327,-0.15988,-0.0397351,0.221182,-0.206086,0.12442,-0.0795251,0.336673,-0.104287,0.154001,0.280405,0.0841052,-0.132548,0.0947955,-0.211499,0.213624,-0.06264,-0.147006,0.0588482,0.12991,0.146882,0.308164,0.00742966,0.173739,0.30242,0.231724,0.394317,-0.197031,0.180966,0.304754,-0.299136,0.337776,0.269512,0.135512,-0.198891,0.299443,-0.209397,-0.256384,0.0808738,0.336609,0.314445,0.0948298,-0.0681434,-0.0908496,0.255335,0.210496,0.260039,0.174643,0.06292,-0.275215,-0.0942413,0.1029,-0.0957784,0.3395,0.264431,-0.230506,0.379235,0.132035,0.310846,-0.197149,-0.128482,-0.206174,-0.298442,-0.0685211,0.0720396,0.219518,0.0634106,0.338015,0.578391,0.243411,0.452109,0.0934385,0.35478,0.00216682,-0.352005,-0.31215,0.0351319,0.16189,-0.264356,0.32775,-0.291005,0.0625041,-0.183123,-0.298398,0.252083,-0.197937,0.261176,-0.158305,-0.226497,0.333921,0.29377,0.0620974,0.0427557,-0.335666,-0.215805,0.270058,0.0900583,0.473539,0.112343,0.0912834,-0.151559,-0.185453,0.399356,-0.309995,-0.161115,-0.203472,0.121309,-0.047844,0.173748,0.0256192,-0.200726,0.336702,0.197292,-0.251009,-0.00719051,0.173155,-0.114427,-0.212451,0.24455,-0.0659449,-0.101884,-0.0941609,0.246056,0.402001,0.0185882,0.0872604,0.0262798,0.0479369,0.383155,-0.0461615,-0.0637692,-0.374716,-0.215181,-0.00189551,-0.214425,-0.183632,0.168977,0.318471,0.12476,0.349028,0.200484,0.388228,0.0140513,-0.234243,-0.260943,0.00727187,0.0258694,-0.176448,-0.304305,-0.0284711,0.128675,0.00931024,0.12289,0.466539,0.248278,0.242081,0.0862675,-0.108014,0.249973,-0.312205,-0.159547,-0.526369,-0.166136,-0.13013,-0.125332,0.365709,-0.188957,-0.055031,-0.18696,0.12798,0.386907,-0.293691,-0.189662,-0.282198,-0.18625,-0.0787397,-0.133557,0.0305797,0.203164,0.197466,-0.0347156,0.247885,0.185175,-0.313477,-0.11984,0.0860946,0.345476,-0.0825344,0.300645,-0.259207,-0.284042,-0.201743,0.0210103,0.0644647,0.141101,0.391028,-0.16743,-0.0116371,0.346273,-0.312328,-0.495262,-0.0393374,-0.0506863,0.413577,0.228758,-0.14063,-0.0243848,0.226051,-0.262617,-0.269775,-0.403781,0.148261,-0.321898,-0.39432,0.0934791,-0.159002,-0.210389,-0.309063,0.316923,0.0842591,-0.240488,-0.047385,0.179972,-0.110233,0.22747,-0.153078,-0.178884,-0.202404,0.121632,0.221232,0.212696,-0.14564,0.196786,0.0850657,-0.432235,0.00217892,-0.0865698,-0.643134,-0.366901,-0.404025,-0.152981,-0.284906,0.227512,-0.442782,0.109114,-0.0592382,0.0109079,-0.137683,0.0668006,0.0334945,0.00783219,-0.12993,-0.253928,0.285473,0.366647,-0.150359,-0.146714,-0.178628,-0.131806,0.196213,-0.0879694,0.12544,0.137378,-0.227935,-0.374043,-0.298408,-0.0690164,-0.145979,-0.719133,-0.127,0.00305072,0.126299,-0.362213,-0.396441,0.46566,0.1566,-0.0183382,-0.226079,0.119191,-0.293634,0.106533,-0.255552,0.224498,-0.39099,-0.0759946,-0.32129,-0.230961,-0.104898,-0.338658,-0.136736,-0.192205,-0.465998,-0.00675721,-0.402797,-0.42039,-0.486435,-0.271951,-0.399298,-0.444132,-0.0561407,0.0486784,0.24392,0.264445,0.420461,0.318396,-0.300812,-0.240606,0.233476,-0.0789035,0.169207,-0.261496,-0.463116,-0.241665,-0.00421705,0.252096,-0.325632,-0.319955,-0.383265,0.126461,-0.0490323,0.288351,0.00839525,-0.174903,-0.353171,-0.713017,-0.172279,-0.168032,0.163519,0.0821511,0.172954,-0.00726852,0.193505,0.0216706,0.183583,0.141236,0.371801,0.182069,0.0496036,-0.101064,0.156704,-0.384792,0.14594,0.240912,-0.223189,-0.362182,-0.358858,0.276097,-0.050708,-0.0979474,-0.015364,0.223839,-0.221589,-0.184907,0.0328765,-0.284444,0.0885919,0.474103,-0.0166198,0.431717,-0.209933,0.0437091,-0.219528,-0.175589,0.229139,0.118562,-0.131156,0.0660788,0.312199,0.0656599,0.0553628,-0.33685,0.0627316,-0.0193488,0.0160257,-0.0785057,-0.178628,0.310193,0.256727,-0.312282,-0.62576,-0.141646,0.323388,0.31444,0.00713931,0.133457,0.367596,0.32261,-0.0680692,0.227934,0.0224996,0.265102,-0.10564,0.37814,0.197147,-0.165969,0.111833,-0.283694,-0.224817,0.0803807,-0.396138,-0.597801,0.0580152,-0.239879,-0.198972,-0.165563,0.184907,-0.0255021,0.365739,-0.0732624,-0.151936,0.182468,0.123165,0.370688,-0.15751,-0.133373,0.210384,0.162004,0.127883,0.376199,0.288763,0.0351848,0.0548882,-0.235326,0.125957,0.38531,0.127599,-0.323023,-0.402838,0.0663329,-0.132424,-0.249042,-0.317614,-0.220503,0.400252,0.506307,0.181543,0.222378,0.215735,0.0987853,-0.0195247,0.496547,0.245213,0.237671,-0.0268176,0.202835,0.268996,0.032797,0.190558,0.180752,0.0406823,0.0504766,0.407227,0.34452,-0.245532,-0.362724,-0.0355766,0.0403752,0.0621754,0.0622281,-0.106778,0.140039,0.26507,0.519237,0.00082461,-0.0601722,-0.0765597,0.295155,-0.122832,0.135038,-0.0113334,0.226887,-0.13916,-0.123624,-0.123224,-0.0208066,-0.00153813,-0.107028,0.342638,-0.199641,0.077517,-0.133037,-0.065329,0.117038,-0.38524,0.0772754,-0.244993,-0.000718326,0.0128713,0.353428,0.337494,0.547344,0.50767,-0.0998576,0.109671,-0.106936,0.47419,0.110776,0.0287172,-0.113249,-0.201784,-0.239294,-0.223636,-0.248987,0.049498,0.146998,0.124261,-0.157011,0.235464,-0.107574,-0.250898,-0.373193,-0.0638193,0.227115,0.299619,0.114647,-0.0902493,0.265139,0.438824,0.27734,0.0818551,0.0890346,0.162377,0.118883,-0.241789,0.102866,-0.304952,-0.12482,-0.221856,-0.138162,0.152054,0.0429182,-0.142897,0.0628498,0.296359,0.139149,-0.0218118,-0.193407,-0.151752,0.367716,0.217338,0.135756,0.0855583,0.355029,0.297739,0.30806,0.45331,0.618776,0.295669,0.0485072,0.242256,-0.224839,-0.313632,-0.125668,0.200967,0.138035,-0.249893,-0.141094,0.357383,-0.0908353,0.0849178,0.346806,0.098833,-0.0288147,-0.243089,-0.196976,0.171924,0.198587,0.166752,-0.015182,0.00139827,0.382032,-0.0984327,0.287299,0.267932,0.459989,-0.000739571,-0.309559,0.230668,0.175371,-0.179473,0.331696,-0.0506114,-0.196231,-0.133335,-0.058344,0.251036,0.0372997,0.321918,-0.271822,0.00807518,-0.115253,0.0188707,-0.160433,0.112595,-0.130177,-0.27149,-0.266419,0.193265,0.091735,-0.206586,0.207157,0.0396733,0.0182201,0.179017,0.0287133,0.161078,-0.267177,-0.230498,0.0059397,-0.172017,0.272368,-0.101046,0.201047,0.0977569,-0.175796,0.0745781,-0.0543474,-0.0181372,0.227323,0.172252,-0.280533,-0.278865,-0.241692,-0.0904886,0.319683,0.109032,0.251975,-0.0613621,0.310069,0.36166,-0.186114,-0.306264,0.294594,0.136717,0.152469,-0.208737,-0.138925,0.143474,0.0802392,0.114869,-0.164046,-0.0315958,0.122346,0.2417,0.185153,-0.0346507,-0.102286,-0.0826106,0.150652,0.395725,0.107137,-0.0810897,0.246177,-0.168454,0.143132,0.339692,0.33292,0.328285,-0.208075,0.327049,-0.263934,0.0778777,0.0281972,0.246571,0.279983,0.0975219,0.215851,0.0251228,0.322944,-0.0525956,0.0859645
-0.112732,0.023542,0.0709463,0.279662,0.0919462,0.116108,0.381991,-0.0448622,-0.184725,0.169981,0.0292528,0.0466657,0.0639179,0.0871822,-0.00999787,0.119996,-0.10423,-0.022132,0.0332194,0.222538,0.0578936,0.183828,0.134416,-0.125849,-0.199402,0.0736594,-0.0213203,-0.00343946,0.277547,0.180453,0.335227,-0.0726127,0.290643,0.00399485,-0.0623371,0.216206,-0.109588,0.257364,0.0680574,-0.138755,0.395691,-0.272434,-0.111985,-0.00102544,0.187759,-0.12822,-0.127345,0.148686,0.222047,0.135612,0.230122,0.0825037,0.143281,-0.0197821,-0.0576373,-0.105213,-0.202777,-0.168426,0.291177,0.311258,-0.255779,-0.0534925,-0.0564798,0.375136,-0.0855213,0.0326729,-0.268597,0.375759,-0.0651062,-0.0908217,-0.180772,0.0793601,0.357966,0.0661818,-0.0339266,0.205942,-0.234812,-0.00259257,-0.12164,-0.0878445,0.34452,-0.297031,0.203397,0.2975,0.111087,0.0868831,0.346657,-0.154924,-0.249973,-0.208789,-0.197564,0.158741,0.280827,-0.0771544,0.24274,0.0220472,0.281423,-0.318577,-0.0617296,0.0352028,0.326047,0.233759,-0.199439,0.327597,-0.00674238,0.385998,-0.125092,-0.220876,0.19472,-0.0953643,-0.277825,-0.272228,0.186114,-0.213822,0.309378,-0.0264901,0.0206467,-0.180309,0.115985,0.14575,0.118217,0.35127,-0.215807,0.164951,-0.0440674,0.0176771,-0.12459,0.201863,-0.269475,0.260867,0.0444596,0.172259,0.307256,0.0729742,0.216238,0.292579,-0.121431,0.140157,0.368955,0.236381,-0.0598804,0.216129,-0.150653,-0.151999,-0.130465,0.211802,-0.111589,-0.0804568,-0.189439,0.300045,0.105549,0.287767,-0.0688185,-0.287288,0.315186,-0.166007,-0.272032,0.103825,0.254872,-0.0433756,0.0847055,0.0598469,0.0140561,0.174509,-0.0114314,0.266848,-0.169917,0.242235,-0.0675924,0.000662237,-0.26089,-0.135749,0.0970299,-0.0792064,0.0521262,-0.184723,-0.270422,0.149507,-0.00605287,-0.296226,-0.197669,-0.289363,-0.190298,-0.102697,0.0937329,-0.162746,-0.0974337,-0.200384,0.280137,-0.136832,-0.215816,0.243813,0.466966,0.0359881,-0.0465723,-0.129437,-0.0381542,0.26913,0.262107,-0.296341,-0.292712,-0.285038,0.190668,0.151585,0.300088,-0.240158,-0.00647823,0.277986,0.17904,-0.271845,0.0269153,0.12237,-0.325062,-0.048042,0.205788,0.0994899,-0.234612,0.451609,-0.119568,0.331269,0.0876483,-0.0594273,0.302482,0.216698,-0.211557,-0.0478293,-0.169111,-0.0577956,0.0958941,-0.192248,0.441365,0.38766,0.382333,0.264989,-0.124927,0.295581,-0.321571,-0.283066,0.37017,0.138167,-0.0270105,-0.341837,-0.20351,0.0484889,-0.230073,-0.124765,0.354588,0.0930284,-0.185957,0.343411,0.294582,0.0131658,-0.0564196,-0.0784564,0.00480988,-0.127231,0.311503,0.158348,-0.0078528,0.511986,0.393482,0.0694751,0.215854,-0.213193,0.175298,0.0889435,-0.0745787,-0.0267991,-0.111387,0.107897,0.147746,-0.196861,-0.00307782,-0.25805,0.0677643,-0.142065,-0.312566,-0.253011,0.00795646,-0.170646,0.244841,-0.00110865,0.356418,-0.169655,0.237293,0.0278964,-0.24007,0.151178,-0.254486,0.140599,0.0862186,0.0131396,-0.0700013,-0.252423,-0.170368,-0.0838347,0.176805,-0.282573,-0.189607,0.163367,-0.17808,-0.349682,-0.0944473,0.016221,-0.195972,0.0750158,-0.167067,-0.219353,0.280923,-0.138267,-0.163144,0.175565,-0.11931,0.110795,-0.189861,-0.103803,-0.421376,-0.159823,-0.230168,-0.138738,-0.263621,-0.0198271,0.100322,-0.561371,0.0106452,0.0494064,-0.140865,-0.305875,-0.214006,-0.0663974,-0.238645,0.137888,-0.0492243,-0.282195,0.389548,0.174808,0.182354,-0.195684,0.0839818,0.128555,0.247629,-0.432992,-0.197051,0.0453508,-0.209293,-0.375836,0.152315,0.219712,0.201451,-0.27773,-0.335565,-0.221928,-0.106135,-0.120276,0.0369481,-0.0208697,-0.371811,-0.2123,-0.0487473,-0.112654,-0.231783,0.310428,-0.0686965,0.177247,0.343516,-0.271929,-0.12075,-0.25643,-0.447042,-0.100487,-0.489879,-0.15374,-0.0564573,-0.170953,0.368543,0.171038,0.223153,0.00735572,0.283788,0.214703,0.260019,-0.247316,-0.156951,-0.200363,0.0282831,-0.24851,-0.101286,0.109715,0.175656,-0.0152768,-0.0127313,-0.286086,-0.188464,0.0368585,0.100071,0.0934111,0.175618,-0.435358,-0.635968,-0.496099,-0.137816,-0.0928523,0.287776,0.413019,-0.0453083,0.0831544,0.303864,-0.00200843,0.0884586,-0.165024,0.067251,0.286261,-0.0010514,-0.0583622,0.148896,0.0747005,0.299616,-0.0630158,0.253631,-0.282826,-0.291839,0.0353832,0.113851,-0.0208582,0.0224078,0.0633935,-0.0668484,-0.358519,-0.281746,0.0357017,0.222976,-0.0577167,-0.183344,-0.254751,0.0374159,0.220065,0.0904743,-0.12346,-0.268548,-0.0812936,0.00104184,0.0289586,0.204944,-0.202633,-0.167891,0.139112,-0.0940494,0.278324,0.199487,0.28195,0.315593,0.0097485,-0.151404,-0.338387,-0.258933,-0.210021,-0.17576,0.345052,0.297188,0.0982401,0.0427629,0.264098,-0.329743,0.190429,0.0410833,-0.0890918,-0.0939168,0.135894,-0.0754334,-0.306145,0.287336,0.0598754,0.117374,-0.209927,-0.26173,0.277929,0.179684,0.299488,-0.135393,0.0232109,-0.0528192,-0.409202,0.226837,-0.134788,0.155558,0.161763,0.392782,0.00553026,-0.0839257,-0.0154117,-0.170208,-0.220809,-0.356578,-0.335432,-0.127182,0.0662799,-0.117156,0.0783562,0.199368,-0.0822427,-0.289414,-0.0155645,-0.290182,0.170399,0.0843837,0.198678,0.117693,0.246978,0.19002,-0.297161,-0.293786,0.199465,0.075825,0.286301,0.246515,0.0332132,0.0577609,-0.397146,-0.21925,0.281977,0.24469,0.159332,0.180835,0.0881268,-0.254707,-0.0246835,0.191412,-0.358754,-0.302596,-0.244573,0.0649769,0.123688,0.198932,-0.284896,-0.249502,0.244634,-0.350792,0.100479,-0.230572,0.128798,-0.0941569,0.407346,-0.146733,0.0701221,-0.328736,-0.263647,-0.110114,-0.133143,-0.282448,-0.449022,-0.474396,-0.020288,-0.0702148,-0.29605,-0.382059,-0.00416884,0.121039,-0.126612,0.238,0.357712,-0.222517,-0.285345,-0.0687622,0.229498,-0.0152774,-0.282042,0.22272,0.000274271,0.220772,0.26636,0.180763,-0.190841,-0.291822,0.140699,-0.0269226,-0.127935,0.0930767,-0.0774045,-0.313922,-0.415551,0.055193,-0.420848,-0.192824,0.0153753,-0.177874,-0.257123,-0.153914,-0.106652,-0.161419,0.369387,-0.0907273,0.000847826,0.345262,-0.220255,0.196302,0.221084,0.392039,0.0429235,0.255042,-0.07307,-0.0612572,0.140026,-0.265457,-0.192784,0.0866155,-0.2824,-0.263397,-0.368433,0.0197867,0.116298,-0.340682,0.264466,-0.24253,-0.282361,0.107074,-0.129964,0.252531,0.35768,0.0316824,-0.058517,0.0114861,-0.254791,0.0791318,0.169419,0.322486,0.0678641,0.182259,0.213911,-0.346623,-0.0176245,0.144196,0.320891,-0.117374,0.136929,0.140401,0.291387,0.191677,0.266943,-0.273727,-0.0848125,0.236169,0.349003,-0.00998466,0.0270241,0.286435,0.391647,0.172229,0.352056,0.0598057,-0.0905172,0.00969962,0.096594,0.255253,0.478107,-0.0252762,-0.261016,-0.0272204,-0.159518,0.0857166,-0.0148856,0.27432,0.0501305,-0.0273778,-0.286696,0.147497,0.233445,-0.125104,-0.148032,-0.180609,-0.239608,0.276818,0.0336466,0.222645,0.024482,0.120466,-0.146399,-0.237637,-0.0494968,-0.0177047,0.11124,0.461993,0.410161,0.406719,0.0561324,0.257442,0.107167,0.349419,0.205713,0.19324,-0.383823,0.208757,0.273286,0.17716,0.0123005,0.333385,0.19708,-0.123209,-0.133014,-0.244819,-0.0727623,-0.0841273,0.141572,-0.278018,0.161312,0.392878,0.23268,0.0482652,0.332527,0.420252,-0.0346011,0.0425465,0.272972,0.247152,0.0353173,0.124311,0.320536,0.27218,0.220518,0.198619,-0.0443979,-0.27184,-0.162534,0.310087,0.0258618,0.011447,0.087524,0.231446,0.0492416,0.304913,0.087759,-0.291348,0.330528,-0.0167903,-0.287618,0.0183138,-0.269276,0.0233513,0.0497493,-0.00564642,0.104332,-0.172257,0.0753641,0.159804,-0.0353067,-0.213036,-0.104655,0.207416,0.236265,-0.0107799,0.285562,0.304422,0.0147831,0.267635,0.0827387,0.290173,-0.261419,0.244349,-0.265413,0.309656,-0.207648,0.23448,-0.0543474,0.0294216,-0.275926,0.0467447,-0.00315114,0.243879,0.110233,-0.210575,-0.0453536,-0.12273,0.226712,-0.0192136,0.14596,-0.286839,-0.246076,-0.0464004,0.0133091,0.336637,-0.125849,0.344478,0.218928,0.0872249,0.0135227
0.272207,0.34012,-0.0155523,0.317496,-0.160414,0.201559,-0.194702,-0.148302,0.00969878,-0.0163734,-0.0504086,-0.156208,-0.0315958,0.172613,0.276992,-0.0900662,0.132002,-0.0246529,0.0498611,0.0633839,-0.290963,0.170818,-0.0330912,-0.0483444,-0.223478,-0.0802606,-0.0787225,-0.280709,0.0788507,-0.195322,-0.232023,0.243174,-0.190365,-0.0778466,0.23495,0.136854,0.384751,0.389868,0.049518,-0.140299,0.158319,0.151749,-0.198718,-0.0888058,0.166076,-0.121427,-0.033134,-0.297244,0.10831,0.15548,-0.238133,-0.169024,-0.187524,-0.00972015,0.173873,0.17054,-0.107221,-0.0242683,0.168746,-0.158513,-0.114164,-0.0385607,0.26879,0.209464,-0.170367,0.351709,0.14978,-0.0595489,-0.186369,0.386164,0.33817,0.115752,0.0386384,-0.200364,0.251558,0.126777,0.184025,-0.104545,-0.109141,0.0138645,-0.282141,-0.0284128,0.0587267,0.0657979,0.249284,-0.0951933,0.310382,-0.0431318,-0.264649,-0.0542675,-0.142894,-0.110577,0.320991,0.0235828,-0.237428,0.0737598,0.092231,-0.251863,-0.106153,0.060127,0.11145,0.0365506,-0.0489499,0.146275,-0.100838,-0.167595,0.299385,0.293979,0.166811,0.128391,-0.0292032,-0.0972228,-0.14294,-0.290408,0.257659,0.191006,0.13136,-0.0174397,0.379009,0.218445,0.394114,-0.227687,0.271738,-0.196259,0.3213,0.247613,-0.194503,-0.155073,-0.185538,-0.110085,0.09606,-0.259029,0.338326,0.283059,0.245109,0.0591944,0.142627,-0.179167,-0.0241883,-0.227558,0.0290109,0.144819,0.117036,-0.238829,0.214237,-0.229371,0.0718865,-0.052916,-0.182389,0.0480741,0.38689,0.283628,0.123487,-0.145095,-0.00571933,-0.327963,0.0507317,0.305563,0.138427,0.347448,-0.100049,-0.213026,0.159786,-0.179583,-0.008693,-0.218445,-0.0691524,-0.0403333,-0.00777614,0.134053,0.352609,0.315165,0.27978,0.064936,0.275176,-0.0849206,-0.0235394,-0.0442946,0.17612,-0.160018,0.00495749,0.130077,0.214354,0.183683,-0.246787,0.00331328,0.0522909,0.318607,-0.203135,0.131007,0.29376,0.0096792,-0.131076,-0.000175014,0.0768278,0.128968,-0.0567614,-0.233198,-0.292039,-0.155739,0.291272,-0.0814394,0.0706372,-0.292088,-0.1575,0.366535,-0.321566,-0.213585,-0.250474,-0.08064,-0.450255,-0.322142,-0.326674,0.0657566,-0.363825,0.164159,-0.264595,0.257101,-0.233291,0.120655,0.0117223,0.103605,-0.105788,0.223521,0.36411,-0.186905,0.0763529,0.0247199,0.192273,-0.181137,0.275338,-0.40187,-0.0259723,0.403501,-0.372207,-0.426076,-0.603316,-0.32166,-0.245784,-0.121008,-0.502173,-0.47345,0.0361637,0.0686976,0.136083,0.134239,-0.00741968,-0.0236545,0.19217,0.170722,0.355674,0.25501,-0.235441,0.358266,0.00770156,0.0165432,0.0426504,0.0398125,0.00338023,-0.269795,-0.214453,-0.131293,-0.326377,-0.181495,-0.0499079,0.0481685,-0.0979356,-0.013987,-0.459185,0.142964,-0.0635502,0.329926,-0.244345,0.179989,-0.166571,0.292556,0.14483,-0.208869,0.388696,0.0131748,0.366631,0.113236,0.192715,-0.0304671,0.208552,0.106647,0.18357,-0.202983,0.341263,-0.0519385,-0.518311,-0.0388416,-0.43233,-0.35001,-0.27443,-0.077939,0.116551,0.106814,-0.0138004,0.339076,0.1479,-0.141702,0.195095,0.0880733,-0.0577795,0.404385,0.336258,0.0727555,0.0962401,-0.298713,-0.192052,0.288913,-0.111007,-0.0315094,-0.147041,0.204688,-0.177111,-0.160649,-0.532682,-0.173461,-0.524793,0.0116862,-0.35466,-0.0805416,-0.344481,-0.25205,0.198285,0.240524,-0.0236236,-0.0423753,-0.0930551,-0.242893,0.0462754,0.20444,-0.214291,0.225072,-0.00121769,-0.0257224,0.0585659,0.244043,0.252281,-0.191087,-0.242816,0.348213,-0.000888263,-0.287494,-0.460418,-0.241701,0.00530786,-0.292135,0.218483,-0.281707,0.33532,0.207367,-0.385964,-0.288518,-0.140663,0.00900809,-0.0297116,0.152468,-0.0900039,-0.161704,-0.219242,0.21561,-0.157125,0.0628943,0.213914,-0.106329,0.183359,0.209063,-0.0785536,0.182557,0.138863,0.141872,0.191251,-0.106706,-0.378268,0.259917,0.122135,-0.118671,0.0700707,-0.294687,0.0467489,-0.246701,0.104301,0.162185,-0.316922,0.120922,-0.277963,0.0263483,0.0582718,0.311046,-0.170882,0.214317,0.154398,0.293424,-0.151237,-0.0932533,0.172221,0.121817,0.0703278,-0.117883,-0.239154,0.00573861,0.246075,0.375543,-0.170536,0.261541,0.0789875,0.0648736,0.126728,0.108,-0.0973032,-0.0722059,-0.378506,0.0667526,-0.200813,0.156543,0.245287,0.277568,0.0686392,0.11785,0.374522,0.103671,0.256745,0.199081,0.209132,0.352611,0.0994016,-0.0421106,-0.093384,0.29915,0.154733,0.0718248,-0.320457,-0.388067,-0.272641,-0.209131,0.228726,0.311614,-0.117197,0.209189,0.249927,-0.0638428,-0.36495,0.0690148,-0.224104,-0.101717,0.347639,-0.125346,-0.275409,-0.0129073,0.346395,0.233706,-0.221226,0.28951,-0.0164721,0.0238814,0.0447323,0.0924003,0.267201,0.101887,0.0519274,-0.116038,-0.431008,0.0410526,-0.0907071,-0.134732,-0.0863694,0.375113,0.213393,0.177129,-0.340772,-0.117546,0.349498,0.299189,0.242982,-0.0871853,-0.197185,0.254019,0.0540194,0.0369413,0.079993,0.193706,-0.0270013,0.300151,0.343219,-0.0674362,0.26657,-0.0203124,-0.498243,-0.251603,0.224337,-0.419254,-0.297201,-0.0916397,0.175126,0.270112,0.0383018,-0.0852362,-0.186328,-0.145741,0.192358,0.131781,0.00521255,0.00135053,0.11285,0.0724484,-0.125875,-0.294672,-0.283923,-0.23178,-0.0800685,0.28636,0.208257,0.145158,-0.385241,0.0696516,-0.394866,0.284008,-0.103785,0.127678,-0.395805,0.361385,-0.202854,0.211392,0.25945,-0.032623,-0.151008,-0.124184,0.296987,-0.12626,0.173766,-0.0330485,-0.0194542,-0.264015,0.146341,-0.268303,0.174623,0.143093,-0.103615,-0.316568,0.167239,-0.0714144,-0.355121,0.00642224,-0.399267,-0.110946,0.0574809,0.126844,-0.112364,0.0884131,-0.143965,-0.0311612,-0.0516432,-0.325119,-0.143929,0.178232,-0.234997,-0.121055,0.340696,0.164666,-0.110028,-0.194901,0.0672171,0.288897,-0.199114,0.27715,-0.215171,-0.0575304,0.0443246,0.238581,-0.0113946,-0.246752,0.270103,-0.184689,-0.0918422,0.219304,0.196572,0.0442843,0.205569,-0.119713,-0.233302,-0.254836,0.0346301,0.237298,0.204309,-0.15854,-0.0719077,0.10893,-0.0939513,-0.281548,-0.0535349,0.297649,0.0986148,-0.134971,-0.22536,0.108586,0.135135,-0.25477,0.280876,0.144084,-0.286839,-0.160542,0.309844,0.168601,0.026642,0.0753773,0.124007,-0.247442,0.139635,0.145083,0.0393097,0.125125,0.324488,0.0518699,-0.00482804,0.314612,0.35826,0.212364,-0.307086,0.13882,0.139922,-0.404188,-0.192808,0.165028,0.0341015,0.02901,0.276981,-0.222362,-0.176087,-0.143744,-0.0728685,0.323826,-0.172873,-0.235754,0.213066,0.294932,-0.191144,0.188663,-0.232138,-0.0500948,-0.28822,0.152211,-0.159645,0.153108,-0.21743,-0.0603641,-0.301497,0.0679047,0.0406054,-0.25915,0.0911477,-0.337932,0.303201,-0.188492,0.203505,-0.120425,-0.361241,0.103846,0.0999133,0.296305,0.0636993,-0.189513,-0.222784,0.255865,0.344342,-0.156746,0.145282,0.0107338,-0.226761,-0.0248665,0.0140995,0.276437,0.162911,0.398855,0.199023,-0.316409,-0.0956649,-0.142897,0.116362,0.304443,0.275124,0.185648,0.12634,-0.214274,-0.179947,0.0933099,-0.116518,0.42317,0.158189,-0.129583,-0.247808,0.025375,0.357046,-0.0919257,0.109739,0.312611,0.0870754,0.31756,-0.0918821,0.312006,-0.240953,0.335591,0.221591,0.256887,0.353251,0.374084,0.170816,0.305081,-0.123421,0.312995,-0.235203,-0.217962,-0.130238,0.11959,0.306404,0.00824377,-0.213748,-0.257786,-0.165532,0.334535,0.0647785,-0.144306,0.315609,0.0792993,-0.236146,-0.215745,0.136616,0.3815,0.363213,0.152766,-0.220867,-0.131578,-0.212773,0.139614,-0.147894,0.210749,0.231068,-0.169693,0.135048,-0.169636,-0.0660065,0.0554011,-0.133492,0.0995004,0.365493,0.198564,-0.280396,0.0926128,-0.291602,-0.0845119,0.0861354,0.189703,-0.0907071,0.279128,-0.0248879,-0.0531724,0.173894,-0.247896,-0.0686606,-0.274151,0.074029,0.0992578,-0.129913,-0.095925,-0.138115,0.262273,0.0204871,-0.125742,0.057445,0.134578,0.200395,0.00259,-0.109276,0.0781545,-0.0894467,0.205768,0.121577,-0.124653,0.243837,-0.101431,0.0547532,-0.228071
0.0725486,-0.263448,-0.170092,0.294552,0.214185,0.222175,-0.0747704,0.00209355,-0.238517,-0.18159,-0.123384,-0.239343,0.144349,0.00185856,0.00792563,0.0913053,-0.126234,-0.233433,-0.196261,0.187033,0.378445,0.25345,0.211451,-0.153792,0.292117,-0.0754754,0.00465712,0.318885,0.00215763,0.255437,-0.206366,-0.286926,0.117945,0.267293,0.316727,-0.0419554,0.267898,-0.132126,0.195586,-0.0303765,0.0894672,0.140577,0.100171,-0.274899,-0.28637,0.204529,0.272954,0.363362,0.198654,-0.157659,-0.195065,-0.141124,-0.146208,-0.19686,-0.0102329,0.164943,0.166909,-0.169451,-0.175027,0.1536,-0.221876,0.385623,0.0320195,0.0818492,0.0478373,0.394043,0.141236,0.332219,-0.0782049,-0.285391,0.0882092,-0.291145,0.157684,0.261257,0.0216253,0.159111,0.326448,0.302854,0.0221151,0.345759,-0.131959,0.157787,0.0673574,0.00621662,-0.274877,0.397479,-0.263662,0.372506,0.292196,-0.0811342,-0.227834,0.389073,0.230521,0.0187492,-0.168305,-0.204066,-0.108817,0.197176,-0.169765,-0.0399071,0.198652,0.343536,0.123621,-0.0279933,0.190141,-0.0551182,0.0734288,0.137898,0.114025,-0.108631,0.0584917,-0.0597522,0.0517624,0.17853,0.269216,0.369451,0.246365,0.0453622,-0.00126207,-0.185506,0.304107,0.340342,0.404443,0.220732,0.343939,-0.153721,0.244772,-0.293521,-0.168806,-0.0811753,0.350411,-0.191921,-0.0644027,0.0250323,0.151293,0.0060983,-0.19928,0.342804,0.263362,0.382739,-0.19906,0.357573,-0.216896,0.380661,0.0100231,0.180038,-0.182333,0.354029,0.137811,0.0144527,-0.163202,0.237774,-0.379149,-0.382409,-0.291544,-0.213363,-0.212265,-0.100566,-0.235346,0.0547324,0.367977,-0.10572,0.0917699,0.361432,-0.239291,0.187998,0.0451141,0.278423,0.185751,0.00337532,0.296924,-0.186095,-0.0137996,0.128157,0.0936801,0.0226379,-0.131757,-0.224641,0.277331,-0.157526,-0.293616,-0.303757,-0.20229,-0.439561,-0.0472467,0.00858289,0.0594303,-0.249241,0.266275,-0.180477,0.211614,0.144661,-0.0976768,-0.106574,0.122696,0.284512,0.240483,0.0455031,0.380322,0.00165123,0.0876521,0.415587,0.293295,-0.302572,-0.353574,0.0140508,0.0978593,-0.25836,-0.158967,0.0871095,-0.144594,0.0324,0.0770234,-0.192645,0.151141,-0.123657,0.2319,0.190877,0.0648713,0.00526473,0.307114,-0.172662,0.0638922,0.0546835,-0.0189703,0.355337,0.30824,0.0598845,-0.150277,0.0249562,0.354703,0.161198,0.292019,0.0254728,-0.282136,-0.59651,-0.262382,0.00260193,-0.15209,-0.211012,-0.521666,-0.0306322,-0.179215,0.232067,0.0630627,-0.178165,0.0758711,0.149997,0.393174,0.264525,0.327045,0.101833,0.329438,0.234579,-0.183578,-0.271864,0.314325,-0.000985959,0.181712,0.0995453,0.00843892,-0.130247,-0.373608,-0.214365,-0.110006,0.14177,0.190989,0.0529044,-0.00572908,0.0788452,-0.167208,0.16381,-0.241282,0.187142,-0.182128,0.328958,0.391071,0.0734989,0.300569,0.166913,0.217667,0.367405,-0.129617,0.118521,0.283511,0.081283,-0.0763857,-0.268234,-0.198954,0.0500692,-0.393158,-0.590584,0.118912,-0.146022,-0.0850271,-0.403934,-0.260022,0.245535,-0.0668888,-0.210441,0.0296013,0.0267802,0.112559,0.331994,0.190754,0.317546,0.347015,0.367624,0.0365734,-0.264283,-0.0801184,0.109117,0.130133,0.187282,0.0235484,0.204376,0.239728,-0.204488,-0.358695,-0.335775,-0.160406,0.30883,-0.215967,-0.2404,-0.130452,-0.192373,-0.311826,0.219508,0.270606,0.392485,-0.131482,0.427805,-0.177131,0.317363,0.050755,-0.101392,-0.054326,0.250999,-0.00723256,0.0706235,0.143933,0.209131,0.0700407,-0.111127,-0.00572797,0.134868,-0.330949,-0.00220094,0.275345,0.120275,0.123204,0.0327812,0.330948,-0.126407,-0.00731654,-0.219713,0.237786,0.529072,0.256045,0.413911,-0.0100479,-0.191657,-0.25295,0.13657,0.109271,0.0113158,-0.137913,0.508993,0.0774615,0.300673,-0.322775,0.253143,-0.0373612,-0.238355,0.239365,-0.345698,-0.348634,0.187292,0.141922,0.170263,0.0664715,0.0187395,-0.0317916,-0.318107,0.0453724,0.162691,0.0238488,-0.309307,-0.0922405,0.134326,-0.155072,0.0437754,-0.225571,-0.173072,0.397391,0.484944,0.0553427,-0.163467,0.174814,0.190174,0.308699,-0.120863,0.0455544,-0.220953,0.0548857,-0.190232,-0.113736,-0.180166,-0.146084,-0.247373,-0.0599912,0.182415,0.438775,0.380781,-0.0271742,0.0256837,-0.245716,0.0945912,0.176021,-0.14332,0.156847,-0.273129,-0.0359204,0.314983,-0.090273,0.142357,-0.151414,0.0662052,-0.0291735,0.372015,0.128609,-0.494091,-0.383222,-0.133448,-0.164003,-0.0405069,-0.119413,-0.169488,-0.0198071,0.131262,0.288117,0.283869,-0.368673,-0.203991,-0.0710109,-0.181529,-0.0627504,0.100774,0.349626,0.294545,0.0351473,0.0410614,0.097185,0.293641,0.171889,0.0200339,-0.0423641,-0.0667972,-0.30398,-0.231449,-0.385986,-0.441138,0.0848228,-0.418528,-0.315896,-0.310445,0.0743254,0.372969,0.701761,0.370868,-0.00722248,-0.0979215,-0.276356,0.0380565,-0.111922,0.0272061,0.321213,0.236586,-0.0938655,-0.213412,0.293419,0.14324,0.146515,-0.0872523,0.289389,-0.157285,-0.254895,-0.521154,0.184912,-0.34683,0.0894566,-0.496105,-0.0613977,-0.0599359,-0.0293868,-0.0336985,0.0774016,0.294884,0.0418107,0.189837,-0.0179653,0.0417501,-0.30079,0.211206,0.217689,0.138509,0.0395194,-0.177271,-0.218448,-0.0609412,-0.0357334,-0.156023,-0.0044912,-0.08925,-0.154856,-0.377525,-0.205422,-0.26413,-0.288494,0.0664759,0.262669,0.219471,0.139309,0.150623,0.364622,0.140038,0.0289373,0.228879,-0.307909,0.223619,-0.0434709,-0.0155466,0.235121,0.309677,-0.0599487,-0.231412,0.0427264,-0.0575692,-0.0547602,-0.10859,0.181323,-0.0408709,0.0303484,-0.188777,-0.456029,-0.563249,-0.309979,-0.125483,-0.146801,0.0294841,-0.462959,-0.20581,0.160591,0.169538,-0.243649,-0.155505,0.173845,0.340836,-0.106428,-0.0846202,0.0778039,-0.127836,0.189545,0.246902,-0.257322,-0.259318,-0.114634,0.12575,-0.150682,0.262789,-0.219071,-0.0833652,-0.0448454,-0.0209599,-0.370754,-0.193565,0.164266,-0.0808876,-0.069329,0.126036,-0.0022587,0.313569,-0.178119,0.0133935,-0.162398,0.223479,-0.10921,0.209501,0.167785,0.393612,-0.169282,0.26302,0.144999,0.0691306,0.155393,-0.0545109,-0.151938,-0.208135,-0.116107,0.055402,-0.00165438,-0.468086,0.0941061,0.14203,-0.106774,0.0333147,-0.0283255,-0.0355412,0.478623,0.0216355,-0.249827,0.0242393,0.219636,0.0278511,0.131865,0.255907,0.12132,0.220679,-0.0110944,-0.117379,-0.0608185,0.00722332,0.213313,0.0735457,-0.206164,0.0325036,0.148789,-0.126419,0.354422,0.128251,-0.161032,0.169745,0.0891843,-0.142031,-0.0119006,0.0505036,0.245375,0.39833,0.300112,0.101309,0.167905,-0.0455778,-0.271658,-0.00401625,0.15815,0.314057,0.271673,0.118374,0.215247,0.141823,-0.35935,-0.169319,-0.209197,0.334706,0.283375,0.0216751,-0.0633169,-0.308453,0.266189,0.27484,0.391495,-0.178373,0.411553,0.1836,-0.0896927,-0.217088,0.140891,-0.273096,0.228997,0.212299,-0.135884,-0.058855,0.258727,0.0387951,0.114458,-0.0524904,0.106673,0.133542,-0.367928,-0.235073,0.29163,0.330868,-0.168312,-0.294972,0.306802,0.172946,0.343055,-0.314245,-0.136561,-0.217445,0.190875,0.198835,0.397565,-0.118482,-0.0915279,0.200577,0.135812,-0.299812,-0.120743,-0.180132,-0.0644093,0.21301,0.0455458,0.388165,0.292095,0.322658,0.128695,-0.298662,0.266463,-0.238736,0.110391,0.32401,0.18228,-0.230642,0.0678295,0.0885096,-0.0909651,-0.0216621,0.31317,0.111367,-0.261387,0.301991,0.0681135,0.356998,-0.0702321,0.30235,0.263961,0.381799,-0.265926,0.268169,0.318308,-0.214975,0.366068,0.173186,0.351711,-0.236815,-0.013344,0.290036,0.0798671,0.00584219,-0.00545104,-0.198461,0.286976,0.212831,0.356428,0.270669,-0.145955,0.284653,-0.0478102,0.105013,-0.0735513,-0.27131,-0.24687,0.242833,0.164708,-0.0634907,0.328135,-0.175967,0.298526,0.11504,0.115702,0.302542,-0.29288,0.353546,0.304707,0.320074,0.281405,-0.224162,0.0248237,0.250182,-0.109677,-0.228792,-0.0824041,-0.0332114,-0.157342,0.262857,0.253087,0.384832,0.366781,0.385601,0.296731,0.0258492,-0.195001,-0.0444136
0.326981,-0.0686819,0.248985,-0.204743,0.034373,-0.193762,0.303717,0.0799402,0.0717582,0.105627,0.113758,0.396836,-0.135035,-0.0604786,0.0361247,-0.0362316,-0.156035,-0.0825678,-0.105875,0.304999,-0.19671,-0.195599,-0.203119,-0.269579,0.151335,0.110468,0.35847,0.115702,-0.141957,0.285324,-0.198889,-0.0704123,-0.0399274,-0.159795,-0.222602,0.30565,0.132758,-0.0332806,-0.107989,0.202427,-0.0128613,0.0886841,-0.221812,-0.230442,0.315873,0.177804,-0.146892,-0.196838,-0.203226,-0.180517,0.0862636,0.39451,-0.0459517,-0.0574023,-0.234544,-0.0888272,-0.158022,0.263384,0.354817,0.172271,0.218799,-0.189705,-0.191534,0.139243,0.149134,-0.151368,-0.0236253,0.0429926,0.149212,-0.211103,0.107488,0.349265,-0.251856,0.0672632,0.105489,0.00996165,0.0116488,-0.174738,-0.0185931,0.103589,-0.270434,-0.107733,0.134031,-0.186114,-0.174834,0.0898739,0.0964537,-0.0643025,0.00802698,0.368994,-0.150693,0.123268,-0.0031018,0.0605904,-0.269659,0.32185,-0.220131,-0.0454062,0.374318,-0.00168371,0.184899,-0.0858378,-0.0937152,0.329342,0.149782,-0.0272953,0.0803416,0.146943,-0.00426372,0.299167,0.015424,0.208972,0.385644,0.181072,0.0765221,0.0207434,0.109173,-0.309543,-0.263446,0.255926,0.105967,0.0143263,0.0788469,-0.123973,-0.191764,0.265778,0.244734,0.139221,0.11942,0.267326,0.114556,0.00566766,0.155046,0.0208697,0.349564,-0.144114,0.0398357,-0.149064,-0.204943,0.183914,0.377612,-0.126405,0.23666,0.0974854,-0.0954999,0.116515,0.284055,-0.0539469,-0.0397441,0.145805,-0.146393,-0.129543,-0.203615,-0.267723,-0.0101794,0.227527,0.0158902,-0.0489875,-0.117912,-0.13937,0.315855,0.204829,0.084123,0.128778,-0.238404,0.268307,-0.209978,-0.000192285,-0.0691519,-0.110532,0.326856,-0.284349,-0.235018,0.117654,0.223644,0.317083,0.0904405,0.0722363,0.269415,0.205323,-0.27214,0.295256,0.0466486,-0.111249,-0.18129,0.125411,0.151607,0.275632,0.210189,-0.214312,-0.0970511,-0.340165,-0.118766,0.234368,0.39186,0.222324,0.169836,-0.0594531,0.00427065,0.373051,-0.225208,0.259242,0.338851,-0.068083,0.0532584,0.377287,-0.2544,0.137644,0.228026,0.171147,0.308412,-0.294846,-0.188738,-0.155581,0.161212,-0.267479,0.0524315,0.185684,-0.0966942,-0.157804,-0.201534,-0.127577,-0.0532945,-0.0591116,0.0688955,0.0371109,-0.224548,0.214561,0.0577494,0.0201234,-0.0245843,-0.354462,-0.371032,-0.0222545,-0.277903,-0.248709,0.26846,0.120706,-0.337068,-0.0322686,-0.25915,-0.164513,-0.0458166,0.12933,0.104588,-0.216162,-0.226382,-0.329973,0.0413142,0.29847,-0.271435,0.354134,0.308524,0.338738,-0.23855,-0.135215,-0.095136,0.0178758,0.146092,0.143738,0.0123616,-0.0155545,-0.332634,-0.29467,0.0132115,0.108059,-0.163627,0.197944,0.0378218,-0.0796557,-0.0156251,0.297166,-0.330159,0.0657938,-0.389174,-0.328268,-0.0042518,-0.0144769,-0.27054,0.0493448,-0.151186,-0.155525,0.243414,-0.0848833,-0.0560316,-0.374083,-0.0805067,0.0809346,0.0877602,0.358267,0.0902455,-0.297718,0.124653,-0.441496,0.0420772,-0.26016,0.133466,0.283964,0.144905,0.165133,0.186614,0.0403319,0.0167857,-0.105289,-0.262812,0.321913,0.363382,0.154657,-0.0143986,-0.103635,0.215322,-0.0668892,-0.173374,-0.362424,-0.0207741,0.124625,-0.231291,0.0628199,-0.404344,0.155759,-0.415393,-0.0104112,0.123362,0.271863,0.103879,0.425507,-0.0915587,0.126715,0.0984607,-0.153505,-0.283972,0.176533,-0.484358,0.253259,-0.0897134,0.0927931,0.204465,0.0240033,-0.28097,-0.0982981,0.204741,-0.106644,0.323961,0.136371,0.176303,-0.368503,-0.324986,0.220817,-0.0844985,-0.0049103,-0.0806449,-0.0465982,-0.0657391,-0.0442888,0.193748,0.0696753,0.0250487,-0.297808,-0.196274,0.0473981,-0.297154,0.0840794,0.18348,0.0106666,-0.100897,0.0877474,-0.200783,0.10124,0.299437,-0.0231195,0.0213723,-0.0570488,0.32173,-0.148456,0.0254091,-0.20664,-0.0746935,0.213781,-0.103271,0.351395,0.341687,0.203626,-0.115568,-0.225539,-0.34442,0.230165,-0.285509,-0.526584,-0.051167,-0.0487516,0.362962,-0.27961,0.0688528,0.3448,0.0764026,0.169705,0.351869,-0.0781277,0.169599,0.108564,-0.0972486,-0.0946825,-0.194424,0.0138883,0.34172,-0.17741,0.171657,-0.0738322,0.482104,0.0940397,0.370854,0.334044,0.03135,0.318911,-0.189865,0.0236469,0.0452973,0.238223,-0.194082,-0.285693,0.161354,-0.0189486,0.247311,0.434534,-0.0602014,0.0731377,-0.127527,0.258153,-0.0179756,-0.169538,0.308114,0.158675,0.273763,0.220953,0.170259,0.276675,-0.0955886,0.263381,-0.0148845,0.318099,0.00380571,0.186145,0.184562,-0.438706,-0.145276,0.339803,-0.109671,-0.277294,0.276159,-0.136269,0.142009,-0.0646284,0.0835667,-0.307723,-0.0278983,-0.367789,0.14775,0.110089,-0.231131,0.0918245,-0.0141644,0.299868,0.0181453,-0.341873,0.0244348,-0.0197394,-0.0089788,-0.276894,0.364901,0.11638,-0.100861,-0.146303,-0.0414059,-0.13613,-0.173513,0.313822,0.39451,0.214434,0.364961,-0.154558,-0.194124,0.242174,-0.28664,-0.543196,0.0472471,-0.0428041,0.139761,0.0381549,0.246839,0.124666,-0.0165598,-0.294594,-0.419568,-0.451932,0.128828,0.0973334,-0.13459,0.125991,0.00285666,-0.148049,-0.0585797,0.212505,0.411988,0.242043,-0.148836,0.355559,0.135672,0.171718,0.0309609,0.315818,0.144623,-0.181372,-0.0353222,-0.103602,-0.246854,0.350729,0.14197,0.281185,-0.0403162,-0.268592,-0.0372199,-0.274894,-0.0801747,-0.233019,0.164945,0.109503,-0.163782,-0.0876573,-0.128957,0.414327,-0.190946,0.0378033,-0.0860714,0.334672,-0.00548472,0.274281,0.423253,0.0674039,-0.379942,-0.241695,-0.159602,-0.021218,-0.317376,0.0558184,0.348199,0.0854093,-0.187743,-0.331129,-0.297247,-0.164023,-0.239648,0.147376,-0.084438,0.228154,0.119722,0.0168706,0.326483,0.0939381,-0.182316,0.113485,0.0862636,0.379235,-0.102634,0.15524,-0.256555,0.170602,-0.020298,-0.0555868,-0.0368592,-0.126955,0.130161,-0.409488,-0.132917,-0.124171,-0.108225,0.00933943,0.0113622,-0.132744,0.197754,-0.300725,0.348108,0.0701895,0.231987,0.0739446,0.172676,0.0940438,-0.164605,-0.121719,0.0988891,0.0840205,0.148167,-0.0673414,0.147491,-0.282973,0.24705,0.188947,-0.407799,-0.509442,-0.128121,0.157036,-0.350523,-0.379073,0.0749641,-0.310438,-0.167547,-0.227534,0.264441,0.0453697,-0.0765745,-0.0406436,0.0224084,0.0858155,0.319752,-0.202963,-0.193549,0.131167,0.305832,0.285601,-0.108724,0.32291,0.303233,-0.183393,0.0131374,-0.405999,-0.465399,-0.0378039,-0.104647,0.30305,-0.247603,0.157293,-0.293528,-0.274387,0.0466958,0.20253,0.353341,-0.158435,0.191823,0.188413,0.414094,-0.0643465,0.00673167,-0.269024,0.0404934,0.378744,-0.149391,-0.273745,0.0310622,-0.145115,-0.275243,-0.132637,-0.0780446,0.101724,-0.162041,-0.0883,0.1881,-0.159635,0.0301449,0.105784,-0.20595,0.0537565,-0.129117,-0.153364,0.16269,0.404868,0.16711,-0.245268,-0.0562984,0.150958,0.0503282,0.088971,-0.181887,-0.214933,0.0182012,-0.0391583,0.324202,0.358104,-0.158602,-0.312115,0.165639,-0.160956,-0.216254,-0.0391409,0.238475,0.341016,0.231354,0.00371618,0.0452398,-0.186716,-0.169428,0.287839,0.188252,-0.0119452,0.261437,0.0647578,0.38145,-0.261795,-0.152621,0.395915,-0.0686606,0.344862,0.238197,0.109336,0.334074,0.120423,-0.195435,-0.112767,-0.319496,0.0727026,0.170531,-0.0353046,-0.20768,0.325697,-0.223969,0.0601963,-0.199989,0.128473,-0.222557,-0.178621,0.0226984,-0.0525112,0.123074,-0.177402,0.313908,0.391017,-0.0672579,-0.094937,-0.0666738,-0.00350353,-0.244841,-0.191519,0.288763,-0.00777614,-0.195856,0.378206,0.183498,0.0642078,0.0486954,0.294381,0.216378,-0.0185634,0.160988,-0.0385766,0.248085,0.21255,-0.167802,-0.161176,0.0244986,0.150679,0.1006,0.302132,0.168385,0.184213,-0.0986969,0.37868,0.14358,0.158641,0.131596,0.365798,0.331596,0.296368,-0.23621,-0.218714,-0.0958812,-0.24364,-0.260937,0.138239,-0.228312,0.0985259,0.381713,-0.0210639,0.083166,-0.0771309,-0.0336303,0.0211096,0.25333,0.136106,0.12288,0.259816,0.0411237,-0.292502,0.367058,-0.106623,-0.0931852,0.0173253
-0.10109,0.0683828,-0.193442,-0.265734,-0.271929,0.0545823,0.285302,-0.289041,-0.0149114,0.14579,0.156317,-0.124194,0.231532,-0.233668,0.166118,-0.12711,-0.272271,-0.0931425,-0.0189703,0.146593,-0.132472,-0.24373,-0.0277078,-0.183422,0.139244,0.156761,0.0418287,-0.0582568,0.322538,0.250694,-0.0316813,0.118522,0.280367,-0.05768,-0.190365,-0.18838,0.2577,0.15332,-0.0471181,0.0685725,0.0368481,0.145008,-0.0041658,0.17242,-0.138966,0.117881,0.395984,-0.28417,0.143687,-0.20173,0.268661,-0.241017,-0.0781884,-0.132557,0.271459,0.357039,0.29639,-0.12664,-0.142427,0.108759,0.245952,0.00555442,-0.266689,-0.269143,0.0329215,-0.224753,0.369167,0.0215894,0.32232,0.17968,0.187874,0.305519,-0.290803,-0.174078,0.14788,0.053748,-0.0964155,-0.27983,0.207528,-0.120957,0.349348,0.168831,0.274215,0.251741,0.0325144,0.116984,-0.0673147,-0.020188,-0.190995,-0.12957,0.397389,-0.219843,0.321662,0.38622,0.00479212,0.138099,0.393199,0.0662016,-0.129361,0.146259,0.379254,0.148344,-0.18,0.0453038,-0.255193,0.0647443,0.317628,-0.0904961,0.0247118,0.298547,0.0481521,-0.151335,-0.0386243,0.243452,0.3978,-0.100385,-0.0347672,0.0555591,-0.0952796,0.4096,0.263526,0.0903182,0.218157,0.16116,0.347381,0.101007,0.186473,0.353517,0.0667698,0.266072,0.0693206,-0.218211,0.17161,-0.210393,-0.284594,0.145294,0.280312,0.423128,-0.171556,-0.283251,-0.191348,-0.0716086,-0.281715,-0.254653,0.200295,0.0838113,0.0446096,0.128478,0.0810853,0.292286,0.218411,0.121874,0.182164,0.184184,-0.0155558,-0.118038,0.351381,0.0765531,-0.163157,0.295544,-0.0429266,0.261354,0.0511506,-0.0418704,-0.0884932,0.0423193,0.146619,0.152339,0.363918,-0.182568,-0.135179,-0.260587,0.0317537,-0.100976,-0.237501,0.424554,0.421579,-0.269381,0.176074,0.143395,0.153108,-0.171545,-0.0749652,-0.323443,-0.147755,-0.0939855,-0.0282189,0.287332,-0.0931816,-0.0383604,0.359158,0.130249,-0.0881731,0.377849,0.177586,0.107904,0.3069,0.109806,-0.0297266,0.0934785,-0.123895,0.226391,-0.146388,-0.00536902,0.0783397,-0.209309,-0.205946,0.0883321,-0.193676,0.0899177,-0.313873,0.299831,0.0409829,-0.256115,0.0426711,-0.368362,-0.273425,0.16652,0.511997,-0.191428,0.0491162,-0.00960526,-0.146897,0.196306,-0.292843,0.118451,0.344968,-0.214328,-0.0595463,-0.143268,0.191701,0.116133,0.291893,-0.0431591,0.0123995,-0.0757284,-0.072161,-0.29986,-0.0145664,-0.0273144,0.143688,-0.22674,-0.108175,-0.297766,-0.149026,-0.0646643,0.211788,0.22764,0.262603,0.249658,0.380259,-0.0510975,-0.237449,0.0310073,0.0153395,0.171807,0.416959,0.0122003,0.139525,0.379702,-0.0633905,-0.143963,0.273758,-0.0603982,-0.0933048,0.0855763,0.329176,0.30198,-0.0494899,-0.401626,0.0628873,0.148431,-0.102002,-0.343587,0.102607,0.340024,0.297164,0.197601,0.365039,0.155996,-0.10799,0.0778434,0.362018,0.0981429,0.00916719,0.0765918,-0.340684,0.175805,0.218743,-0.170572,-0.154391,-0.155645,-0.120849,-0.251357,0.0264448,0.331492,-0.344894,-0.285947,0.28615,0.291381,-0.166476,-0.098479,-0.227061,-0.265584,-0.329278,-0.0564103,0.0867,-0.227202,-0.0512711,-0.24819,-0.284295,0.320795,0.192897,0.130422,0.396397,-0.13839,-0.0337503,0.139444,-0.297936,0.167716,0.0845572,0.0132273,0.0647617,0.0713652,0.0150467,0.0172208,-0.101449,-0.301905,-0.125536,-0.0111252,-0.0835765,-0.332346,-0.118246,-0.0379224,0.176581,0.273501,0.268896,0.0468071,0.0154449,-0.176083,0.270454,0.0483156,0.0386102,0.0112548,0.168098,0.217178,-0.122394,-0.28275,0.0607134,0.0543991,-0.359629,-0.393767,-0.031881,0.0118319,0.0405555,0.0439664,-0.288569,0.279472,-0.287875,-0.148321,-0.170818,-0.260543,0.306137,0.0614954,0.321876,0.0486971,-0.0275448,0.315255,-0.0130015,-0.351063,-0.0924786,-0.31488,-0.0710758,0.0251596,0.158707,-0.221136,0.162733,-0.243031,-0.186926,-0.469548,-0.229143,0.308537,0.515264,0.316696,0.341684,0.104234,-0.0397185,0.269182,-0.0885641,0.287403,0.025818,0.0880231,-0.122709,0.00750453,-0.193924,-0.170124,-0.325451,-0.105729,0.0394761,-0.0307678,-0.379421,-0.0663725,0.101839,0.296931,0.119674,0.151338,-0.195929,-0.162065,0.0233132,0.123809,0.442136,-0.238328,-0.111746,-0.0827158,-0.0758139,-0.0278636,0.250506,0.320616,0.410867,-0.228881,-0.0450331,0.146199,-0.204561,0.336753,-0.175394,0.00393371,-0.189891,-0.212965,-0.353088,-0.101208,0.114367,-0.351416,0.0933833,-0.00198429,-0.0461961,-0.200238,-0.165497,0.278569,-0.140508,-0.408059,-0.426243,-0.243983,0.0682735,-0.229068,0.0156838,-0.0154792,0.0295524,0.289492,-0.227302,0.280229,0.0849837,-0.22018,-0.261315,-0.0610096,-0.389997,0.164338,0.0606747,0.0519818,0.465758,-0.0867768,-0.115489,-0.19309,-0.368427,0.147001,-0.181588,0.323922,-0.137592,0.0641917,-0.681398,-0.611796,0.0236774,-0.0909169,-0.246444,0.381256,0.177341,-0.0471973,0.258385,0.0443379,-0.250481,0.2945,0.262009,-0.0605591,0.231211,0.219822,-0.163205,0.093637,0.461569,0.343289,-0.139861,-0.143477,-0.21784,-0.386275,-0.0264658,0.304598,0.113594,0.0314187,-0.629842,-0.316718,-0.143001,-0.119031,-0.214844,0.394834,0.184121,-0.0595099,-0.158898,-0.119051,0.123511,0.0038575,0.0935309,-0.164083,-0.0144434,-0.283499,0.427325,0.472039,0.260071,0.0033167,0.32519,0.170502,-0.092623,0.311153,-0.217539,0.245542,0.116319,-0.394672,-0.419393,-0.348394,0.0327799,0.108186,0.141496,-0.106425,0.0950542,0.33203,0.0879086,-0.206729,0.0410435,-0.0812235,0.279428,0.0156718,0.236923,0.166295,0.0300261,0.297523,0.195445,0.297646,0.034091,0.157357,-0.203599,-0.102233,-0.0338235,0.182024,-0.36493,-0.321868,-0.312626,0.00491331,0.183882,-0.00874611,-0.306255,-0.269258,-0.236918,-0.0461708,-0.0991669,0.216001,0.123,-0.188061,0.093529,-0.257383,-0.190932,0.346813,0.0891872,0.341414,0.392463,0.106966,0.0720568,-0.136182,0.127445,0.226408,-0.147725,-0.130348,0.295904,-0.251019,0.282812,-0.124667,0.232024,0.0407889,0.01446,-0.191724,0.398144,-0.20361,0.0405896,-0.0929716,-0.075371,-0.127375,0.0431244,0.282232,-0.200958,-0.233128,0.425829,-0.0352586,-0.0674132,-0.116368,-0.311946,-0.308007,-0.0535515,-0.065515,-0.13811,-0.255616,0.220005,0.300613,0.317427,0.268228,-0.0762918,0.0454077,0.280128,0.309061,-0.0853663,-0.196352,0.192138,0.113416,0.0501152,0.29266,0.0530918,0.187651,0.0449528,0.0620483,0.0893815,-0.125776,-0.150853,-0.0494038,-0.147822,-0.245741,0.246395,-0.173867,0.0262327,0.0307307,-0.352078,-0.169861,0.139449,-0.208413,-0.27725,0.109368,-0.164382,0.240946,-0.0295434,-0.0489639,-0.162166,0.113929,0.0349767,0.190851,0.0570083,0.0849285,0.377932,-0.0686129,0.480875,0.411257,0.154205,-0.0181364,-0.292583,-0.404824,-0.0993623,-0.338327,-0.300435,0.0227976,0.109037,-0.174383,0.380612,-0.253312,-0.324663,-0.0748565,0.36105,0.252227,0.392495,-0.206323,-0.145973,0.392459,-0.0605858,0.09738,0.191434,-0.144959,-0.160109,0.454968,-0.178936,-0.176794,-0.0837342,-0.292929,-0.0377037,-0.216524,-0.292693,-0.269317,-0.0120575,0.00547336,-0.230553,0.118855,0.265949,-0.103114,-0.118719,0.167029,-0.119539,0.39525,0.14734,0.189703,-0.00380263,-0.0555651,-0.0588336,-0.0577655,0.368251,-0.252964,-0.193846,0.257192,-0.233578,-0.0850101,-0.221981,0.081994,0.116542,-0.0184103,-0.120505,0.204781,0.0906755,0.352574,-0.115791,0.181157,0.232542,0.333416,0.132745,-0.154528,0.300228,-0.0541124,0.343644,-0.0273446,0.38887,-0.229994,0.268874,0.200897,0.202509,0.104555,0.337826,-0.120908,0.357012,0.390618,-0.182344,0.340729,0.0748218,0.280346,-0.0941248,0.396448,0.327907,0.388187,-0.194973,0.246188,-0.182365,-0.0957696,-0.179531,0.0826319,-0.049498,0.171908,-0.0811792,0.136146,0.0854945,-0.243345,-0.0337321,0.275924,0.357979,-0.050438,0.402756,-0.0863218,0.0263268,0.38001,0.0184333,0.136253,0.195236,0.282653,-0.0334544,-0.0906661,-0.0327253,0.194656,0.175237,0.175298,0.205148,-0.190622,0.105554,-0.032194,0.0465926,0.310105,-0.11959,-0.2442
0.114142,0.304807,0.328306,0.344072,0.369814,0.127921,0.134608,-0.0394147,-0.172869,0.295894,-0.171617,0.23262,-0.289383,0.166781,0.291412,-0.102307,0.00999784,0.314399,-0.0772485,0.246422,0.0392651,-0.110874,-0.155672,-0.255886,-0.0405683,0.187011,0.280901,-0.272015,-0.125465,0.0991241,0.299402,0.0266609,-0.239607,0.263128,0.141786,0.0991677,0.335099,0.186817,0.132539,-0.0631923,-0.272312,0.279617,0.318137,0.248045,0.0779107,0.0228797,0.353963,0.303375,-0.0448195,0.0657124,0.388079,0.0537278,0.12476,0.158919,0.310916,-0.0474899,-0.0979064,-0.0209785,0.174664,0.148366,0.375668,-0.292459,-0.0564962,0.271717,0.233655,0.385526,-0.0916946,0.0108397,-0.295972,0.225723,-0.0225993,0.358977,-0.20268,0.178539,-0.201672,0.032734,0.380632,0.27002,0.135055,0.347212,-0.276031,-0.0681692,0.351656,-0.262081,-0.135548,0.111194,0.194681,0.215403,-0.13726,-0.129776,0.00566512,0.0428462,0.370134,0.019237,-0.208776,-0.206196,0.265084,-0.285453,-0.142356,0.292994,0.166914,0.288741,0.3878,-0.0975099,-0.0337422,0.399579,0.0927593,-0.0521329,-0.296159,0.264986,0.27712,0.357488,-0.093463,-0.282525,-0.125529,-0.0089511,0.156081,0.0159391,0.214707,-0.143746,-0.161723,-0.0849398,0.327487,-0.104556,-0.0807556,0.289057,0.148421,-0.0590278,0.201987,0.218451,-0.122706,0.000868916,-0.280911,0.185505,0.0413485,-0.00237966,0.347348,0.00631577,-0.153338,-0.0664815,-0.190835,-0.138945,0.0574078,-0.102823,-0.110902,0.0169469,0.0583454,0.346837,0.317248,-0.103074,-0.238427,0.286288,0.0992133,-0.2981,0.0852614,-0.191915,-0.344478,0.229669,-0.0705412,-0.140008,-0.131421,-0.208658,0.288927,-0.0171929,-0.205915,0.188178,0.37884,-0.12085,-0.122602,0.344285,0.234081,0.21996,0.185297,0.0348589,0.142586,-0.16208,-0.0786455,0.156827,-0.369916,0.0136277,0.249052,0.263575,0.306819,0.0219844,-0.371275,0.158292,-0.187572,0.152864,0.111054,0.132847,0.351628,0.205114,0.0677957,-0.120762,0.24689,-0.225571,0.12382,0.321,0.119097,0.145518,-0.232627,0.00502699,-0.047939,-0.123875,0.102457,0.0623863,-0.18897,0.28629,-0.179768,0.305989,-0.215277,-0.186218,-0.263434,0.0376385,-0.0822593,-0.320546,-0.139164,-0.253812,-0.0394265,0.218727,0.0919274,-0.257963,0.185525,-0.0941041,0.262679,-0.0228461,0.124236,0.0988201,-0.274001,0.339763,0.0218672,-0.212866,-0.0781232,-0.261194,0.129433,-0.282482,0.256017,-0.0530705,-0.0431238,0.00377879,0.250723,0.0432369,0.0675818,0.316474,-0.134871,-0.112577,0.0142197,0.289138,0.0238881,0.223955,-0.247837,0.247255,-0.119697,0.280647,-0.101103,0.0404695,0.167178,0.342296,-0.219321,-0.426581,0.0286118,-0.293949,0.240205,0.14187,0.0430768,-0.0284969,-0.284243,0.144527,-0.356661,-0.117367,-0.1694,-0.307761,0.106098,0.310522,0.0754198,-0.0959214,-0.179711,0.249059,0.231087,-0.290684,-0.102264,0.257771,0.153391,-0.0229625,0.0315859,-0.403208,-0.30147,-0.00714074,-0.515504,-0.158212,-0.339018,-0.24003,0.0538971,0.126445,-0.314651,0.176462,-0.191427,0.235344,-0.14008,-0.157657,0.00281752,-0.153174,0.237912,-0.0660825,0.234294,0.268633,0.229104,-0.162623,-0.209421,-0.00425387,-0.157764,0.166819,-0.166354,-0.367766,-0.407194,-0.0140697,-0.397247,-0.0100725,-0.117525,-0.0452059,-0.383051,0.192404,-0.0702501,-0.161604,0.183534,-0.278665,-0.0964915,0.346562,-0.157887,-0.396354,0.028546,0.238648,-0.0713301,-0.263344,-0.0858653,-0.0147761,0.0825037,-0.276445,0.221033,-0.270827,0.125782,-0.349221,-0.34359,-0.238642,-0.0925407,-0.198656,-0.0461282,0.0303824,0.275425,-0.336167,-0.335592,-0.441795,-0.235259,0.211655,0.344922,0.397214,0.238033,0.200557,0.255571,-0.181257,0.0919715,0.129128,0.226333,0.0401498,0.377334,0.379221,0.27561,0.166637,0.10527,-0.0172536,0.212237,-0.190788,-0.0272321,0.143901,0.444399,0.0553355,-0.143664,-0.18891,-0.263795,0.027029,0.227198,-0.0141016,-0.121567,-0.0691646,-0.167442,0.0929932,-0.0187944,0.294788,-0.298152,0.0547811,0.35126,-0.166994,0.345759,0.211812,-0.179176,-0.244303,0.102835,-0.353865,-0.00338296,0.243234,0.0280771,-0.0299094,-0.12643,0.134661,0.232167,-0.221653,0.338017,0.245728,0.122386,0.0158634,-0.314931,-0.158698,-0.0405464,0.402859,0.139936,0.129663,-0.221696,-0.237401,0.019215,0.104228,0.232151,-0.176395,-0.289567,0.287032,0.220414,-0.0523848,0.0613686,-0.180062,0.287973,0.266648,0.278015,0.152444,0.403201,0.299901,0.21055,0.0859437,-0.0209819,0.119565,-0.0387875,-0.255046,-0.0828343,-0.190201,-0.0887997,-0.0662628,-0.0992731,0.247882,0.330617,-0.235938,-0.102905,-0.294974,-0.00488099,0.188563,0.332225,0.290055,-0.121998,-0.197077,-0.31661,-0.388605,0.244094,-0.266834,-0.216149,0.241467,0.211334,-0.30346,0.167076,0.0688734,0.235731,-0.102008,0.223654,0.164977,0.20391,-0.225219,-0.273385,-0.318444,0.378871,-0.0800642,-0.0386883,-0.134653,0.287114,-0.085876,-0.192507,0.103208,0.265896,-0.141004,-0.242961,0.0798823,0.0272348,0.125273,-0.128465,0.223163,-0.093226,-0.453467,0.117729,-0.347964,-0.339067,-0.331239,-0.176475,-0.328847,0.173287,0.0340964,-0.130225,0.185849,0.138914,0.282704,-0.133518,0.31248,0.312296,-0.0295001,0.380669,-0.332455,-0.227918,-0.304502,0.0182863,0.0868626,-0.297386,-0.180954,-0.204169,-0.421665,-0.364336,0.161238,-0.402539,0.0742209,-0.249934,0.0959749,-0.243989,-0.444463,0.0107472,0.0409025,0.316396,0.374219,0.132219,-0.142193,-0.0811152,0.0843837,-0.0683416,-0.267636,0.0561625,0.348111,0.210303,0.12514,-0.0355587,0.050118,0.297431,-0.145588,0.113948,-0.393346,-0.399407,-0.110545,-0.0594671,-0.142938,-0.162594,0.0202448,0.306575,-0.282026,-0.35758,0.0373218,-0.0478737,-0.292616,0.399493,0.134151,0.0310617,-0.111878,0.245682,-0.128376,-0.179496,0.252379,-0.10494,0.0414656,0.324753,0.0467207,-0.293676,0.0833876,0.155397,-0.259071,0.26076,-0.0961795,-0.361704,0.106567,0.101565,-0.287584,-0.351713,0.0325159,0.208763,0.0770676,-0.176058,-0.216211,-0.0793733,0.276435,0.127515,-0.256783,0.0652861,0.00580092,-0.264393,-0.25444,-0.0535972,0.150729,0.218148,0.0957979,-0.213644,-0.366389,0.192148,-0.113918,0.0641862,-0.414157,0.161808,-0.0495938,-0.327927,-0.270793,-0.14079,0.196861,-0.279193,-0.189158,0.0694806,-0.237262,0.393046,-0.0354624,-0.170284,0.190023,-0.0954925,0.238407,-0.201629,0.223362,0.162236,0.371992,0.279881,-0.073574,0.293132,0.333477,-0.274837,-0.292481,0.027018,-0.37751,0.0181676,0.192184,0.112286,-0.312565,-0.199566,-0.316733,-0.110004,0.22316,0.0170323,0.110691,-0.0156616,0.181286,0.286563,-0.138774,0.0777047,0.121999,0.131821,-0.214502,0.0901015,0.240378,0.350154,-0.103847,0.2756,-0.22961,0.19839,0.27291,0.14493,-0.308382,-0.0059619,0.0729419,0.296078,-0.318114,-0.287472,0.177062,-0.196476,-0.0082848,-0.0865741,0.272206,0.0717158,0.0747062,0.16505,0.0715445,0.143219,-0.066263,-0.0379256,0.316004,-0.26306,0.179187,0.0075919,0.184843,-0.139603,0.153303,0.22306,0.154314,0.112769,0.0899158,-0.0409497,0.296877,-0.163656,-0.152799,-0.0502888,-0.0151059,0.357067,-0.01305,-0.0122763,-0.281867,-0.026661,-0.274407,-0.132151,0.128007,0.284747,0.259325,0.0830215,-0.121018,-0.178918,-0.217156,-0.0162776,0.0739216,-0.178421,0.337304,0.287303,0.366601,0.376858,0.0813816,-0.164205,-0.00477707,-0.0246899,-0.242194,-0.229546,-0.170084,0.177524,-0.194877,0.341898,-0.0193549,-0.125785,0.0317881,0.392651,0.31457,-0.0300791,-0.0135014,-0.298915,0.283759,-0.125872,0.176359,0.364343,0.0763759,0.372657,0.0107215,0.311648,-0.0184838,0.0611913,0.0519927,-0.0147394,0.136079,-0.301062,-0.12738,0.13603,0.26018,0.282845,-0.116962,-0.054561,0.12273,0.286584,0.389959,0.398889,-0.246336,0.078338,-0.0142918,0.0240333,0.0641743,0.121945,-0.0455626,-0.0820213,0.0795869,0.256938,-0.159197,0.331788,-0.103482,0.0317026,-0.239435,0.151557,-0.0545434,0.293681,0.199931,0.366225,0.0690451,-0.249583,0.204678,-0.207349,0.188571,0.034907,0.103162
0.298248,-0.201773,0.338112,-0.137684,-0.0817133,0.134437,0.0739158,-0.0786584,0.24217,-0.0419352,-0.277525,-0.198526,0.171844,0.0165136,0.131831,-0.0619953,0.313031,0.107691,0.213266,-0.0681692,-0.0917325,0.318052,0.31474,0.0671011,0.0715659,0.156655,0.00628069,-0.00807521,0.133476,0.156847,0.362465,0.00912195,0.156633,0.367721,0.175475,0.273745,-0.0695094,0.30739,0.386284,-0.153937,-0.194288,0.397084,-0.147981,-0.0151891,-0.0268532,0.357167,0.280901,0.363704,0.0593677,0.17178,-0.108737,0.247853,-0.17272,-0.191754,-0.0429609,0.337236,0.0621021,-0.194339,0.326917,-0.162124,0.239393,0.306285,0.317678,-0.179202,-0.261221,-0.0483473,0.0165329,-0.233603,-0.0748503,-0.0851685,0.153916,0.393893,-0.233049,-0.209828,-0.148269,-0.154734,0.0724987,-0.276566,0.117301,0.254006,0.237492,0.36379,-0.184191,0.0334544,0.0100192,0.389938,-0.22288,0.217624,0.0912295,-0.0686904,0.244099,-0.069473,-0.268975,-0.178272,0.35941,0.385446,0.144676,0.233732,-0.270712,0.226888,-0.11277,-0.255116,-0.068521,0.033636,-0.0254494,0.160735,0.142659,-0.290964,0.364066,-0.00982699,-0.225935,0.0793847,0.310938,0.368062,-0.291177,0.2978,-0.314367,0.268271,0.333453,0.21417,0.0657154,0.101763,0.31345,-0.0196611,0.129744,-0.25476,0.272847,-0.344562,-0.118069,0.356365,0.273109,0.354605,-0.309736,-0.315175,0.357877,-0.00700058,-0.206946,0.149744,0.104816,0.185516,-0.102841,0.00200811,0.109749,0.24439,-0.0622318,-0.0326417,0.329007,0.157689,0.0325518,0.214424,0.104062,0.130014,0.221689,0.194709,0.218721,0.0995561,0.143476,0.257511,-0.0845348,-0.149435,-0.198483,0.0685711,0.215084,-0.0874086,-0.132954,0.0804845,-0.100901,0.0255501,0.157381,-0.153706,0.20492,0.0643549,0.3544,-0.257932,-0.120947,0.312501,0.250721,-0.370286,0.0177565,-0.0962514,0.0615324,0.2691,-0.171443,-0.270353,0.163162,-0.133025,-0.272048,-0.0519536,-0.427621,-0.230092,-0.1371,0.21247,0.3108,0.178008,-0.134366,0.210474,-0.172997,0.239372,-0.104157,-0.230092,0.101261,0.22472,-0.179607,-0.258521,-0.376219,-0.543334,-0.132074,-0.0123534,0.186545,-0.245821,-0.229527,0.0243633,0.00770406,-0.223938,-0.0131623,-0.0889464,-0.420233,-0.114311,0.174117,0.261316,-0.147994,0.318561,-0.0337722,-0.186719,0.226939,-0.145988,-0.163894,0.0942485,-0.247953,-0.00977687,0.229115,0.213448,0.107227,0.0484008,0.163561,0.157057,0.207762,-0.0295589,-0.017899,0.231932,-0.07952,0.142962,-0.0633159,-0.273746,-0.300474,-0.298483,0.120764,-0.0160041,0.423422,-0.225471,-0.135561,0.221839,-0.0841273,0.087723,0.00469432,-0.0301314,-0.287364,-0.0323909,-0.335867,0.0616921,0.114762,-0.424828,0.250105,0.231893,0.00818062,-0.406766,0.171945,0.345317,0.277587,0.0411357,0.0961741,0.212185,-0.310277,-0.267585,0.269547,0.320141,-0.0617517,-0.135473,-0.0665121,0.249827,0.172485,0.0957879,-0.0921516,-0.175594,0.192502,-0.205753,-0.198453,-0.365245,-0.538238,-0.559804,-0.429285,-0.440337,-0.207561,0.103845,-0.00917806,0.204653,-0.064553,-0.175133,0.346534,-0.232752,0.0555674,0.240198,-0.134006,0.17746,0.248466,0.24515,0.27903,-0.0177347,0.372399,-0.27403,0.200213,-0.222857,0.159398,-0.29982,0.242453,-0.344766,-0.163865,-0.211217,-0.528291,0.0727547,-0.166885,-0.209179,0.0214233,-0.0743572,0.268123,-0.0691845,0.503537,-0.0224087,0.321749,0.00981491,0.0149497,-0.380701,0.0792609,0.154825,-0.0998262,0.37975,-0.223884,-0.00393316,0.341158,-0.267212,-0.377248,-0.0823633,0.172614,-0.196872,-0.339016,-0.153588,0.102747,-0.250383,-0.111772,-0.0608413,-0.115657,0.199416,0.186751,0.48927,0.424462,0.295669,0.309845,0.324947,0.257413,0.0864088,-0.207812,0.204118,-0.00903657,0.03434,0.193292,0.280345,0.0216125,0.348811,-0.331608,0.0967605,0.299599,-0.0475412,-0.369766,-0.197257,0.0497071,0.199615,-0.106506,-0.0284602,0.402286,-0.0685626,0.230497,0.355695,0.152411,0.40381,-0.093298,0.448483,-0.175747,-0.312447,0.279863,-0.0376919,0.0684,-0.116226,0.138752,-0.0016058,0.353954,-0.108058,0.328335,0.325794,0.0824547,0.0595765,0.207644,0.148438,-0.368415,0.36997,-0.322039,-0.00870473,0.212885,-0.0211776,0.278432,0.291108,-0.257498,0.146955,0.141693,0.310901,-0.30394,0.0967369,-0.378194,-0.186121,-0.193088,-0.220116,0.14655,-0.263456,-0.299576,0.0516315,0.246696,0.344932,-0.278378,-0.330811,-0.284215,-0.0836724,0.335545,0.340699,-0.147305,0.247944,0.0858281,0.46473,-0.0134396,-0.393333,-0.162172,-0.239041,-0.144908,-0.0902098,-0.174204,-0.405603,-0.191784,0.127626,-0.0793884,-0.171821,0.0569109,-0.150315,-0.192874,-0.0819758,-0.149732,0.26315,-0.065521,-0.196159,0.066248,0.316623,-0.165636,0.304537,-0.127047,0.132898,-0.218701,-0.336757,-0.141379,0.0714797,-0.109798,-0.50969,-0.0409331,-0.270712,-0.0142666,-0.404769,-0.368902,0.0350782,-0.109098,0.184177,0.242213,-0.154138,-0.0678902,0.391713,-0.244168,-0.391886,-0.0755446,-0.0500118,-0.197043,-0.288186,-0.276956,-0.35113,0.11917,-0.505822,-0.163509,0.14628,-0.446889,-0.372017,-0.406113,0.182486,-0.1968,-0.271737,-0.299923,-0.386828,-0.0676907,0.0168949,-0.227,0.335393,0.187353,0.106306,-0.0605067,0.41839,-0.00327927,0.079064,-0.294088,-0.278682,-0.194931,-0.229198,0.128481,-0.180121,-0.082449,-0.193515,-0.0544875,0.335318,-0.0772282,-0.342533,0.16956,0.0906312,-0.15475,-0.2283,-0.422491,-0.364302,0.19374,0.230719,-0.25817,-0.0719262,0.0903867,0.1417,-0.0880804,0.090835,-0.288706,-0.333458,-0.165165,0.387905,0.121938,-0.339587,0.0608256,-0.0593093,-0.174598,0.0719987,0.0846293,0.282528,-0.082293,-0.0164627,-0.414009,-0.372581,-0.317975,0.0341397,-0.376973,-0.379186,-0.337562,-0.147686,0.203878,0.106504,0.298825,-0.135548,-0.242374,-0.170613,0.402196,-0.0873635,-0.0248207,-0.103262,0.211581,-0.177578,-0.353659,0.191527,0.182749,-0.0619598,-0.0218046,-0.276126,-0.152719,0.0668114,-0.173593,-0.0327361,0.0850323,-0.146075,0.179712,-0.262818,0.195248,0.049751,-0.103376,0.381809,0.047148,0.114335,0.255123,0.29922,-0.278884,-0.0465343,0.229075,-0.381033,-0.16814,0.174229,0.0192597,0.0918396,-0.117136,0.180522,-0.218307,0.194546,0.14493,0.0204056,-0.169931,-0.0821916,-0.214146,0.107269,0.182568,0.237071,0.206152,-0.261002,0.235591,-0.143605,0.111686,-0.129374,0.189143,0.128792,-0.18482,0.0438892,0.326515,-0.348651,0.352543,-0.240131,-0.100133,0.246954,-0.294467,0.00841553,0.122282,0.311639,0.2689,0.148951,-0.26213,-0.104406,-0.148607,-0.227011,0.274864,-0.0323154,0.025328,0.20744,0.0737309,-0.15689,0.347682,0.399829,-0.0865209,0.131772,-0.1552,-0.073399,0.338469,-0.109913,-0.248873,0.0657786,0.246964,-0.188244,0.313753,-0.2024,0.049516,-0.266228,-0.191454,-0.117673,-0.194805,-0.217147,-0.062773,0.297846,0.168936,0.201693,0.308318,-0.0127396,-0.296989,-0.0558214,0.224845,-0.288379,0.391974,0.19947,-0.12013,-0.224681,0.241236,0.0218682,-0.0489159,-0.0968011,-0.26877,0.255281,-0.10118,0.143854,-0.0346287,-0.0837964,0.222013,-0.191552,-0.184333,-0.00893145,-0.272871,-0.156232,-0.0754224,0.119612,0.122132,-0.215651,0.234886,0.0853236,0.326853,0.223392,-0.278509,0.160842,0.301321,0.369728,-0.226735,0.297386,0.153348,-0.294326,0.139282,0.241624,-0.065566,-0.108132,0.340919,-0.0632229,-0.0151395,0.08519,-0.213087,-0.0933624,0.0793889,-0.0562013,-0.0556266,-0.240447,-0.161117,0.250203,-0.250545,-0.240077,0.330058,0.385858,-0.0422773,-0.138923,-0.0663595,-0.20696,-0.0997511,0.222003,-0.235757,-0.149331,-0.0165401,0.0425952,0.272836,-0.261918,-0.0876003,0.0935703,0.041037,-0.244239,0.106272,0.0966196,-0.246188,0.0362104,-0.193078,0.390387,0.293164,0.344542,-0.296261,0.0587481,-0.172399,0.173852,0.363747,0.0974151,0.268938,-0.26129,-0.27897,0.120422,-0.220501,-0.121946,-0.189063,0.297458,0.357573,0.0563341,0.268169,0.321385,-0.207892,-0.268503,-0.154598,0.155448,0.0908994,-0.281393,0.333113,-0.0446486,-0.0345866,0.1326,-0.194275,-0.287631
0.3141,0.294467,0.395557,0.219547,-0.0460799,-0.182696,0.020658,0.30047,-0.169579,-0.234285,0.234591,0.302969,0.325187,-0.0300363,0.371053,-0.197885,-0.166161,0.229908,0.319825,0.210489,0.323521,0.180474,0.317902,0.241765,0.02884,-0.0596027,-0.209378,-0.17492,-0.00339672,-0.183636,-0.273061,-0.283038,-0.262209,-0.215766,0.123072,-0.192657,0.296783,-0.18044,-0.220461,0.167084,-0.203865,0.397443,-0.215958,0.132664,-0.231126,0.0387951,-0.230549,0.178146,0.334181,-0.282867,0.173211,-0.234181,-0.272036,-0.19592,0.29075,0.127964,0.0480025,0.0730186,-0.247832,0.273147,-0.278466,0.332856,0.208536,0.0660217,-0.240949,0.316092,0.161661,0.0708994,0.0803724,-0.122142,0.0211922,0.133947,-0.250175,0.278985,-0.170245,0.3193,0.375303,-0.172922,-0.288921,0.00382394,-0.00138861,0.0727195,0.239415,0.0295022,-0.0326213,-0.0570178,0.157445,0.213758,-0.174792,-0.139229,-0.24303,0.048658,0.261128,-0.117359,-0.193308,0.349247,0.343766,-0.014387,0.0594571,-0.250428,-0.217313,0.150362,-0.2514,-0.142969,0.160304,0.261431,0.101137,-0.248593,0.00161196,0.169536,-0.200299,-0.108161,-0.0358043,0.160649,-0.0987396,0.227879,0.0358402,0.280387,0.324073,0.118975,-0.0841387,-0.161694,-0.294513,0.276986,-0.228229,-0.0718009,-0.10199,0.0982601,0.315882,-0.171949,-0.278017,-0.0542002,-0.28848,-0.135024,0.101921,0.337594,0.281935,-0.134686,-0.0412445,-0.289468,-0.0689596,0.360308,0.394982,0.391919,0.172831,0.348896,0.293683,-0.147639,0.156837,0.246035,-0.176181,0.108063,-0.284636,0.0202342,-0.0738504,0.291479,-0.224476,0.25236,-0.255573,0.133455,-0.00752195,0.268803,0.175901,-0.0141508,0.0466233,0.058974,0.0778915,-0.273595,0.320872,0.206665,-0.076514,0.369588,-0.145312,0.0914291,-0.258268,-0.120498,0.0117752,-0.29892,0.151915,0.0826946,-0.267313,-0.22387,-0.200691,-0.292941,0.142851,-0.355765,0.230877,-0.370232,0.259507,-0.13187,0.236623,0.00181751,0.0955147,-0.246351,-0.0605067,0.147233,0.0945311,0.215104,0.197471,0.294649,-0.0650907,0.350089,0.125037,0.0433342,-0.0463502,0.133213,0.279685,0.0796637,-0.2003,0.223863,-0.00464338,-0.323515,0.120465,-0.0831305,0.0723209,-0.263855,-0.343262,-0.1843,-0.163779,-0.220032,-0.311415,0.148794,-0.119829,0.307389,-0.146123,0.315453,0.0753446,0.305361,-0.277821,0.18834,0.219108,-0.0139613,0.272259,0.0651975,0.271504,0.101886,0.317588,-0.135711,-0.218244,0.181979,0.22784,-0.0875989,0.0130915,-0.340146,-0.280661,0.102415,-0.266927,-0.352059,0.314692,0.0109727,-0.0469479,0.0439617,-0.273681,0.157964,0.149966,0.336444,0.29104,-0.134958,-0.183812,-0.204989,-0.130706,0.240218,-0.0830147,0.282709,0.186481,0.32934,0.0937984,0.388627,0.34119,-0.337847,-0.0531786,0.263019,-0.236504,0.126049,-0.0370958,-0.0573531,0.252507,0.301317,0.110015,0.117091,0.116343,-0.0754161,0.241539,0.196567,-0.152686,0.0663313,-0.381608,-0.201913,-0.4097,-0.0230924,-0.318812,0.0331369,-0.179793,0.106825,-0.0674153,-0.158263,-0.0663179,0.359477,-0.0117547,-0.107221,0.293469,0.228077,-0.214637,-0.166941,0.0391589,-0.146361,0.261672,0.252131,-0.210404,0.0398266,0.168139,0.276404,0.0319935,-0.130714,-0.126893,0.0791656,0.0675894,0.128451,0.186575,-0.189105,0.330484,-0.28419,0.295856,0.080964,-0.0305473,0.0866953,0.137952,-0.094711,-0.263606,0.249013,0.0790553,0.0952627,-0.0773755,0.228617,0.0234323,0.0355567,0.105426,-0.0693838,-0.122416,0.118306,-0.392403,-0.0746187,-0.381185,-0.127912,-0.0206555,0.239211,-0.137976,-0.10645,-0.0687203,-0.00536836,0.146207,0.138421,0.0740542,-0.0593614,0.15028,-0.156829,-0.245624,-0.202929,0.171565,0.0934223,-0.256254,-0.0409414,-0.0964877,-0.166865,0.0629352,-0.143805,0.172049,-0.101387,-0.284544,-0.00293813,-0.387029,-0.39828,-0.205862,-0.309377,0.367165,-0.0326313,0.206012,-0.07027,0.284134,-0.367229,0.163505,-0.0635809,0.0558664,0.404958,0.139981,-0.209718,-0.269513,0.0844417,0.22748,0.251389,0.309418,-0.0298842,0.0768853,0.339499,0.129781,0.0925509,-0.101901,-0.171591,-0.0172829,0.136555,-0.079847,-0.269487,4.92424e-05,0.280725,0.0366485,-0.181193,0.253241,-0.292169,0.0154377,0.0765164,0.0490143,-0.0597867,-0.0847342,-0.0980281,-0.372382,-0.373138,0.210816,0.0235054,-0.100748,0.24824,-0.151485,-0.281544,0.172679,0.230933,0.217093,-0.223971,-0.0212416,-0.191282,0.181427,-0.225038,-0.258363,-0.26681,0.310439,0.00826278,-0.0100433,0.146144,-0.17825,0.0146369,0.311996,-0.213698,-0.134654,-0.0877753,0.25456,0.213843,-0.0633188,-0.259221,0.25885,0.117781,-0.152937,-0.236275,-0.201594,0.323297,-0.0701509,-0.197689,-0.339614,-0.193646,0.179774,-0.0549413,0.0476908,0.0106852,-0.00441794,-0.353907,0.175455,0.15393,-0.194904,-0.292475,-0.0205443,-0.192143,-0.0727943,-0.13012,0.29887,-0.24323,-0.133806,0.112889,-0.325826,0.200256,0.167891,0.266885,-0.25109,0.229652,-0.224809,-0.202251,-0.0713555,-0.302616,-0.0343275,0.135569,-0.298164,0.0263694,0.0306265,-0.0156812,0.0655187,-0.196854,0.0515832,-0.287558,0.219021,0.236582,-0.072719,0.247418,0.102758,-0.250692,-0.200686,-0.113566,0.358209,-0.123769,-0.0177099,0.253299,0.380314,-0.0520585,-0.230497,0.0565684,-0.210128,0.216757,-0.122031,-0.187804,-0.143772,-0.447109,-0.15076,-0.27439,0.184507,0.181327,-0.0610197,0.0895897,-0.125978,-0.076069,-0.0588418,-0.262341,0.233165,0.30657,0.242253,0.0302217,-0.165188,0.0105086,-0.254881,0.0215338,0.352796,0.25633,-0.0795619,0.249264,0.143032,0.188823,-0.167738,0.251174,-0.142585,0.110952,0.00705422,0.143545,-0.317923,-0.0110414,0.11375,0.258631,-0.398409,-0.286577,-0.370551,-0.0543822,0.1954,-0.271839,0.336544,0.139609,0.240583,-0.0259989,0.275753,-0.0356548,0.0910668,0.328119,0.209466,0.100568,0.317299,0.30957,0.0890658,-0.0317694,-0.264135,-0.395753,-0.182718,-0.22865,-0.0942287,0.230493,-0.183933,-0.281779,-0.113318,0.0327274,0.10997,-0.222019,0.32234,0.219391,-0.221177,-0.144081,-0.0735719,0.108955,0.177526,0.170882,0.079251,0.314496,-0.0072697,-0.085707,0.312992,-0.0435767,-0.135924,0.314511,0.284399,0.100521,-0.0469649,-0.245534,0.100689,-0.298165,-0.0410064,-0.185841,-0.10517,0.145332,0.161678,-0.0124698,0.0288025,-0.139288,0.131027,0.0702617,0.0785217,0.161996,-0.287909,0.267293,-0.14549,0.396308,-0.106936,-0.266558,-0.194218,0.188835,0.130499,-0.266356,0.18931,-0.100663,0.316705,0.18064,-0.348459,-0.356249,-0.291808,-0.341761,-0.124623,-0.285902,0.15551,0.332332,-0.294178,0.0204369,0.248411,0.0390339,0.153826,0.00296944,-0.00623798,-0.00373855,0.382607,0.244201,-0.190111,-0.230557,-0.210592,0.126967,0.360806,-0.230393,0.0361428,-0.268921,0.32772,0.229822,-0.130142,0.0449107,0.00351477,0.142015,0.00743996,-0.294972,-0.0948002,0.147454,-0.167608,0.0111991,0.0624046,-0.164918,0.135764,0.114142,0.0193335,-0.0106815,0.252497,0.204233,0.298418,0.331616,-0.0103735,0.375277,-0.119588,0.432555,-0.196963,-0.25316,0.163807,0.353401,0.159382,-0.119001,0.368363,0.16388,-0.0759962,-0.0666231,0.12917,-0.244793,-0.0535014,-0.0920308,0.248037,0.0183111,0.0744926,-0.249413,-0.000277758,-0.264837,0.284576,0.306793,-0.233387,0.0481586,-0.0303784,0.412833,0.0295183,0.159691,0.364634,0.352986,-0.0985514,0.254569,0.380012,0.108215,-0.000802612,-0.061107,0.215883,0.00451057,0.254491,-0.269714,0.356275,-0.17737,0.181323,0.367785,0.276437,0.0953856,0.208246,-0.103098,-0.00997654,-0.0392651,0.166821,-0.258172,-0.150446,0.273216,-0.0683767,-0.179053,-0.0346079,0.122253,0.0147812,0.373617,0.255219,-0.0911334,0.142408,0.260871,0.347624,0.239729,0.287449,0.199062,0.233091,0.043025,0.10047,-0.0488144,0.325486,-0.21348,0.311643,0.381585,-0.224055,0.00980559,0.118137,-0.268874,-0.0717496,-0.247709,-0.13024,0.0103077,-0.0659288,0.312284,0.376073,0.385986,-0.0988251,-0.17477,0.380224,0.344573,-0.135014,0.202483,0.320145,0.06975,0.215509,0.0436018,-0.134523,-0.275304,0.292224,-0.0551378
