0.252154,-0.0389648,-0.173027,-0.0807739,-0.279037,0.172096,0.00541593,-0.0713822,0.29069,-0.244818,0.0271221,-0.170741,-0.0217328,-0.231795,-0.177669,-0.0596293,-0.0640774,-0.117375,-0.239514,-0.0253212,0.314842,0.013429,0.0228461,-0.0495957,-0.275475,0.293563,0.0791388,0.101416,-0.213925,-0.25039,-0.0542217,0.337234,-0.161843,0.00431851,0.367015,0.144428,0.124251,0.379652,0.0927358,0.181234,-0.110463,-0.183568,-0.00285589,0.160483,0.327021,0.396524,0.322781,-0.131957,0.208843,-0.133247,0.0715752,0.00787665,-0.268605,0.159431,0.245242,-0.0654013,-0.284896,-0.282682,0.352449,0.15394,-0.217762,0.0986625,0.384288,0.349006,0.169706,0.285382,-0.225453,0.126432,0.277839,0.0652458,-0.0546385,0.227555,0.026311,-0.0931808,-0.142787,0.201835,-0.0867919,-0.189247,0.261537,0.0923259,0.257091,-0.0600396,-0.213413,0.0266192,-0.297545,-0.084353,-0.0712245,0.36393,-0.222319,0.30291,0.00427679,-0.214903,0.194729,0.340803,-0.172083,0.292834,0.0537992,0.357866,0.266429,0.393604,0.175365,0.130633,-0.163169,0.127765,-0.0058011,0.218388,-0.0979208,-0.0629832,0.353632,0.339439,-0.171069,0.218104,0.0339536,-0.2926,0.256898,0.351577,0.140638,-0.287927,0.0572693,-0.135307,0.00610817,-0.152753,0.21641,-0.174557,0.110754,-0.115728,0.227843,0.0931077,-0.10514,-0.116649,0.227555,0.357075,0.353329,-0.163983,0.0602317,-0.123717,-0.014185,0.353118,0.101488,0.340405,0.310852,-0.129566,-0.0641927,-0.211617,0.394938,0.28923,-0.294129,0.185264,0.110297,-0.26185,0.23511,-0.199601,-0.0113023,-0.243614,-0.256371,-0.0137876,-0.13269,-0.00421704,0.0556687,0.308531,0.293572,0.0335298,-0.18014,-0.284471,-0.203897,0.301122,0.230318,0.103669,0.388088,0.0229362,0.0943279,-0.134933,0.394276,0.250294,0.115728,0.377496,0.28699,0.110419,0.230097,-0.281251,-0.08222,-0.0561827,0.0873381,0.0657458,0.212043,0.148244,-0.188125,0.265357,0.346289,0.301504,-0.0932647,0.0290285,-0.0529579,-0.0101268,0.272493,-0.151415,0.13787,0.306028,-0.016621,-0.0282342,0.385259,-0.251186,-0.106449,0.05088,0.358272,0.285821,-0.0762959,-0.00604303,0.258248,-0.193904,0.0941914,0.124005,-0.281802,0.0384443,-0.0364755,-0.207344,-0.0399762,-0.152315,-0.0817816,0.245514,0.1784,0.189972,0.396891,0.384669,-0.148379,-0.257064,0.390536,0.321485,0.0557255,-0.21068,0.381316,-0.0213806,0.0589909,0.161653,-0.119698,-0.0776665,-0.19208,-0.0566248,0.336477,0.0834352,0.350412,0.12324,0.0398586,0.0585621,0.215517,0.189832,0.232908,0.145325,0.111042,-0.11035,-0.0682719,-0.207866,-0.0608542,0.205375,0.0636113,0.333803,-0.200913,0.0932217,0.0483268,0.285098,0.1755,-0.151803,-0.298364,-0.142498,0.388242,-0.0997264,0.112706,0.187738,0.292225,0.348794,0.253251,-0.0770805,0.104294,-0.184206,-0.222116,-0.134276,-0.142499,0.327353,-0.111768,0.123107,0.343649,0.0189536,0.0956274,-0.244651,0.0519759,-0.0477701,0.266985,0.172994,-0.223459,-0.149859,0.192185,-0.127822,0.269956,-0.0598482,-0.249594,-0.0261273,-0.251736,-0.184504,0.317992,-0.260005,-0.292051,0.285414,-0.00508118,0.125575,-0.0417618,-0.153195,0.089259,0.169606,-0.259158,0.135783,0.0419488,0.0595911,-0.170153,0.0904143,0.322205,-0.129055,0.0881178,0.196577,0.288634,0.131998,-0.0305478,0.0312226,0.0416043,0.202046,-0.0413492,-0.0168106,0.249385,-0.0695562,0.20981,0.164203,-0.106456,-0.144116,-0.00117792,0.398929,-0.0960682,-0.162249,-0.156173,-0.108918,0.030912,-0.217172,0.108085,-0.237633,-0.270019,0.22455,0.0409875,0.0658249,0.195906,0.158543,0.162668,0.06091,0.131833,0.374814,0.0615532,0.365799,-0.112925,-0.121158,0.108017,0.351842,0.247718,-0.039856,-0.156237,-0.084938,0.0117981,-0.00320752,0.154323,0.391623,0.34438,0.24207,-0.106972,-0.268431,-0.272055,-0.100014,0.349482,-0.186164,0.110932,0.118049,-0.154328,0.0179187,0.37617,0.221333,0.240518,-0.17082,-0.176563,0.300641,-0.0690158,-0.00878435,0.39229,-0.112559,0.0313141,-0.218005,0.211395,0.234092,-0.284491,0.245901,0.1153,-0.0911777,-0.286223,-0.27283,0.30383,0.354307,-0.26688,-0.0408794,0.379597,-0.0998174,-0.299743,-0.0465859,0.262002,-0.12066,-0.29402,0.129438,-0.21041,-0.0536302,0.133449,0.243877,0.108897,-0.0580986,0.35421,0.25289,-0.210067,0.101311,0.287674,0.270166,-0.0672127,0.155651,0.386778,0.34236,0.0206473,0.321858,0.160411,-0.272245,0.189576,-0.17646,-0.111255,-0.123457,0.0560514,0.147377,0.04545,0.30872,-0.0131428,0.277893,0.284239,-0.00795292,-0.162107,0.207372,0.197109,-0.293184,0.358247,-0.0337554,0.20405,-0.190942,0.186893,-0.0252182,-0.115014,0.0682268,-0.0769753,-0.235625,-0.181502,0.201119,-0.0873901,0.151449,0.0252603,0.0740153,-0.26854,0.334046,0.380938,0.29365,-0.000236324,-0.110833,0.313942,0.0609088,-0.193056,-0.0796445,0.339156,0.00543982,0.193817,0.0607195,-0.0620991,-0.121524,-0.0369542,0.275533,-0.0503146,0.224067,-0.137978,-0.0492145,-0.223908,-0.00849175,0.0157336,-0.268891,0.366111,-0.0721735,0.350008,-0.00508582,-0.213831,0.208066,0.0828661,0.00722347,0.027964,0.0321315,-0.274856,0.0599038,-0.0155835,0.254561,0.268172,0.146659,0.225699,-0.0197929,0.202221,0.248575,0.107179,0.0806376,-0.264406,0.00486815,0.258612,0.374076,0.264433,0.051093,0.0626442,-0.0871543,0.0681807,-0.0341531,0.384327,-0.262867,0.164706,0.0382169,-0.232112,0.0304604,0.316825,0.39283,-0.0544545,0.119804,-0.183156,-0.224363,-0.220562,0.291776,-0.162931,0.12992,-0.205682,-0.164019,0.27906,0.394832,-0.0979336,0.0936167,-0.189284,0.326535,-0.105365,-0.0586414,-0.282895,-0.112946,-0.00890346,0.163612,-0.0428495,0.307798,-0.177868,-0.0464347,-0.0422249,0.0461465,0.143023,-0.100724,0.228987,0.181749,0.0456551,0.297319,-0.165553,-0.162821,0.271479,0.0360416,-0.197223,0.381465,-0.206227,0.301317,-0.186592,-0.28995,-0.231451,0.155193,0.34578,0.24406,-0.0830148,0.121098,-0.28666,0.0518603,0.0567797,0.136512,0.282145,-0.165618,0.228011,0.30873,0.00427463,0.0730969,0.229918,-0.0649932,0.337512,0.0941003,-0.263332,-0.287659,-0.293293,-0.0699767,-0.222332,-0.192588,0.0750831,-0.0581223,-0.227942,0.114736,-0.0345902,-0.211423,-0.00151282,0.266613,0.118767,0.0971365,0.184172,0.11642,0.0184171,0.0233304,-0.0991463,0.382808,0.266131,0.354375,-0.156351,-0.0519071,0.250421,-0.244781,-0.106136,0.016638,-0.218821,0.0872643,0.0243074,-0.277451,-0.264524,0.0253819,-0.0368152,0.386397,-0.112777,-0.110085,0.168679,0.223756,0.16633,-0.290592,0.0305326,0.183635,0.0303112,0.158798,0.049086,-0.0595618,0.0707053,0.263091,-0.288643,-0.187811,-0.149239,0.114544,-0.0878081,0.223185,0.313493,-0.287536,0.24795,-0.219399,-0.177532,0.0517579,0.0116246,0.395519,-0.105303,0.377199,0.237938,0.214826,-0.107768,-0.163415,0.224307,0.285816,0.221455,0.235289,-0.148787,0.124394,0.303614,-0.0618199,-0.236042,-0.286724,0.378724,0.117413,0.223134,-0.104149,-0.296771,0.0920734,-0.228997,-0.204615,0.184848,0.150409,0.149119,0.0238811,0.34429,-0.187588,0.396995,-0.193197,-0.171583,0.125073,-0.137284,0.291219,0.0684881,0.030097,0.0750872,0.0673786,0.305247,0.313693,-0.0071047,0.0665679,-0.219569,0.276675,-0.223691,0.366991,-0.275035,-0.0806806,-0.0821292,-0.238555,-0.191587,-0.19874,0.353932,0.235234,0.224009,0.158364,-0.293833,-0.0951767,-0.148746,-0.17077,-0.0208793,0.343981,0.255765,0.090483,0.0421213,-0.025607,-0.286849,-0.0510989,0.0544635,0.142871,0.265252,-0.123258,0.134774,-0.253724,0.130171,-0.149087,0.0311019,0.141579,0.0612028,0.282538,-0.075864,0.398145,0.177632,0.0906483,-0.00697725,-0.274991,-0.232502,-0.188648,0.271722,-0.260742,0.370586,-0.204589,-0.151827,0.301524,0.164882,-0.0175724,-0.272371,-0.216283,0.244991,-0.290367,-0.00778238,-0.201368,0.323014,-0.159593,-0.197051,0.0591145,0.237829,0.0727367,-0.0304626,0.189025,0.214165,0.00750736,-0.180689,-0.245598,0.140875,0.341016,0.0167845,0.0521768,-0.0819399,0.167157,0.244256,0.30056,-0.249043,0.040418
-0.103337,0.183581,0.316729,-0.207462,-0.181698,-0.0042771,0.308122,0.0603798,-0.0851681,-0.170876,0.368574,0.00552625,-0.227648,0.260485,-0.284718,0.187275,-0.0693497,0.366216,0.0795118,0.278015,-0.275486,-0.262074,-0.249698,-0.130387,-0.149338,0.317638,0.055402,-0.231403,-0.0291819,0.0258419,0.0638318,0.125543,0.210542,-0.0951449,-0.255702,-0.203051,0.360936,-0.0519746,-0.0353784,0.285649,0.045966,-0.26207,-0.0344815,-0.243634,-0.0381586,0.0639855,0.293207,0.0742534,-0.250375,-0.056659,-0.0734004,-0.2372,0.309318,-0.0851674,-0.218615,0.0274227,-0.184099,-0.270665,-0.0726095,0.242558,0.345977,-0.0922506,-0.0985822,0.248833,0.373845,0.188576,-0.0476244,-0.143431,-0.151879,0.13709,0.000800327,0.303431,0.106396,-0.161764,-0.250904,0.162547,0.138935,0.34383,0.225496,0.248014,0.158669,0.397999,0.395992,0.214785,-0.0100492,0.311335,0.330604,-0.000364476,-0.267855,-0.294751,0.355642,0.000798012,0.0096253,0.000146565,-0.0215832,-0.158507,0.167303,-0.232601,0.0174525,0.116418,0.119386,0.118677,-0.176112,-0.0337284,0.0136605,-0.1472,0.0265894,-0.222007,-0.0825358,0.33319,-0.112461,-0.242738,-0.0127613,-0.182082,-0.299697,0.171132,-0.170123,0.0130342,0.116232,0.306111,0.315149,0.372716,-0.266789,-0.161009,0.249378,0.115845,0.331139,0.369257,0.268532,0.283643,0.0883532,0.306102,0.0614558,-0.09196,0.263324,-0.238933,-0.118073,0.313642,0.0767337,0.240436,0.158195,-0.275428,0.37675,0.384835,0.361079,-0.100317,-0.075986,-0.146315,0.03881,-0.035089,-0.0214163,0.000722241,0.377761,-0.131484,0.324971,0.137612,0.0993243,-0.172821,0.317933,-0.26782,0.152035,-0.0111756,-0.0148504,-0.260816,-0.192103,-0.0201932,0.0703936,0.108993,0.0224615,-0.237907,0.250512,-0.0275088,0.168836,0.0700537,0.0122804,0.348112,-0.19665,0.349654,0.0232839,-0.231719,-0.0261479,0.171227,0.0799945,0.172142,0.329595,-0.0613956,-0.132346,0.16117,-0.159291,-0.134094,0.0188395,-0.0348921,0.189277,0.0438368,-0.099617,0.114128,0.0388362,-0.132182,0.118342,-0.0342351,0.243406,0.348968,-0.12947,-0.219,-0.195887,-0.119123,-0.0647594,-0.101041,-0.166299,0.283527,0.0266326,0.00544827,0.238874,0.39557,-0.0956583,-0.256994,0.0770722,0.338499,-0.029947,0.15862,0.301403,0.0227378,0.235899,0.236573,0.248324,0.319008,0.39798,-0.0865,-0.118376,0.265424,-0.0981776,0.321455,-0.150326,0.134331,0.0317022,0.0571061,0.165278,0.227707,-0.0913492,-0.0767122,0.0689669,0.326078,0.333848,0.239985,-0.115704,0.161009,0.357652,0.370661,-0.276206,0.233012,-0.187279,-0.0365852,0.0563509,-0.151822,0.393086,0.350168,0.39428,0.0938922,0.313998,0.00412433,-0.289639,0.225416,0.338122,0.000275503,-0.256906,0.0877954,0.1002,0.0763106,0.100701,-0.159491,-0.282718,-0.158233,0.322608,-0.188269,0.316873,-0.26915,-0.0921738,0.14978,0.267607,0.146645,0.269821,0.296338,0.347912,0.393331,0.327352,0.052068,-0.0638939,0.043453,0.189274,0.157549,0.256386,0.137547,-0.253979,-0.0401217,0.2656,-0.138868,0.322331,-0.111926,-0.185645,0.0985775,-0.294423,0.00888899,-0.132107,-0.29086,-0.0951096,0.284373,-0.280246,0.121877,-0.246228,0.103883,-0.115945,-0.10307,0.112472,-0.0880792,0.100013,-0.249608,0.082854,-0.296686,-0.267337,0.388512,0.0921826,0.00851931,-0.195141,0.349381,0.0564066,0.140148,-0.0548218,-0.00299042,0.0831247,0.0236093,-0.0153098,-0.0317593,0.322006,0.381498,0.189031,0.214776,-0.276593,-0.103108,0.0579698,-0.159294,0.11348,0.224401,0.178549,0.381694,-0.0543308,-0.0270996,0.0653075,0.121126,0.238646,-0.269436,-0.0276919,0.291761,0.0585766,-0.0455604,0.311111,0.259545,-0.143779,-0.202783,0.359097,-0.264362,-0.182302,0.391927,0.393124,-0.185974,0.338984,0.366595,-0.168781,-0.117909,0.182168,-0.288238,-0.280762,0.399748,0.125025,-0.22824,0.044346,0.195883,-0.0397821,0.0815687,0.211556,0.376384,0.156946,0.121634,0.166291,-0.00609004,0.241215,-0.287482,-0.00154725,-0.227194,0.307086,-0.178753,-0.288039,-0.261234,-0.184503,0.300013,-0.206354,0.0489246,0.0921263,-0.168339,0.066707,-0.0309002,-0.21777,0.201027,0.262974,0.0956156,0.173599,-0.133958,-0.202969,-0.031681,-0.155904,-0.0504687,0.178943,0.371558,-0.253102,-0.0762874,-0.151912,0.370255,0.289477,-0.190572,0.262528,-0.222163,0.317508,0.161706,-0.270157,-0.0972393,-0.1372,-0.135655,0.11204,-0.0295504,-0.235762,-0.196333,0.0897746,0.268309,0.021574,-0.154313,0.120448,0.309402,-0.209047,-0.013755,-0.226487,0.262661,0.181873,0.0978179,-0.0208214,0.246148,0.164913,0.0434612,-0.0272298,0.130268,0.0497839,0.180884,0.0704825,0.0479894,0.0427635,-0.172269,0.0609474,0.0581091,-0.0574257,0.0106186,0.146144,-0.139685,0.0849451,0.368992,-0.183437,-0.193579,-0.205035,0.0365352,0.194875,-0.0935083,-0.243998,0.0712921,0.333042,0.176621,0.354969,-0.243005,-0.00408785,-0.275861,0.313749,-0.253046,0.117286,0.017839,0.26542,0.172285,0.161421,-0.0594052,0.185192,0.387547,0.37533,-0.0299519,0.234883,0.373943,-0.234387,0.284856,0.230629,-0.0268173,-0.115113,0.344325,0.29414,0.173359,0.361328,0.136553,-0.00572659,-0.180961,-0.243616,0.142406,-0.0582515,0.366869,0.284657,0.213886,0.3433,0.159464,-0.119371,0.0114228,-0.223585,-0.0618462,0.246442,-0.202045,-0.106245,0.368816,0.364687,0.03766,-0.283613,-0.00116377,-0.088259,-0.00563162,-0.0753356,0.321331,0.254689,0.0778691,0.107523,-0.234313,0.166833,-0.266189,0.278477,0.0870014,-0.153532,-0.173285,0.117681,-0.0234402,-0.127119,-0.091756,0.250443,0.0656694,0.28361,0.0234773,-0.280286,-0.257198,-0.291698,0.246205,0.264567,0.158788,-0.257121,-0.105016,0.360985,0.139166,-0.201922,0.124143,0.137126,0.0779692,0.207689,-0.0634451,0.120552,-0.167859,0.230108,-0.183158,0.227815,0.0917642,0.327924,0.230254,0.154871,0.244732,0.25984,0.0843307,-0.121292,0.109859,0.268771,-0.0988453,0.0293548,-0.0405396,-0.298135,0.096043,0.140347,-0.0962101,0.345582,-0.190012,0.139058,0.0583643,-0.29027,-0.00681455,0.285134,-0.233235,-0.252603,0.0848364,0.0156061,0.100845,0.141885,0.38862,0.00868349,0.209654,0.247349,0.188622,0.222089,0.139238,-0.183351,0.203586,0.318676,-0.00472645,0.200669,0.125873,0.135902,0.370916,0.353801,-0.157419,0.310846,0.209671,-0.169913,-0.0146159,0.0183377,-0.171196,0.303817,-0.0947466,0.332618,0.370924,0.299408,-0.0787778,0.371861,-0.290711,-0.135228,0.336268,0.334198,-0.123812,0.073121,-0.128643,-0.0144622,0.137453,0.0865056,0.0119003,-0.292329,-0.114942,-0.234251,-0.286542,0.367121,0.169243,0.0624908,0.265392,0.0126556,0.0417126,0.0760252,-0.142213,-0.237096,0.332617,-0.190633,-0.251469,0.0903455,-0.166938,-0.189119,0.178698,-0.134722,0.00431747,-0.266855,0.231469,0.364528,0.386157,0.295706,0.0826896,0.00785196,0.126016,0.18413,0.239517,0.229953,-0.298633,0.0721881,-0.286004,-0.152654,0.0561912,0.398465,0.32834,-0.270693,0.224375,0.184376,0.198704,0.0340364,-0.238841,0.327145,0.395384,-0.0837461,0.0551812,-0.248878,0.124715,0.168951,0.342223,-0.246538,0.230221,-0.193627,-0.00613371,0.0270388,0.160809,0.348683,0.100988,0.296497,-0.198932,-0.28336,-0.174236,0.150365,-0.287899,-0.0019806,0.142589,-0.196186,-0.0205853,-0.208865,-0.0582256,-0.0214652,0.313662,0.289874,-0.0846936,0.130048,0.202657,0.0145937,-0.101627,0.211265,0.360899,0.352403,0.188455,0.30377,0.073096,0.31362,0.213038,-0.198707,0.0787857,-0.13552,0.167964,0.28229,-0.00446794,0.0457791,0.399232,-0.248031,-0.0732757,0.337348,-0.0512466,-0.107134,0.151411,0.375408,0.237206,0.00323876,0.142607,0.185334,-0.095057,-0.0375811,-0.0885694,-0.263125,0.0833633,-0.0957645,0.0234559,0.382635,-0.181969,0.0341899,-0.21527,-0.113054,0.216567,0.174538,-0.256359,-0.291288,-0.158408,0.371828,0.30629,0.142287,-0.0778434,0.0512597,-0.188943,-0.119531,-0.195849,-0.148551,-0.0387816,0.106023,-0.186699,0.12548,0.260091,0.272209,0.349853,0.24104,-0.15265,0.381584,0.390393,0.364919,0.28276
-0.277056,0.315481,0.0668702,0.374202,-0.126214,0.33681,0.32421,0.396963,-0.168464,0.14629,-0.232336,-0.199158,0.177694,0.15413,0.143603,0.152738,-0.0604568,0.148143,-0.0625687,0.210143,0.254144,-0.0676742,0.233894,-0.225294,-0.101017,-0.121189,0.353974,-0.0798404,0.293903,0.358693,0.349787,0.14365,0.133726,0.0741286,-0.204953,0.335398,0.0689483,-0.0339762,0.150652,-0.284919,0.380479,0.114943,0.144064,-0.0681663,0.171109,-0.185504,-0.152925,0.274065,-0.0772006,0.128712,0.0808038,-0.116049,-0.162632,0.215104,0.23961,-0.170293,0.012035,0.0296581,0.0617696,0.324707,-0.234519,-0.0131365,0.0379971,-0.0542842,0.0725253,0.397428,0.384905,-0.154131,0.112908,0.354776,0.274459,0.208014,0.299218,0.291479,0.0473901,0.335924,-0.012758,0.181764,-0.299136,0.131447,0.136968,-0.295622,-0.11686,0.352821,-0.179038,0.0434522,0.074284,0.102806,0.352913,0.350809,0.19629,0.138942,0.336027,-0.266377,0.329402,-0.0380141,0.293462,-0.101979,-0.125529,0.0681573,0.194887,-0.286177,-0.0600995,0.120379,0.12836,-0.0722502,-0.204897,0.232712,0.0390123,0.193812,0.266726,0.314977,0.383483,0.341156,0.0178374,-0.228578,0.315637,-0.0427999,0.392862,0.205332,0.161537,-0.201063,-0.13866,0.126792,-0.109519,-0.183466,0.0466068,-0.299165,0.347601,0.0974761,0.172055,0.348334,0.349193,0.212997,-0.18786,-0.268906,-0.0936338,-0.214612,0.0778525,-0.17101,-0.114252,-0.0521257,0.0276473,-0.0491719,-0.0368669,0.116857,0.130268,0.0777535,-0.118949,0.255564,-0.228435,0.384294,0.273702,0.240023,-0.0668155,-0.0651426,0.362135,0.212134,0.133541,0.00490501,-0.017233,-0.173188,0.0600447,0.318393,-0.242564,0.281414,-0.121848,-0.0456802,-0.132428,0.0355258,-0.142985,0.313473,0.333713,0.000238633,0.288951,0.198204,-0.228823,0.0167668,0.238159,-0.00394485,-0.278388,0.297663,0.308079,0.11961,0.322636,0.150501,0.259594,0.195216,0.0301319,-0.0436591,0.156781,0.249849,-0.156654,0.126853,0.0906517,-0.106966,0.249413,0.208104,0.146565,0.237127,-0.256697,0.258563,-0.133253,0.360204,-0.0649667,-0.0329941,0.277602,0.0504817,0.20165,-0.264229,0.0294898,-0.0666981,0.189442,-0.0979908,-0.0770768,0.226882,0.13864,0.215107,0.359814,-0.275629,-0.178505,-0.054056,-0.295838,-0.251726,0.0717766,0.0474896,-0.210151,-0.0279791,-3.49436e-06,0.0411154,-0.0504431,-0.0381642,0.162012,0.144504,-0.188565,0.327831,-0.10942,-0.0762861,-0.0576757,-0.163184,-0.256063,-0.220673,0.266462,-0.118531,0.0844023,0.0461263,0.0577299,0.0551379,-0.252134,-0.171765,0.125143,-0.277395,-0.190919,0.135226,-0.214643,-0.155577,0.3066,0.148323,-0.24577,0.340023,-0.168146,0.287399,0.0384375,-0.154485,-0.150816,0.192126,-0.230292,0.159023,-0.153324,-0.2947,-0.0459033,-0.180719,-0.114606,0.0611427,-0.0181994,0.117493,0.151911,0.0677887,0.0765978,0.288092,0.0748249,-0.106071,-0.180313,0.274671,-0.0868437,0.238435,0.0321632,-0.281361,0.38262,0.39814,0.252361,0.364858,-0.285551,-0.186207,-0.210644,-0.161425,-0.173011,0.310739,0.190732,0.0810394,-0.00300962,0.305254,0.305593,0.195104,0.21043,-0.0958471,-0.0205899,-0.198919,0.285107,-0.237575,0.064531,0.143865,0.139287,0.0258878,0.0782079,0.350188,-0.0987745,-0.269954,0.0981251,-0.114881,0.332131,0.17443,-0.174823,-0.300164,0.164189,0.0470185,-0.00248253,-0.172838,-0.0861645,-0.182553,-0.205181,-0.0948391,0.382046,0.377771,0.311242,0.395434,-0.20121,0.141818,0.036955,-0.221787,0.223567,0.0862912,0.129213,0.175654,-0.140949,-0.0539601,-0.192544,-0.0969902,0.0863745,-0.0573125,0.358587,0.0923827,0.384964,0.365285,0.185245,0.382835,0.144229,0.07187,0.0825858,0.329911,0.126446,0.240004,-0.224379,-0.272781,0.18875,-0.264853,0.00722718,-0.213449,0.0286551,0.316341,0.302247,-0.221894,0.254135,0.354921,-0.29952,0.169287,0.0490044,0.18648,0.387478,-0.128963,-0.0701923,-0.130716,-0.188559,0.0236325,0.266678,-0.132529,-0.0825743,-0.16569,-0.135307,0.13341,0.183688,-0.298521,-0.0226679,-0.284747,0.297819,-0.0723913,-0.147753,0.050054,0.152413,-0.231309,0.374344,0.0786675,-0.104065,-0.185562,-0.190344,0.342008,0.328627,-0.152959,0.319323,-0.0111164,0.0680379,0.0761813,0.139717,0.361684,0.275149,-0.0040041,-0.0995696,-0.213437,0.0773062,-0.0387688,0.0820781,0.236637,-0.236011,-0.269919,-0.124326,-0.011183,-0.201092,-0.229245,0.353236,-0.0459582,0.126478,0.275889,-0.192734,-0.109717,-0.289725,0.185516,0.271213,0.282916,0.0878237,0.263794,-0.221459,0.104174,0.272238,-0.0741539,-0.13032,-0.0688439,0.0910816,0.261362,0.105965,-0.0608808,-0.00669088,0.153168,0.000616758,0.14409,-0.292929,0.0390031,-0.271403,0.116452,-0.113309,0.206098,-0.280412,-0.0623541,0.0312782,-0.223122,0.295558,0.321026,0.309477,0.0735853,0.0653438,0.169686,-0.12764,0.310005,-0.168056,-0.00801956,-0.00528915,-0.188953,0.222019,0.348026,-0.27751,0.305844,-0.200348,0.249487,0.0658514,0.0860718,0.070528,0.0795556,0.218671,0.184542,0.339035,-0.0369767,-0.258223,0.366224,0.0262057,0.251797,-0.00862758,0.176151,-0.195698,-0.0488638,-0.170391,0.346477,0.266809,-0.244371,-0.100533,0.210002,-0.018586,-0.0779938,0.00204458,-0.292219,0.044958,0.342823,0.353879,0.249508,0.195451,0.0525774,0.366379,-0.2823,-0.110224,0.025406,0.127132,0.359508,-0.0922592,0.20265,0.317202,0.370075,0.394773,0.206248,0.152122,-0.190256,-0.00422366,0.268853,0.277995,0.0550628,0.39591,-0.0474708,-0.292199,0.121994,-0.0750455,0.273203,0.032375,-0.124781,0.133186,-0.194934,0.391947,0.148028,-0.0961523,0.191185,-0.0607611,-0.0073877,0.302337,-0.277137,0.381801,-0.0111786,0.331408,0.219063,0.136588,-0.0815985,-0.205782,0.269415,-0.018891,-0.248839,-0.0711513,0.0732886,-0.164871,-0.0651623,-0.178915,0.0324942,0.258132,0.140292,0.258196,0.133677,0.196239,0.157972,-0.270901,-0.217103,0.365591,-0.0099781,-0.168369,0.219053,0.299859,0.0385369,-0.100157,0.0735843,-0.145986,-0.166493,0.204577,0.204321,0.196502,0.398789,-0.160012,-0.0296483,0.368119,0.305991,0.259066,0.371913,-0.147753,0.305828,-0.143145,-0.27433,-0.267486,0.291238,0.374706,0.101195,0.275703,-0.0153046,0.0215812,0.385553,0.124999,0.399341,0.383536,-0.201353,-0.164374,-0.0322524,-0.0795483,0.338087,0.237964,-0.11252,-0.282872,-0.238131,-0.235048,-0.0180905,-0.105632,-0.00276549,0.124211,0.315375,-0.261056,0.181834,-0.0470825,0.372965,0.26494,-0.0778156,-0.164248,-0.162743,-0.137556,0.182696,-0.275649,-0.231368,-0.0537141,0.0794607,0.24261,-0.166373,0.0600244,0.102177,0.106389,0.176566,0.0491208,0.23591,-0.251948,0.0808356,-0.0421969,0.00305081,-0.118416,-0.0773998,-0.133123,0.0966051,0.183114,-0.0455808,0.118228,0.0297713,0.132738,0.324855,-0.0469231,-0.127665,0.193445,0.0742856,-0.0917578,-0.205259,-0.231346,0.207087,0.38625,-0.108165,-0.0870425,0.185853,0.359535,0.310028,0.242996,-0.0541206,-0.182341,-0.0531216,0.122408,0.276139,0.111134,0.0488238,-0.14121,0.360637,0.212686,-0.225052,0.0998498,0.0325327,-0.157212,-0.148794,0.0583343,-0.0649325,-0.222337,-0.0154143,-0.245346,0.133785,-0.204823,-0.13685,-0.0942695,0.181841,-0.0291182,-0.0906494,-0.248902,-0.217752,0.176714,-0.286837,-0.250819,0.241966,0.0048154,0.10897,0.318975,0.271562,0.258221,-0.170637,0.0792347,0.319892,-0.164071,0.399086,0.151205,-0.106229,0.356926,0.39218,-0.230293,-0.0395759,-0.259431,-0.272775,0.288999,-0.220221,-0.296661,0.0224603,0.00503795,0.259281,-0.0235553,-0.0224339,0.396458,0.383923,0.00325932,-0.188644,-0.100585,0.213886,-0.163934,-0.279635,0.019709,-0.200344,-0.0223012,0.0853335,-0.100248,-0.190834,0.286343,0.294276,-0.0638757,0.216196,-0.200719,-0.293062,0.377444,0.0435346,0.390593,-0.271577,0.0877096,0.112433,0.0094987,0.0177149,0.309009,-0.110194,0.126119,-0.298493,-0.292493,0.18665,-0.172419,0.114803,0.241366,-0.00396118,-0.215223,0.338765,0.327059,-0.0736284,-0.255109,0.264815,-0.253539,-0.179032,0.160038,0.344381,-0.224662,0.212947
0.00808274,0.15951,-0.135281,0.110255,0.023284,0.374421,0.265424,0.0644473,-0.113034,-0.296919,0.0302834,0.208028,-0.00935435,-0.154469,-0.233303,0.119905,-0.164307,0.241239,-0.00709165,0.0066275,0.169821,-0.218701,0.265017,0.252854,0.231561,-0.0725428,-0.280369,0.23209,0.000958774,-0.205405,0.0114047,-0.269902,0.216235,0.0229176,0.0851752,0.372118,0.283035,-0.286989,-0.142025,-0.0944546,0.107049,-0.259763,0.15407,-0.166064,0.387394,0.233396,-0.122326,0.348462,-0.291657,-0.0811942,0.14569,0.248897,-0.243041,-0.177531,0.281776,0.314479,0.207896,0.139708,0.290211,-0.195001,0.199279,-0.252885,0.309896,-0.0493901,-0.144784,-0.219511,-0.233608,-0.0765388,-0.142423,-0.251201,0.0211301,-0.1627,0.236711,0.203918,-0.0618927,-0.228237,-0.12133,-0.25146,0.0653744,0.27092,0.0268483,0.386359,-0.0379474,0.310176,-0.0393627,-0.10004,0.143847,0.281426,0.0381229,-0.0193165,0.200923,0.384221,0.293557,0.366147,0.355876,-0.11121,-0.0475309,0.0249423,0.107983,0.24422,0.0857672,0.147551,-0.163949,-0.00350349,0.0395681,-0.124783,-0.289994,-0.0930943,0.376536,-0.166471,0.377915,-0.0811566,0.164868,0.18825,-0.223817,0.062637,-0.0610525,-0.092195,0.34276,0.256642,0.286332,0.0364401,-0.0335784,-0.098298,0.366474,0.17393,-0.141826,-0.10439,0.332651,0.0569754,-0.12223,0.297125,0.0495082,0.333545,-0.196288,-0.245947,0.178402,-0.254737,0.172281,-0.284914,0.138827,0.290386,0.18394,-0.0383174,0.398065,0.0834404,0.294337,0.360503,0.101415,0.199616,-0.00933021,0.280079,0.311194,0.302108,-0.225747,0.0703565,0.350201,0.251282,-0.0536186,0.256255,0.316782,-0.0127324,0.32041,0.0323369,0.0785553,0.190513,-0.253297,-0.182936,0.1105,0.215059,0.296678,0.351137,0.0703219,-0.0203882,0.274829,0.300365,-0.20619,0.236207,-0.204252,0.246288,-0.000207048,0.189344,0.320595,0.323124,0.36959,0.184572,0.183151,0.089698,0.0219933,0.0384597,0.373519,-0.212672,0.122319,0.0364018,0.247936,0.38108,0.352215,0.0626404,0.209187,0.123996,0.19052,0.394565,0.128868,-0.243636,0.220704,0.322156,0.0634138,0.070004,-0.279471,0.220676,-0.271904,-0.256512,-0.265502,-0.24962,-0.210224,0.294142,0.215696,-0.102136,0.0230266,0.143914,-0.292164,0.138011,0.21329,0.0453214,0.165882,-0.166012,0.248188,-0.239848,0.192982,0.0525859,0.360683,-0.150519,0.270339,0.20372,0.0829896,0.356915,-0.209688,0.398442,0.384242,-0.257256,0.34027,-0.277215,-0.184307,-0.138658,-0.0452563,-0.0853061,0.375346,0.0339719,-0.201706,-0.234049,-0.104162,-2.81527e-05,0.278627,0.208217,-0.0390223,-0.284714,0.359527,-0.180456,-0.121707,0.372008,0.172082,0.0215732,0.0867155,0.203268,0.399204,0.370515,0.249774,-0.0374858,-0.076514,-0.251728,-0.00564872,-0.277779,-0.0858651,-0.0643134,0.152212,-0.205437,-0.246303,0.0755342,-0.122236,0.0185141,-0.0338523,0.222714,0.0774672,-0.290366,0.353063,0.367695,0.134504,0.220292,0.110763,-0.158408,-0.232474,-0.199047,0.00747655,0.291224,0.000985709,0.22741,0.122735,0.334742,0.38932,0.167801,0.21235,-0.230845,-0.227571,0.348141,-0.29932,0.0614288,-0.198539,-0.281034,0.173359,0.0819218,0.317372,-0.0420709,0.361718,-0.288046,-0.186886,0.310244,-0.202396,-0.20357,-0.126713,0.116637,-0.274687,-0.143268,0.218051,0.117886,-0.0358973,0.243473,0.0332045,0.301127,-0.118006,0.342383,-0.0680722,0.0509823,0.0958854,0.220794,-0.0812375,-0.206561,-0.248048,0.113861,0.303133,0.0986599,0.0014386,0.245129,0.237959,0.198499,0.126528,0.284666,0.120069,0.322856,-0.277155,0.231132,-0.261559,-0.00506407,-0.292815,-0.0667092,-0.196784,0.178417,0.153667,-0.282941,0.140244,0.0340508,0.318188,0.0511678,0.0827882,0.375086,0.258946,-0.0804621,-0.044765,0.367255,0.32016,0.214995,0.0652267,0.279761,-0.0263813,-0.0641372,0.305784,0.316969,-0.000488353,-0.0974171,0.290445,-0.0476572,0.388944,0.369703,0.314581,0.380888,0.0549342,0.247745,0.26948,-0.180918,-0.165316,-0.288063,0.296004,0.373746,0.166945,-0.0720612,0.317253,0.0877599,-0.163924,0.243139,0.127205,0.111864,-0.247094,-0.10524,-0.0303142,-0.106974,-0.0295138,0.381549,-0.194013,-0.171032,0.21316,0.137521,-0.0162131,0.387379,-0.197175,0.0686647,0.10501,0.333541,0.265248,0.384596,0.232435,-0.135111,0.211735,0.288534,-0.199467,0.100217,-0.23965,-0.152514,-0.215351,-0.179555,-0.0941486,0.227805,-0.00018182,-0.196963,0.0951598,0.195007,-0.130385,0.253944,-0.27774,-0.226338,0.150014,0.280707,-0.199989,-0.129879,-0.0654246,0.303115,0.0156887,0.344023,-0.262461,0.247037,0.0313008,0.041063,0.0817246,0.0217843,0.237931,-0.137098,0.0728863,0.0294953,0.329697,-0.204488,0.102694,-0.209751,-0.0053401,0.0683191,-0.139281,0.151617,0.0882385,0.164638,-0.00979456,0.161702,0.203301,0.257628,-0.0329073,0.355295,0.0890793,0.189262,-0.151615,0.0575573,0.129101,-0.129747,-0.138382,-0.250177,-0.0574243,-0.279422,-0.120983,0.28411,0.111489,0.114428,-0.245529,0.209118,-0.199333,-0.133273,-0.237025,-0.203893,0.175657,-0.279256,0.0210684,-0.294621,0.0707726,0.364371,0.228722,0.102112,0.13742,0.24199,0.0109935,0.0692122,-0.194315,0.194559,-0.197149,0.294378,-0.210298,-0.116841,-0.252738,-0.196372,0.0868784,0.0383595,0.0562344,0.225347,-0.120735,0.379968,0.310312,-0.0745736,-0.201733,0.264836,-0.269877,-0.0745743,0.368922,0.299774,0.111742,-0.259092,-0.121327,0.0611681,0.152623,0.142851,0.192671,-0.00706001,0.356033,0.0722564,-0.0293417,-0.205346,0.246811,-0.160884,-0.109959,-0.0228331,0.0871875,-0.0927929,0.0483105,0.315861,0.0191742,-0.291654,0.133169,-0.245016,-0.274933,-0.205606,0.041907,-0.0966369,-0.0618995,-0.155311,0.342247,-0.122431,-0.213788,0.0754318,0.244369,0.0346367,-0.295757,-0.0636872,0.186645,0.237984,0.399132,0.252158,-0.297007,-0.292777,-0.0979498,-0.096133,-0.22866,0.204162,0.196488,0.190706,0.306456,-0.012841,0.243935,0.277861,-0.0862815,-0.10378,0.20609,0.369923,-0.249795,-0.0968302,-0.00529111,0.209784,-0.290615,-0.211397,0.120407,-0.244239,-0.0035358,-0.228435,-0.104735,0.119574,-0.218047,0.0612683,0.257936,-0.273817,-0.279061,0.0598506,-0.0384317,-0.115485,0.0207995,0.379326,0.111067,0.020359,0.140082,-0.00548102,0.178651,0.263266,0.20745,0.11903,-0.215974,0.0373658,-0.264595,0.0985993,-0.120997,-0.141631,0.0309677,-0.274043,0.111009,-0.134247,0.261043,0.268699,0.0102745,0.215322,-0.111029,-0.292607,0.0735129,0.349657,0.234455,0.389099,-0.110544,0.16164,0.37243,0.0725789,-0.110701,0.0957969,-0.277514,-0.00993405,0.344446,0.377774,-0.252323,0.197188,0.0084973,-0.0799865,0.310764,-0.269733,-0.0589148,0.0120713,-0.0847292,-0.159814,0.178199,0.0225321,0.261396,-0.167396,-0.294011,0.0291089,-0.136932,-0.117795,0.00667133,-0.289897,0.254446,0.341451,0.223779,-0.000470488,-0.292076,0.0161537,0.312138,0.352646,0.126116,-0.26696,0.232708,0.21926,-0.0854073,0.365836,0.354375,0.371716,-0.115974,0.248706,0.205084,0.0779635,-0.0852187,0.0423279,0.0627456,-0.222519,0.116316,0.378087,-0.290609,0.352123,0.310174,0.3483,0.243588,0.232245,0.387354,0.372415,-0.228142,0.34723,0.255098,0.00168918,0.0793781,-0.0411017,-0.181163,-0.205426,-0.291288,0.372178,-0.164801,-0.0831528,0.314438,0.283197,-0.140696,-0.286549,0.363452,-0.253049,-0.266616,0.00468468,0.227077,0.0171706,0.144716,-0.268491,-0.277713,0.157382,0.280255,-0.0714147,0.289249,0.0711711,0.0369283,0.345565,-0.185923,0.338436,-0.111561,0.279407,0.0179231,0.11779,0.265907,0.153762,-0.292934,0.301935,-0.116577,0.0033358,0.107739,-0.120385,-0.260962,-0.204167,-0.214674,0.395597,0.319061,-0.142808,-0.243793,0.161401,0.157159,0.0265983,-0.184267,0.105464,0.0701642,0.00641995,0.370275,0.120022,0.203318,0.236243,-0.0952693,0.0906406,-0.170652,0.15897,0.270824,-0.13236,0.328919,0.201485,0.13725,-0.239523,0.281811,0.137929,-0.0278581,0.0183495,-0.0779789,0.172485,0.306466,0.183231,0.365685,0.187385,-0.143278,0.266114
0.166407,0.00656598,-0.266443,-0.260613,-0.175871,0.322401,0.0384464,-0.196633,-0.0168007,0.128057,-0.0333231,0.00610585,-0.252012,0.109728,0.307607,0.280141,-0.232786,0.133898,-0.122298,0.183123,0.396953,0.292383,0.167536,0.0931759,0.303799,-0.0667027,-0.0607941,0.354157,-0.184366,-0.0536912,0.357662,0.319134,0.378655,-0.0750138,0.291235,0.287278,0.234611,0.37848,0.264087,-0.117358,0.0708331,0.21322,0.296313,0.0710261,-0.141185,0.359538,0.316958,0.261725,-0.0640633,0.259956,0.28077,-0.209732,0.143447,0.196444,0.277537,0.131591,0.276523,0.375035,-0.135554,0.337166,-0.141493,-0.0594378,-0.290529,0.245361,-0.201567,0.144291,-0.123394,-0.238814,-0.261084,0.1348,-0.0594703,0.352158,-0.0429337,0.0946696,0.161839,-0.143343,0.224137,0.19663,-0.189662,0.0533018,0.288287,0.29689,0.269781,-0.113651,-0.0166054,0.0411359,-0.0941319,0.0955801,0.129449,0.105163,0.236436,-0.154932,0.130053,0.0383993,-0.115796,-0.0978768,-0.273275,-0.263529,0.049413,-0.0420401,0.122676,0.0114001,0.083561,-0.259098,0.0295495,0.183913,-0.0971175,-0.0823729,0.0534334,0.0682469,-0.278782,-0.170324,-0.226812,0.0706118,-0.159929,-0.0396797,0.224795,-0.224192,0.0790207,-0.118864,0.349148,-0.0600047,0.180977,0.275731,0.112588,-0.133254,0.0762395,-0.218005,0.26155,-0.0174463,-0.0596579,0.158349,0.217353,0.187484,0.330266,0.0123014,0.173275,0.30192,0.231646,0.394328,-0.197124,0.181049,0.304675,-0.299089,0.337663,0.217724,0.0588947,-0.215039,0.323574,-0.190708,-0.254859,0.0192771,0.218436,0.105026,-0.104073,-0.189476,-0.164104,0.211738,0.201456,0.311848,0.297555,0.173084,-0.246847,-0.0718106,0.101621,-0.0983862,0.339576,0.264517,-0.230444,0.379213,0.131509,0.310264,-0.224446,-0.199179,-0.262284,-0.289295,-0.0756381,0.0831624,0.265649,0.118409,0.281518,0.309996,-0.0260176,0.274684,-0.0826485,0.23574,-0.0490224,-0.284189,-0.123721,0.218841,0.198112,-0.24779,0.326288,-0.291903,0.0624713,-0.18305,-0.298354,0.252052,-0.207765,0.229351,-0.203281,-0.244442,0.358304,0.373887,0.120928,0.0530288,-0.280739,-0.162848,0.17381,-0.178587,0.170731,-0.0976944,-0.0523537,-0.194325,-0.242305,0.34697,-0.177071,0.0764487,-0.112615,0.142317,-0.0426931,0.193641,0.0259541,-0.200634,0.336607,0.196949,-0.284366,-0.0412489,0.18958,-0.00381943,-0.208329,0.273499,0.0300884,-0.0197055,-0.0611356,0.178037,0.136201,-0.277567,-0.129969,-0.00669293,0.12265,0.396894,-0.142381,-0.237025,-0.281673,0.0833425,0.209901,-0.130252,-0.191513,0.180996,0.318478,0.12478,0.348954,0.200226,0.366618,-0.017459,-0.186019,-0.14153,0.0313154,0.0723944,-0.215125,-0.249464,0.0618202,-0.00193839,-0.258113,-0.0882547,0.373108,0.299851,0.364816,0.153337,-0.167289,0.0259287,-0.295103,0.0828445,-0.218963,-0.0885286,-0.163861,-0.11018,0.366393,-0.188839,-0.0549523,-0.187332,0.129785,0.382464,-0.231699,0.0622845,-0.176289,-0.233821,-0.159602,-0.179228,-0.0999373,0.160433,0.0538597,-0.108689,0.349987,0.338208,-0.198834,-0.081792,0.0320905,0.200836,-0.202744,0.348835,-0.0281179,-0.283482,-0.248408,0.0618413,0.0671807,0.142356,0.39094,-0.16959,-0.0156636,0.373707,-0.200335,-0.255656,-0.0217936,-0.180807,0.279535,0.0633569,-0.177264,-0.0511032,0.295042,-0.0789239,-0.015386,-0.189667,0.309754,-0.145667,-0.276148,0.0639575,-0.126512,-0.223375,-0.241521,0.326792,0.0709619,-0.227831,-0.0261241,0.180766,-0.110179,0.226383,-0.184964,-0.16447,-0.0807615,0.270533,0.243225,0.294568,-0.163178,0.157742,0.192567,-0.276888,0.293039,0.245692,-0.289087,-0.136379,-0.145779,0.106505,-0.0806523,0.294064,-0.287434,0.234107,0.0744459,-0.0210935,-0.177951,0.0738889,0.0674605,0.00792778,-0.13005,-0.254662,0.246899,0.369084,-0.0556166,-0.122004,-0.105337,0.0547445,0.304656,-0.0650716,0.244521,0.344547,0.0179945,-0.0558315,0.0742244,0.266611,0.166703,-0.288621,0.257802,0.177846,0.190721,-0.266776,-0.289177,0.367048,0.0692718,-0.0150065,-0.186705,0.12178,-0.293616,0.106144,-0.25429,0.258973,-0.17425,-0.0498904,-0.178665,-0.134039,-0.0634584,-0.172659,0.148478,0.0481164,-0.222805,0.107131,-0.189125,-0.170284,-0.199257,0.204635,-0.00462863,-0.193834,0.105309,0.121753,0.154023,0.0931797,0.374388,0.366592,-0.2631,-0.229846,0.233458,-0.0790004,0.174967,-0.234722,-0.217247,-0.0213871,0.0522965,0.278794,-0.28385,-0.172505,-0.150989,0.290197,0.0845794,0.294973,0.0905684,0.04828,-0.0855327,-0.268841,0.187837,0.089779,0.240309,0.0492889,0.000818096,-0.216651,0.159849,0.0974396,0.212763,0.145783,0.371866,0.181942,0.0477555,-0.0722408,0.305987,-0.0853784,0.315144,0.216869,-0.195145,-0.09376,-0.182738,0.250986,-0.133959,-0.0223935,0.103765,0.394914,0.103535,0.21029,0.307002,-0.127972,0.0402475,0.309114,-0.158137,0.299306,-0.21137,0.0973981,-0.192977,-0.176433,0.229024,0.118312,-0.131042,0.106166,0.346598,0.26339,0.365472,-0.250409,0.234183,0.298648,0.111546,-0.0823904,-0.277262,0.213315,0.343092,-0.0570713,-0.252909,0.0604542,0.381653,0.268385,-0.0946236,0.0126731,0.355703,0.321144,0.0257878,0.303325,0.0619542,0.267038,-0.105569,0.377969,0.202443,-0.162999,0.0580266,-0.27599,-0.020837,0.378977,-0.0408659,-0.295091,0.0836402,-0.171497,-0.187338,-0.235257,0.164133,0.0441635,0.383802,-0.0667147,-0.195652,0.107328,0.0779562,0.195203,-0.199875,-0.0681457,0.299132,0.250125,0.166139,0.381126,0.288656,0.0351219,0.0586106,-0.264154,0.10301,0.329274,0.247169,0.0175842,-0.061318,0.313481,0.0219495,-0.0961715,-0.233126,-0.190824,0.368228,0.342927,0.0825075,0.263922,0.394274,0.30627,0.0318001,0.309242,0.246952,0.380013,0.0242523,0.259959,0.298717,0.0424671,0.19051,0.18078,0.0403375,0.021903,0.393847,0.285686,-0.23559,-0.216183,0.156776,0.198873,0.0734345,0.144154,0.0100637,0.244455,0.197985,0.354068,-0.176268,-0.111052,-0.0433389,0.354979,-0.167956,0.00682302,0.0453025,0.34897,-0.0921027,-0.106999,-0.110933,-0.0176437,-0.00163583,-0.10713,0.338922,-0.209402,0.0820539,-0.128389,-0.0484328,0.197957,-0.247208,0.194854,-0.16643,0.0222682,-0.00435612,0.343847,0.185222,0.279732,0.257957,-0.264958,0.029398,-0.162262,0.381042,0.0661156,0.0583278,-0.0886231,-0.203704,-0.236584,-0.217109,-0.249013,0.0493997,0.146897,0.120612,-0.180454,0.259479,-0.108648,-0.196171,-0.298389,-0.0268011,0.199173,0.245291,0.0483368,-0.275875,0.0621737,0.242515,-0.002252,-0.244862,-0.169504,0.0582023,0.0718626,-0.185027,0.161656,-0.23952,-0.102881,-0.21363,-0.127994,0.154699,0.042963,-0.142832,0.062785,0.293819,0.126297,-0.00859717,-0.158257,-0.0967534,0.381006,0.213838,0.111662,-0.00112788,0.235016,0.060429,0.0494489,0.238824,0.396191,0.11281,-0.0530226,0.28901,-0.109315,-0.231359,-0.0652342,0.240413,0.152302,-0.239144,-0.139266,0.357542,-0.090839,0.0848631,0.346873,0.098756,-0.0349183,-0.256652,-0.206131,0.187542,0.222218,0.165343,-0.042016,-0.0290559,0.340787,-0.186013,0.169737,0.150992,0.38465,0.0367552,-0.182483,0.321035,0.249231,-0.128472,0.36736,-0.00643783,-0.183477,-0.133873,-0.0582652,0.25112,0.0372117,0.32201,-0.271906,0.00795696,-0.115232,0.0180417,-0.159164,0.115874,-0.122061,-0.269514,-0.295687,0.194503,0.121191,-0.200562,0.185285,0.0287259,0.0571897,0.260389,0.141324,0.208939,-0.221133,-0.207214,0.00841753,-0.146679,0.299054,-0.100747,0.200988,0.0978224,-0.175831,0.0744745,-0.0543636,-0.0182326,0.227248,0.171588,-0.28121,-0.277705,-0.230584,-0.0754685,0.313158,0.102664,0.265325,-0.0589162,0.301657,0.367997,-0.160073,-0.280905,0.323266,0.154673,0.17321,-0.200325,-0.138891,0.143545,0.0802402,0.114819,-0.164005,-0.0316144,0.122335,0.241792,0.185183,-0.0347478,-0.102233,-0.0826448,0.150615,0.396164,0.107262,-0.0702448,0.247212,-0.168378,0.143113,0.33966,0.332993,0.328308,-0.204084,0.344889,-0.247258,0.0824786,0.0291013,0.246483,0.279953,0.0974324,0.215825,0.0252128,0.322843,-0.0525893,0.086051
-0.112697,0.023619,0.0711727,0.279474,0.0917414,0.115911,0.381861,-0.0451229,-0.184864,0.170134,0.0291893,0.0463594,0.0638248,0.0870329,-0.0101643,0.11984,-0.103984,-0.0220842,0.0330028,0.22242,0.0579672,0.184026,0.134206,-0.125932,-0.199699,0.073813,-0.0213644,-0.0036699,0.277653,0.180496,0.335011,-0.0728068,0.290466,0.00385601,-0.062417,0.216139,-0.110272,0.249875,0.0553889,-0.151028,0.38575,-0.27419,-0.112083,-0.00132576,0.188,-0.128456,-0.127468,0.148596,0.221943,0.135414,0.229888,0.0822953,0.143148,-0.0200376,-0.0574834,-0.105392,-0.202714,-0.16869,0.291274,0.311245,-0.255912,-0.0537953,-0.0566248,0.370351,-0.0976335,0.0192128,-0.283221,0.361293,-0.0788593,-0.0985359,-0.185911,0.0663577,0.343163,0.0510051,-0.0482737,0.20259,-0.237936,-0.00660395,-0.12332,-0.0876678,0.344734,-0.296833,0.203243,0.297262,0.111242,0.0867999,0.346583,-0.154918,-0.250888,-0.209739,-0.199973,0.139927,0.259632,-0.106955,0.229967,0.014782,0.297393,-0.27846,-0.0702271,0.0290618,0.320861,0.245644,-0.189656,0.328188,-0.00184836,0.386549,-0.129381,-0.22114,0.194454,-0.0954431,-0.278041,-0.272509,0.185829,-0.214143,0.309243,-0.0263399,0.0179538,-0.191696,0.109283,0.113264,0.0663052,0.296313,-0.25846,0.148056,0.00428898,0.0526173,-0.124734,0.195525,-0.253041,0.27126,0.0672655,0.216962,0.368247,0.116157,0.217122,0.289913,-0.140205,0.0829795,0.368343,0.236414,-0.0601393,0.216347,-0.150837,-0.152851,-0.133251,0.200846,-0.123965,-0.0992697,-0.231284,0.307706,0.114732,0.322877,-0.0453116,-0.295674,0.324979,-0.116402,-0.193189,0.215451,0.380985,0.0819453,0.21918,0.138509,-0.00514292,0.108827,-0.109859,0.206217,-0.170995,0.242472,-0.0674186,0.000606358,-0.261127,-0.134897,0.0998567,-0.101041,0.0213818,-0.243105,-0.297339,0.172187,0.00439814,-0.245392,-0.187091,-0.291828,-0.131851,0.0302138,0.217936,-0.0199412,0.0308732,-0.119754,0.341642,-0.0686015,-0.228403,0.175847,0.378619,0.00311853,-0.0527393,-0.12924,-0.0380376,0.269055,0.262426,-0.29073,-0.281935,-0.291178,0.149422,0.0406807,0.221657,-0.217397,0.0234165,0.276614,0.208229,-0.266261,0.0646928,0.193695,-0.252076,0.092399,0.298239,0.127655,-0.243191,0.397178,-0.188732,0.256223,0.0311009,-0.0883912,0.292797,0.216912,-0.211806,-0.0458951,-0.166472,-0.0460074,0.103698,-0.183287,0.357734,0.249239,0.31509,0.286819,-0.0632008,0.323357,-0.298318,-0.243026,0.361764,0.0621999,-0.00713399,-0.269734,-0.197717,0.0614657,-0.2808,-0.198188,0.254157,0.0406066,-0.232526,0.339092,0.29017,0.0132013,-0.0566188,-0.0757423,0.0119119,-0.124464,0.306863,0.190199,-0.0670736,0.394937,0.383295,0.220163,0.373581,-0.143892,0.219487,0.122247,-0.0872278,-0.142652,-0.118488,0.171104,0.165206,-0.197935,-0.0356098,-0.285553,0.0327405,-0.113341,-0.282737,-0.261456,0.0080324,-0.170596,0.245049,-0.00103905,0.364722,-0.162556,0.293996,0.197552,-0.181386,0.158793,-0.210549,0.319212,0.196765,0.112802,0.0156024,-0.189736,-0.105647,-0.0432389,0.223793,-0.186289,-0.140636,0.171526,-0.149904,-0.267692,-0.0157035,0.120191,-0.172321,0.0481182,-0.157522,-0.219824,0.280692,-0.138222,-0.147507,0.188641,-0.0206718,0.379682,0.00240716,0.000311767,-0.254067,0.0202576,-0.0757083,-0.092582,-0.211349,0.057589,0.248896,-0.287441,0.162312,0.177994,-0.07732,-0.185898,-0.0835895,0.0672095,-0.0705729,0.278687,-0.0567239,-0.290856,0.391268,0.174087,0.182506,-0.195975,0.0922742,0.139876,0.394282,-0.108136,0.103083,0.348377,0.0585942,-0.207994,0.242629,0.357248,0.307331,-0.16109,-0.137981,-0.00356444,-0.0452427,-0.0673957,0.0846285,0.0837826,-0.268021,-0.128055,0.0863947,0.023016,-0.215233,0.299569,-0.050469,0.176205,0.343188,-0.272204,-0.120001,-0.243169,-0.272517,0.263435,-0.0874888,0.246409,0.290336,0.00860134,0.397588,0.170588,0.368175,0.157183,0.398561,0.347579,0.334825,-0.139458,-0.112264,-0.16427,0.133565,-0.119873,0.0718519,0.298249,0.280041,0.0013758,0.0321359,-0.285063,-0.188412,0.0367888,0.117143,0.14607,0.380488,-0.124961,-0.232634,-0.00481964,0.157239,0.0161697,0.206804,0.365033,0.0467696,0.149434,0.393792,0.154518,0.288197,0.00598024,0.152483,0.39473,0.132025,0.0511,0.277371,0.168942,0.368505,-0.0554398,0.248706,-0.28541,-0.291891,0.0354559,0.131121,0.054491,0.176204,0.313463,0.30284,0.0541841,-0.068982,-0.00346031,-0.00928058,-0.150452,-0.136471,-0.137014,0.150169,0.345551,0.290198,0.0142232,-0.225918,0.0312835,0.0977553,0.0784491,0.260443,-0.192237,-0.152421,0.135934,-0.0696881,0.274481,0.199662,0.281798,0.326476,0.0738679,-0.0340452,-0.0994476,0.0746135,0.0417214,-0.143806,0.174416,0.0469115,0.0517185,0.118088,0.396759,-0.190334,0.315287,0.234716,0.0125481,-0.0103835,0.321775,0.0922852,-0.241333,0.340268,0.168094,0.272498,-0.176907,-0.250167,0.279268,0.17937,0.29922,-0.132374,0.0651079,0.0636211,-0.244969,0.388497,-0.0961729,0.0489332,-0.015246,0.276081,0.0091594,0.124686,0.173665,-0.0372137,-0.127405,-0.188254,-0.259251,-0.0932361,0.223718,0.0562064,0.0844916,0.344175,0.013267,-0.226719,0.000326241,-0.282457,0.165831,0.0845782,0.198854,0.120139,0.286897,0.270914,-0.214223,-0.268425,0.0872917,-0.105238,0.138504,0.188895,0.113447,0.200478,-0.265626,-0.2281,0.226675,0.352983,0.274348,0.336536,0.237646,-0.170966,-0.0475003,0.285107,-0.263012,-0.289305,-0.194279,0.103673,0.122412,0.198642,-0.285063,-0.247694,0.259056,-0.297825,0.173669,-0.257775,-0.00886647,-0.187965,0.399254,-0.113358,0.123503,-0.176019,-0.186294,-0.145027,-0.2009,-0.190329,-0.24536,-0.280954,0.195325,0.10782,-0.15072,-0.27561,0.0488036,0.134327,-0.085859,0.270038,0.355594,-0.22264,-0.285274,-0.0682586,0.236136,-0.01773,-0.261125,0.213235,-0.0809786,0.191236,0.224671,0.159518,-0.161727,-0.259413,0.201525,0.0196276,-0.111262,0.178178,0.0736782,-0.115093,-0.259928,0.213693,-0.288661,-0.103263,0.0529231,-0.145723,-0.220668,-0.144165,-0.104492,-0.161678,0.369118,-0.0907948,0.0113767,0.331964,-0.242081,0.162229,0.226,0.383945,-0.0337661,0.190065,-0.0517468,0.0159356,0.238731,-0.213095,-0.14143,0.140727,-0.183735,-0.161518,-0.266506,0.0825328,0.219986,-0.251175,0.300154,-0.204106,-0.270884,0.107046,-0.130259,0.252271,0.357403,0.0317236,-0.0500427,-0.00141894,-0.280458,-0.02856,0.0722645,0.247375,-0.0085782,0.101558,0.248672,-0.289292,0.0510105,0.195499,0.38599,-0.065821,0.211844,0.210685,0.366839,0.243359,0.323677,-0.226579,-0.0580989,0.257669,0.363907,-0.010502,0.0271466,0.286607,0.391475,0.172038,0.352722,0.0610854,-0.116286,-0.0756276,-0.0315811,0.120082,0.325995,-0.151621,-0.260149,-0.00632592,-0.11889,0.128206,0.0442279,0.315452,0.107904,0.0627242,-0.195526,0.203292,0.249703,-0.109736,-0.138166,-0.173093,-0.234898,0.277028,0.0336365,0.222498,0.0246705,0.120456,-0.14654,-0.237144,-0.0575766,-0.0621444,0.0407001,0.335543,0.268286,0.279207,-0.00773333,0.252905,0.108899,0.352853,0.250033,0.236905,-0.298634,0.291464,0.337966,0.200118,0.00924189,0.349039,0.212099,-0.123403,-0.132802,-0.244594,-0.0729961,-0.083879,0.141346,-0.278331,0.161368,0.391933,0.232476,0.0284625,0.297196,0.348699,-0.116216,-0.030071,0.208602,0.226946,0.0302555,0.111385,0.346917,0.296925,0.24938,0.219318,-0.0264796,-0.25803,-0.162479,0.314333,0.0379345,0.0118401,0.0873615,0.231618,0.049139,0.30464,0.0877152,-0.291601,0.330323,-0.017521,-0.287987,0.0051696,-0.287283,-0.022,0.0259933,-0.0295037,0.0587314,-0.185078,0.0779171,0.158447,-0.0344259,-0.215678,-0.10038,0.210933,0.24287,-0.00289538,0.286755,0.304612,0.0147852,0.267506,0.0828493,0.290122,-0.261454,0.244594,-0.265341,0.3094,-0.207507,0.234386,-0.054453,0.0247045,-0.276313,0.0444237,-0.00378726,0.243335,0.110181,-0.210664,-0.0451544,-0.122665,0.224207,-0.0196099,0.146603,-0.286594,-0.246049,-0.0466472,0.0132252,0.336402,-0.125917,0.344713,0.218659,0.0872414,0.0137525
0.272258,0.340242,-0.0151896,0.317192,-0.160739,0.201245,-0.194913,-0.148716,0.00947296,-0.0160497,-0.0503829,-0.156677,-0.0317448,0.172379,0.27673,-0.0903169,0.1324,-0.0245748,0.0495141,0.0631927,-0.290846,0.171135,-0.0334314,-0.0484784,-0.223957,-0.0800153,-0.0787947,-0.281075,0.0790227,-0.195256,-0.232372,0.242868,-0.190651,-0.0780693,0.234824,0.13691,0.385687,0.399108,0.0621924,-0.128058,0.171501,0.153552,-0.198873,-0.0892865,0.166466,-0.12181,-0.0333375,-0.297386,0.108144,0.155163,-0.23851,-0.169354,-0.187738,-0.0101306,0.174114,0.170249,-0.107118,-0.0246998,0.168897,-0.158536,-0.114379,-0.0390438,0.269179,0.21175,-0.169359,0.350349,0.150629,-0.0563504,-0.183182,0.396851,0.344287,0.132542,0.0577873,-0.181841,0.269873,0.131685,0.196741,-0.0887038,-0.10406,0.014148,-0.2818,-0.0280939,0.0584805,0.0654091,0.249528,-0.0953269,0.31026,-0.0431214,-0.26162,-0.0526058,-0.144917,-0.11227,0.298391,-0.0343247,-0.265314,0.0612629,0.0838462,-0.242864,-0.0854286,0.0688838,0.116849,0.0243003,-0.0596431,0.146381,-0.0978002,-0.151957,0.316225,0.293182,0.166368,0.128266,-0.0295513,-0.0976781,-0.143399,-0.29092,0.257441,0.191243,0.124269,-0.0263479,0.374349,0.1909,0.34705,-0.288618,0.2272,-0.208744,0.295225,0.255236,-0.169102,-0.131079,-0.186107,-0.117837,0.0773357,-0.273124,0.313025,0.269803,0.259239,0.0610101,0.137919,-0.176722,-0.0245027,-0.227509,0.028595,0.14517,0.11675,-0.236759,0.219285,-0.235252,0.0474328,-0.0861427,-0.208598,0.0144324,0.386438,0.288818,0.147789,-0.0485433,0.105653,-0.233445,0.10371,0.324457,0.145137,0.346497,-0.137794,-0.224868,0.166392,-0.180567,-0.0196988,-0.218826,-0.0687316,-0.0399458,-0.00749771,0.133965,0.352307,0.326035,0.283481,0.0365931,0.283902,-0.0756545,-0.00604702,-0.0578022,0.190585,-0.0725989,0.14799,0.305023,0.387233,0.298591,-0.132189,0.0635823,0.0819666,0.314671,-0.203647,0.127691,0.288261,0.0371459,-0.133519,-0.00429461,0.0765754,0.129282,-0.0565751,-0.233321,-0.291575,-0.141453,0.290889,-0.120868,0.125116,-0.20333,-0.123985,0.337582,-0.257372,-0.052688,-0.030646,0.154638,-0.282757,-0.193042,-0.160253,0.18293,-0.258139,0.205172,-0.268359,0.250845,-0.281181,0.121335,-0.00552627,0.081553,-0.108227,0.22392,0.363706,-0.187448,0.0785501,0.0247943,0.170175,-0.207017,0.368102,-0.292334,-0.0447015,0.36779,-0.259185,-0.187908,-0.298158,-0.0574728,-0.114733,0.0309179,-0.27225,-0.272939,0.134648,0.113248,0.161195,0.144131,-0.0647563,-0.0740984,0.158319,0.126231,0.351057,0.25511,-0.235757,0.358364,0.00880439,0.0184137,-0.0138012,0.00423923,0.112272,-0.140036,-0.222984,-0.114574,-0.0964375,0.0937527,0.205311,0.216982,0.0230282,0.183664,-0.199372,0.305442,0.0266947,0.305285,-0.249294,0.191681,-0.180787,0.292604,0.150817,-0.25403,0.375713,0.0132819,0.366961,0.112739,0.187317,-0.0307117,0.11974,0.190826,0.315061,-0.12973,0.361803,0.0583664,-0.210255,0.270703,-0.172699,-0.17035,-0.163615,0.135447,0.356836,0.255551,0.0646601,0.307455,0.059799,-0.162254,0.203369,0.136656,0.0170131,0.389607,0.317649,0.0723202,0.095862,-0.298468,-0.208686,0.254059,-0.229734,0.0432171,-0.0943544,0.202792,-0.177291,-0.0270275,-0.19224,0.162385,-0.183474,0.270568,-0.203978,0.0794503,-0.168758,-0.1283,0.304042,0.28849,-0.0787726,0.0185334,0.0287679,-0.13669,0.213659,0.213269,-0.226613,0.224601,-0.000974091,-0.0262372,0.0523575,0.168196,0.129504,-0.213855,-0.266296,0.371033,0.0801803,-0.14233,-0.143877,0.0782609,0.279007,-0.144453,0.305888,-0.188145,0.374776,0.348267,-0.212742,-0.206624,-0.154136,0.0143271,0.0712507,0.239029,0.010017,-0.147213,-0.246629,0.215831,-0.157651,0.0624486,0.216504,-0.195238,0.0692645,0.105189,-0.0857898,0.17782,0.232623,0.234606,0.377013,0.0175234,-0.294118,0.307006,0.063704,-0.297881,-0.0558844,-0.249424,0.151759,-0.228996,0.0552968,0.106989,-0.207316,0.200604,-0.224961,0.0215677,0.0196654,0.311286,-0.170799,0.214159,0.146669,0.21421,-0.224238,-0.122935,0.235841,0.146093,0.0956652,-0.0470583,-0.232044,-0.0164681,0.231136,0.338317,-0.185902,0.185751,0.0502021,0.151959,0.220744,0.164579,-0.0796081,0.0286479,-0.193409,0.225449,-0.124816,0.170286,0.210778,0.27765,0.0685552,0.117907,0.357278,0.0617807,0.181131,0.266493,0.390809,0.391459,-0.0122006,-0.0926038,-0.0456362,0.350832,0.143486,0.197885,-0.150471,-0.247629,-0.199398,-0.147117,0.36428,0.398433,-0.0840311,0.362375,0.394499,0.04237,-0.245818,0.119779,-0.244011,-0.104125,0.347921,-0.125547,-0.286101,-0.0179591,0.32495,0.2835,-0.0891887,0.383141,-0.0326457,-0.0154314,0.036264,0.166218,0.300086,0.16229,0.217539,0.156339,-0.225648,0.227995,0.0669156,-0.0648758,-0.139389,0.387794,0.164571,0.115301,-0.297489,-0.0838944,0.323366,0.295067,0.242479,-0.0874806,-0.192818,0.23733,0.0832493,0.0619933,0.146617,0.259741,-0.0123286,0.261705,0.329579,-0.000628786,0.384001,0.152179,-0.292547,-0.0609973,0.381169,-0.288118,-0.205678,-0.0629268,0.147251,0.243078,0.000169761,-0.130856,-0.21958,-0.184369,0.176536,0.129371,0.00552425,0.00185478,0.117823,0.067921,-0.0728265,-0.243244,-0.211935,-0.161994,-0.0107117,0.287198,0.223591,0.235755,-0.251066,0.253544,-0.213652,0.373495,0.0262419,0.262052,-0.298133,0.398807,-0.253657,0.184908,0.273439,-0.00393688,-0.181587,-0.150922,0.299594,-0.126315,0.173298,-0.03332,-0.0176579,-0.233002,0.216034,-0.182662,0.259479,0.187981,-0.00385093,-0.23907,0.249074,0.0232899,-0.229515,0.210495,-0.266512,0.0244696,0.145961,0.218467,-0.0263218,0.0979721,-0.216095,-0.0831503,-0.0137904,-0.286368,-0.141151,0.167586,-0.233899,-0.122815,0.340497,0.164779,-0.109688,-0.147322,0.102195,0.332478,-0.113272,0.392519,-0.0765666,0.0692716,0.202964,0.368962,0.0859597,-0.208952,0.363196,-0.0501077,0.02677,0.305164,0.235224,0.0221999,0.164562,-0.122702,-0.193381,-0.196726,0.0459229,0.226408,0.20116,-0.159057,-0.0723274,0.108498,-0.0938691,-0.246233,-0.0375262,0.315962,0.166805,-0.00523712,-0.124994,0.161272,0.21513,-0.200324,0.316287,0.174313,-0.225934,-0.091749,0.379099,0.176339,0.0240678,0.110618,0.157156,-0.247593,0.159683,0.209926,0.0365702,0.109476,0.323747,0.0513701,-0.00524859,0.314169,0.358516,0.22003,-0.291295,0.214746,0.248036,-0.263756,-0.0692553,0.238415,0.0965338,0.0742303,0.347448,-0.138353,-0.0836036,-0.0796031,-0.0252327,0.358074,-0.130267,-0.211995,0.204834,0.300757,-0.152047,0.231619,-0.244729,-0.0564992,-0.289173,0.152402,-0.159368,0.152833,-0.217609,-0.0579401,-0.285966,0.109815,0.141257,-0.126039,0.205683,-0.249063,0.369691,-0.131666,0.288932,-0.0221592,-0.280998,0.14816,0.120134,0.30361,0.059195,-0.181199,-0.219816,0.256122,0.360811,-0.125872,0.140295,0.0106166,-0.226416,-0.0248827,0.013863,0.276733,0.162894,0.399072,0.202289,-0.293435,-0.0346755,-0.0942646,0.18184,0.352957,0.306308,0.21144,0.16626,-0.157827,-0.130246,0.12796,-0.123931,0.388015,0.143978,-0.140733,-0.255629,0.0137143,0.337519,-0.103856,0.109316,0.313035,0.0874406,0.317189,-0.0914831,0.31164,-0.241456,0.335676,0.221181,0.262215,0.363963,0.385933,0.193803,0.326609,-0.126929,0.309794,-0.227424,-0.207847,-0.121119,0.124962,0.289712,-0.0251268,-0.231493,-0.271806,-0.168561,0.334456,0.0560727,-0.16781,0.315466,0.07904,-0.235869,-0.215903,0.136177,0.381429,0.362808,0.152441,-0.220695,-0.131936,-0.21237,0.143057,-0.137298,0.218184,0.231414,-0.170036,0.134416,-0.169875,-0.0674436,0.0558448,-0.141005,0.0878546,0.361043,0.192578,-0.280719,0.0930035,-0.291298,-0.0845083,0.0859225,0.189876,-0.0907887,0.279077,-0.0244874,-0.0530521,0.173482,-0.247671,-0.0688096,-0.274317,0.0739892,0.0989669,-0.13058,-0.0963489,-0.138388,0.262188,0.0203452,-0.125426,0.0575518,0.134722,0.191994,-0.00617614,-0.110575,0.0778673,-0.0898433,0.205635,0.121199,-0.124762,0.244217,-0.101865,0.0547795,-0.227705
0.0725488,-0.263448,-0.170091,0.294551,0.214184,0.222174,-0.0747716,0.00209167,-0.238517,-0.181541,-0.123307,-0.239331,0.144349,0.00185749,0.00792444,0.091304,-0.126233,-0.233433,-0.196262,0.187033,0.378445,0.253451,0.21145,-0.153792,0.292115,-0.0754741,0.0046568,0.318884,0.0021584,0.255437,-0.206367,-0.286927,0.117944,0.267293,0.316727,-0.0419357,0.268938,-0.129524,0.197267,-0.0288829,0.0913909,0.141335,0.100171,-0.274901,-0.286369,0.204528,0.272954,0.363362,0.198654,-0.15766,-0.195066,-0.141125,-0.146208,-0.196861,-0.0102316,0.164942,0.166909,-0.169452,-0.175027,0.1536,-0.221876,0.385621,0.0333265,0.0891051,0.0467832,0.38342,0.140139,0.333497,-0.0771439,-0.283657,0.091197,-0.269579,0.182248,0.285814,0.0453118,0.165008,0.335334,0.313928,0.0260819,0.34576,-0.131958,0.157788,0.0673561,0.00621488,-0.274877,0.397479,-0.263662,0.372506,0.294595,-0.0800912,-0.230656,0.394103,0.202905,-0.0292054,-0.196048,-0.215445,-0.119568,0.195856,-0.157615,-0.0309108,0.206323,0.343795,0.130186,-0.0143116,0.19216,-0.047362,0.0848301,0.137148,0.113949,-0.108631,0.0584902,-0.0597543,0.0517602,0.178528,0.269216,0.369451,0.24627,0.0500763,-0.0147629,-0.258322,0.231703,0.298056,0.396454,0.239415,0.354476,-0.148067,0.257595,-0.28165,-0.162871,-0.0751321,0.33762,-0.202607,-0.10346,-0.0039295,0.159197,-0.0231364,-0.223969,0.352019,0.263362,0.382739,-0.199061,0.357574,-0.21692,0.382931,0.0164719,0.179513,-0.239437,0.273338,0.117838,0.0339898,-0.107648,0.279748,-0.268426,-0.220253,-0.163234,-0.127088,-0.142277,-0.0705604,-0.231897,0.0438169,0.332002,-0.0998493,0.111836,0.335441,-0.282419,0.175967,0.04512,0.278424,0.185751,0.00337493,0.297349,-0.172698,-0.00536147,0.0925244,0.034714,0.0443079,-0.0742799,-0.154902,0.363385,0.0270667,-0.012624,-0.0184149,0.0355031,-0.271822,0.144542,0.0892747,0.0927591,-0.237684,0.284403,-0.137002,0.231295,0.148577,-0.123009,-0.139265,0.122922,0.284513,0.240483,0.0455028,0.376691,-0.000960167,0.0700077,0.335655,0.275177,-0.219163,-0.259797,0.0357189,0.270113,0.0292017,0.13995,0.369045,0.0714569,0.224161,0.349305,-0.0153178,0.314398,-0.0369782,0.217731,0.260137,0.0387112,-0.0402051,0.25315,-0.228242,0.0647924,0.0546909,-0.0189721,0.355051,0.300662,0.0303354,-0.217005,-0.0738503,0.364538,0.281927,0.374364,0.0870753,-0.0429631,-0.26238,0.0297356,0.185922,-0.0321513,-0.0231136,-0.183551,0.254411,0.0504999,0.342533,0.144884,-0.10562,-0.0494361,-0.00542502,0.295129,0.135292,0.320807,0.101837,0.329437,0.234203,-0.191882,-0.281435,0.249798,-0.0591555,0.246679,0.243047,0.00993375,-0.101218,-0.0588786,0.10455,0.141295,0.205296,0.175089,0.176373,0.302158,0.301324,0.0283913,0.160948,-0.290624,0.213673,-0.26191,0.144436,0.262293,0.0212364,0.28746,0.167507,0.217668,0.367056,-0.142961,0.10927,0.225676,0.188208,0.0227076,-0.268959,-0.214099,0.0853024,-0.0655413,-0.222944,0.332835,-0.196411,-0.239116,-0.221194,0.0101275,0.347319,0.033285,-0.239906,-0.15674,-0.100535,-0.0259122,0.0893625,0.0698157,0.368724,0.343708,0.376543,0.0365719,-0.264879,-0.109635,0.060925,0.0230935,0.317154,0.0373866,0.187394,0.201112,-0.269024,-0.108182,-0.0827372,-0.0111099,0.264964,-0.290579,-0.128757,0.0101881,-0.0598576,-0.200001,0.250994,0.117047,0.279492,-0.292544,0.236275,-0.114228,0.357317,0.0491362,-0.095494,-0.0543247,0.250735,-0.0513991,-0.0301433,0.0496029,0.265349,0.146507,-0.111728,-0.0539644,0.156612,-0.176395,0.125806,0.361867,0.119183,0.0205918,0.0367659,0.355074,0.0657325,0.288826,-0.0511843,0.247361,0.367421,0.0566347,0.30173,0.0951706,-0.122389,-0.254625,0.136681,0.109269,0.011128,-0.180367,0.383122,-0.0182638,0.200342,-0.193997,0.239842,0.0301861,-0.199508,0.364902,-0.202608,-0.281947,0.165905,-0.0506284,-0.00147276,-0.0390957,0.268788,0.336061,-0.216514,-0.122303,-0.11709,-0.038217,-0.282632,-0.00346058,0.203736,-0.149242,0.0460384,-0.225571,-0.173211,0.366629,0.377549,0.0401397,-0.243411,0.273553,0.136274,0.319719,-0.0324946,0.141017,-0.0137779,0.254006,-0.211346,-0.123543,-0.129524,-0.0324717,0.0348427,0.12021,0.163918,0.198184,0.255159,0.0871395,0.18573,-0.15313,0.221169,0.18934,-0.131126,0.156847,-0.27319,-0.0757519,0.233283,-0.11833,0.221554,0.0626803,0.0593892,-0.24828,0.248793,0.320723,-0.190514,-0.101879,0.111579,0.150566,0.393185,0.143538,0.0371944,0.134053,0.124097,0.119716,0.262637,-0.286456,-0.135292,0.0203994,-0.0869683,-0.0554382,0.106131,0.349627,0.294531,0.00433643,-0.0203182,0.0742375,0.373744,0.340868,0.147256,-0.0594115,-0.134268,-0.203118,-0.0328334,-0.135762,-0.197887,0.292865,-0.0173917,-0.0476173,-0.0986988,0.103461,0.129244,0.368254,0.112882,-0.187675,-0.190793,-0.203248,0.057831,-0.121299,0.028048,0.321211,0.23653,-0.0989532,-0.258235,0.269771,0.126382,0.211557,-0.0895092,0.341572,-0.159027,-0.2138,-0.293935,0.371778,-0.227347,0.204508,-0.229802,0.144713,-0.00959406,-0.156462,-0.230142,-0.185175,0.114762,-0.05958,0.247319,0.0443709,0.0418509,-0.29216,0.21113,0.21769,0.138369,0.0368075,-0.234564,-0.258919,-0.120874,-0.0289255,-0.0759475,0.0880356,-0.150458,-0.112369,-0.193613,-0.00145154,-0.215659,-0.232237,0.162294,0.392672,0.364922,0.19263,0.122176,0.207112,0.0468279,0.0482375,0.319887,-0.285389,0.239436,-0.0259788,-0.0153373,0.235119,0.309677,-0.0609498,-0.250419,-0.00162239,-0.0684023,-0.0190793,-0.127258,0.267464,0.0537278,0.191048,0.0187769,-0.217924,-0.293826,-0.118906,0.0968574,0.0317879,0.219076,-0.285089,-0.0972668,0.117602,0.0745155,-0.259795,-0.138882,0.212239,0.363917,-0.0956858,-0.0844063,0.0778027,-0.127836,0.188699,0.262979,-0.249542,-0.238816,-0.0537695,0.278638,0.0516107,0.374194,-0.124056,0.03023,0.234523,0.332555,-0.0807532,0.0261044,0.226383,0.0478298,0.0123065,0.0957471,-0.125251,0.219717,-0.221086,0.0487506,-0.142212,0.242852,-0.101859,0.209527,0.167784,0.393611,-0.169066,0.274449,0.127302,0.119185,0.240761,0.18825,0.0473816,-0.199273,-0.108417,0.086734,0.0870342,-0.287823,0.258705,0.202499,-0.0765851,0.0472138,-0.0641544,-0.119398,0.392288,-0.0646252,-0.226469,0.10126,0.207819,0.0202725,0.132899,0.255905,0.121319,0.220677,-0.0108736,-0.125849,-0.071717,0.0472133,0.269257,0.248088,-0.0170914,0.0961132,0.158428,-0.149114,0.32963,0.191903,-0.040823,0.19671,0.0111728,-0.198911,-0.0621675,-0.0614612,0.162166,0.3887,0.342853,0.151185,0.148024,-0.0608401,-0.271095,-0.00401538,0.158151,0.314056,0.271821,0.114249,0.213136,0.168126,-0.292224,-0.0537905,-0.104763,0.395428,0.282183,0.0226661,-0.0386881,-0.27212,0.341786,0.32572,0.347851,-0.242299,0.354923,0.165753,-0.0726141,-0.194296,0.193891,-0.228263,0.225657,0.207392,-0.135867,-0.058855,0.258727,0.0387965,0.114463,-0.0530892,0.0998735,0.153793,-0.287439,-0.151848,0.335099,0.354689,-0.179427,-0.298761,0.316939,0.168274,0.354561,-0.28135,-0.12395,-0.251123,0.162741,0.171822,0.399594,-0.119398,-0.0933992,0.185473,0.135973,-0.299807,-0.120742,-0.180133,-0.0644074,0.213009,0.0455436,0.388165,0.286392,0.32335,0.13807,-0.294638,0.253984,-0.248473,0.0939098,0.316405,0.185857,-0.240762,0.0658812,0.0992295,-0.111452,-0.0448218,0.293122,0.0909221,-0.262443,0.302841,0.0651556,0.332814,-0.0707527,0.30235,0.263961,0.381799,-0.265927,0.268169,0.318307,-0.214976,0.360672,0.174684,0.354668,-0.235762,-0.010169,0.291219,0.079469,0.00709204,-0.0117306,-0.221235,0.276437,0.212134,0.361053,0.270093,-0.146101,0.284448,-0.0478302,0.104999,-0.0735512,-0.27131,-0.24687,0.242833,0.164708,-0.0634909,0.328136,-0.175967,0.298525,0.11504,0.115702,0.302542,-0.292908,0.353727,0.31632,0.320892,0.281072,-0.224162,0.0248228,0.250183,-0.109677,-0.227879,-0.0824835,-0.0336908,-0.157381,0.26285,0.253086,0.384832,0.36678,0.385601,0.296732,0.0258472,-0.195001,-0.044412
0.327016,-0.0685937,0.249238,-0.204955,0.034139,-0.193984,0.303569,0.0796417,0.0715976,0.10586,0.113789,0.396502,-0.135135,-0.0606484,0.0359344,-0.0364102,-0.155751,-0.082512,-0.106118,0.304866,-0.19663,-0.195375,-0.203357,-0.269674,0.150997,0.110639,0.35842,0.115443,-0.14184,0.285367,-0.199137,-0.0706345,-0.0401341,-0.159946,-0.222691,0.30567,0.133103,-0.031033,-0.104889,0.205519,-0.00995141,0.0888039,-0.22192,-0.230782,0.316149,0.177534,-0.14703,-0.196935,-0.203343,-0.180741,0.0859921,0.39428,-0.0461069,-0.0576949,-0.234373,-0.0890383,-0.15795,0.263085,0.354923,0.172256,0.218647,-0.190041,-0.190879,0.143053,0.150197,-0.149629,-0.0189887,0.0488392,0.155668,-0.208756,0.108964,0.355502,-0.244738,0.0739416,0.112255,0.0119018,0.0250532,-0.157902,-0.0131351,0.103784,-0.270195,-0.107509,0.133859,-0.186384,-0.174665,0.0897789,0.0963661,-0.0642953,0.00799646,0.369131,-0.146274,0.136752,0.00872709,0.0867992,-0.25514,0.322498,-0.207456,-0.0466483,0.364217,-0.00968668,0.182161,-0.088036,-0.0945688,0.327335,0.148317,-0.00895082,0.0990067,0.146543,-0.0045843,0.29908,0.015176,0.208649,0.385318,0.180704,0.0763636,0.0209143,0.118511,-0.285221,-0.240274,0.268754,0.129786,0.063481,0.124225,-0.123623,-0.196314,0.261552,0.246493,0.129358,0.0787916,0.248404,0.10022,-0.0209663,0.137179,0.0288775,0.365283,-0.14701,0.0486648,-0.12025,-0.204981,0.183948,0.377323,-0.12616,0.23645,0.0974367,-0.0948435,0.140516,0.324496,-0.0432468,-0.0156239,0.144557,-0.152385,-0.0894662,-0.116492,-0.210022,0.00842929,0.24049,0.0276776,-0.0613186,-0.126598,-0.140463,0.297215,0.244674,0.137674,0.150599,-0.207191,0.299263,-0.209105,8.36954e-05,-0.0689531,-0.110595,0.327087,-0.28464,-0.232438,0.15064,0.271595,0.382245,0.124679,0.0349626,0.261894,0.24905,-0.182556,0.366363,0.0729786,-0.106159,-0.15685,0.103546,0.119757,0.264352,0.250289,-0.11787,0.00803406,-0.258677,-0.0673077,0.261162,0.393908,0.222547,0.169964,-0.0595425,0.0064272,0.368462,-0.232659,0.278489,0.395186,0.0181097,0.108626,0.373721,-0.236801,0.20943,0.278941,0.236911,0.341585,-0.292399,-0.139558,-0.173045,0.172397,-0.212369,0.0798616,0.26686,0.0429782,-0.032136,-0.110624,-0.082762,-0.046134,-0.058824,0.0686061,0.0258531,-0.2391,0.197636,0.0337998,0.028623,0.0602877,-0.206385,-0.273333,0.015247,-0.231202,-0.145998,0.392385,0.246835,-0.22439,0.0615935,-0.202414,-0.16973,-0.00812235,0.227545,0.204231,-0.16816,-0.097165,-0.206117,0.159988,0.352363,-0.265138,0.354204,0.308301,0.326141,-0.264027,-0.144154,-0.115841,0.0766176,0.300757,0.363943,0.0976096,-0.00136987,-0.281387,-0.15405,0.175282,0.276358,-0.00724231,0.368848,0.155626,-0.0668469,-0.00456272,0.353647,-0.291252,0.106785,-0.288825,-0.210815,0.0845368,0.0473345,-0.255691,0.0494567,-0.150955,-0.157709,0.225549,-0.0889093,-0.0821418,-0.248991,0.101896,0.219047,0.154426,0.360381,0.247445,-0.107863,0.221543,-0.254539,0.173928,-0.0711842,0.275966,0.249604,0.181846,0.193025,0.182624,0.0539757,0.131029,0.0360646,-0.162183,0.367258,0.368624,0.154888,-0.0146687,-0.103556,0.197145,-0.07453,-0.192877,-0.271323,0.115158,0.211606,-0.223476,0.0949197,-0.279224,0.298048,-0.247637,0.232462,0.307783,0.338835,0.112651,0.324269,-0.163608,0.0818347,0.087366,-0.0701292,-0.178472,0.340922,-0.295467,0.292021,-0.087596,0.092984,0.204636,0.0235673,-0.292187,-0.125843,0.236697,-0.0363184,0.384701,0.128711,0.192816,-0.288701,-0.224095,0.312734,0.0875301,0.218249,0.0835262,-0.00556301,-0.151246,-0.14062,0.159816,0.0452072,0.0247895,-0.25245,-0.0580948,0.276197,-0.132662,0.123165,0.171366,0.01144,-0.101283,0.0873782,-0.208747,0.0440882,0.328233,-0.00390913,0.0420051,-0.120793,0.316256,-0.10701,0.152652,-0.102469,-0.0381928,0.300354,-0.0460044,0.255357,0.202945,0.142185,-0.0960335,-0.155304,-0.290433,0.216008,-0.145651,-0.265569,0.0587043,-0.011337,0.344667,-0.279939,0.0689135,0.344597,0.0615283,0.0881419,0.391412,0.0410313,0.242343,0.0427136,-0.0764632,-0.0863857,-0.142425,-0.0131549,0.247206,-0.21429,0.0664539,-0.192117,0.364438,0.015819,0.364299,0.364319,0.0217187,0.346776,0.0157376,0.318995,0.198673,0.285712,-0.187807,-0.283103,0.161296,-0.0189897,0.223891,0.354595,-0.0584136,0.217659,0.0956268,0.338527,-0.0464658,-0.187316,0.360726,0.175741,0.30261,0.216061,0.112362,0.298419,-0.0985092,0.206,0.0165037,0.367352,0.0501586,0.286786,0.395679,-0.149589,-0.01233,0.371385,-0.123945,-0.277665,0.276357,-0.136422,0.127521,-0.11497,0.127667,-0.18525,0.178593,-0.143599,0.333498,0.176348,-0.153486,0.11532,0.003768,0.220748,-0.0361609,-0.234979,0.174078,0.0510508,0.0361912,-0.200765,0.39607,0.0734212,-0.0877471,-0.0802647,-0.0350404,-0.149232,-0.191556,0.307714,0.394153,0.214189,0.363887,-0.205934,-0.200491,0.251866,-0.13354,-0.281646,0.298453,0.0422054,0.12998,0.0345136,0.187796,0.0637538,-0.0394856,-0.24611,-0.292542,-0.255513,0.292166,0.1687,-0.156266,0.0773957,-0.0690498,-0.139382,-0.103453,0.169634,0.386868,0.242518,-0.14862,0.355771,0.134873,0.115537,-0.0200446,0.334163,0.279208,0.1071,0.222884,0.0638331,-0.134063,0.377198,0.162446,0.273803,0.0224215,-0.164496,0.046361,-0.167949,0.0565531,-0.123109,0.176958,0.121935,-0.193513,-0.124854,-0.18541,0.360936,-0.23085,0.0363834,-0.0864088,0.334483,-0.00558726,0.246709,0.347765,0.0587986,-0.221456,0.0357945,0.130166,0.249031,-0.155705,0.170616,0.39772,0.119976,-0.0638627,-0.190377,-0.246005,-0.121377,-0.179487,0.236883,-0.053929,0.243173,0.123618,-0.012461,0.272003,0.0491488,-0.209981,0.111746,0.0861186,0.379317,-0.102616,0.165,-0.293404,0.168441,0.111455,0.180316,0.190339,0.126076,0.315883,-0.283624,-0.0220166,-0.0653895,0.00390733,0.126109,0.0710823,-0.0475727,0.257992,-0.253521,0.355642,0.086688,0.211369,0.0530618,0.12247,0.0668686,-0.17598,-0.122999,0.0985902,0.0837084,0.148248,-0.0633224,0.154365,-0.282049,0.332228,0.369566,-0.219512,-0.270459,0.0355373,0.222241,-0.286173,-0.266497,0.194442,-0.210875,-0.0971522,-0.171158,0.323679,0.0506216,-0.111366,-0.098134,-0.0155704,0.103131,0.296069,-0.213322,-0.195083,0.130795,0.305538,0.285287,-0.108521,0.319079,0.309559,-0.158078,0.107701,-0.255435,-0.287451,0.172084,0.0629374,0.35841,-0.212239,0.235911,-0.212861,-0.211674,0.146205,0.266176,0.333356,-0.229617,0.130988,0.125795,0.391699,-0.045164,-0.00883071,-0.281316,0.0410542,0.37888,-0.149196,-0.273938,0.0309474,-0.146254,-0.274908,-0.112326,0.0310339,0.271428,0.00526632,0.0982494,0.317984,-0.136499,0.0510827,0.146612,-0.149162,0.123151,-0.0735959,-0.133647,0.107257,0.327417,0.115196,-0.281152,-0.0750923,0.160586,0.0361936,0.080892,-0.181675,-0.214943,0.0180328,-0.0389429,0.32419,0.35762,-0.157661,-0.2869,0.243532,-0.062806,-0.0937679,0.0730971,0.321058,0.377112,0.230942,-0.0128366,0.0496461,-0.14409,-0.143828,0.254965,0.127905,-0.0593431,0.243935,0.0572031,0.361077,-0.275481,-0.155543,0.395504,-0.0683999,0.344599,0.238478,0.109078,0.333712,0.120485,-0.195605,-0.101729,-0.296556,0.109242,0.239887,0.0135055,-0.184237,0.332637,-0.229511,0.0496567,-0.19073,0.16298,-0.218036,-0.196025,-0.00502766,-0.0808262,0.113339,-0.178422,0.300125,0.370462,-0.0673269,-0.095122,-0.0664716,-0.00361966,-0.245151,-0.191568,0.288479,-0.00801035,-0.195381,0.384038,0.193608,0.0752508,0.0826071,0.308043,0.218591,-0.0144883,0.159597,-0.0462985,0.24577,0.225889,-0.162696,-0.163357,0.0188594,0.141275,0.0986101,0.302127,0.168598,0.184216,-0.0988487,0.3788,0.143522,0.158606,0.131879,0.365878,0.331307,0.296524,-0.236311,-0.218831,-0.0960444,-0.243692,-0.251686,0.138848,-0.228506,0.0984639,0.381614,-0.020836,0.083242,-0.0758307,-0.0342374,0.0195884,0.251343,0.13569,0.122602,0.259721,0.0408512,-0.29258,0.367325,-0.106929,-0.0931666,0.0175886
-0.101008,0.0685906,-0.192828,-0.266241,-0.272474,0.0540541,0.284948,-0.289747,-0.0152883,0.14617,0.156097,-0.125026,0.231288,-0.234058,0.165678,-0.127524,-0.271593,-0.0930127,-0.0195504,0.146281,-0.132279,-0.2432,-0.0282763,-0.183642,0.138429,0.157167,0.0417089,-0.0588731,0.322819,0.250805,-0.032268,0.118009,0.279887,-0.0580512,-0.190574,-0.188779,0.255554,0.146296,-0.053711,0.0614803,0.030316,0.142151,-0.00442882,0.171611,-0.1383,0.117228,0.395655,-0.284408,0.143416,-0.202259,0.268022,-0.241571,-0.078552,-0.13325,0.271867,0.356551,0.296563,-0.127366,-0.142178,0.108719,0.245591,0.00474678,-0.266782,-0.277584,0.0164784,-0.239356,0.344297,-0.0120619,0.293,0.174394,0.18543,0.304211,-0.292264,-0.176568,0.146236,0.0539348,-0.108556,-0.295532,0.201529,-0.120491,0.349916,0.169357,0.273807,0.251086,0.0329299,0.116764,-0.0675209,-0.0201707,-0.199418,-0.135437,0.397466,-0.243194,0.265728,0.348115,0.0031092,0.0973335,0.376638,0.0959184,-0.122369,0.147238,0.370871,0.132657,-0.199526,0.0282316,-0.279253,0.0486653,0.300393,-0.0913703,0.0239873,0.298342,0.0475704,-0.152101,-0.0393983,0.24258,0.397435,-0.0999893,-0.0505432,0.0284589,-0.1384,0.341517,0.156234,-0.00328266,0.140578,0.121736,0.355376,0.131333,0.202276,0.347379,0.0257331,0.22599,0.0412182,-0.245856,0.16069,-0.226755,-0.292254,0.15744,0.273852,0.38688,-0.172751,-0.28317,-0.192049,-0.071018,-0.282215,-0.255186,0.193668,0.056427,0.010692,0.0611629,-0.0269404,0.283033,0.287096,0.235668,0.262057,0.241695,0.0409381,-0.0816972,0.338123,0.0627854,-0.224563,0.211264,-0.0747182,0.239521,0.0469576,-0.0365656,-0.117717,0.00795424,0.145163,0.152992,0.364376,-0.182713,-0.136452,-0.264934,0.03887,-0.115456,-0.280794,0.323714,0.355447,-0.247704,0.259287,0.281707,0.244681,-0.0771944,0.0567434,-0.214183,-0.0841705,-0.0144528,0.0229533,0.249528,-0.118676,-0.0896403,0.292014,0.0572292,-0.167238,0.335463,0.171048,0.108428,0.307204,0.109602,-0.0281375,0.105471,-0.112634,0.227998,-0.178597,-0.192026,-0.0441458,-0.185708,-0.119684,0.172198,-0.0438279,0.281964,-0.14533,0.387429,0.0552423,-0.150434,0.144379,-0.245656,-0.187078,0.119822,0.381694,-0.296765,-0.0977029,-0.0937789,-0.158878,0.196985,-0.293529,0.121437,0.368219,-0.191093,-0.0526216,-0.191075,0.174863,0.0427489,0.335441,0.117305,0.178801,0.0650627,0.0512309,-0.173031,0.0510503,-0.0833118,0.0974107,-0.0894767,-0.0114201,-0.209385,-0.0543349,0.0230709,0.142263,0.134578,0.141665,0.246494,0.384404,-0.0509308,-0.237977,0.0357284,0.0334372,0.166939,0.399184,0.0154819,0.260761,0.371258,-0.0352437,-0.00524593,0.35312,-0.0716386,-0.101204,0.190698,0.393838,0.219257,-0.0406056,-0.209158,0.104313,0.11308,-0.0185121,-0.191153,0.120086,0.29007,0.298959,0.165773,0.367086,0.155572,-0.107433,0.0777512,0.373749,0.141604,0.0698724,0.0453156,-0.297416,0.143968,0.157994,-0.155726,-0.156938,-0.118082,-0.0318407,-0.083166,0.138056,0.356881,-0.236293,-0.132807,0.292155,0.268302,-0.136893,0.0305922,-0.065562,-0.145555,-0.291621,-0.143618,0.0774267,-0.236868,-0.051902,-0.2467,-0.246087,0.380519,0.347652,0.136148,0.359843,-0.278174,-0.116386,0.144157,-0.196383,0.237474,0.229352,0.241732,0.183471,0.215521,0.113177,-0.0138614,-0.126955,-0.238344,-0.0890616,0.069712,0.0683916,-0.206629,-0.208005,-0.064908,0.15724,0.266542,0.269295,0.0461216,0.0673231,-0.121538,0.371349,0.125581,0.0623903,-0.0901719,0.189547,0.349817,0.0250688,-0.185795,0.203152,0.296188,-0.086963,-0.20901,-0.0412201,-0.144857,-0.0792119,0.0315256,-0.297758,0.368386,-0.0676105,0.00394712,-0.176467,-0.26532,0.294187,0.0605045,0.320985,0.0480303,0.00991508,0.31229,0.0578613,-0.221807,-0.0376066,-0.215182,0.0952992,0.28204,0.275125,-0.128177,0.398575,0.0587581,0.128756,-0.273612,-0.220134,0.228001,0.331934,0.183775,0.284819,0.239036,0.167755,0.368043,-0.0153711,0.291964,0.00389858,0.0853932,-0.122572,0.00731704,-0.189799,-0.179334,-0.223598,-0.024208,0.154255,0.287173,-0.237896,-0.0401346,0.0106835,0.315972,0.290288,0.376859,0.0914385,-0.0631943,0.0462989,0.113307,0.394482,-0.250522,0.0120906,0.124138,-0.0219351,-0.0724107,0.24504,0.255043,0.304548,-0.245624,-0.0451722,0.146379,-0.195273,0.338618,-0.0553554,0.0398977,-0.0674496,0.208216,-0.17315,-0.2173,-0.129678,-0.280697,0.267719,0.211947,0.130832,-0.209547,-0.121839,0.331704,-0.0599767,-0.297122,-0.19329,0.0725057,0.22288,-0.237416,0.0401382,-0.0712798,-0.104564,0.269974,-0.226828,0.279886,0.0867299,-0.201518,-0.142668,0.0743311,-0.231235,0.333508,0.0979285,-0.203382,0.243147,-0.156133,-0.110812,-0.00898093,-0.138754,0.172467,-0.143628,0.260679,-0.086288,0.310341,-0.277087,-0.181794,0.264641,0.107017,-0.150189,0.30257,0.0851741,-0.0733698,0.257529,0.0437437,-0.250635,0.292487,0.398972,0.0942553,0.34206,0.299576,-0.219683,-0.0156218,0.352813,0.269386,-0.0970898,0.0504724,-0.000648301,-0.271322,-0.0727725,0.185684,0.154683,0.349306,-0.19256,-0.0540667,0.0224367,0.0656076,-0.159992,0.373985,0.13521,-0.0812848,-0.158383,-0.118432,0.12484,-0.0110011,0.201384,-0.0660845,-0.0748947,-0.29063,0.351299,0.292292,0.167386,-0.0678322,0.361923,0.24145,-0.0617103,0.287612,-0.173972,0.283148,0.232326,-0.245115,-0.248539,-0.290447,0.0965476,0.277051,0.197822,-0.0885157,0.0891689,0.326525,0.0871187,-0.207177,0.0415371,-0.05992,0.342617,0.0963955,0.155935,-0.0227237,-0.0458893,0.221903,0.130915,0.273669,0.155102,0.172198,-0.265075,-0.236258,-0.0160658,0.268384,-0.275038,-0.244304,-0.173449,0.0865689,0.240701,0.0900987,-0.27905,-0.238067,-0.244169,-0.0717876,-0.0995064,0.216191,0.123035,-0.151799,0.173366,-0.168645,-0.203619,0.21365,0.0124645,0.242589,0.366402,0.207096,0.148127,-0.11332,0.0980213,0.167764,-0.17017,-0.152849,0.285971,-0.258092,0.378186,-0.049307,0.235596,0.081692,0.0645621,-0.141679,0.39846,-0.205183,0.0398894,-0.0937029,-0.0755259,-0.0984973,0.0844766,0.324447,-0.199404,-0.229273,0.351611,-0.0990911,-0.0675154,0.00814008,-0.188364,-0.273965,-0.0852609,-0.122558,-0.138937,-0.226864,0.277536,0.311404,0.295671,0.237559,-0.0659734,0.0991528,0.321697,0.331942,-0.0825962,-0.197076,0.191429,0.112662,0.0502536,0.309708,0.0593063,0.164118,0.0143229,0.0345125,0.0163757,-0.189019,-0.127698,0.120669,0.0230736,-0.126085,0.307035,-0.0672433,0.188738,0.161362,-0.269817,-0.127767,0.117386,-0.22229,-0.256465,0.156857,-0.134343,0.274072,-0.0336221,-0.0486377,-0.161701,0.113471,0.0344756,0.197325,0.0624237,0.06773,0.311398,-0.141246,0.378673,0.313221,0.161787,0.097335,-0.139563,-0.239112,0.0607418,-0.193714,-0.167317,0.0855601,0.095517,-0.17232,0.39626,-0.22652,-0.282786,-0.0412718,0.389936,0.261209,0.393227,-0.206348,-0.146362,0.392958,-0.0606198,0.0993062,0.198784,-0.14058,-0.22149,0.370504,-0.274276,-0.247965,-0.127481,-0.247539,0.0395158,-0.10752,-0.176935,-0.205766,-0.0246363,-0.0336467,-0.242395,0.122471,0.278528,-0.0742871,-0.0987765,0.171953,-0.118844,0.396057,0.147959,0.189068,-0.00313747,-0.05618,-0.0596805,-0.0576194,0.367921,-0.256076,-0.215208,0.231837,-0.279471,-0.11132,-0.243573,0.0669255,0.125574,0.00283854,-0.109773,0.184683,0.0381175,0.303586,-0.124103,0.165172,0.222215,0.333053,0.131558,-0.155837,0.300678,-0.0545467,0.344109,-0.0276159,0.388123,-0.230111,0.268184,0.200353,0.203106,0.1038,0.329637,-0.140793,0.314399,0.383904,-0.198138,0.31642,0.0680201,0.282875,-0.0955649,0.36532,0.305359,0.370847,-0.198793,0.235697,-0.187179,-0.0955808,-0.17902,0.0826379,-0.049853,0.172198,-0.0813152,0.136063,0.0861625,-0.24315,-0.0344246,0.276301,0.357735,-0.0507177,0.399165,-0.087017,0.0203637,0.378862,0.0177888,0.136114,0.195002,0.28318,-0.0332768,-0.0914443,-0.044501,0.183009,0.17537,0.175278,0.204478,-0.190844,0.104911,-0.0323822,0.0472339,0.309366,-0.119546,-0.24358
0.114138,0.304793,0.328264,0.344108,0.369852,0.127957,0.134633,-0.0393672,-0.172842,0.295862,-0.171609,0.232671,-0.289366,0.166809,0.291442,-0.102278,0.00995303,0.314391,-0.0772099,0.246445,0.0392521,-0.11091,-0.155632,-0.255871,-0.0405135,0.186983,0.280909,-0.271973,-0.125485,0.0991171,0.299443,0.0266951,-0.239575,0.263153,0.141801,0.099172,0.335065,0.188895,0.135784,-0.0598748,-0.268967,0.280076,0.318155,0.248095,0.0778671,0.0229226,0.353988,0.303392,-0.0448013,0.0657478,0.388122,0.0537646,0.124785,0.158964,0.310888,-0.0474572,-0.097918,-0.0209293,0.174647,0.148369,0.375693,-0.292408,-0.0564966,0.271904,0.234089,0.387528,-0.0874702,0.0168122,-0.289887,0.228305,-0.0209714,0.362352,-0.198837,0.182455,-0.197945,0.0336238,0.37572,0.263872,0.132949,0.34718,-0.276071,-0.0682044,0.351684,-0.262038,-0.135576,0.111209,0.194695,0.215403,-0.136921,-0.129445,0.00640225,0.045166,0.376322,0.0311405,-0.199258,-0.197344,0.276832,-0.272185,-0.134607,0.296806,0.170484,0.294109,0.395093,-0.0905293,-0.0339816,0.392917,0.0858465,-0.0520221,-0.296109,0.265001,0.27716,0.357534,-0.0934102,-0.282469,-0.125504,-0.008978,0.157517,0.0236331,0.237514,-0.117774,-0.130803,-0.0439669,0.367736,-0.0812213,-0.0500451,0.324798,0.180893,-0.0355932,0.227152,0.243482,-0.102354,0.0234091,-0.261229,0.193751,0.0368134,-0.00186776,0.350673,0.0106703,-0.153261,-0.0664869,-0.190788,-0.138986,0.0574358,-0.103115,-0.110192,0.0366849,0.0895104,0.389425,0.349727,-0.0665967,-0.196912,0.336634,0.144243,-0.260536,0.121852,-0.145661,-0.283372,0.30304,0.0157748,-0.0631008,-0.0794534,-0.196733,0.277825,-0.0350936,-0.215455,0.194033,0.37892,-0.120893,-0.122634,0.344294,0.234163,0.21761,0.185243,0.0461943,0.166412,-0.13762,-0.0422825,0.212778,-0.298675,0.0936584,0.334118,0.336939,0.377189,0.0968807,-0.291276,0.23401,-0.0959854,0.221138,0.143548,0.139757,0.358843,0.234637,0.0894072,-0.114762,0.246867,-0.225607,0.123798,0.321015,0.118063,0.13793,-0.234827,0.0116875,-0.0308809,-0.0883006,0.172685,0.173934,-0.0813794,0.385589,-0.109111,0.37872,-0.113133,-0.0510354,-0.149567,0.0900164,-0.0328751,-0.284637,-0.119957,-0.237702,0.0214127,0.27272,0.144471,-0.232079,0.185591,-0.0941484,0.262724,-0.0231181,0.117125,0.0891887,-0.280115,0.36021,0.0724087,-0.105761,0.0299994,-0.159812,0.244961,-0.188376,0.358677,0.0570795,0.0505011,0.132069,0.367108,0.0764732,0.0943905,0.384844,-0.114889,-0.0920791,0.102384,0.37912,0.0726933,0.256448,-0.246967,0.247244,-0.119661,0.280245,-0.106615,0.0338654,0.16651,0.375006,-0.126852,-0.269256,0.182846,-0.143416,0.382618,0.302047,0.184493,0.0665568,-0.173719,0.297652,-0.222452,-0.0321671,-0.0797067,-0.197883,0.160738,0.357682,0.144259,0.0149139,-0.128259,0.265077,0.234087,-0.290678,-0.102302,0.257749,0.14958,-0.0327957,0.0588419,-0.271304,-0.0985471,0.235891,-0.276117,0.0857887,-0.128657,-0.0946702,0.169502,0.214458,-0.189519,0.349872,-0.0616905,0.336677,-0.0500528,-0.0656387,0.110472,-0.0620607,0.308163,0.0302905,0.343047,0.283327,0.22898,-0.162291,-0.209378,-0.00434153,-0.164503,0.161721,-0.136706,-0.183121,-0.166106,0.239321,-0.165595,0.124421,-0.049138,0.0636869,-0.245354,0.324988,0.139812,0.00321648,0.283682,-0.202706,-0.0595886,0.360373,-0.101859,-0.293801,0.124811,0.370829,0.0854343,-0.241746,-0.0839029,-0.0144712,0.0824771,-0.276429,0.212425,-0.264401,0.168984,-0.20709,-0.198423,-0.0739325,-0.0256223,-0.205864,-0.0993614,0.0547305,0.308695,-0.261791,-0.195378,-0.296638,-0.124696,0.317439,0.378661,0.39909,0.276007,0.228343,0.278063,-0.109011,0.167197,0.139885,0.231254,0.0403873,0.37739,0.37926,0.268113,0.171045,0.144035,0.0580743,0.330792,-0.124414,-0.019151,0.109486,0.349113,-0.0729254,-0.26736,-0.241013,-0.283917,0.0890734,0.329927,0.100057,-0.0525712,-0.0246308,-0.100467,0.0974999,-0.0403182,0.352322,-0.25602,0.0899092,0.351503,-0.166809,0.345751,0.211829,-0.178265,-0.239196,0.107891,-0.289422,0.109798,0.324453,0.0897316,-0.0240125,-0.208122,0.00907635,0.147389,-0.242354,0.317026,0.323264,0.237089,0.0902699,-0.281192,-0.0976573,-0.00683055,0.399422,0.1862,0.2346,-0.162326,-0.190938,0.0269373,0.106249,0.232159,-0.176404,-0.289855,0.312993,0.231076,0.00572467,0.220455,-0.0657602,0.345717,0.321396,0.308961,0.117956,0.378423,0.375618,0.275481,0.17178,0.0362404,0.108571,-0.0343043,-0.19209,-0.0169075,-0.12382,0.0189573,0.0387985,-0.0592669,0.285054,0.349441,-0.229739,-0.102937,-0.294976,-0.00396749,0.18898,0.331678,0.330851,0.0257447,-0.00943789,-0.182935,-0.285543,0.323691,-0.152935,-0.0936694,0.340255,0.355125,-0.141994,0.265889,0.164818,0.33318,-0.0161996,0.262284,0.19336,0.277818,-0.191568,-0.236892,-0.285516,0.398646,-0.072914,-0.0386306,-0.134737,0.287525,-0.0940359,-0.218066,0.148,0.3545,0.0125271,-0.119207,0.171975,0.191715,0.260876,-0.0052595,0.340358,0.0995374,-0.229626,0.252144,-0.245112,-0.240453,-0.214871,-0.0953093,-0.239354,0.2885,0.0494775,-0.113031,0.202077,0.157669,0.286796,-0.133554,0.312157,0.311809,-0.0197807,0.390875,-0.292516,-0.127106,-0.200228,0.0932902,0.209658,-0.138157,-0.0261411,-0.0355117,-0.23311,-0.176759,0.352678,-0.248319,0.195076,-0.11229,0.259122,-0.10758,-0.28741,0.15565,0.074874,0.344312,0.389848,0.136926,-0.142263,-0.0810616,0.0844136,-0.0685292,-0.260707,0.0794404,0.385513,0.284346,0.195791,0.0120519,0.138646,0.39978,-0.0561025,0.228963,-0.228527,-0.250681,0.0537871,0.114727,-0.00498011,-0.0423834,0.129658,0.372734,-0.200316,-0.299786,0.0532212,-0.0167745,-0.279904,0.398549,0.136425,0.0310839,-0.111891,0.245597,-0.11817,-0.186649,0.249146,-0.0526377,0.096397,0.385204,0.160368,-0.186067,0.155535,0.254422,-0.154853,0.384174,0.0651768,-0.216084,0.223931,0.220198,-0.182297,-0.289798,0.0948553,0.253934,0.0895196,-0.160794,-0.215174,-0.0793975,0.276478,0.127561,-0.256737,0.0651901,0.0139298,-0.291723,-0.299156,-0.0463032,0.179413,0.272557,0.164771,-0.124582,-0.276665,0.263406,-0.0281391,0.170184,-0.274346,0.294445,0.0725045,-0.235924,-0.175343,-0.0503158,0.266957,-0.250473,-0.18455,0.0766439,-0.235553,0.392962,-0.035406,-0.170238,0.19007,-0.0956066,0.237235,-0.224697,0.207431,0.154607,0.385588,0.316082,-0.0172638,0.372248,0.392302,-0.254458,-0.240989,0.107411,-0.280641,0.0911987,0.264458,0.194666,-0.243324,-0.144585,-0.274055,-0.100621,0.217944,0.0149749,0.109833,-0.0157585,0.181263,0.286531,-0.138742,0.077667,0.121299,0.11947,-0.235334,0.0791163,0.228425,0.323203,-0.102574,0.287468,-0.235954,0.191362,0.297739,0.184072,-0.253105,0.0285131,0.118842,0.357255,-0.281642,-0.257862,0.192027,-0.199443,-0.0164332,-0.0924759,0.269901,0.0716784,0.0747081,0.165078,0.0715113,0.14322,-0.0663604,-0.0406766,0.301945,-0.267454,0.160723,-0.0195234,0.167226,-0.156109,0.127063,0.21507,0.157482,0.10641,0.0964492,-0.0319022,0.319387,-0.155919,-0.146151,-0.035968,-0.00923112,0.360323,-0.0117415,-0.0131631,-0.2822,-0.0267015,-0.274365,-0.132197,0.128049,0.284799,0.259316,0.0822935,-0.120045,-0.182963,-0.224666,-0.0386886,0.0627981,-0.195532,0.318141,0.281908,0.365781,0.370143,0.0947318,-0.158833,-0.00916862,-0.0239403,-0.235855,-0.223182,-0.169698,0.178733,-0.19157,0.341925,-0.0193263,-0.125817,0.0318058,0.392697,0.314578,-0.0300327,-0.0134653,-0.299722,0.283596,-0.136131,0.170389,0.345852,0.0727411,0.368451,-0.00618459,0.305719,-0.0207082,0.061537,0.063161,-0.0104344,0.137396,-0.299427,-0.122837,0.138882,0.260399,0.282809,-0.116962,-0.0545377,0.12271,0.286592,0.389963,0.398843,-0.246349,0.0783841,-0.0143167,0.0240493,0.0641925,0.119382,-0.0456639,-0.0842231,0.0791284,0.256556,-0.159188,0.331804,-0.103518,0.0316909,-0.239401,0.152337,-0.0536948,0.294223,0.20004,0.36627,0.0690596,-0.24954,0.204691,-0.207392,0.188618,0.0349038,0.10312
0.298267,-0.201723,0.338255,-0.137806,-0.081844,0.134312,0.0738299,-0.0788262,0.242082,-0.0418104,-0.277522,-0.19871,0.171789,0.0164183,0.131728,-0.0620956,0.313189,0.107723,0.213129,-0.0682456,-0.0916854,0.318177,0.314608,0.0670475,0.0713725,0.156749,0.00625199,-0.00822278,0.133541,0.156875,0.362327,0.00899758,0.15652,0.367634,0.175423,0.273726,-0.0694716,0.306961,0.384229,-0.155694,-0.194866,0.396822,-0.148041,-0.0153812,-0.026695,0.357013,0.280823,0.363649,0.0593001,0.171655,-0.108886,0.247723,-0.172804,-0.191915,-0.0428627,0.337121,0.0621437,-0.194505,0.326973,-0.162132,0.239308,0.306094,0.317586,-0.180156,-0.261286,-0.0487529,0.0126918,-0.243215,-0.0874857,-0.0855686,0.153691,0.394775,-0.232034,-0.209056,-0.147349,-0.154363,0.0710791,-0.278454,0.116523,0.254117,0.237628,0.363915,-0.184285,0.0332984,0.0101186,0.389885,-0.22293,0.217628,0.0911629,-0.0691683,0.242908,-0.0742324,-0.264676,-0.163024,0.374068,0.38852,0.159899,0.279068,-0.26356,0.228588,-0.110866,-0.240311,-0.0501465,0.0468722,-0.0179197,0.159823,0.140496,-0.29115,0.3639,-0.00987773,-0.226072,0.0792025,0.310761,0.367862,-0.291264,0.297894,-0.296197,0.29558,0.352737,0.249664,0.109269,0.156683,0.35637,0.0238742,0.192769,-0.190671,0.327758,-0.297086,-0.0679097,0.38978,0.303577,0.389974,-0.269314,-0.295294,0.361368,0.00927049,-0.203183,0.132134,0.104481,0.185535,-0.103002,0.00214951,0.109622,0.244655,-0.059804,-0.0217012,0.364025,0.234249,0.103742,0.316725,0.183758,0.20982,0.26317,0.21624,0.241938,0.183667,0.230691,0.341954,-0.00392012,-0.114567,-0.135927,0.131691,0.244781,-0.0725538,-0.145172,0.0708697,-0.10143,0.0257055,0.157489,-0.153742,0.204481,0.0691584,0.362563,-0.24384,-0.0977715,0.389303,0.382341,-0.202192,0.147636,0.0211379,0.150386,0.304543,-0.108716,-0.19217,0.197062,-0.0469875,-0.154203,0.0418293,-0.285736,-0.0869948,-0.0810186,0.191571,0.261236,0.162743,-0.139134,0.210593,-0.172926,0.239322,-0.106331,-0.226961,0.106348,0.2498,-0.127016,-0.161492,-0.201195,-0.289586,0.0521969,0.086436,0.291973,-0.161459,-0.103792,0.120377,0.0318046,-0.130281,0.119283,0.0888685,-0.247896,0.0190398,0.185813,0.219544,-0.243702,0.261252,-0.0422627,-0.186682,0.226779,-0.14998,-0.173925,0.0937672,-0.241576,0.0502349,0.302105,0.26329,0.282822,0.299878,0.313062,0.256857,0.292377,0.0826249,0.0817382,0.244666,-0.0804363,0.222968,0.120142,-0.121417,-0.216307,-0.217998,0.132784,-0.0682979,0.36555,-0.224127,-0.14837,0.221789,-0.0842541,0.0833384,-0.00450209,-0.0251368,-0.23976,0.0703045,-0.214496,0.116265,0.307434,-0.19711,0.398832,0.343093,0.123296,-0.237441,0.301537,0.271557,0.275597,0.149852,0.235189,0.305873,-0.286625,-0.217954,0.300686,0.327336,-0.0124923,-0.128757,-0.0807252,0.249804,0.172615,0.0947717,-0.0942855,-0.162007,0.29876,-0.0643295,-0.0625446,-0.263887,-0.242572,-0.290453,-0.243823,-0.299249,-0.120524,0.256299,0.183161,0.192665,-0.0391526,-0.0858036,0.386027,-0.185493,0.128077,0.347923,0.0786831,0.346952,0.318646,0.256028,0.29031,-0.0189036,0.372251,-0.274787,0.187363,-0.209142,0.304227,-0.143538,0.381367,-0.157457,0.158688,0.134876,-0.289361,0.191016,-0.0883881,-0.137489,0.127491,-0.044844,0.226863,-0.170782,0.374026,-0.0723234,0.324936,0.0392695,0.0854569,-0.19822,0.0762452,0.17306,-0.0999065,0.378771,-0.22379,-0.00461157,0.314902,-0.259529,-0.186573,0.0922751,0.268087,0.0377677,-0.0109994,0.150266,0.283791,-0.106137,-0.00529466,0.055786,-0.0361897,0.267721,0.113419,0.334411,0.260364,0.171877,0.148741,0.198785,0.314258,0.296637,-0.156934,0.232595,-0.00820968,0.0338882,0.193085,0.279898,0.00911329,0.34724,-0.174899,0.259545,0.270849,0.0893999,-0.166126,0.0801499,0.214638,0.306153,0.0527327,0.075394,0.391295,-0.0654488,0.153916,0.233503,-0.0317199,0.229127,-0.250537,0.339193,-0.111909,-0.0736744,0.391137,0.00223567,0.0666734,-0.116162,0.138786,-0.00180546,0.368208,-0.104165,0.399476,0.383159,0.0379141,0.132248,0.300596,0.316749,-0.272797,0.396237,-0.29759,-0.0451841,0.100881,-0.152168,0.116655,0.240675,-0.247754,0.191338,0.130344,0.262038,-0.284045,0.272085,-0.196222,-0.1003,-0.185182,-0.220037,0.146516,-0.263411,-0.28232,0.00716026,0.232243,0.348965,-0.249498,-0.243177,-0.237898,-0.0433855,0.339678,0.247624,-0.164944,0.245537,0.0246676,0.313957,-0.0640438,-0.256418,0.0243581,-0.052515,0.00021368,-0.0357999,-0.111787,-0.223801,-0.0363298,0.194916,-0.0782853,-0.171879,0.0570251,-0.150477,-0.182655,-0.122785,-0.144972,0.356835,0.0744038,-0.180469,0.0414037,0.307781,-0.154926,0.270886,-0.00511744,0.333119,-0.11027,-0.258204,0.0575446,0.232998,0.07582,-0.220385,0.197093,-0.0690286,0.102783,-0.27482,-0.28046,0.0728516,-0.107845,0.184882,0.242016,-0.155388,-0.0778745,0.363125,-0.213401,-0.269672,0.0444764,-0.0514883,-0.19713,-0.221242,-0.133986,-0.192917,0.380202,-0.293332,-0.0690503,0.275421,-0.14141,-0.194435,-0.214004,0.398788,-0.00589091,-0.123485,-0.134753,-0.284504,-0.00362722,0.0622896,-0.223135,0.33498,0.187475,0.103515,-0.0708348,0.397988,-0.000461358,0.183856,-0.224796,-0.223212,-0.132689,-0.105863,0.316172,0.00651158,0.123895,-0.123066,-0.0557426,0.392127,0.160294,-0.113009,0.359506,0.293873,0.0608561,-0.0739749,-0.252705,-0.265473,0.267918,0.281637,-0.251254,-0.0726653,0.0901975,0.141594,-0.091353,0.0648402,-0.286969,-0.297706,-0.164207,0.379469,0.216973,-0.155715,0.261123,0.104423,-0.0293902,0.101039,0.125133,0.350363,0.0980473,0.184906,-0.218108,-0.170609,-0.110654,0.19964,-0.247109,-0.268121,-0.243463,-0.0948255,0.214732,0.102041,0.298747,-0.135501,-0.244851,-0.194713,0.382868,-0.0669298,-0.0176763,-0.0614401,0.302821,0.0245427,-0.179033,0.378632,0.322623,0.0163659,0.0820983,-0.185607,-0.0357263,0.221908,0.035262,0.162404,0.252916,-0.00367263,0.273837,-0.190489,0.272764,0.103958,-0.0939217,0.381595,0.0469799,0.114167,0.251399,0.286664,-0.296921,-0.0501314,0.284191,-0.275909,-0.0752165,0.359224,0.203515,0.212378,-0.0389009,0.235136,-0.234786,0.228786,0.291227,0.251321,0.0618468,0.110215,-0.0861204,0.23637,0.282448,0.309667,0.262511,-0.236005,0.237489,-0.143772,0.111525,-0.129545,0.185523,0.118336,-0.219559,-0.0167316,0.341894,-0.290783,0.394519,-0.127986,0.00783412,0.343311,-0.286351,0.00227303,0.100327,0.37835,0.387075,0.308243,-0.0793505,0.0478485,-0.0555072,-0.142036,0.346241,0.0293136,0.0809533,0.233732,0.0748557,-0.156816,0.347793,0.399721,-0.0891002,0.129118,-0.19483,-0.122331,0.329308,-0.0982503,-0.247632,0.101388,0.293302,-0.175491,0.283579,-0.225163,0.0701176,-0.19377,-0.106734,0.00465748,-0.0781166,-0.137931,-0.0216646,0.327631,0.212039,0.23782,0.351289,0.00569094,-0.296858,-0.0558277,0.224754,-0.288261,0.391896,0.198586,-0.123515,-0.224679,0.255457,0.0205941,-0.0508671,-0.0862131,-0.251809,0.276258,-0.0960349,0.117181,-0.0658974,-0.0783651,0.277183,-0.0889183,-0.113804,0.0411145,-0.244258,-0.132891,-0.0593754,0.124615,0.128952,-0.213821,0.23503,0.0851733,0.32701,0.223248,-0.278705,0.160877,0.300894,0.378517,-0.214373,0.296678,0.163308,-0.278851,0.152738,0.258507,-0.0644214,-0.123794,0.323459,-0.0295678,0.0251838,0.139506,-0.185455,-0.075651,0.0804005,-0.0561771,-0.055635,-0.240465,-0.161008,0.250102,-0.250434,-0.240139,0.329888,0.385829,-0.0424405,-0.139052,-0.0661404,-0.201614,-0.086745,0.220126,-0.23799,-0.149011,-0.0209117,0.0412781,0.269713,-0.272451,-0.0920313,0.10497,0.0540257,-0.227381,0.110097,0.0977046,-0.248354,0.0358606,-0.192956,0.390387,0.293082,0.344608,-0.296294,0.0587281,-0.172241,0.1739,0.363586,0.0975069,0.268883,-0.261354,-0.279665,0.120312,-0.218998,-0.121624,-0.188821,0.297423,0.357518,0.0564612,0.268212,0.321562,-0.195172,-0.255704,-0.152943,0.155765,0.0907407,-0.281446,0.332964,-0.044693,-0.0344323,0.132432,-0.194265,-0.287487
0.314102,0.294471,0.395567,0.219539,-0.046089,-0.182706,0.0206524,0.30046,-0.169584,-0.234278,0.234589,0.302955,0.325184,-0.0300427,0.371046,-0.19789,-0.166149,0.229909,0.319817,0.210484,0.323524,0.180484,0.317894,0.241762,0.0288255,-0.0595962,-0.209378,-0.174928,-0.00339173,-0.183636,-0.273069,-0.283048,-0.262216,-0.215771,0.123068,-0.192675,0.296647,-0.180726,-0.220694,0.166928,-0.203974,0.397317,-0.215962,0.132651,-0.231115,0.0387829,-0.230556,0.178143,0.334174,-0.282877,0.173202,-0.234188,-0.27204,-0.195929,0.290757,0.127958,0.0480052,0.0730054,-0.247828,0.273149,-0.27847,0.332845,0.208527,0.0652651,-0.244018,0.313852,0.161362,0.071972,0.0813567,-0.122277,0.0206083,0.128997,-0.255815,0.273329,-0.175686,0.317956,0.362122,-0.189626,-0.294609,0.00383217,-0.00137862,0.0727281,0.239408,0.02949,-0.0326147,-0.0570211,0.157441,0.213758,-0.174795,-0.139039,-0.240757,0.0500621,0.263516,-0.112982,-0.189705,0.352759,0.357201,-0.00736992,0.057435,-0.252457,-0.219308,0.15008,-0.252644,-0.146777,0.150134,0.242956,0.0827673,-0.248508,0.00161088,0.169532,-0.200307,-0.108171,-0.0358183,0.160636,-0.0987455,0.227886,0.0376907,0.284241,0.331698,0.13291,-0.0658365,-0.141847,-0.274838,0.29084,-0.207286,-0.0566111,-0.0859844,0.109281,0.326875,-0.160665,-0.269988,-0.0473929,-0.286019,-0.146907,0.0842807,0.340589,0.286029,-0.135254,-0.0412619,-0.289466,-0.0689724,0.360317,0.394974,0.389204,0.164777,0.354367,0.313536,-0.128378,0.181804,0.274307,-0.150882,0.153577,-0.25454,0.02778,-0.064798,0.31474,-0.173788,0.325731,-0.176788,0.19911,0.0472825,0.282041,0.16991,-0.00992959,0.0475456,0.0629318,0.0778776,-0.273585,0.32088,0.20666,-0.0766426,0.356509,-0.15913,0.0862297,-0.244267,-0.122642,0.0310578,-0.263333,0.202913,0.155886,-0.210631,-0.180966,-0.13278,-0.221755,0.226593,-0.257471,0.346472,-0.274564,0.32797,-0.0828571,0.26339,0.020793,0.0975947,-0.241807,-0.0604184,0.147243,0.094536,0.2151,0.196588,0.280417,-0.0794428,0.346011,0.119724,0.0352457,-0.0315252,0.210124,0.368426,0.172093,-0.109326,0.299674,0.067792,-0.239927,0.197024,-0.0163672,0.165402,-0.156159,-0.258189,-0.115575,-0.112124,-0.188955,-0.29123,0.160332,-0.118105,0.307402,-0.146132,0.314711,0.073576,0.295708,-0.285021,0.204535,0.230769,0.0066368,0.347872,0.169493,0.362666,0.177049,0.398153,-0.045764,-0.158727,0.22361,0.268126,-0.0550294,0.0786873,-0.251918,-0.211775,0.192661,-0.155152,-0.278416,0.352378,0.0447916,-0.0396787,0.0439675,-0.273691,0.157111,0.147913,0.326199,0.289094,-0.0922344,-0.121825,-0.108452,0.0158085,0.385459,-0.00746957,0.343575,0.262466,0.373175,0.139042,0.396556,0.360986,-0.299762,0.0044865,0.316413,-0.215264,0.183475,0.0777883,0.0681363,0.293368,0.330153,0.128733,0.117137,0.11635,-0.0756175,0.23655,0.181022,-0.114814,0.168805,-0.247454,-0.0210535,-0.227036,0.102993,-0.268442,0.0751738,-0.149227,0.171519,0.0160081,-0.136012,-0.0791829,0.362528,0.0075094,-0.107284,0.335013,0.289097,-0.0899552,-0.0305862,0.058824,-0.164608,0.279251,0.252759,-0.210412,0.0393353,0.162039,0.270507,0.088679,0.0334161,0.0611479,0.263392,0.23684,0.216131,0.208772,-0.198219,0.372225,-0.224684,0.383847,0.171319,0.0205594,0.135792,0.157072,-0.124837,-0.223678,0.352311,0.198594,0.248949,-0.0549415,0.221141,0.0318813,0.035924,0.105433,-0.0695292,-0.130933,0.118991,-0.298962,0.123009,-0.188427,0.0561031,0.121225,0.291312,-0.149443,-0.0833416,-0.0204868,0.0790771,0.251388,0.265179,0.150417,0.009158,0.156921,-0.210804,-0.227331,-0.0893813,0.293599,0.218631,-0.220687,-0.0332316,-0.0852812,-0.167026,0.0629196,-0.143868,0.165733,-0.0963553,-0.163461,0.207751,-0.194874,-0.231871,-0.101277,-0.256794,0.366214,-0.0173601,0.26269,0.0269805,0.393237,-0.249252,0.258462,-0.00285046,0.0371545,0.374006,0.167935,-0.101787,-0.155326,0.222302,0.301582,0.28779,0.325182,-0.0296667,0.0768875,0.339476,0.130172,0.0969326,0.00721328,0.0132111,0.129293,0.294621,0.0610428,-0.184414,0.0172147,0.285926,0.100401,-0.0786303,0.336437,-0.206665,0.0586194,0.0786769,0.0492927,-0.0400591,-0.0342626,-0.0308953,-0.255373,-0.232579,0.282103,0.0455534,-0.0872409,0.248565,-0.151487,-0.281537,0.173453,0.24061,0.313065,-0.0866805,0.0911634,-0.0227074,0.343474,-0.12916,-0.237956,-0.234773,0.384669,0.111831,0.106959,0.242452,-0.129136,0.0384411,0.354815,-0.134357,-0.0485298,-0.00597046,0.350912,0.32296,-0.0597462,-0.246869,0.274293,0.119144,-0.152927,-0.2363,-0.201241,0.330197,0.00165122,-0.0868532,-0.218214,-0.0258183,0.328729,0.0406589,0.115667,0.0949892,0.0840026,-0.233104,0.325437,0.306268,-0.0899772,-0.236436,0.0478475,-0.107855,0.0216758,-0.0654738,0.3757,-0.188532,-0.119366,0.130068,-0.297974,0.202853,0.167876,0.266791,-0.251552,0.237113,-0.186071,-0.125537,0.0121382,-0.186061,0.0960058,0.241774,-0.184471,0.150084,0.161661,0.0832167,0.193634,-0.0448108,0.188121,-0.20138,0.302732,0.342972,0.0365863,0.347433,0.185308,-0.226091,-0.188699,-0.0907675,0.375361,-0.122895,-0.0177012,0.25314,0.378549,-0.0529256,-0.218716,0.086997,-0.188613,0.263626,-0.0694341,-0.0908894,0.0341979,-0.26923,0.0135083,-0.166416,0.261874,0.281818,0.0465232,0.21202,-0.0131316,0.0476045,0.0619176,-0.177351,0.29906,0.334808,0.260743,0.0492594,-0.163478,0.0109657,-0.254895,0.0215264,0.351886,0.24314,-0.110525,0.239042,0.128143,0.187425,-0.139989,0.350096,0.0291302,0.275511,0.141834,0.208199,-0.28184,-0.00386065,0.182951,0.377216,-0.270172,-0.18283,-0.285227,0.00755093,0.22899,-0.253846,0.358438,0.154936,0.241439,-0.0242733,0.275746,-0.0356517,0.0907266,0.310858,0.175339,0.089774,0.325299,0.324641,0.132182,0.0728529,-0.129554,-0.259959,-0.0694913,-0.148337,-0.0103452,0.283847,-0.11068,-0.178283,-0.0109082,0.109796,0.179961,-0.179288,0.350387,0.238371,-0.205099,-0.140454,-0.0744091,0.109262,0.177516,0.170868,0.0788054,0.29405,-0.0283298,-0.102597,0.308865,-0.0344649,-0.0989603,0.391658,0.33743,0.17095,0.0372688,-0.150888,0.196966,-0.194448,0.0661233,-0.0531172,0.00281217,0.234073,0.211669,0.00902282,0.0439253,-0.144112,0.127086,0.0714768,0.0763109,0.161983,-0.287919,0.267284,-0.14593,0.37971,-0.134083,-0.294802,-0.218084,0.152441,0.135502,-0.237573,0.223838,-0.048609,0.368237,0.26421,-0.247949,-0.234156,-0.17163,-0.228311,-0.0290172,-0.231104,0.186987,0.350102,-0.299709,0.00607787,0.244238,0.0388898,0.151495,0.00297513,-0.00622978,-0.00374668,0.382302,0.238966,-0.211484,-0.260697,-0.236281,0.084519,0.317312,-0.247996,0.0434667,-0.252101,0.351143,0.282852,-0.0595783,0.129148,0.0696921,0.203995,0.0547835,-0.272541,-0.0738805,0.153896,-0.172197,-0.000666714,0.0602261,-0.164885,0.135769,0.114139,0.0193271,-0.0106732,0.252491,0.203916,0.296251,0.321243,-0.035092,0.354639,-0.156787,0.393568,-0.224283,-0.264744,0.172109,0.364801,0.177914,-0.0880997,0.399282,0.191424,-0.0647875,-0.0561139,0.145219,-0.233243,-0.0468735,-0.0916439,0.247967,0.0182958,0.0745027,-0.249421,-0.000266166,-0.264844,0.284561,0.306798,-0.233844,0.0478594,-0.0405177,0.396047,-0.00230151,0.131881,0.342564,0.328699,-0.107957,0.257367,0.38309,0.127786,0.0177621,-0.0435535,0.221715,0.0102184,0.257583,-0.269647,0.356794,-0.174944,0.18138,0.367779,0.276447,0.0953816,0.208235,-0.103098,-0.00998908,-0.0392742,0.166361,-0.257262,-0.155879,0.267051,-0.0892348,-0.188688,-0.0430732,0.100958,0.008145,0.373121,0.255585,-0.0847447,0.147799,0.267431,0.350765,0.24236,0.288539,0.199234,0.233101,0.0430249,0.100466,-0.04881,0.325485,-0.213482,0.311655,0.381589,-0.224064,0.00981221,0.118134,-0.268881,-0.0747505,-0.247864,-0.132243,0.0098157,-0.0663817,0.312279,0.37607,0.385996,-0.0988225,-0.175262,0.384547,0.349257,-0.133854,0.202711,0.320134,0.0697465,0.2155,0.0435988,-0.134513,-0.275317,0.292222,-0.0551263
