0.252104,-0.0390942,-0.173403,-0.0804529,-0.278701,0.17242,0.00563979,-0.0709464,0.290921,-0.24514,0.0271096,-0.170241,-0.0215766,-0.231553,-0.177398,-0.0593677,-0.0644948,-0.117454,-0.239158,-0.0251229,0.314719,0.0130955,0.0232002,-0.0494553,-0.274963,0.293313,0.0792138,0.101794,-0.2141,-0.250459,-0.053856,0.337556,-0.161547,0.00455031,0.367144,0.142218,0.125725,0.380145,0.0923082,0.181258,-0.110558,-0.183061,-0.00269119,0.160991,0.326567,0.396903,0.322982,-0.131809,0.209015,-0.13292,0.0719718,0.00822473,-0.268383,0.159859,0.24499,-0.0650929,-0.285003,-0.282226,0.352296,0.153963,-0.217539,0.0990988,0.383378,0.357291,0.175886,0.28807,-0.22325,0.131809,0.281206,0.0649924,-0.0543926,0.226861,0.00931491,-0.123558,-0.171389,0.171246,-0.0968044,-0.174408,0.282242,0.0920249,0.25674,-0.0603717,-0.21316,0.0270241,-0.2978,-0.0842128,-0.0710959,0.363918,-0.223626,0.302213,-0.0261059,-0.248933,0.155375,0.318269,-0.171144,0.30189,0.0693442,0.376164,0.276096,0.390943,0.133014,0.057349,-0.250779,0.0733543,-0.0392509,0.227509,-0.0428001,-0.0600633,0.32893,0.337453,-0.170645,0.218586,0.0344371,-0.292053,0.257124,0.351339,0.135624,-0.27214,0.0455139,-0.202153,-0.0771049,-0.220214,0.192183,-0.170469,0.109993,-0.12765,0.227937,0.12173,-0.116687,-0.182126,0.133437,0.28328,0.33637,-0.159924,0.12599,-0.102508,-0.0538763,0.333042,0.102341,0.340355,0.31128,-0.12993,-0.0638761,-0.212477,0.400652,0.318171,-0.349566,0.0718016,0.041909,-0.324281,0.196414,-0.18536,0.0075364,-0.228819,-0.141849,0.0929951,-0.0180909,0.0332054,0.0580882,0.291066,0.212775,-0.00107834,-0.158745,-0.288627,-0.266219,0.278662,0.2298,0.103263,0.387802,0.0230293,0.094805,-0.141083,0.393649,0.209749,-0.0304108,0.221103,0.205715,0.078027,0.197569,-0.243732,0.00418174,0.0895155,0.33415,0.389144,0.429605,0.22031,-0.186671,0.239031,0.257002,0.144547,-0.154856,-0.0334109,-0.0794491,-0.00576028,0.280531,-0.151747,0.137684,0.306153,-0.0160741,-0.0331585,0.368564,-0.353505,-0.249729,-0.148747,0.26146,0.205303,-0.109467,-0.0115387,0.31312,-0.0874936,0.389109,0.481131,0.0185307,0.203872,0.0376294,-0.213978,-0.0713129,-0.301576,-0.13718,0.164918,0.154243,0.213539,0.412499,0.384303,-0.14796,-0.256656,0.391782,0.325783,0.0172539,-0.21105,0.264906,-0.279945,-0.242997,-0.1158,-0.288788,-0.19063,-0.170015,-0.0444315,0.510281,0.379977,0.811744,0.416641,0.173418,0.0818053,0.199131,0.110763,0.298361,0.112385,0.0715857,-0.0945904,-0.0520728,-0.207087,-0.0605213,0.205165,0.0732209,0.353246,-0.186775,0.120761,-0.0670028,-0.0295379,-0.1236,-0.367407,-0.389781,-0.219676,0.290379,-0.203464,0.0910525,0.353185,0.627621,0.523843,0.385535,0.0334537,0.19617,-0.119,-0.197193,-0.178095,-0.243418,0.326537,-0.100305,0.124184,0.343303,0.0200187,0.114301,-0.190256,0.109264,-0.087414,0.0331471,-0.0978758,-0.338817,-0.244599,0.148387,-0.225467,0.094852,-0.206226,-0.259258,0.231195,0.00147423,-0.0128695,0.509818,-0.0619231,-0.208938,0.279907,-0.0529564,-0.0508176,-0.236755,-0.179911,0.0712794,0.169859,-0.25877,0.138499,0.0558583,0.130758,-0.138407,-0.130782,0.0189067,-0.326178,-0.202168,0.0974591,0.239236,-0.0975868,-0.247467,-0.153377,0.0202758,0.308708,0.33608,0.415921,0.586799,0.0994334,0.15061,0.114391,-0.256625,-0.344934,-0.25196,0.371637,-0.117169,-0.163905,-0.15642,-0.108297,0.0654129,-0.150319,0.111108,-0.394434,-0.600048,-0.0866478,-0.193891,0.0341853,0.111942,-0.0485839,-0.0693182,-0.0887972,0.0474067,0.209914,0.218982,0.61838,0.101144,-0.0463842,-0.0643255,0.280633,0.0207319,-0.286728,-0.37711,-0.127659,-0.00820258,-0.00861778,0.154881,0.392181,0.388273,0.29581,-0.180963,-0.488678,-0.622634,-0.319904,0.299054,-0.169598,-0.0268815,-0.217064,-0.456857,-0.223839,0.080792,-0.147659,-0.0220468,-0.10424,-0.187638,0.0820845,-0.393878,-0.192856,0.225628,-0.27537,-0.195278,-0.223104,0.189102,0.228632,-0.284576,0.246058,0.147681,-0.091563,-0.362191,-0.460616,0.0881435,0.171317,-0.299156,-0.157313,0.0515468,-0.520904,-0.645581,-0.3687,-0.106199,-0.495935,-0.570757,0.0765347,-0.283128,-0.129352,-0.0293134,0.0372318,0.0356327,-0.250032,0.0482026,0.196426,-0.217659,0.0970074,0.287759,0.269483,-0.0430345,0.110978,0.320646,0.187539,-0.0404993,0.397284,-0.00951762,-0.511383,-0.248351,-0.676352,-0.513075,-0.491068,-0.234286,-0.0721218,-0.0101646,0.230236,-0.0894896,0.322748,0.302969,-0.201667,-0.262918,-0.000355972,-0.147321,-0.363839,0.349918,-0.0335661,0.20376,-0.187382,0.209799,-0.0491953,-0.169795,0.0217205,-0.0132202,-0.10027,-0.204269,-0.0511351,-0.440684,-0.244037,-0.383732,-0.190488,-0.459066,0.278656,0.459086,0.33006,0.18851,0.0343473,0.326907,-0.0597379,-0.255586,-0.267659,0.0849685,0.00513345,0.17601,0.0599051,-0.0615681,-0.120269,-0.0191199,0.268136,-0.00378064,0.212637,-0.0133364,0.195714,-0.206455,-0.217297,-0.259963,-0.509143,0.0793696,-0.208329,0.351559,0.204041,0.0671389,0.421394,0.268683,0.093611,-0.00204959,-0.0988151,-0.40761,-0.139923,-0.175181,0.239414,0.262036,0.146142,0.225379,-0.0201638,0.205551,0.209223,0.12615,0.148813,-0.202933,0.0655558,0.0215683,0.0474836,0.0164589,-0.22828,-0.0685314,-0.1026,0.146787,0.118237,0.544393,-0.162461,0.266396,0.0436153,-0.252687,-0.121254,0.127032,0.16367,-0.184158,0.105889,-0.180418,-0.222281,-0.22006,0.292052,-0.152782,0.159602,-0.188104,-0.136754,0.206122,0.245469,-0.390652,-0.112564,-0.258698,0.393899,-0.0569636,0.0849318,-0.153268,0.0565599,0.177171,0.352825,0.139499,0.526036,-0.12361,-0.134301,-0.324714,-0.143985,0.0816272,-0.0899663,0.233973,0.182759,0.0458663,0.297204,-0.143137,-0.144979,0.371656,0.104963,-0.263263,0.237459,-0.385769,0.1821,-0.155206,-0.110169,-0.0966188,0.310368,0.478715,0.316613,0.101365,0.349356,-0.115711,0.116831,0.0738579,0.0257887,0.0407768,-0.23641,0.216914,0.337421,0.00745754,0.0725969,0.230357,-0.06453,0.35989,0.132773,-0.177831,-0.205074,-0.17352,-0.00130917,-0.226178,-0.270886,0.0821168,0.0441267,-0.162519,0.262904,0.0767078,-0.1174,0.0881654,0.337932,0.139649,-0.0054695,0.166212,-0.0547705,-0.113847,-0.0397536,-0.109462,0.388927,0.26862,0.351893,-0.155907,-0.0513142,0.253561,-0.220619,-0.0466162,0.0443021,-0.193422,0.0753004,-0.0654186,-0.386549,-0.319617,0.0373529,-0.0625995,0.434348,0.0367393,0.0435789,0.317148,0.343019,0.223829,-0.335707,-0.066934,0.0232154,-0.0656794,0.141463,0.0619875,-0.0556773,0.0724488,0.261923,-0.288934,-0.187353,-0.150076,0.116591,-0.073658,0.2362,0.305939,-0.372568,0.113728,-0.346188,-0.199386,0.0798267,0.0547327,0.487458,-0.0286364,0.419042,0.330732,0.345097,-0.00894044,-0.126861,0.179325,0.219437,0.189631,0.230648,-0.146447,0.123912,0.303426,-0.0618031,-0.235804,-0.287033,0.378093,0.125096,0.182588,-0.118426,-0.361654,-0.062575,-0.427684,-0.382225,0.102663,0.0928024,0.188498,0.111642,0.411699,-0.179197,0.419295,-0.14292,-0.103704,0.168448,-0.141731,0.271261,0.0631278,0.0302362,0.0767779,0.0670208,0.304871,0.314078,-0.00751978,0.0669515,-0.219034,0.276586,-0.259087,0.349012,-0.375299,-0.228186,-0.198328,-0.315171,-0.288922,-0.2856,0.323072,0.259099,0.258238,0.19159,-0.239989,-0.0468253,-0.0915479,-0.143218,-0.0215988,0.332957,0.250487,0.0907179,0.0418302,-0.0253365,-0.28714,-0.0509293,0.0549242,0.14294,0.26567,-0.122922,0.134262,-0.259126,0.0809524,-0.214026,0.00273471,0.132079,0.0561731,0.268585,-0.0810986,0.398473,0.178898,0.0934816,0.00139027,-0.268164,-0.224912,-0.182972,0.271632,-0.26464,0.370273,-0.204566,-0.151613,0.301346,0.164965,-0.0175177,-0.272784,-0.216407,0.245418,-0.2906,-0.00762659,-0.201196,0.303405,-0.166012,-0.209227,0.057923,0.237574,0.0728261,-0.0303148,0.188699,0.214057,0.00752214,-0.180356,-0.245144,0.140275,0.340831,0.0171972,0.0523179,-0.0815424,0.167272,0.243858,0.301025,-0.249071,0.0400341
-0.103333,0.183593,0.31677,-0.207498,-0.181735,-0.00431532,0.308097,0.060329,-0.0851955,-0.17084,0.368575,0.0054689,-0.227665,0.260457,-0.284747,0.187246,-0.0693015,0.366225,0.0794702,0.277996,-0.275475,-0.262038,-0.249733,-0.1304,-0.149391,0.317667,0.0553941,-0.231446,-0.0291605,0.0258492,0.0637898,0.125507,0.210511,-0.095172,-0.255715,-0.202755,0.36128,-0.0520119,-0.0363483,0.28575,0.0460821,-0.262107,-0.0345012,-0.243687,-0.038098,0.0643328,0.293286,0.0742363,-0.25039,-0.0566857,-0.0734459,-0.237236,0.309293,-0.0852169,-0.218586,0.0273873,-0.184085,-0.270711,-0.0725913,0.242555,0.345952,-0.0926419,-0.0985665,0.24911,0.373994,0.190076,-0.0423847,-0.134874,-0.147565,0.139553,0.00115499,0.303461,0.108693,-0.15721,-0.246852,0.142531,0.122941,0.344475,0.226151,0.24805,0.158705,0.398035,0.395962,0.21474,-0.0100192,0.311322,0.330592,-0.000363201,-0.267881,-0.291146,0.364759,0.0163716,0.0378661,0.0285891,-0.00937237,-0.130974,0.194414,-0.220491,0.0226813,0.120465,0.125216,0.142146,-0.139399,-0.0161545,0.0311517,-0.123931,0.0242293,-0.211752,-0.0597082,0.329908,-0.11271,-0.24279,-0.0128178,-0.182141,-0.299725,0.171158,-0.170307,0.0419383,0.155941,0.373764,0.425178,0.502082,-0.149701,-0.0792964,0.271131,0.146464,0.372525,0.421583,0.341637,0.347892,0.18275,0.42269,0.123391,-0.0280308,0.298213,-0.184757,-0.0664815,0.307776,0.0752148,0.24044,0.15815,-0.27539,0.376712,0.389279,0.395702,-0.0459156,-0.000137304,-0.0324541,0.257108,0.227462,0.155798,0.106766,0.362174,-0.135865,0.398298,0.283049,0.231548,-0.0695889,0.479918,-0.071964,0.261072,0.0567886,0.0929403,-0.198451,-0.129976,-0.0162932,0.0712148,0.10926,0.0224952,-0.237919,0.250451,0.00100697,0.219785,0.161618,0.131299,0.577074,0.112649,0.618705,0.132236,-0.264172,-0.138713,0.101421,0.16874,0.358599,0.545175,0.145521,0.128205,0.375112,-0.0201104,-0.175527,0.138841,0.195085,0.367527,0.0429003,-0.120822,0.114443,0.0388592,-0.132198,0.117756,0.0042745,0.303968,0.478836,0.0342228,-0.03256,0.0827259,0.0161612,-0.138923,-0.33538,-0.488115,0.0393686,0.0974878,0.244174,0.481003,0.72784,0.163189,-0.0245077,0.141424,0.26012,-0.0272646,0.341306,0.541916,0.0133826,0.217228,0.23678,0.24828,0.318945,0.393708,-0.0450033,-0.0556695,0.492425,0.168758,0.546594,0.0129603,0.123942,-0.204013,-0.341126,-0.312613,-0.0564265,-0.152011,0.0368326,0.281965,0.53415,0.532837,0.387795,-0.0505512,-0.0289276,0.203598,0.321115,-0.163846,0.239304,-0.194454,-0.0377033,0.0563127,-0.151738,0.374415,0.382579,0.437155,0.273581,0.530267,0.181981,-0.211279,0.00355131,-0.0357311,-0.585231,-0.697698,-0.29302,-0.0398795,0.145579,0.192487,-0.156755,-0.303168,-0.149885,0.392364,-0.329703,0.229772,-0.283405,-0.100951,0.172151,0.254452,0.145204,0.269857,0.293104,0.277224,0.350916,0.338792,0.232814,0.0493914,0.0799251,0.242077,-0.0282913,-0.00547559,-0.206041,-0.541162,-0.226869,0.2401,-0.116576,0.257231,-0.260891,-0.383323,-0.00855978,-0.306435,-0.133717,-0.178733,-0.293328,-0.206568,0.304069,-0.305542,0.127679,-0.246272,0.0836929,-0.189811,-0.145428,0.110676,-0.167038,0.00584932,-0.177262,0.208587,-0.292379,-0.414036,0.125236,-0.193017,-0.0307716,-0.171172,0.234075,-0.252179,-0.0108517,-0.30357,-0.151041,0.13297,0.0911667,0.0415822,-0.0297945,0.167115,0.375111,0.159784,0.226166,-0.276565,-0.104163,0.0491778,-0.143288,0.0552703,0.135987,0.118765,0.379426,-0.0778308,-0.0361863,-0.123449,-0.192216,0.0371336,-0.388532,-0.0774994,0.0347725,-0.0516806,-0.131351,0.138033,0.188643,-0.0402594,-0.200804,0.354486,-0.341601,-0.26343,0.322233,0.348163,-0.185268,0.338923,0.364246,-0.165454,-0.0770577,0.195201,-0.275034,-0.269042,0.398908,0.141457,-0.219179,-0.0779862,-0.195798,-0.4149,-0.217294,0.136246,0.208846,0.02043,0.0562887,-0.00976451,0.00577166,0.320181,-0.295543,0.132124,-0.264034,0.349441,-0.193827,-0.352563,-0.270059,-0.184491,0.29903,-0.225916,0.0367193,0.242976,-0.0633914,0.0680374,0.0254789,-0.0951143,0.279777,0.242104,-0.0699127,-0.276917,-0.556747,-0.582859,-0.252336,-0.199219,-0.164718,0.129814,0.475662,-0.195071,-0.161125,-0.192687,0.2978,0.281487,-0.28084,0.170407,-0.237115,0.317496,0.16403,-0.318616,-0.168768,0.0187879,-0.0684433,0.0836348,-0.023192,-0.0941727,-0.0050589,0.366466,0.326202,-0.314684,-0.648926,-0.323837,0.125635,-0.268397,0.0389806,-0.153365,0.352894,0.311643,-0.0327033,-0.00240034,0.133102,0.0319294,-0.0894311,-0.0723939,0.123545,0.0498184,0.193433,0.0231023,-0.0193953,0.174318,0.0134799,0.129306,-0.0258296,-0.0157577,0.246779,0.34498,-0.165742,-0.240753,0.0734601,-0.429207,-0.32008,-0.165444,0.121192,0.197181,-0.0424972,-0.282876,0.0281516,0.423566,0.0806777,0.144072,-0.352225,0.00963055,-0.2768,0.313694,-0.267562,0.0436698,-0.0915797,0.284163,0.242153,0.229498,-0.00554414,0.348771,0.710553,0.518033,-0.159363,-0.058276,0.352595,-0.286896,0.137463,0.224423,0.0207035,-0.0356104,0.264953,0.125395,-0.0234241,0.296386,-0.0144728,-0.192799,-0.32222,-0.25765,0.143187,-0.0582141,0.351655,0.19839,-0.0252958,0.205547,0.140829,-0.203948,0.172864,0.00274806,0.295617,0.415401,-0.34075,-0.260304,0.404182,0.471425,-0.00850163,-0.130831,0.112719,-0.115644,-0.0667578,-0.112225,0.314317,0.241016,-0.0594719,-0.00972082,-0.368529,0.117387,-0.27541,0.278423,0.0850134,-0.223177,-0.43198,-0.156994,-0.23542,-0.223968,0.0148258,0.410716,0.318879,0.459626,-0.0441562,-0.40349,-0.450223,-0.191729,0.431731,0.541186,0.22365,-0.287054,-0.22326,0.402078,0.235243,-0.142087,0.0029769,0.0392149,-0.00484707,0.181729,-0.0685492,0.12053,-0.168925,0.179172,-0.339165,-0.106811,-0.18465,0.249727,0.143618,0.228628,0.389987,0.370945,0.0233126,-0.375109,-0.0640308,0.360731,0.138857,0.269035,0.073505,-0.218915,0.283253,0.471822,0.208178,0.529607,-0.177434,0.0771675,0.0120534,-0.323199,-0.00681979,0.285089,-0.233679,-0.287836,0.00628518,-0.233853,-0.173542,0.0233657,0.299817,0.064216,0.31675,0.340387,0.0712194,-0.0705338,0.0140731,-0.0931772,0.412156,0.579554,0.290336,0.559888,0.499681,0.467033,0.601918,0.483072,-0.107547,0.270344,0.168871,-0.177046,-0.0132326,0.0182867,-0.17161,0.284934,-0.122609,0.276443,0.244929,0.142764,-0.111757,0.450267,-0.169042,-0.0843865,0.236656,0.158266,-0.193996,0.118272,-0.0387436,0.125986,0.385666,0.473787,0.330628,-0.0574077,-0.0354577,-0.171611,-0.245772,0.356867,0.158001,0.0616756,0.266287,0.0126896,0.0413687,0.0816817,-0.141071,-0.263094,0.274869,-0.292594,-0.323193,0.107583,-0.152684,-0.156116,0.116736,-0.275069,0.0140528,-0.172235,0.374908,0.547836,0.577585,0.576003,0.290601,0.118869,0.164865,0.215118,0.255158,0.225858,-0.30649,0.0719891,-0.286007,-0.152681,0.0562273,0.401893,0.326414,-0.267714,0.230633,0.124307,0.113089,-0.0106385,-0.284174,0.33593,0.374774,-0.117393,0.0389085,-0.192067,0.290907,0.353087,0.496928,-0.0601575,0.333658,-0.193976,-0.028078,0.023569,0.165748,0.352243,0.0996665,0.296539,-0.198975,-0.283316,-0.174279,0.15031,-0.287887,0.00990207,0.14508,-0.259927,-0.0799582,-0.225065,-0.0740575,-0.0480239,0.262326,0.282825,-0.0402899,0.159683,0.272344,0.123166,-0.02185,0.265754,0.386019,0.352384,0.169111,0.299153,0.0740048,0.314203,0.21301,-0.198676,0.0787652,-0.135569,0.167956,0.282247,-0.0045076,0.0458124,0.390967,-0.296936,-0.113119,0.32176,-0.055985,-0.109923,0.149844,0.396056,0.247941,0.00279983,0.153486,0.207492,-0.0632657,-0.0275735,-0.0862883,-0.262494,0.0821899,-0.095647,0.0236721,0.38261,-0.181948,0.0341807,-0.215275,-0.11301,0.216578,0.174493,-0.256334,-0.291305,-0.158428,0.349941,0.29262,0.137558,-0.0790219,0.0511501,-0.188955,-0.119547,-0.195813,-0.148537,-0.0386815,0.106172,-0.178412,0.127051,0.259297,0.272164,0.34984,0.240996,-0.15266,0.381628,0.390344,0.364922,0.282803
-0.277078,0.315424,0.0666951,0.374343,-0.126063,0.336958,0.324311,0.397159,-0.168361,0.146144,-0.232344,-0.198932,0.177761,0.154241,0.14373,0.152852,-0.0606495,0.148109,-0.0624012,0.210233,0.254091,-0.0678274,0.234053,-0.22523,-0.10079,-0.121299,0.354006,-0.0796625,0.293826,0.358663,0.349947,0.143794,0.13386,0.0742363,-0.204892,0.33535,0.0688387,-0.0343242,0.150464,-0.284898,0.380451,0.115168,0.144136,-0.0679342,0.170925,-0.185324,-0.152831,0.274129,-0.0771203,0.128861,0.080987,-0.115894,-0.162529,0.215296,0.2395,-0.170156,0.0119846,0.0298654,0.0616962,0.324717,-0.234416,-0.0128635,0.037949,-0.0543129,0.0726734,0.397552,0.384704,-0.154441,0.113018,0.354401,0.274528,0.207904,0.299035,0.29156,0.047164,0.335559,-0.0126777,0.181927,-0.298911,0.131318,0.136808,-0.29577,-0.116749,0.353001,-0.17915,0.0435163,0.0743431,0.102799,0.352978,0.350945,0.196142,0.138815,0.334214,-0.267619,0.328792,-0.0386313,0.2935,-0.100827,-0.124706,0.068812,0.194882,-0.286443,-0.0602109,0.120116,0.128219,-0.0726984,-0.204689,0.232932,0.0391839,0.193052,0.266895,0.315189,0.3837,0.341401,0.0179449,-0.22869,0.315866,-0.0430306,0.392795,0.203889,0.158386,-0.203662,-0.140584,0.125114,-0.10892,-0.182484,0.0475994,-0.297852,0.347793,0.0970272,0.171835,0.348434,0.348766,0.211945,-0.188544,-0.270673,-0.0972194,-0.220661,0.0780889,-0.171032,-0.114057,-0.0522965,0.0277935,-0.0490672,-0.0370109,0.116809,0.1301,0.0758444,-0.122739,0.251573,-0.232155,0.381308,0.273493,0.23865,-0.0697214,-0.0709415,0.35685,0.209894,0.133337,0.00458079,-0.0178007,-0.173954,0.0579969,0.313968,-0.252181,0.273943,-0.122295,-0.0458674,-0.132557,0.0355693,-0.142767,0.313342,0.333472,-0.000124647,0.287788,0.193211,-0.235593,0.0104958,0.232713,-0.00862092,-0.281461,0.294561,0.300453,0.106882,0.31083,0.137466,0.25172,0.193306,0.0295619,-0.0447504,0.154882,0.243536,-0.164785,0.121632,0.0900386,-0.107116,0.249327,0.208161,0.14681,0.236793,-0.257187,0.257802,-0.136826,0.352135,-0.0746565,-0.0409649,0.271976,0.047878,0.199692,-0.269997,0.0178313,-0.0890062,0.165515,-0.114275,-0.0852712,0.221167,0.136633,0.213856,0.356243,-0.279024,-0.185588,-0.057988,-0.296382,-0.251936,0.0719718,0.047674,-0.210051,-0.0274112,0.000883991,0.0378122,-0.0563672,-0.0453306,0.150961,0.130409,-0.198822,0.317038,-0.120654,-0.0933853,-0.0778902,-0.19364,-0.282828,-0.243471,0.260002,-0.120454,0.0834194,0.0434532,0.0574266,0.0673893,-0.256164,-0.171973,0.125181,-0.277477,-0.190771,0.135107,-0.212541,-0.15364,0.306513,0.145317,-0.251669,0.329783,-0.188851,0.27047,0.017123,-0.171901,-0.160912,0.188633,-0.233562,0.133227,-0.177889,-0.321676,-0.0604792,-0.184531,-0.120608,0.0569143,-0.00597319,0.132763,0.15393,0.0685136,0.0773509,0.288018,0.0746635,-0.105817,-0.179402,0.275396,-0.0892794,0.232072,0.0242214,-0.293282,0.363894,0.379884,0.220818,0.354052,-0.282945,-0.183226,-0.206634,-0.183872,-0.198286,0.284414,0.173638,0.0711558,-0.00743165,0.318742,0.320566,0.202072,0.212108,-0.0962341,-0.0208176,-0.198856,0.285281,-0.237579,0.064834,0.143181,0.135728,0.0174513,0.0720636,0.339433,-0.10831,-0.282942,0.0771256,-0.121971,0.333293,0.171712,-0.185649,-0.323439,0.141685,0.0258602,-0.014835,-0.171965,-0.0702525,-0.158422,-0.195972,-0.0873732,0.385536,0.375597,0.310266,0.395527,-0.201325,0.142049,0.0340226,-0.225747,0.212338,0.0769771,0.13347,0.177943,-0.131433,-0.0536098,-0.213939,-0.108554,0.0855746,-0.0657283,0.349779,0.0756631,0.373209,0.349553,0.19167,0.413698,0.180646,0.100494,0.098271,0.346602,0.130634,0.238529,-0.222034,-0.27297,0.188998,-0.264624,0.00456959,-0.222068,0.014468,0.312106,0.319945,-0.195653,0.276532,0.36754,-0.313774,0.170223,0.0599534,0.194141,0.394154,-0.123323,-0.0679608,-0.114864,-0.145838,0.0731228,0.307671,-0.0951145,-0.063097,-0.155525,-0.13384,0.131965,0.18563,-0.298701,-0.0227088,-0.284679,0.297283,-0.079955,-0.150807,0.0617491,0.18518,-0.195468,0.40385,0.0897603,-0.107272,-0.173508,-0.162599,0.371274,0.358944,-0.131093,0.34886,0.0369572,0.11491,0.111209,0.163916,0.37795,0.290737,0.00551206,-0.0868157,-0.203669,0.0805894,-0.0386993,0.0821192,0.2364,-0.233882,-0.270472,-0.102093,0.0213059,-0.167398,-0.201263,0.382416,-0.0262467,0.12678,0.285161,-0.163587,-0.0771339,-0.256731,0.2171,0.303957,0.313589,0.121042,0.292274,-0.201517,0.117845,0.280277,-0.0660219,-0.116966,-0.0579263,0.0897781,0.261567,0.105832,-0.062113,-0.00210863,0.155803,0.00901738,0.177064,-0.259318,0.0781732,-0.230889,0.16176,-0.071134,0.230668,-0.259144,-0.0564397,0.0297401,-0.221073,0.299843,0.330293,0.324153,0.0879416,0.0783623,0.175973,-0.128849,0.317687,-0.158013,-0.00802865,-0.00976896,-0.188769,0.22226,0.347729,-0.274408,0.31138,-0.194011,0.259137,0.0742582,0.0925959,0.089396,0.0984485,0.228526,0.187468,0.331957,-0.0503465,-0.283146,0.340605,0.0123378,0.239567,-0.0172183,0.173495,-0.191205,-0.0492386,-0.176202,0.352136,0.269036,-0.243236,-0.10163,0.209873,-0.0187353,-0.0780596,0.00471269,-0.288937,0.0501457,0.350674,0.354424,0.243328,0.190664,0.0502287,0.359415,-0.302316,-0.128918,-0.0013548,0.0860642,0.326559,-0.115679,0.190004,0.309374,0.364682,0.390528,0.196209,0.13977,-0.193525,-0.0108266,0.264777,0.277689,0.0549689,0.396133,-0.0472607,-0.290489,0.125017,-0.0738932,0.278322,0.0291633,-0.134804,0.12684,-0.200601,0.38179,0.133836,-0.11611,0.166235,-0.101679,-0.0407161,0.280997,-0.288015,0.377421,-0.0135264,0.32847,0.208241,0.122767,-0.0889963,-0.21302,0.263652,-0.0213525,-0.248829,-0.0710532,0.0732998,-0.164404,-0.064303,-0.177457,0.033613,0.253887,0.13562,0.251899,0.127933,0.182295,0.150284,-0.285077,-0.233775,0.335834,-0.0349073,-0.188801,0.201753,0.290687,0.0315735,-0.109122,0.0583024,-0.159344,-0.173495,0.198085,0.202883,0.195099,0.398257,-0.159816,-0.0294158,0.368381,0.306538,0.25949,0.370596,-0.153522,0.299471,-0.151052,-0.281196,-0.277712,0.286459,0.370666,0.0910242,0.25548,-0.0282356,0.00788588,0.367366,0.109247,0.386878,0.36984,-0.216588,-0.176045,-0.041734,-0.0868027,0.330899,0.229801,-0.118559,-0.282675,-0.237911,-0.234621,-0.0178032,-0.103507,-0.00284754,0.124319,0.315753,-0.265021,0.17621,-0.0510489,0.371031,0.259301,-0.0927501,-0.184738,-0.168587,-0.145834,0.173185,-0.281216,-0.236562,-0.0595739,0.0760197,0.242134,-0.16434,0.0616843,0.10212,0.103722,0.172608,0.0489852,0.236044,-0.251792,0.0807819,-0.0404557,0.00594748,-0.115527,-0.0755892,-0.133672,0.0957726,0.182799,-0.0462636,0.113854,0.0129754,0.117853,0.320365,-0.0511669,-0.130646,0.192743,0.0728967,-0.0928991,-0.204422,-0.230976,0.207362,0.386923,-0.107894,-0.0871982,0.185858,0.359645,0.309891,0.242979,-0.0538698,-0.18248,-0.0520128,0.123124,0.27672,0.112018,0.0492805,-0.141954,0.357904,0.209561,-0.240766,0.091614,0.028811,-0.160433,-0.1516,0.0569387,-0.0654529,-0.220595,-0.0144593,-0.245293,0.133765,-0.204594,-0.136976,-0.0944456,0.182012,-0.02931,-0.0904721,-0.248665,-0.217795,0.176703,-0.286747,-0.250403,0.242565,0.00539226,0.109399,0.319142,0.270027,0.249812,-0.183156,0.079386,0.31902,-0.16789,0.397338,0.149887,-0.106669,0.356673,0.392034,-0.230697,-0.0395502,-0.259565,-0.272655,0.28887,-0.220145,-0.296454,0.0224952,0.00523391,0.259432,-0.0237343,-0.0222735,0.396823,0.384047,0.00318533,-0.188368,-0.100326,0.213724,-0.172295,-0.284184,0.019729,-0.200999,-0.0228674,0.0834591,-0.101413,-0.190881,0.286176,0.294263,-0.0640248,0.216193,-0.20062,-0.293142,0.377483,0.0435591,0.390408,-0.27163,0.0879086,0.112326,0.0095706,0.0177953,0.309337,-0.11009,0.12614,-0.298185,-0.292379,0.186691,-0.172356,0.114655,0.241316,-0.0039969,-0.21515,0.338697,0.326865,-0.0736311,-0.254924,0.264879,-0.253365,-0.178979,0.159859,0.344584,-0.224674,0.212775
0.00803247,0.159389,-0.135633,0.110553,0.023606,0.374728,0.265627,0.0648579,-0.112818,-0.297223,0.0302713,0.208502,-0.00920746,-0.154241,-0.233048,0.120145,-0.164708,0.241166,-0.0067507,0.00681478,0.169707,-0.219013,0.265349,0.25298,0.232044,-0.0727836,-0.280303,0.23245,0.000790417,-0.205469,0.0117496,-0.269601,0.216514,0.0231361,0.0853023,0.366501,0.282448,-0.287461,-0.143304,-0.0944021,0.107023,-0.259201,0.154259,-0.165582,0.387009,0.233775,-0.122132,0.348601,-0.291498,-0.0808803,0.146058,0.24922,-0.242833,-0.17712,0.281542,0.314762,0.207797,0.140141,0.290066,-0.19498,0.199487,-0.252667,0.304436,-0.0241871,-0.128338,-0.220023,-0.245035,-0.0828966,-0.140995,-0.251825,0.0213942,-0.165553,0.22583,0.190815,-0.0767716,-0.237315,-0.114655,-0.233593,0.0881972,0.270614,0.0265114,0.38605,-0.0377056,0.310553,-0.0396069,-0.0999146,0.143965,0.281414,0.0355055,-0.0233517,0.148475,0.344946,0.272172,0.359607,0.344797,-0.106045,-0.0148282,0.0468737,0.114489,0.247965,0.0717717,0.121642,-0.206737,0.00890694,0.055357,-0.0801229,-0.229162,-0.0924015,0.350689,-0.169484,0.378257,-0.0807093,0.165328,0.188763,-0.223607,0.0623999,-0.0720401,-0.0793705,0.345719,0.215387,0.292284,0.0813475,0.00902069,-0.076168,0.380456,0.205765,-0.0968741,-0.062244,0.297736,-0.00940784,-0.186365,0.274099,0.0925783,0.324817,-0.19931,-0.245691,0.132841,-0.279598,0.172815,-0.28496,0.139244,0.290045,0.184234,-0.0374167,0.38869,0.0856365,0.252716,0.307197,0.142551,0.249294,-0.0554711,0.294441,0.286124,0.245268,-0.218406,0.0742343,0.284185,0.0525539,-0.227984,0.141854,0.226173,-0.0956386,0.237887,-0.00782442,-0.014066,0.143977,-0.253497,-0.183316,0.110233,0.215146,0.297137,0.357067,0.0465262,-0.0990855,0.136378,0.28604,-0.133419,0.237276,-0.342276,0.17484,-0.050796,0.161476,0.371226,0.443665,0.389028,0.15462,0.15477,0.100706,-0.00147024,-0.183561,0.161531,-0.370809,-0.0283485,-0.0441409,0.239785,0.380773,0.35204,0.0627643,0.20952,0.137268,0.159425,0.312012,0.135276,-0.263052,0.260592,0.1716,-0.151281,-0.0545157,-0.253712,0.338989,-0.0539155,-0.0225021,-0.0414123,-0.0094242,-0.188575,0.245805,0.096922,-0.36985,-0.220938,-0.0266052,-0.471009,0.0499678,0.190664,0.0447336,0.166289,-0.166178,0.251082,-0.218282,0.141096,0.161887,0.518577,-0.0943618,0.163434,-0.130989,-0.136537,0.29426,-0.152098,0.529889,0.605007,0.0590899,0.839205,0.127406,0.0290183,-0.0831576,-0.297871,-0.401949,0.147601,-0.160405,-0.363467,-0.346643,-0.137085,-0.00288621,0.278936,0.206714,-0.0448176,-0.255102,0.37242,-0.0324912,0.0576323,0.277209,-0.0145387,-0.154479,0.106667,0.170156,0.442856,0.326238,0.350618,0.333934,0.342072,0.0819464,0.165899,-0.259674,-0.358804,-0.324034,-0.0196165,-0.294781,-0.356416,-0.0273549,-0.16407,0.0147066,-0.0341807,0.222365,0.0734706,-0.194909,0.429854,0.531889,0.329569,0.255472,0.0561546,-0.128635,-0.119423,-0.301911,-0.241233,0.126656,0.0761447,0.437234,0.405946,0.590922,0.470222,0.184652,0.00145017,-0.395433,-0.231816,0.251687,-0.385554,-0.0499773,-0.283796,-0.281811,0.173724,0.0816154,0.327237,0.107332,0.457835,-0.0332675,0.0246201,0.361142,-0.413131,-0.272369,-0.229614,-0.217299,-0.650501,-0.277224,0.369913,0.252224,0.22385,0.674203,0.328512,0.484026,-0.113283,0.323397,-0.0650516,0.00262236,0.0386084,0.0663661,-0.148653,-0.209813,-0.24828,0.11433,0.352746,0.251954,0.154697,0.554906,0.29973,-0.00427819,-0.28156,-0.147067,-0.37221,-0.237668,-0.732157,0.0597512,-0.170522,-0.05845,0.0147326,0.412144,0.197987,0.477672,0.220797,-0.24318,-0.0999176,-0.0419336,0.153149,-0.146625,0.0158005,0.369203,0.259474,-0.0800422,0.023013,0.513841,0.530796,0.401137,-0.0103996,0.0425546,-0.542897,-0.691123,-0.557968,-0.582262,-0.565738,-0.259672,0.292917,-0.0652564,0.656323,0.799815,0.526886,0.382924,0.102177,0.243774,0.141979,-0.313303,-0.430946,-0.525225,0.193792,0.368169,0.166866,-0.071931,0.356539,0.175149,-0.0965524,0.371202,0.0885839,-0.273375,-0.785729,-0.857872,-0.79675,-0.863526,-0.289268,0.218262,-0.363894,-0.251992,0.289497,0.289434,-0.0179639,0.419425,-0.223419,-0.148055,-0.151574,0.0714008,0.00647155,0.184942,0.135183,-0.144322,0.211814,0.269676,-0.180942,0.0955408,-0.258994,-0.0564371,-0.168774,-0.367873,-0.445264,-0.26021,-0.387671,-0.46532,-0.0493432,-0.0330407,-0.262192,0.284679,-0.105921,-0.153084,0.330878,0.416989,-0.158546,-0.431168,-0.420683,0.0061834,-0.146805,0.251712,-0.336059,0.235206,0.031019,-0.00897352,0.0624696,0.0033478,0.23647,0.0967149,0.165807,-0.0709067,0.0954267,-0.572601,-0.153546,-0.304128,-0.183129,0.0483627,-0.0746607,0.334962,0.368772,0.339468,0.185199,0.179999,0.185322,0.150187,-0.104657,0.184167,-0.147951,0.0793145,-0.239323,0.0515861,0.129609,-0.154696,-0.16782,-0.294268,-0.0931001,-0.29571,-0.130632,0.265444,0.0876647,0.152387,-0.302866,0.191693,-0.145368,0.0928045,-0.0326328,-0.12668,0.295162,-0.203206,0.106895,-0.34667,0.0558788,0.414754,0.309265,-0.0138317,0.00148983,0.173603,-0.050137,0.068556,-0.194617,0.192856,-0.21309,0.21638,-0.292954,-0.234586,-0.445458,-0.239394,0.00317928,-0.12087,-0.115466,0.0890229,-0.0901731,0.443396,0.311321,-0.136678,-0.166987,0.255043,-0.220798,-0.161161,0.360609,0.336557,0.195811,-0.363325,-0.212385,0.0362866,0.127681,0.142604,0.193142,-0.00769032,0.355941,0.0305265,-0.188725,-0.416831,-0.066256,-0.408442,-0.260587,0.00402834,0.15285,-0.041746,0.0549157,0.399752,-0.0136374,-0.302591,0.110399,-0.209332,-0.208661,-0.233384,0.0522471,-0.0462675,-0.0120472,-0.206936,0.322607,-0.135437,-0.241637,0.075735,0.244563,0.0338565,-0.310174,-0.146971,0.0476618,0.0740182,0.106378,-0.0615149,-0.355237,-0.280089,-0.0935116,-0.0605272,-0.221977,0.169148,0.223425,0.161523,0.374474,0.172111,0.321392,0.331027,0.0240196,-0.00254301,0.281375,0.454615,-0.23854,-0.0680586,-0.0162303,0.209921,-0.290194,-0.211187,0.109623,-0.290729,-0.156634,-0.282954,-0.177856,0.0675943,-0.136907,-0.0648075,0.07517,-0.463211,-0.493342,-0.0221397,-0.137573,-0.266471,0.0928806,0.455478,0.153076,0.0816027,0.219668,0.0253861,0.344728,0.367311,0.236058,0.0957733,-0.221809,0.0358701,-0.264174,0.0989836,-0.119307,-0.160604,-0.0348147,-0.302067,0.0700776,-0.168706,0.120141,-0.0302644,-0.339729,-0.0733435,-0.36559,-0.46032,-0.0229051,0.260906,0.317642,0.4934,0.0320437,0.303749,0.446985,0.0488385,0.0146292,0.209056,-0.238375,-0.013452,0.343398,0.376764,-0.252596,0.197458,0.0178598,-0.104045,0.232675,-0.335506,-0.0593453,-0.0420234,-0.213527,-0.400504,-0.104128,-0.22107,0.0263478,-0.276455,-0.380117,-0.0242409,-0.0752035,0.0462602,0.268301,-0.0571251,0.350088,0.366549,0.305863,0.112727,-0.254829,0.0144852,0.311652,0.35266,0.126341,-0.267251,0.236509,0.195182,-0.142243,0.350222,0.383995,0.378717,-0.20783,0.132842,0.103597,-0.0594799,-0.211529,-0.038086,0.00279965,-0.230254,0.244381,0.50664,-0.139992,0.485367,0.346723,0.352325,0.248253,0.248216,0.408248,0.37197,-0.228498,0.347597,0.25471,0.00205082,0.0798761,-0.0411878,-0.18878,-0.187975,-0.256977,0.379218,-0.17479,-0.0975647,0.264646,0.211089,-0.157931,-0.27434,0.366185,-0.20238,-0.140454,0.0918255,0.310444,0.0653946,0.148108,-0.26858,-0.278001,0.159918,0.283011,-0.07116,0.288977,0.0713309,0.0373638,0.345631,-0.185516,0.338752,-0.111914,0.280636,0.0200961,0.104998,0.272355,0.160428,-0.298291,0.272531,-0.118002,0.00628836,0.10544,-0.114466,-0.242099,-0.18532,-0.199422,0.407324,0.323471,-0.144366,-0.24408,0.161466,0.15736,0.026426,-0.184191,0.105512,0.0697714,0.00630206,0.37069,0.119803,0.203461,0.236402,-0.0960069,0.0910861,-0.167438,0.161474,0.270738,-0.13228,0.329051,0.201175,0.13715,-0.23941,0.282291,0.140587,-0.0272604,0.0182856,-0.0775903,0.172613,0.306836,0.183337,0.365307,0.187823,-0.143303,0.265755
0.166396,0.00653705,-0.266524,-0.260543,-0.175796,0.322474,0.038496,-0.196539,-0.0167486,0.127985,-0.0333262,0.00621662,-0.251976,0.109784,0.307669,0.280196,-0.232878,0.133882,-0.122217,0.183166,0.396924,0.292309,0.167614,0.0932066,0.303909,-0.0667593,-0.0607776,0.354241,-0.184405,-0.0537065,0.357744,0.319205,0.378722,-0.0749626,0.291263,0.291748,0.234433,0.378396,0.264033,-0.1173,0.0708648,0.213337,0.296349,0.0711386,-0.141271,0.359719,0.31703,0.26176,-0.0640237,0.260032,0.280859,-0.209656,0.143495,0.196539,0.277483,0.13166,0.276501,0.375134,-0.135591,0.337171,-0.141444,-0.0593633,-0.291095,0.232285,-0.208739,0.143293,-0.122044,-0.236278,-0.259516,0.135573,-0.0592979,0.353473,-0.0290013,0.109546,0.166079,-0.125675,0.23807,0.191696,-0.196521,0.0532486,0.288208,0.296817,0.269835,-0.113565,-0.0166631,0.0411664,-0.0941038,0.0955778,0.130114,0.105872,0.246148,-0.160283,0.117008,0.0268145,-0.122792,-0.11799,-0.307104,-0.295037,0.0298778,-0.0448715,0.145752,0.0287836,0.0636005,-0.291773,0.0249963,0.164029,-0.113397,-0.0828013,0.0549599,0.0687494,-0.278702,-0.17022,-0.226704,0.0707327,-0.15988,-0.0397335,0.227081,-0.24099,0.0740869,-0.0992894,0.355484,-0.0791231,0.141684,0.213179,0.0306528,-0.193694,0.0432262,-0.227559,0.22602,-0.0478754,-0.122464,0.111474,0.1872,0.175079,0.316727,0.0103746,0.183798,0.312105,0.231701,0.394317,-0.197031,0.180966,0.304743,-0.301679,0.31387,0.184227,0.0974256,-0.154168,0.319458,-0.295762,-0.328379,-0.0753145,0.164417,0.116148,-0.01754,-0.0686348,-0.111998,0.210102,0.139133,0.246759,0.213883,0.120182,-0.265225,-0.0883011,0.140912,-0.0810757,0.337205,0.264468,-0.230506,0.379235,0.131619,0.294054,-0.27256,-0.252396,-0.254092,-0.337871,-0.210254,-0.0249232,0.149951,0.0521647,0.286868,0.449211,0.169729,0.387639,-0.10096,0.180092,-0.0868074,-0.408687,-0.428032,-0.0238117,0.0505823,-0.342624,0.343817,-0.275246,0.0596483,-0.18308,-0.298398,0.252083,-0.206807,0.212723,-0.262508,-0.302142,0.327236,0.167194,-0.142611,-0.194641,-0.412311,-0.228786,0.219322,-0.120239,0.317653,-0.0703628,-0.154049,-0.325354,-0.283896,0.273595,-0.473733,-0.247698,-0.287079,-0.0190316,-0.0525571,0.171743,0.0244994,-0.200534,0.336702,0.198484,-0.275849,-0.0505606,0.177643,-0.0620608,-0.290108,-0.0188129,-0.29647,-0.236759,-0.219132,0.108944,0.176088,-0.216958,-0.0867937,-0.0226966,0.038109,0.228325,-0.264948,-0.262734,-0.289325,-0.0331376,0.104369,-0.167311,-0.140321,0.141546,0.319711,0.126716,0.349028,0.203555,0.383315,-0.0129875,-0.185578,-0.164996,-0.0132628,-0.0735272,-0.446472,-0.565992,-0.135219,-0.0826372,-0.21464,0.0939584,0.525226,0.404298,0.314325,0.0176649,-0.204339,0.0635087,-0.181156,0.113106,-0.191113,0.0269154,-0.0223061,-0.137503,0.356405,-0.185566,-0.055031,-0.183687,0.142111,0.322347,-0.271987,0.0401926,-0.177064,-0.302084,-0.365735,-0.362661,-0.30222,0.115307,0.320195,0.351105,0.628707,0.45346,-0.204953,-0.10388,0.0264578,0.204043,-0.0858306,0.332593,-0.0414933,-0.207979,-0.164229,0.0281129,0.0551654,0.144943,0.391028,-0.161952,-0.0129965,0.2662,-0.265205,-0.344116,-0.0268414,-0.353277,0.0119113,0.01099,-0.190763,0.165504,0.697956,0.351495,0.160011,-0.223762,0.317738,-0.176919,-0.400462,0.110818,0.00948068,-0.171669,-0.158017,0.386164,0.116141,-0.250794,-0.0413253,0.183188,-0.110233,0.22751,-0.21685,-0.24043,-0.134882,0.280271,0.253895,-0.0467448,-0.411523,-0.0321813,0.303924,0.0429855,0.664171,0.520458,-0.303721,-0.324542,-0.387338,-0.291091,-0.388367,0.280421,-0.139345,0.343683,0.145154,0.0148986,-0.116899,0.00773814,0.0359604,0.00640203,-0.12993,-0.251379,0.199024,0.324464,-0.0493719,0.0105767,-0.151515,-0.142422,0.274372,-0.0281781,0.564774,0.534503,0.0182084,-0.153725,-0.279898,-0.207411,-0.35872,-0.895815,-0.240106,-0.096242,0.171454,-0.0734857,-0.0816224,0.357505,0.0872116,-0.0531985,-0.210969,0.1172,-0.293634,0.106993,-0.251231,0.241758,-0.0739034,-0.0797898,-0.162945,-0.127011,0.0511282,0.0778409,0.363174,0.000664393,-0.542768,-0.383833,-0.720224,-0.610119,-0.60357,-0.230427,-0.255571,-0.380497,0.0800216,0.229566,0.291277,0.127056,0.36036,0.346623,-0.275854,-0.236295,0.233476,-0.0715364,0.191546,-0.177452,-0.0022132,-0.112614,0.0731139,0.362518,-0.139311,0.012039,-0.0936739,0.0194993,-0.416978,-0.206179,-0.28476,-0.274908,-0.3429,-0.48092,0.022418,0.021978,0.35071,0.167877,0.118184,-0.201743,0.148845,0.0777035,0.211583,0.134517,0.371801,0.201931,0.0564769,0.041498,0.484755,0.108279,0.458691,0.347816,-0.32639,-0.268201,-0.518892,-0.207298,-0.580293,-0.360792,-0.216427,-0.0136126,-0.20765,-0.00391353,0.247195,-0.0498124,0.0792833,0.363946,-0.113083,0.288516,-0.365045,0.0379115,-0.222329,-0.178828,0.229139,0.129298,-0.0904519,0.253029,0.459519,0.434453,0.512607,-0.186573,-0.0187111,-0.139405,-0.344781,-0.483349,-0.558975,0.15562,0.306075,-0.163376,-0.420885,0.0800899,0.389939,0.306798,-0.0381594,0.00213439,0.347013,0.270501,-0.200768,0.258101,0.0437376,0.26637,-0.10564,0.379924,0.239565,0.0080191,0.161499,-0.0722147,0.0384031,0.335296,-0.163614,-0.561373,-0.205993,-0.361326,-0.208546,-0.12035,0.184445,0.071331,0.405745,0.00704176,-0.172299,0.208685,0.0421002,0.211564,-0.127919,-0.109019,0.188346,0.200433,0.159178,0.373598,0.288763,0.0357154,0.0743046,-0.0373871,0.272097,0.521983,0.345031,-0.0174241,-0.368403,-0.00393463,-0.406523,-0.390041,-0.444685,-0.358422,0.207495,0.290814,0.157305,0.421698,0.517446,0.283537,-0.0468285,0.347752,0.330136,0.270897,-0.0781099,0.22923,0.308184,0.0391604,0.190558,0.180986,0.0698745,0.136085,0.526246,0.415568,-0.20212,-0.196163,-0.159371,-0.219641,-0.397157,-0.270135,-0.235679,0.0288057,0.0546665,0.446829,-0.0386348,0.00379477,0.139451,0.471204,-0.156633,0.0421773,0.053149,0.31064,-0.132342,-0.120191,-0.106168,-0.0170112,-0.00153813,-0.106911,0.366775,-0.138673,0.188783,-0.0485907,-0.018418,0.158987,-0.425778,-0.0849771,-0.469892,-0.222919,-0.158807,0.223691,0.18476,0.404301,0.333758,-0.0727402,0.277163,-0.0262421,0.437865,0.0779858,0.0657157,-0.123624,-0.21107,-0.244185,-0.211188,-0.244852,0.049498,0.147086,0.125363,-0.145362,0.353418,-0.0290509,-0.236297,-0.346316,-0.126902,0.0706371,0.104203,-0.091911,-0.342545,0.00427791,0.310361,0.158662,-0.156112,-0.0456957,0.169525,0.141332,-0.17037,0.148795,-0.2834,-0.148132,-0.243185,-0.145914,0.155026,0.0454247,-0.142897,0.0629012,0.292942,0.141198,0.0372246,-0.102672,-0.0813731,0.395816,0.164654,0.0232891,-0.0894704,0.137957,0.0496933,0.0930792,0.358651,0.554241,0.194944,0.0116173,0.260652,-0.158358,-0.27231,-0.127485,0.192693,0.122104,-0.261321,-0.158026,0.356817,-0.0908353,0.0849178,0.346806,0.0981726,-0.0197211,-0.245635,-0.191731,0.236023,0.30606,0.180838,-0.103554,-0.147653,0.266657,-0.185431,0.176996,0.206112,0.388788,0.0179037,-0.198961,0.300894,0.227588,-0.170906,0.319311,-0.0513103,-0.186723,-0.136394,-0.0646461,0.251036,0.0372997,0.321918,-0.271822,0.00807518,-0.115253,0.0149051,-0.160777,0.122054,-0.0918335,-0.246966,-0.286504,0.144195,0.0237439,-0.296633,0.101092,-0.0235838,-0.00971796,0.21813,0.131095,0.213437,-0.227741,-0.222697,-0.0340906,-0.168513,0.299075,-0.100812,0.201047,0.0977569,-0.175796,0.0745781,-0.0543474,-0.0181372,0.227323,0.171467,-0.286673,-0.297967,-0.230556,-0.0768024,0.320449,0.0965135,0.221604,-0.13161,0.289082,0.362591,-0.182854,-0.312858,0.295594,0.148865,0.171222,-0.202146,-0.139732,0.143529,0.0802383,0.114869,-0.164046,-0.0315958,0.122346,0.2417,0.185153,-0.0346507,-0.102286,-0.0826106,0.150653,0.39451,0.104282,-0.0752321,0.24782,-0.167968,0.143132,0.339692,0.33292,0.328285,-0.204103,0.344924,-0.247504,0.0822891,0.0290956,0.246572,0.279983,0.0975219,0.215851,0.0251228,0.322944,-0.0525956,0.0859645
-0.112732,0.023542,0.0709463,0.279662,0.0919462,0.116108,0.381991,-0.0448622,-0.184725,0.169942,0.0291818,0.0466567,0.0639179,0.0871822,-0.00999787,0.119996,-0.10423,-0.022132,0.0332194,0.222538,0.0578936,0.183828,0.134416,-0.125849,-0.199402,0.0736594,-0.0213203,-0.00343946,0.277547,0.180453,0.335227,-0.0726127,0.290643,0.00399485,-0.0623371,0.218344,-0.108612,0.250538,0.0552454,-0.150961,0.385737,-0.273898,-0.111988,-0.00102564,0.187779,-0.128218,-0.127345,0.148686,0.222047,0.135612,0.230122,0.0825037,0.143281,-0.0197821,-0.0576373,-0.105213,-0.202777,-0.168426,0.291177,0.311258,-0.255779,-0.0532343,-0.0550944,0.366006,-0.0999338,0.0244654,-0.254849,0.379269,-0.0760058,-0.0926545,-0.184721,0.0667933,0.353653,0.0635845,-0.035119,0.20894,-0.242882,-0.00665176,-0.123386,-0.087839,0.34452,-0.297031,0.203397,0.2975,0.111087,0.0868831,0.346657,-0.154924,-0.250624,-0.206312,-0.187299,0.165257,0.278336,-0.0858118,0.267486,0.0608735,0.323862,-0.284764,-0.0809961,0.0289401,0.352482,0.29139,-0.142211,0.343056,-0.00239329,0.395932,-0.127814,-0.220255,0.19536,-0.0918592,-0.277886,-0.272228,0.186114,-0.213822,0.309378,-0.0264904,0.0189605,-0.188526,0.139658,0.172308,0.104805,0.33812,-0.223216,0.173401,-0.00877781,0.049283,-0.134975,0.17741,-0.24729,0.313488,0.109988,0.224569,0.330688,0.116888,0.204598,0.299839,-0.10256,0.123592,0.368146,0.236381,-0.0598804,0.216129,-0.150653,-0.152845,-0.135926,0.21171,-0.0662307,-0.03487,-0.232335,0.292109,0.117622,0.276268,-0.115675,-0.268942,0.351677,-0.108256,-0.2476,0.183534,0.332519,0.00723716,0.115305,0.0569222,-0.0213359,0.119602,-0.0354376,0.271119,-0.162875,0.242283,-0.0675924,0.000662237,-0.260852,-0.138061,0.0932404,-0.0810552,0.0950473,-0.181913,-0.324687,0.178542,0.00830972,-0.321761,-0.217529,-0.254103,-0.11996,0.00526523,0.0896474,-0.127517,-0.0597593,-0.235042,0.16122,-0.222854,-0.292152,0.18946,0.460351,0.0558574,-0.0535944,-0.129377,-0.0381542,0.269119,0.262774,-0.30204,-0.300429,-0.253873,0.191878,0.131062,0.234307,-0.170596,-0.0155765,0.208113,0.181157,-0.310225,-0.018365,0.0931505,-0.392149,-0.096666,0.185595,0.115468,-0.305829,0.265358,-0.307427,0.221454,0.115495,-0.0253736,0.280859,0.216982,-0.211557,-0.0457336,-0.167,-0.0584909,0.11068,-0.173259,0.378998,0.278358,0.320239,0.369368,-0.0206911,0.37801,-0.33443,-0.229755,0.434062,0.0509033,-0.0945321,-0.43402,-0.288119,0.083813,-0.262702,-0.217693,0.113932,-0.0503613,-0.149699,0.446585,0.295841,0.0159241,-0.0564196,-0.076049,0.00575064,-0.155763,0.302404,0.206032,-0.0218924,0.442375,0.364054,0.139022,0.384362,-0.0473951,0.278171,0.264071,0.0970754,-0.061584,-0.175802,0.0312623,0.0901211,-0.267106,-0.034005,-0.327966,-0.105435,-0.178586,-0.170721,-0.144545,0.0114424,-0.167126,0.244841,-0.00160927,0.34677,-0.231321,0.255972,0.160142,-0.232778,0.137499,-0.297448,0.263669,0.19148,0.306702,0.250865,-0.0710236,-0.120696,-0.226357,-0.0429452,-0.414455,-0.280708,0.0129988,-0.241331,-0.416256,-0.182336,0.000928435,-0.186698,0.0854509,-0.146319,-0.214654,0.280923,-0.143326,-0.166452,0.115004,-0.0634777,0.230453,-0.203059,-0.134235,-0.223995,0.129295,0.132182,0.242715,0.0685129,0.0271706,-0.104709,-0.621795,-0.261175,-0.207507,-0.380608,-0.46274,-0.263359,-0.00013108,-0.147443,0.13306,-0.114172,-0.30007,0.362818,0.178587,0.182354,-0.19577,0.0677413,0.113101,0.375395,-0.240888,-0.0850537,0.232156,0.0899178,-0.091703,0.503318,0.667484,0.342891,-0.518701,-0.566733,-0.348105,-0.428198,-0.359194,-0.175498,-0.133798,-0.311715,-0.15992,0.0288843,-0.151063,-0.270216,0.330243,-0.091015,0.177742,0.343516,-0.271926,-0.145259,-0.240638,-0.237313,0.208039,-0.320729,-0.0370007,0.237373,0.112533,0.794328,0.473232,0.325736,-0.15439,0.106752,0.0578413,0.069871,-0.275365,-0.188809,-0.172875,0.135053,-0.133862,-0.0450284,0.16088,0.254487,0.0632019,0.0421413,-0.285276,-0.188464,0.0368639,0.106668,0.199336,0.453043,-0.177141,-0.512354,-0.130552,0.232483,0.251322,0.546256,0.570949,-0.103891,-0.0782885,0.133501,-0.101402,0.115344,-0.0289229,0.187718,0.355754,0.216909,0.0762528,0.16295,0.123188,0.406634,0.00777392,0.252891,-0.291597,-0.291839,0.0352953,0.128926,0.105577,0.265584,0.228212,0.059413,-0.123093,-0.0857885,0.201727,0.228455,-0.161391,-0.446703,-0.499001,-0.143112,0.110017,0.0675443,-0.0956686,-0.3006,-0.0522241,0.0776838,0.0861017,0.296185,-0.140342,-0.120451,0.213994,-0.0308761,0.274535,0.199487,0.281584,0.322993,0.0893215,-0.0660824,-0.244467,-0.170781,-0.280042,-0.258401,0.272946,0.0276201,-0.194905,-0.232177,0.0412268,-0.512082,0.0300887,-0.0764045,-0.238452,-0.243536,0.173452,0.0262328,-0.179542,0.416265,0.281702,0.297484,-0.0932641,-0.15545,0.280584,0.179684,0.298868,-0.128731,0.0882273,-0.00188906,-0.456137,0.20056,-0.390137,-0.110492,-0.162079,0.113921,-0.168782,-0.110198,-0.087043,-0.288154,-0.317534,-0.430899,-0.492859,-0.345299,0.0652598,0.0170841,0.113902,0.435695,0.125555,-0.147484,0.0771914,-0.229665,0.167097,0.0843837,0.198043,0.127227,0.311011,0.286585,-0.399535,-0.373477,0.0209326,-0.15794,0.0166908,0.060307,0.102925,0.244641,-0.205329,-0.155396,0.317303,0.37989,0.217964,0.226985,0.277357,-0.0474564,0.0273328,0.355513,-0.19565,-0.300857,-0.213542,0.11448,0.116878,0.198932,-0.285107,-0.243726,0.285862,-0.240597,0.0882369,-0.348202,0.0574812,-0.168086,0.230135,-0.20487,0.0917368,-0.0359125,-0.0337467,0.0492094,0.0283469,-0.0716904,-0.263409,-0.256278,0.242846,0.209909,-0.0859869,-0.199355,0.10266,0.114016,-0.0909882,0.290777,0.35287,-0.222517,-0.285428,-0.0677685,0.268783,0.0443722,-0.352638,0.0931069,-0.13739,0.1105,0.105459,0.149381,-0.199422,-0.243081,0.261755,0.170219,0.123274,0.289729,0.0287024,-0.0996804,-0.246189,0.232455,-0.274725,-0.086653,0.0328383,-0.202378,-0.246818,-0.144112,-0.101867,-0.161419,0.369349,-0.092068,0.0188565,0.388478,-0.35854,0.00869425,0.14171,0.317049,-0.0405653,0.21103,-0.0817436,-0.0506149,0.133856,-0.210155,-0.0347551,0.15706,-0.227096,-0.169113,-0.272081,0.0281689,0.205334,-0.26553,0.269816,-0.253836,-0.292646,0.113113,-0.117187,0.252531,0.357638,0.0280214,-0.0513513,0.00232085,-0.361471,-0.131861,0.0790234,0.299323,0.0223421,0.080052,0.195492,-0.357584,-0.0562035,0.0911158,0.373745,-0.118548,0.131044,0.151256,0.296741,0.182745,0.29793,-0.268729,-0.0992391,0.209345,0.341977,-0.0137098,0.029395,0.286435,0.391597,0.170894,0.350964,0.0484535,-0.147994,-0.0954703,0.0293748,0.192714,0.353863,-0.173888,-0.334554,-0.101979,-0.233576,0.0683108,0.0291865,0.241454,0.00643701,-0.0366776,-0.270626,0.139768,0.215724,-0.160214,-0.173828,-0.206563,-0.252632,0.274883,0.0336466,0.222645,0.024482,0.120136,-0.149235,-0.243163,-0.0667076,-0.0359628,0.104714,0.43736,0.350836,0.290321,-0.0597679,0.195385,0.0634065,0.35137,0.23522,0.161303,-0.329646,0.225678,0.289612,0.186408,0.0208141,0.352534,0.205305,-0.131023,-0.133797,-0.244819,-0.0727623,-0.0841273,0.141572,-0.278018,0.161312,0.392311,0.228058,0.0504866,0.337534,0.410476,-0.064569,0.00680956,0.221088,0.225171,0.0193907,0.11181,0.330387,0.256224,0.226158,0.187931,-0.0465982,-0.257398,-0.142956,0.325411,0.0371255,0.0107399,0.087524,0.231446,0.0492416,0.304913,0.087759,-0.291348,0.330528,-0.0177466,-0.288874,0.0162463,-0.264791,-0.00211929,0.0350743,-0.024466,0.0640168,-0.185374,0.0771728,0.157559,-0.0325602,-0.2128,-0.100604,0.20505,0.23811,-0.00364814,0.286592,0.304411,0.0147805,0.267635,0.0827387,0.290173,-0.261419,0.244349,-0.265413,0.309656,-0.207648,0.23448,-0.0543474,0.0283782,-0.274574,0.0480166,-0.00228457,0.243971,0.110233,-0.210575,-0.0453536,-0.12273,0.224202,-0.0194294,0.145768,-0.286668,-0.245835,-0.0464004,0.0133091,0.336637,-0.125849,0.344478,0.218928,0.0872249,0.0135227
0.272207,0.34012,-0.0155523,0.317496,-0.160414,0.201559,-0.194702,-0.148302,0.00969878,-0.016364,-0.0503952,-0.156206,-0.0315958,0.172613,0.276992,-0.0900662,0.132002,-0.0246529,0.0498611,0.0633839,-0.290963,0.170818,-0.0330912,-0.0483444,-0.223478,-0.0802606,-0.0787225,-0.280709,0.0788507,-0.195322,-0.232023,0.243174,-0.190365,-0.0778466,0.23495,0.13782,0.386335,0.398966,0.0619304,-0.128005,0.171423,0.153992,-0.198735,-0.0888066,0.166083,-0.121337,-0.0331111,-0.297244,0.10831,0.155479,-0.238133,-0.169024,-0.187524,-0.00972015,0.173873,0.17054,-0.107221,-0.0242683,0.168746,-0.158513,-0.114164,-0.0379943,0.269426,0.213121,-0.168329,0.354439,0.170711,-0.0438043,-0.181846,0.400436,0.345151,0.132586,0.0579737,-0.182726,0.27496,0.136892,0.194675,-0.087516,-0.102916,0.0138692,-0.282141,-0.0284128,0.0587267,0.0657979,0.249284,-0.0951933,0.310382,-0.0431318,-0.261203,-0.0516491,-0.146916,-0.111022,0.299635,-0.0229005,-0.242226,0.0716353,0.0763953,-0.249628,-0.0893475,0.0729172,0.136369,0.0450549,-0.0285633,0.175498,-0.0649467,-0.128425,0.330103,0.300225,0.166273,0.128633,-0.0291874,-0.0972228,-0.14294,-0.290408,0.257659,0.191006,0.125123,-0.0286527,0.364737,0.178061,0.321381,-0.311109,0.205966,-0.234224,0.25235,0.211355,-0.196711,-0.117394,-0.104598,-0.0499179,0.153445,-0.252005,0.353433,0.353801,0.327778,0.100216,0.155118,-0.166696,-0.0240796,-0.227558,0.0290109,0.144819,0.117045,-0.233977,0.233504,-0.226087,0.0243876,-0.158984,-0.288859,-0.0494117,0.323944,0.21558,0.0177756,-0.133571,0.065245,-0.182275,0.176334,0.430973,0.166837,0.374905,-0.0679252,-0.129089,0.245637,-0.151263,-0.00798783,-0.200945,-0.067553,-0.0403157,-0.00777614,0.134053,0.352749,0.341098,0.308582,0.0459829,0.243976,-0.178276,-0.123199,-0.169199,0.090344,-0.19411,0.0407254,0.22296,0.344017,0.320225,-0.0312687,0.226234,0.128263,0.28254,-0.189886,0.163333,0.339665,0.0908104,-0.101329,0.0223544,0.0819416,0.128996,-0.0567614,-0.233212,-0.29217,-0.132043,0.308222,-0.116832,0.0613538,-0.29856,-0.218001,0.239654,-0.388707,-0.175399,-0.152267,0.0543108,-0.310704,-0.191856,-0.138776,0.249403,-0.217038,0.168931,-0.261191,0.272764,-0.299865,0.129193,0.0212792,0.128462,-0.100372,0.223689,0.36411,-0.18737,0.066258,0.0181898,0.165677,-0.252856,0.266351,-0.395687,-0.13997,0.267543,-0.383935,-0.275558,-0.361347,-0.0854702,-0.0809582,0.0113404,-0.342891,-0.345558,0.124383,0.156204,0.15985,0.0187921,-0.145342,-0.11608,0.146316,0.175408,0.366668,0.254711,-0.235441,0.357457,-0.0117791,0.00214609,-0.0367499,-0.00563788,0.00351265,-0.271363,-0.308073,-0.224314,-0.225941,-0.00964448,0.0423612,0.144103,0.0446975,0.172408,-0.2902,0.199786,0.0644208,0.338168,-0.235773,0.134871,-0.219661,0.262175,0.163947,-0.195823,0.394817,0.0126114,0.366631,0.113118,0.184622,-0.0149724,0.148629,0.139163,0.207387,-0.265025,0.213173,-0.162112,-0.502803,-0.0224492,-0.462913,-0.322499,-0.234705,0.0787019,0.17646,0.106594,0.0391884,0.264835,0.116806,-0.15138,0.127466,-0.00315971,-0.0174155,0.369647,0.347317,0.0719846,0.0962401,-0.296813,-0.203329,0.277273,-0.202022,-0.054883,-0.236818,0.033324,-0.358385,-0.330257,-0.507553,-0.180684,-0.532958,0.000841472,-0.32302,0.00486065,-0.381422,-0.366871,0.243067,0.165363,-0.0379906,0.00439183,-0.0542183,-0.273403,0.180656,0.207407,-0.213739,0.222023,-0.00121769,-0.0258044,0.0618992,0.208268,0.177513,-0.222295,-0.299774,0.375025,-0.0237135,-0.344443,-0.472123,-0.392512,-0.146722,-0.514213,0.177186,-0.234047,0.281135,0.124933,-0.269184,-0.220218,-0.0483498,-0.00576927,0.0224418,0.140208,0.024086,-0.0955872,-0.248397,0.213542,-0.157125,0.0624601,0.230013,-0.127246,0.154756,0.195781,-0.047264,0.142763,0.21948,0.110847,0.115646,-0.212471,-0.502476,0.122437,0.0635519,-0.244165,-0.188092,-0.451084,0.203761,-0.026985,0.224736,0.0372999,-0.340602,0.0319092,-0.242764,0.0108601,0.0457131,0.310988,-0.170882,0.21425,0.15914,0.244185,-0.148971,-0.138801,0.166037,0.258547,0.238448,0.0224048,-0.211283,0.0187595,0.197076,0.163401,-0.187137,0.184665,-0.048376,0.108003,0.365551,0.284532,-0.0376355,-0.102735,-0.311744,0.0977731,-0.142807,0.171197,0.2497,0.279153,0.0686392,0.137831,0.37531,0.1054,0.234718,0.198599,0.33227,0.505363,0.17567,0.0157781,-0.020347,0.372555,0.0820466,-0.0156851,-0.271876,-0.387488,-0.290003,-0.129327,0.350971,0.337472,-0.1718,0.266329,0.23394,-0.0876315,-0.333153,0.164153,-0.219332,-0.104529,0.347639,-0.0853387,-0.284821,0.0128037,0.331136,0.250493,-0.093884,0.490793,0.150953,0.0605918,0.0292924,0.121114,0.173377,0.00752234,0.0924354,0.0236013,-0.428859,-0.0382675,-0.187223,-0.220332,-0.263511,0.238378,-0.0322505,0.0410195,-0.403315,-0.0600682,0.340812,0.295068,0.242982,-0.0742044,-0.192888,0.240994,0.0892222,0.0779039,0.170409,0.322143,0.101831,0.335383,0.373018,0.0224867,0.327349,0.0568135,-0.429527,-0.251614,0.0185492,-0.619134,-0.408279,-0.152748,0.0714413,0.0886861,-0.0858247,-0.183006,-0.276297,-0.164128,0.193048,0.129262,0.00521255,0.0010952,0.107743,0.0510171,0.00664406,-0.123831,-0.0175409,-0.0907743,0.0269726,0.348553,0.336443,0.387966,-0.160422,0.148746,-0.304906,0.264459,-0.220811,0.0270145,-0.452653,0.343746,-0.31858,0.103059,0.221822,-0.0773387,-0.228589,-0.136439,0.309223,-0.126387,0.173766,-0.0332298,-0.0326908,-0.261132,0.205471,-0.0867126,0.367911,0.312043,0.0174438,-0.251777,0.328077,0.194212,-0.0944904,0.0642866,-0.477348,-0.188389,-0.0595034,-0.00228645,-0.182211,0.012302,-0.290715,-0.124012,-0.0664941,-0.392241,-0.195248,0.157023,-0.231383,-0.122544,0.340696,0.164572,-0.121468,-0.150334,0.0489366,0.309706,-0.0904879,0.493301,-0.0175856,0.147133,0.333653,0.515039,0.126239,-0.315313,0.202289,-0.218106,-0.188945,0.189844,0.131984,-0.0440185,0.0897973,-0.193547,-0.259814,-0.294855,0.00520329,0.216062,0.209023,-0.158595,-0.0719077,0.108905,-0.0954739,-0.270941,-0.1188,0.176912,0.0938045,0.0331357,-0.0750998,0.239546,0.354066,-0.0819514,0.324396,0.124877,-0.324553,-0.180875,0.246916,0.128647,-0.0558771,0.0166264,0.0790398,-0.271287,0.113974,0.133682,0.00967168,0.108233,0.328685,0.0533682,-0.00482804,0.314615,0.358151,0.181306,-0.373262,0.12901,0.129956,-0.371842,-0.106244,0.275004,0.198429,0.128142,0.349348,-0.186837,-0.154983,-0.163509,-0.0834915,0.316598,-0.158877,-0.244379,0.207496,0.283603,-0.187665,0.216352,-0.25433,-0.0533769,-0.289101,0.152593,-0.159645,0.153116,-0.213625,-0.0676463,-0.31191,0.0606336,-0.0184663,-0.303287,0.116092,-0.22579,0.405229,-0.128835,0.25087,-0.109127,-0.337468,0.114071,0.0787968,0.260563,0.0547411,-0.160319,-0.194586,0.260352,0.354344,-0.140914,0.137088,0.00773503,-0.226814,-0.0248665,0.0140995,0.276437,0.164574,0.393185,0.191186,-0.344207,-0.15771,-0.237534,0.105633,0.335993,0.287314,0.169595,0.119733,-0.208879,-0.154451,0.12544,-0.102593,0.39813,0.184855,-0.104448,-0.234475,0.0175842,0.335878,-0.107358,0.107616,0.312524,0.0870754,0.31756,-0.0918821,0.312006,-0.240953,0.335591,0.22451,0.242147,0.305022,0.30697,0.122922,0.286268,-0.138692,0.291828,-0.239455,-0.209553,-0.114524,0.13621,0.330442,0.00813155,-0.214361,-0.265016,-0.164015,0.336697,0.0565154,-0.167778,0.314915,0.0792993,-0.236146,-0.215745,0.136616,0.3815,0.363213,0.152766,-0.221091,-0.136777,-0.238909,0.110451,-0.154465,0.214483,0.232134,-0.167238,0.137397,-0.16993,-0.066288,0.0569836,-0.141154,0.101644,0.36988,0.193439,-0.280984,0.0930328,-0.291603,-0.0845192,0.0861354,0.189703,-0.0907071,0.279128,-0.0248879,-0.0531724,0.173894,-0.247896,-0.0686606,-0.274151,0.0608256,0.0907214,-0.133375,-0.0963048,-0.137848,0.262273,0.0204854,-0.125742,0.057445,0.134559,0.191991,-0.00230742,-0.10718,0.0787855,-0.0894467,0.205768,0.121577,-0.124653,0.243837,-0.101431,0.0547532,-0.228071
0.0725486,-0.263448,-0.170092,0.294552,0.214185,0.222175,-0.0747704,0.00209355,-0.238517,-0.181542,-0.123307,-0.239329,0.144349,0.00185856,0.00792563,0.0913053,-0.126234,-0.233433,-0.196261,0.187033,0.378445,0.25345,0.211451,-0.153792,0.292117,-0.0754754,0.00465712,0.318885,0.00215763,0.255437,-0.206366,-0.286926,0.117945,0.267293,0.316727,-0.0430976,0.268537,-0.129689,0.197267,-0.0288825,0.0913909,0.141337,0.100171,-0.274899,-0.286368,0.204682,0.272992,0.363362,0.19865,-0.157665,-0.195065,-0.141124,-0.146208,-0.19686,-0.0102329,0.164943,0.166909,-0.169451,-0.175027,0.1536,-0.221876,0.385535,0.0335326,0.0988248,0.0519703,0.38296,0.137889,0.326756,-0.0807375,-0.283626,0.0912017,-0.27041,0.177219,0.279448,0.0450881,0.16245,0.335486,0.317307,0.0290903,0.345756,-0.131959,0.157787,0.0673574,0.00621662,-0.274877,0.397479,-0.263662,0.372506,0.29307,-0.07952,-0.227168,0.417403,0.2431,-0.00192778,-0.201072,-0.233738,-0.133214,0.194458,-0.159354,-0.0380842,0.192916,0.341298,0.134611,-0.00794167,0.20994,-0.0284257,0.0936759,0.136487,0.111825,-0.114555,0.0584808,-0.0597522,0.0517624,0.17853,0.269216,0.369452,0.239949,0.0652417,-0.00281242,-0.200659,0.348299,0.366791,0.399965,0.210964,0.281945,-0.216741,0.214309,-0.293615,-0.158574,-0.0744632,0.334734,-0.192554,-0.0668736,0.0237722,0.183384,-0.00688057,-0.221817,0.322022,0.263286,0.382739,-0.19906,0.357573,-0.216964,0.382286,0.0141992,0.205389,-0.224278,0.326079,0.204848,0.0925786,-0.162251,0.13962,-0.49815,-0.452401,-0.377205,-0.272528,-0.251102,-0.135449,-0.315602,0.0267817,0.399465,-0.0461053,0.141782,0.344648,-0.299794,0.158589,0.045159,0.278423,0.185751,0.00337532,0.297144,-0.173273,0.000430292,0.125342,0.0824445,0.116972,-0.00900584,-0.184764,0.207598,-0.231013,-0.332587,-0.342105,-0.244059,-0.538364,-0.106513,-0.0470892,0.0492,-0.246606,0.312341,-0.156318,0.255877,0.190407,-0.10095,-0.148378,0.122897,0.284512,0.240483,0.0454621,0.375037,-0.00665525,0.0798833,0.374253,0.364332,-0.154213,-0.202169,-0.0432934,0.00303726,-0.364606,-0.237621,0.0367403,-0.178059,0.0167254,0.117382,-0.176739,0.246641,-0.0226253,0.230872,0.282453,0.128396,0.018167,0.262517,-0.255845,0.0611988,0.053789,-0.0189703,0.354958,0.289724,0.0287589,-0.211546,-0.00846899,0.405384,0.271612,0.378989,-0.0078148,-0.289213,-0.566417,-0.257338,-0.0706173,-0.234041,-0.203842,-0.38524,0.113357,-0.0567021,0.375079,0.23981,-0.0240566,0.0854882,0.00176866,0.21924,0.0821296,0.30281,0.0887474,0.329438,0.234119,-0.191364,-0.271445,0.29317,0.0539548,0.324954,0.229567,-0.00383549,-0.288358,-0.325812,-0.109711,-0.0481936,0.0439559,0.00837333,0.0888232,0.181943,0.173908,-0.0795946,0.162551,-0.198087,0.375725,-0.121527,0.175151,0.162124,-0.0396816,0.268619,0.149984,0.217667,0.367589,-0.13417,0.152047,0.325145,0.352702,0.180839,-0.0945354,-0.0774426,-0.149855,-0.351811,-0.410037,0.227724,-0.238364,-0.276593,-0.266283,-0.12154,0.236513,-0.0351154,-0.142043,0.0245098,0.0431064,-0.000465748,0.0570425,-0.0402774,0.281694,0.323281,0.374687,0.0365734,-0.261486,-0.102637,0.105501,0.0817476,0.450188,0.204163,0.408354,0.193425,-0.551807,-0.345397,-0.193523,-0.026902,0.212856,-0.376726,-0.267827,-0.245429,-0.196489,-0.250724,0.362083,0.233891,0.295713,-0.285971,0.246229,-0.174153,0.287388,0.0283809,-0.095465,-0.054326,0.250866,-0.0169615,0.0393465,0.137186,0.462393,0.312785,0.0029691,-0.213842,-0.0859705,-0.37251,0.0308617,0.323962,0.0364009,-0.0995385,-0.0739294,0.214735,-0.0462568,0.229985,-0.036665,0.216231,0.324564,0.0437965,0.383248,0.118901,-0.134634,-0.251169,0.136683,0.109271,0.0118592,-0.128043,0.497756,0.109429,0.513157,0.00127599,0.252532,-0.204432,-0.514726,0.0893263,-0.401638,-0.355466,0.155843,-0.0183561,0.0308012,-0.135637,0.06033,0.100028,-0.407663,-0.119496,-0.226629,-0.0766741,-0.206958,0.0431227,0.178199,-0.140804,0.0460329,-0.225571,-0.172761,0.440806,0.496558,0.0968055,-0.0700379,0.329543,0.0714716,0.166338,-0.284211,-0.133373,-0.219004,0.124031,-0.236519,-0.195717,-0.146088,-0.121494,-0.228814,-0.268837,-0.0357798,0.168902,0.193727,0.139945,0.284592,-0.114415,0.178219,0.178281,-0.131105,0.156847,-0.272717,0.00566051,0.321032,-0.0636165,0.295319,0.0495148,-0.0273766,-0.271602,0.108457,0.119802,-0.362032,-0.245791,-0.0921179,-0.021491,0.207934,-0.0413366,-0.211997,-0.135659,0.0247465,0.142204,0.251223,-0.199177,-0.0810509,0.0793218,-0.11651,-0.0728669,0.104518,0.349626,0.297895,0.0556004,0.00535854,0.0858377,0.434743,0.255952,-0.0151942,-0.160104,-0.243994,-0.2905,-0.137839,-0.378083,-0.416527,0.00844636,-0.288401,-0.361774,-0.373788,-0.0589295,0.193507,0.469789,0.143674,-0.165711,-0.125564,-0.201653,-0.00078566,-0.12612,0.0271615,0.321213,0.237691,-0.0749642,-0.288349,0.243033,0.15579,0.126574,-0.256748,0.285333,-0.105218,-0.175065,-0.471243,0.078481,-0.495979,-0.0714041,-0.501156,-0.204993,-0.361129,-0.213507,-0.0909355,-0.0476186,0.165885,0.0248487,0.269685,-0.00675139,-0.068834,-0.293787,0.211129,0.217689,0.138497,0.0462006,-0.280362,-0.307426,-0.117068,-0.0343359,-0.133797,0.0909836,-0.105543,-0.219922,-0.451571,-0.239375,-0.394625,-0.397898,-0.0356957,0.0820086,0.076472,0.122208,0.168735,0.272365,0.133296,0.246352,0.399619,-0.324847,0.174731,-0.0283278,-0.0154857,0.235121,0.309666,-0.0611934,-0.277872,-0.134201,-0.132845,-0.0427213,-0.150574,0.272722,-0.0288928,0.0295331,-0.164604,-0.412244,-0.530403,-0.34933,-0.0954422,-0.129903,0.0094989,-0.401732,-0.107898,0.211086,0.251944,-0.0323342,-0.0388458,0.185912,0.328183,-0.0989725,-0.0844711,0.0778039,-0.127852,0.194506,0.234067,-0.389063,-0.367177,-0.176604,0.14826,-0.0570146,0.246593,-0.233235,-0.112016,0.0224895,0.0716093,-0.313423,-0.128855,0.0699864,-0.0642752,-0.0244121,0.160695,0.00038228,0.319261,-0.0751133,0.069577,-0.193323,0.198508,-0.102215,0.209569,0.167785,0.3936,-0.160918,0.260269,0.0201688,-0.0392218,0.0919447,0.0201725,-0.0877072,-0.307771,-0.216645,-0.0866558,-0.075944,-0.439812,0.126956,0.157897,-0.0984187,0.112636,0.0621439,0.0372361,0.498818,-0.0215861,-0.144344,0.0703331,0.104877,-0.00817661,0.132936,0.25596,0.12132,0.220733,-0.0111327,-0.140069,-0.145818,-0.0864303,0.108546,0.0650896,-0.127704,-0.00158303,0.0456881,-0.234335,0.249061,0.108819,-0.140307,0.133966,0.0461097,-0.142495,0.0706528,0.0804271,0.275959,0.459352,0.421439,0.148404,0.0900864,-0.0676737,-0.271169,-0.0040733,0.15815,0.314143,0.272511,0.0991778,0.164456,0.0646568,-0.421048,-0.193696,-0.197523,0.321486,0.242678,-0.0101526,-0.0813442,-0.311821,0.308286,0.316104,0.377016,-0.223118,0.45874,0.242497,-0.0240617,-0.164488,0.218587,-0.211197,0.210441,0.201073,-0.135879,-0.058855,0.258727,0.0387951,0.114744,-0.0642366,0.0679711,0.109168,-0.343395,-0.199702,0.29372,0.313706,-0.231466,-0.353778,0.279796,0.155649,0.381119,-0.218682,-0.0440921,-0.246267,0.208243,0.214002,0.423463,-0.110752,-0.0949056,0.191145,0.14025,-0.301007,-0.120743,-0.180132,-0.0644093,0.21301,0.0455458,0.388165,0.280714,0.315473,0.114444,-0.317097,0.23185,-0.265368,0.0773704,0.281619,0.157211,-0.226046,0.085684,0.141407,-0.0462089,-0.00303143,0.333966,0.108862,-0.259905,0.303238,0.0659174,0.334317,-0.0693776,0.30235,0.263961,0.381799,-0.265926,0.268169,0.318308,-0.214975,0.360674,0.174751,0.351142,-0.243449,-0.0074606,0.295949,0.0806241,0.00787868,-0.017493,-0.221225,0.275632,0.213206,0.356233,0.273,-0.136209,0.286584,-0.0477209,0.105629,-0.0735459,-0.271294,-0.24687,0.242833,0.164708,-0.0634907,0.328135,-0.175967,0.298526,0.11504,0.115702,0.302542,-0.29334,0.353492,0.324524,0.321916,0.281318,-0.224162,0.0248237,0.250182,-0.109677,-0.228106,-0.0828984,-0.0319377,-0.156607,0.262867,0.253087,0.384832,0.366781,0.385601,0.296731,0.0258492,-0.195001,-0.0444136
0.326981,-0.0686819,0.248985,-0.204743,0.034373,-0.193762,0.303717,0.0799401,0.0717576,0.10564,0.113779,0.396838,-0.135035,-0.0604786,0.0361247,-0.0362316,-0.156035,-0.0825678,-0.105875,0.304999,-0.19671,-0.195599,-0.203119,-0.269579,0.151335,0.110468,0.35847,0.115702,-0.141957,0.285324,-0.198889,-0.0704123,-0.0399274,-0.159795,-0.222602,0.304266,0.131356,-0.0318731,-0.104957,0.205499,-0.0100692,0.089108,-0.221827,-0.230442,0.315883,0.177891,-0.146871,-0.196838,-0.203224,-0.180512,0.0862636,0.39451,-0.0459517,-0.0574023,-0.234544,-0.0888272,-0.158022,0.263384,0.354817,0.172271,0.218799,-0.189496,-0.189337,0.148454,0.152001,-0.151114,-0.0199208,0.0480258,0.155547,-0.209168,0.109074,0.355318,-0.246344,0.0707173,0.114079,-0.00196235,0.0138187,-0.157549,-0.0130837,0.103592,-0.270434,-0.107733,0.134031,-0.186114,-0.174834,0.0898739,0.0964537,-0.0643025,0.00862143,0.368945,-0.148608,0.13829,0.00911329,0.0903111,-0.254525,0.323338,-0.198917,-0.0378973,0.368463,-0.00915753,0.181512,-0.0711807,-0.0626789,0.341506,0.166277,0.0286539,0.12166,0.153677,-0.00797461,0.292985,0.0154321,0.208972,0.385644,0.181072,0.0765223,0.0207433,0.118267,-0.289328,-0.274806,0.226584,0.0950511,0.0305557,0.110771,-0.12284,-0.175089,0.285573,0.258272,0.135544,0.0909176,0.244426,0.0948642,-0.0372796,0.15153,0.0814442,0.415642,-0.121646,0.0271656,-0.151726,-0.204611,0.183914,0.377612,-0.126405,0.236676,0.0978542,-0.0846372,0.155779,0.28794,-0.129837,-0.0792273,0.113855,-0.168785,-0.0906027,-0.107735,-0.177665,0.0399774,0.257254,0.0325373,-0.0824149,-0.180601,-0.156232,0.312196,0.291051,0.193438,0.162031,-0.255732,0.269701,-0.209573,-0.000192479,-0.0691519,-0.110532,0.327492,-0.2834,-0.205634,0.196232,0.267726,0.298639,0.0503266,-0.0361175,0.217808,0.218637,-0.190852,0.36268,0.0908628,-0.0986147,-0.185725,0.0562319,0.00572831,0.180612,0.236608,-0.0907563,0.0794287,-0.250687,-0.098204,0.239848,0.390049,0.222324,0.169836,-0.0594128,0.00731524,0.378119,-0.189104,0.302491,0.316098,-0.139264,-4.44781e-05,0.273983,-0.278024,0.141967,0.233137,0.190844,0.274901,-0.383973,-0.233042,-0.251905,0.0693619,-0.355677,-0.00655713,0.281822,0.0902798,-0.0399888,-0.157948,-0.130113,-0.0564775,-0.0598753,0.0688955,0.0263089,-0.230574,0.222593,0.0543079,0.0250973,-0.0444423,-0.373189,-0.391421,-0.0661601,-0.30821,-0.242794,0.325496,0.127526,-0.305096,-0.0069798,-0.26377,-0.212062,-0.0420244,0.125371,0.0862712,-0.290069,-0.0754138,-0.264648,0.0783991,0.298821,-0.286733,0.343034,0.308524,0.326254,-0.236099,-0.0935693,-0.0435785,0.116911,0.194884,0.216025,0.0519215,0.0354083,-0.346812,-0.271696,0.0097421,0.11223,-0.114052,0.318642,0.154856,-0.105263,-0.0360371,0.308337,-0.416876,-0.0339166,-0.358199,-0.329366,-0.0312246,0.00247145,-0.284061,0.0344948,-0.151186,-0.154987,0.283845,0.022305,0.0495959,-0.175915,0.0724468,0.178031,0.226086,0.301545,0.0395073,-0.35437,-0.0365722,-0.416158,0.127132,-0.112485,0.248414,0.28407,0.241384,0.198838,0.0677355,-0.114223,-0.108141,-0.230171,-0.322124,0.328831,0.343787,0.14939,-0.0143986,-0.0905095,0.249883,0.0216394,-0.120384,-0.273026,0.0750236,0.255288,-0.232592,-0.0687182,-0.481451,-0.00629002,-0.505511,-0.0452409,0.177281,0.246566,0.15222,0.365338,-0.0447324,0.0818811,-0.0757232,-0.369876,-0.558437,0.046464,-0.436119,0.283176,-0.104531,0.084231,0.204465,0.0249302,-0.250937,-0.0476706,0.238418,-0.100008,0.360487,0.214779,0.25785,-0.236781,-0.403512,0.0647776,-0.0882643,0.0615176,-0.00871801,-0.0754152,-0.131016,-0.164609,0.231512,-0.00420399,-0.130732,-0.540774,-0.409379,0.0396476,-0.204588,0.127829,0.160402,0.008123,-0.100897,0.0890092,-0.179519,0.108091,0.292701,-0.0429299,0.102628,-0.0467981,0.358907,-0.122743,-0.0411626,-0.210088,-0.0520563,0.297802,-0.056989,0.315202,0.180314,0.101631,-0.111578,-0.16104,-0.376681,-0.0391241,-0.52347,-0.556422,-0.0620036,0.00880715,0.349475,-0.277737,0.0688528,0.345377,0.104397,0.115695,0.295486,-0.165144,0.116666,0.0638972,-0.0277217,-0.162688,-0.34355,-0.0914915,0.227903,-0.28781,0.0164318,-0.117407,0.408991,-0.0419567,0.223537,0.301451,-0.0573638,0.109888,-0.186776,0.0851289,0.0332312,0.304176,-0.152356,-0.280574,0.161354,-0.0152313,0.278602,0.404087,-0.0857948,-0.00176823,-0.0709955,0.313402,-0.0576033,-0.339686,0.107166,-0.0397557,0.155162,0.0768791,0.0766579,0.269203,-0.151845,0.128792,-0.0761003,0.333035,0.0381991,0.179465,0.260035,-0.353841,-0.169718,0.381767,-0.112112,-0.279178,0.276159,-0.129123,0.160508,-0.0803687,0.0934278,-0.447275,-0.141509,-0.299806,0.202605,0.0117544,-0.335144,0.0016389,-0.130533,0.0913916,-0.189679,-0.343954,0.0636201,-0.0611736,0.0254656,-0.174351,0.478507,0.0209157,-0.308116,-0.241865,-0.137498,-0.161161,-0.194932,0.306926,0.39451,0.218671,0.383921,-0.179476,-0.17735,0.101813,-0.464683,-0.657094,0.0211444,-0.0668166,0.0513064,0.0660533,0.229314,0.0141616,-0.142639,-0.37751,-0.487568,-0.378184,0.341664,0.297012,0.0146784,0.129068,-0.125159,-0.191045,-0.119947,0.227122,0.42079,0.242033,-0.148836,0.357175,0.140525,0.130058,0.0201858,0.246859,0.0499642,-0.278969,-0.111721,-0.0821978,-0.194517,0.381238,0.227945,0.161405,-0.15171,-0.393812,-0.231463,-0.29711,0.15025,0.0808538,0.374525,0.181655,-0.210133,-0.125978,-0.139716,0.47158,-0.208925,0.0367422,-0.0860714,0.335077,0.00636988,0.300647,0.354523,0.0251908,-0.428973,-0.259793,-0.125853,0.0669475,-0.312092,0.170499,0.503901,0.0890886,-0.245489,-0.421582,-0.450377,-0.231694,-0.140061,0.421623,0.0915142,0.297503,0.0924606,0.00413137,0.293364,0.10236,-0.212279,0.112267,0.0862636,0.379495,-0.090436,0.190969,-0.259208,0.149686,-0.00314419,0.0574165,0.0134051,-0.00773489,0.14439,-0.300595,-0.000152654,-0.0987563,-0.0964436,-0.0198838,-0.0599372,-0.132981,0.199576,-0.229899,0.362577,0.0455578,0.203721,0.124822,0.168777,0.115525,-0.156096,-0.123143,0.0988891,0.0841233,0.156708,-0.0631191,0.162005,-0.326646,0.247539,0.21972,-0.412214,-0.446319,-0.10233,0.19381,-0.320725,-0.323688,0.156201,-0.244963,-0.131372,-0.262263,0.208466,-0.0458812,-0.150516,-0.178588,-0.0146764,0.143073,0.342755,-0.170163,-0.181646,0.129655,0.305832,0.286174,-0.106203,0.289373,0.288705,-0.193494,0.0630447,-0.364742,-0.441933,0.0238816,-0.0331198,0.325156,-0.255132,0.195021,-0.215743,-0.187126,0.18015,0.243896,0.30358,-0.300094,0.069754,0.0651018,0.385458,-0.00827142,0.0382953,-0.25364,0.0498715,0.381525,-0.149391,-0.272996,0.0320375,-0.165153,-0.3054,-0.134469,-0.0358981,0.149487,-0.136865,-0.00316474,0.245205,-0.157944,0.0657138,0.14383,-0.149297,0.131859,-0.0667761,-0.153858,0.133403,0.327718,0.104331,-0.274745,-0.0583728,0.183108,0.059298,0.0952953,-0.178552,-0.214933,0.0182012,-0.0391583,0.324251,0.345877,-0.187377,-0.314933,0.186602,-0.156985,-0.206816,0.0133991,0.277251,0.356906,0.261996,0.0294612,0.0625767,-0.142281,-0.123757,0.234381,0.135492,-0.0415148,0.265865,0.0646072,0.366667,-0.274914,-0.156133,0.396302,-0.0686606,0.344862,0.238197,0.109336,0.334074,0.120423,-0.203975,-0.114029,-0.328658,0.0440002,0.180311,-0.020893,-0.225923,0.300577,-0.236881,0.0665758,-0.182132,0.179839,-0.193706,-0.18798,-0.00337409,-0.0772914,0.117176,-0.172748,0.300517,0.370766,-0.0675357,-0.094937,-0.0666738,-0.00350353,-0.244841,-0.191519,0.288763,-0.00777614,-0.19573,0.380186,0.1781,0.0499115,0.072695,0.303853,0.216518,-0.025919,0.153172,-0.0439463,0.248755,0.2268,-0.163905,-0.171064,0.014936,0.141439,0.0987441,0.302247,0.168384,0.184217,-0.0986969,0.37868,0.14358,0.158641,0.131596,0.365798,0.331596,0.296368,-0.23621,-0.218714,-0.104122,-0.245692,-0.252948,0.138691,-0.228495,0.0985257,0.381712,-0.0210639,0.083166,-0.0759353,-0.0342158,0.0226541,0.252808,0.13588,0.12288,0.259816,0.0411237,-0.292502,0.367058,-0.106623,-0.0931852,0.0173253
-0.10109,0.0683828,-0.193442,-0.265734,-0.271929,0.0545823,0.285302,-0.289041,-0.0149098,0.145653,0.156078,-0.124226,0.231532,-0.233668,0.166118,-0.12711,-0.272271,-0.0931425,-0.0189703,0.146593,-0.132472,-0.24373,-0.0277078,-0.183422,0.139244,0.156761,0.0418287,-0.0582568,0.322538,0.250694,-0.0316813,0.118522,0.280367,-0.05768,-0.190365,-0.185559,0.258987,0.148407,-0.0541242,0.0616042,0.0302385,0.142975,-0.00416125,0.17242,-0.138974,0.117881,0.395984,-0.28417,0.143687,-0.20173,0.268661,-0.241017,-0.0781884,-0.132557,0.271459,0.357039,0.29639,-0.12664,-0.142427,0.108759,0.245952,0.00554289,-0.267039,-0.276175,0.0190071,-0.237117,0.347409,-0.00909912,0.295527,0.174331,0.185913,0.303814,-0.297208,-0.18049,0.146114,0.0533978,-0.107923,-0.295061,0.201737,-0.120957,0.349348,0.168831,0.274215,0.251741,0.0325144,0.116984,-0.0673147,-0.020188,-0.199156,-0.136949,0.393083,-0.243564,0.255112,0.351335,0.0232641,0.129604,0.396799,0.0958241,-0.124786,0.147529,0.356117,0.10678,-0.229707,0.0238243,-0.287009,0.0345531,0.300473,-0.0909033,0.0205012,0.299133,0.0481918,-0.151335,-0.0386243,0.243452,0.3978,-0.100385,-0.0446002,0.0239095,-0.112513,0.373545,0.163301,0.00760999,0.165719,0.142702,0.343765,0.164401,0.263156,0.358619,-0.00366306,0.202438,-0.0120385,-0.319369,0.0878957,-0.299693,-0.350486,0.115601,0.236792,0.394678,-0.172159,-0.283251,-0.191348,-0.0716086,-0.281713,-0.25484,0.183652,0.0407322,0.038046,0.0929909,-0.0391584,0.226122,0.252873,0.249545,0.248251,0.281269,0.0982996,-0.0915188,0.289797,0.0219588,-0.253078,0.0276408,-0.329101,0.0266218,-0.113241,-0.121364,-0.168597,0.00777906,0.148578,0.152339,0.363918,-0.182568,-0.135676,-0.265522,0.0163827,-0.141569,-0.27139,0.330796,0.332973,-0.202655,0.287893,0.308942,0.307821,-0.00218441,0.151401,-0.122921,-0.0930025,-0.0893837,-0.00379222,0.0939834,-0.417495,-0.406187,-0.0116821,-0.0768741,-0.239263,0.310528,0.190396,0.107904,0.3069,0.109803,-0.0284439,0.0975843,-0.126785,0.21909,-0.183869,-0.225775,-0.0790936,-0.165689,-0.0716105,0.275367,0.0380418,0.354528,-0.118061,0.502431,0.244312,0.0259802,0.186215,-0.254551,-0.337518,-0.248917,0.0315976,-0.427632,-0.14172,-0.136526,-0.122486,0.196721,-0.292843,0.119442,0.35593,-0.212088,-0.0709469,-0.20257,0.157727,-0.0827672,0.226302,0.140376,0.201898,0.102155,0.0534865,-0.205927,0.0488586,0.0093893,0.358652,0.116125,0.0332341,-0.228542,-0.292105,-0.301094,-0.140586,0.0570507,0.153123,0.245658,0.413681,-0.0451433,-0.237449,0.0291439,-0.000743479,0.115614,0.294658,-0.0625374,0.167888,0.25865,-0.111399,-0.0461751,0.350107,-0.0186055,-0.0987694,0.213787,0.532507,0.310798,0.0887304,-0.187055,-0.0270482,-0.0778026,-0.338809,-0.423598,-0.0982822,0.217376,0.361223,0.17807,0.390956,0.163806,-0.10799,0.0720945,0.298409,0.0184824,-0.0893083,-0.0769766,-0.531644,0.00117801,0.0948324,-0.0927596,0.0127843,0.158019,0.0928105,0.0299537,0.154255,0.34389,-0.199358,-0.246021,-0.0201941,0.0981146,-0.382108,-0.225263,-0.244466,-0.141882,-0.0962937,-0.0445611,0.11016,-0.232148,-0.0512711,-0.261402,-0.284644,0.288794,0.219129,-0.0114593,0.151226,-0.304001,-0.0809786,0.345579,0.0187096,0.512858,0.496469,0.377303,0.205987,0.140919,-0.086788,-0.340436,-0.485701,-0.347944,-0.211767,-0.145684,-0.00755893,-0.0651625,0.00936212,0.0998206,0.17202,0.278693,0.268896,0.0452426,0.0406265,-0.178427,0.284859,0.0510333,-0.09206,-0.177761,0.0887122,0.395643,0.287096,0.0249767,0.199027,0.208334,-0.0298413,-0.313218,-0.254082,-0.479553,-0.340055,-0.0324722,-0.309493,0.13119,-0.241632,-0.00881148,-0.0595313,-0.231645,0.279437,0.0671406,0.321876,0.0470856,-0.0123694,0.220183,-0.111628,-0.37939,-0.221317,-0.342309,-0.194941,0.216209,0.523072,-0.139086,0.0835275,-0.264838,-0.0282741,-0.498011,-0.425672,0.0949494,0.235905,0.144346,0.170104,0.120744,0.148015,0.443003,0.030758,0.335469,-0.00449607,0.0854924,-0.122709,0.00685173,-0.251761,-0.28698,-0.431603,-0.157185,0.0697863,-0.173572,-0.773987,-0.228039,-0.0201742,0.0473951,-0.168057,-0.0462889,-0.227881,-0.159757,0.028236,0.249483,0.537394,-0.200069,-0.0842819,0.011186,-0.177467,-0.0432191,0.321326,0.344454,0.324198,-0.24649,-0.0450331,0.100896,-0.284349,0.231535,-0.277263,-0.236896,-0.487891,-0.467146,-0.768698,-0.385423,-0.0923349,-0.549076,-0.196078,-0.222408,-0.107099,-0.167188,0.0515409,0.441999,-0.0591832,-0.426747,-0.431598,-0.232951,-0.00685995,-0.307225,0.00163056,0.0554652,-0.0311824,0.268208,-0.227302,0.180574,0.0199657,-0.280179,-0.386184,-0.267712,-0.743888,-0.304785,-0.266578,-0.142133,0.347489,-0.287085,-0.446319,-0.274952,-0.240212,0.122208,-0.0307261,0.343265,-0.267586,0.0402536,-0.573129,-0.39259,0.150135,0.0219254,-0.262707,0.367255,0.174424,-0.0688288,0.258385,0.00610024,-0.282619,0.199895,0.106378,-0.273241,-0.0282015,-0.00674512,-0.30908,0.0370409,0.560105,0.346143,-0.170205,0.0632212,-0.0287559,-0.282129,-0.149149,-0.00766494,-0.0878532,0.131045,-0.301628,-0.194312,-0.0451516,-0.0303242,-0.291148,0.324163,0.142272,-0.0794943,-0.158898,-0.119064,0.103045,-0.116316,-0.0797667,-0.361801,-0.37321,-0.385796,0.485538,0.557721,0.488106,-0.00808774,0.331947,0.23988,-0.0154407,0.1923,-0.300627,0.102755,0.108647,-0.291007,-0.19925,-0.428696,-0.00733379,0.137033,0.0682847,-0.247566,0.0508016,0.327389,0.0879086,-0.206771,0.0285829,-0.14899,0.22261,-0.0955685,-0.0926175,-0.111212,0.0856453,0.447083,0.30036,0.178767,-0.0179998,0.112888,-0.245332,-0.243237,-0.212833,0.107331,-0.313901,-0.295915,-0.288572,-0.139909,0.0499109,-0.0908391,-0.413589,-0.377974,-0.263295,-0.0711279,-0.0991669,0.215934,0.118849,-0.182814,0.209917,-0.218497,-0.371456,0.145648,0.207179,0.413893,0.504382,0.111738,0.0751042,-0.0671088,0.176979,0.218552,-0.212303,-0.225784,0.207344,-0.420118,0.206333,-0.17152,0.108577,-0.00031041,-0.0374118,-0.238684,0.358116,-0.20421,0.0405896,-0.0929983,-0.0797026,-0.11197,0.162118,0.280859,-0.286705,-0.0813377,0.637212,0.058063,0.136667,0.0951772,-0.238741,-0.318059,-0.0458146,-0.0524956,-0.0781339,-0.270882,0.159938,0.15267,0.140323,0.1758,-0.0747334,0.0728349,0.266495,0.270071,-0.0996076,-0.196096,0.192138,0.113344,0.0464024,0.297482,0.10498,0.169632,-0.0213734,0.157633,0.183275,-0.0113516,0.0248251,0.166505,-0.0572544,-0.220066,0.280244,-0.0170127,0.246612,0.0844242,-0.380109,-0.267772,0.0404689,-0.225709,-0.272877,0.128647,-0.151768,0.251837,-0.0404047,-0.0541302,-0.162166,0.113827,0.0344362,0.18092,0.0347893,0.0756968,0.354091,-0.0131708,0.550709,0.425031,0.232186,0.027786,-0.294664,-0.414964,0.000906651,-0.198759,-0.228926,0.0453122,0.0111854,-0.239131,0.384555,-0.221285,-0.265162,-0.0593171,0.376119,0.268304,0.39089,-0.206323,-0.145973,0.392459,-0.0605854,0.0766937,0.197799,-0.0638309,-0.0989245,0.526347,-0.0789585,-0.0915935,-0.0100316,-0.292914,-0.0462259,-0.194846,-0.247808,-0.28412,-0.101938,-0.0607896,-0.288672,0.110719,0.278152,-0.0505957,-0.069549,0.177784,-0.115458,0.396493,0.14734,0.189703,-0.00380263,-0.0555651,-0.0588336,-0.0577655,0.369958,-0.246605,-0.161919,0.324158,-0.135037,0.00459738,-0.13203,0.112853,0.123891,-0.0251185,-0.133421,0.15321,0.00118959,0.282414,-0.127835,0.165096,0.221918,0.335655,0.137337,-0.155441,0.300202,-0.0541124,0.343644,-0.0273446,0.38887,-0.229994,0.268874,0.200897,0.202481,0.10057,0.323758,-0.132875,0.331512,0.394833,-0.182305,0.319173,0.0657027,0.278893,-0.101541,0.358525,0.309918,0.369743,-0.195659,0.23599,-0.18778,-0.101587,-0.179535,0.0826285,-0.049498,0.171908,-0.0811792,0.136146,0.0854945,-0.243345,-0.0337321,0.275924,0.357979,-0.050438,0.38328,-0.0966583,0.0107662,0.379755,0.0181331,0.136253,0.195236,0.282653,-0.0334544,-0.0909902,-0.0431738,0.181035,0.173881,0.175239,0.205149,-0.190622,0.105554,-0.032194,0.0465926,0.310105,-0.11959,-0.2442
0.114142,0.304807,0.328306,0.344072,0.369814,0.127921,0.134608,-0.0394147,-0.172869,0.295898,-0.171609,0.232621,-0.289383,0.166781,0.291412,-0.102307,0.00999784,0.314399,-0.0772485,0.246422,0.0392651,-0.110874,-0.155672,-0.255886,-0.0405683,0.187011,0.280901,-0.272015,-0.125465,0.0991241,0.299402,0.0266609,-0.239607,0.263128,0.141786,0.100389,0.335385,0.188891,0.13626,-0.0598734,-0.268953,0.280026,0.318137,0.248045,0.0779104,0.0228796,0.353963,0.303375,-0.04482,0.0657113,0.388079,0.0537278,0.12476,0.158919,0.310916,-0.0474899,-0.0979064,-0.0209785,0.174664,0.148366,0.375668,-0.292356,-0.0567191,0.27312,0.234964,0.387687,-0.0877884,0.0154941,-0.290561,0.228535,-0.0209615,0.362309,-0.198606,0.18312,-0.197332,0.0360074,0.377545,0.263751,0.132814,0.347209,-0.276031,-0.0681692,0.351656,-0.262081,-0.135548,0.111194,0.194681,0.215403,-0.137004,-0.13,0.00632463,0.0460066,0.377681,0.0314621,-0.198839,-0.198749,0.276554,-0.275821,-0.138437,0.292115,0.168518,0.294219,0.394517,-0.0896056,-0.0363587,0.390222,0.0844657,-0.054049,-0.298644,0.265616,0.277098,0.357488,-0.093463,-0.282525,-0.125529,-0.0089511,0.157143,0.0229774,0.235129,-0.120872,-0.128341,-0.0329291,0.390574,-0.0566127,-0.0303,0.335044,0.182889,-0.0424986,0.202981,0.203752,-0.140767,-0.00899336,-0.282376,0.190186,0.042204,-0.0142816,0.33925,0.0124827,-0.153445,-0.0664815,-0.190835,-0.138945,0.0574022,-0.103971,-0.113354,0.0332759,0.0797598,0.373131,0.347514,-0.0474507,-0.166535,0.356958,0.16379,-0.241992,0.11812,-0.200066,-0.355347,0.232079,-0.0725062,-0.142135,-0.124197,-0.204881,0.267141,-0.056704,-0.239488,0.188212,0.377607,-0.120843,-0.122602,0.344285,0.234117,0.212066,0.180066,0.0336301,0.143479,-0.178494,-0.0569096,0.208813,-0.294062,0.0892203,0.341288,0.340447,0.333274,0.0226376,-0.389687,0.136514,-0.220485,0.101484,0.0721142,0.134208,0.355978,0.212736,0.0530803,-0.124307,0.239399,-0.225563,0.12382,0.321,0.118054,0.130126,-0.243205,-0.0241589,-0.0942847,-0.127451,0.152808,0.166874,-0.11144,0.362477,-0.132127,0.350227,-0.196006,-0.153191,-0.260641,-0.0346955,-0.139431,-0.395918,-0.210557,-0.267009,0.0116822,0.243102,0.0935058,-0.24909,0.17237,-0.094094,0.262679,-0.0231522,0.117899,0.0817032,-0.290165,0.262914,-0.03542,-0.177496,-0.00329268,-0.216347,0.150346,-0.271388,0.272027,-0.029529,-0.0167527,0.0656069,0.253491,-0.0156833,0.0181202,0.295628,-0.199188,-0.156825,0.0624923,0.33271,-0.00327752,0.241635,-0.257243,0.247081,-0.119697,0.280292,-0.104593,0.0238812,0.137287,0.289138,-0.22558,-0.352807,0.104511,-0.285675,0.206238,0.160655,0.0549986,-0.0376982,-0.270686,0.210399,-0.309105,-0.101778,-0.111548,-0.236142,0.0800884,0.274343,0.063862,-0.0535526,-0.20056,0.248261,0.23383,-0.290913,-0.102264,0.257964,0.153495,-0.0381778,0.022096,-0.38504,-0.219306,0.0967685,-0.45105,-0.141092,-0.376124,-0.277348,0.00622189,0.0570503,-0.350038,0.21366,-0.177495,0.286602,-0.050717,-0.0933546,0.0318329,-0.160033,0.201817,-0.0590079,0.280637,0.247145,0.2269,-0.162523,-0.209421,-0.00273441,-0.158041,0.15643,-0.173226,-0.290127,-0.26488,0.0728453,-0.351124,-0.0580591,-0.230478,-0.109501,-0.39465,0.142733,-0.0401327,-0.0928104,0.169753,-0.300557,-0.104126,0.285943,-0.156289,-0.39533,0.0181001,0.313541,0.0603951,-0.259234,-0.0936883,-0.0152414,0.0825037,-0.276335,0.208544,-0.284876,0.114062,-0.315927,-0.284137,-0.181133,-0.11812,-0.302687,-0.21501,-0.0652287,0.146271,-0.442489,-0.351315,-0.383454,-0.255126,0.180298,0.283025,0.305896,0.219138,0.128915,0.210982,-0.1307,0.148113,0.137039,0.207945,0.0406001,0.377334,0.379582,0.261854,0.142973,0.0463625,-0.06956,0.244431,-0.213233,-0.108298,0.0321052,0.280478,-0.106232,-0.326827,-0.339595,-0.43694,-0.0237303,0.20358,-0.00675484,-0.116701,-0.0475667,-0.131733,0.045754,-0.124401,0.246259,-0.306357,0.0695398,0.341912,-0.166001,0.345759,0.211863,-0.176759,-0.265898,0.00576243,-0.398288,0.0364214,0.258007,0.0312579,-0.0331134,-0.209532,0.0345864,0.176332,-0.269478,0.208431,0.221826,0.140493,0.00461053,-0.340028,-0.17131,-0.0934828,0.30216,0.0820391,0.1253,-0.214309,-0.193539,0.0232019,0.106702,0.232151,-0.176556,-0.278688,0.31954,0.184272,-0.070003,0.134052,-0.176047,0.278319,0.284777,0.260573,0.0774222,0.344579,0.280284,0.162942,0.0588851,-0.0645414,-0.00667417,-0.14348,-0.296848,-0.105689,-0.198597,-0.122583,-0.0445123,-0.084719,0.282875,0.329066,-0.230766,-0.102905,-0.297276,0.00229267,0.203924,0.317855,0.258843,-0.0924009,-0.158402,-0.291719,-0.367957,0.252639,-0.234582,-0.184916,0.188722,0.198278,-0.292126,0.0656084,-0.0471356,0.142043,-0.159181,0.150994,0.0651108,0.120455,-0.269381,-0.273837,-0.313137,0.369449,-0.073247,-0.0386883,-0.133676,0.292359,-0.066103,-0.222551,0.0618046,0.223256,-0.147885,-0.247834,0.0828634,0.0874576,0.127183,-0.125266,0.18864,-0.0790269,-0.430569,0.0122617,-0.480332,-0.438631,-0.374891,-0.194126,-0.359866,0.159824,-0.0253005,-0.1701,0.18453,0.140868,0.287182,-0.133518,0.313604,0.316742,0.0183202,0.429178,-0.352173,-0.182571,-0.304373,-0.0290374,0.0985623,-0.265155,-0.101625,-0.129795,-0.375772,-0.31701,0.179925,-0.452163,0.0233545,-0.262289,0.165771,-0.171789,-0.404362,0.0334236,0.0374147,0.314257,0.388677,0.136964,-0.141605,-0.0811152,0.0844241,-0.0670879,-0.23545,0.114759,0.356267,0.239639,0.135415,-0.119203,-0.0208247,0.249159,-0.19393,0.103481,-0.346035,-0.384457,-0.0815457,-0.012839,-0.120285,-0.122658,0.108667,0.310268,-0.286242,-0.355633,0.0490443,-0.0181075,-0.269511,0.402869,0.136766,0.0310617,-0.111875,0.246988,-0.0970948,-0.149156,0.232566,-0.102283,0.0231272,0.254609,0.00642592,-0.335968,0.0557883,0.17497,-0.2455,0.272747,-0.0355189,-0.310888,0.163128,0.194959,-0.204376,-0.360994,0.0351354,0.232955,0.0836482,-0.154941,-0.203629,-0.0751705,0.276977,0.127515,-0.256783,0.0658331,0.0238267,-0.257542,-0.319127,-0.105584,0.113666,0.159361,0.0396142,-0.226185,-0.330945,0.233447,-0.0864287,0.0868154,-0.355816,0.221883,0.0239821,-0.285001,-0.227035,-0.110505,0.242607,-0.2641,-0.186501,0.090002,-0.223797,0.397053,-0.0346668,-0.170284,0.190023,-0.0956178,0.236901,-0.209822,0.211793,0.150201,0.353885,0.258972,-0.100746,0.296124,0.366118,-0.262332,-0.275961,0.0525318,-0.339029,0.0422093,0.216774,0.138208,-0.304667,-0.182914,-0.284161,-0.10775,0.215701,0.0219449,0.11585,-0.0135193,0.181575,0.286563,-0.138774,0.0775389,0.121569,0.122648,-0.233802,0.0813444,0.215765,0.278776,-0.148604,0.232911,-0.252019,0.18947,0.275867,0.151786,-0.283897,-0.0100697,0.0778186,0.321189,-0.316913,-0.271294,0.198009,-0.198129,-0.0193473,-0.0913291,0.271872,0.0727966,0.0747062,0.16505,0.0715445,0.143182,-0.0666969,-0.0412337,0.292433,-0.277062,0.154025,-0.0295967,0.165347,-0.169843,0.11841,0.218837,0.159627,0.106723,0.0829718,-0.0518642,0.302421,-0.188305,-0.166701,-0.0368225,-0.0065367,0.361329,-0.0130609,-0.0146792,-0.281769,-0.026661,-0.274407,-0.132151,0.128007,0.284747,0.259325,0.082038,-0.129724,-0.187005,-0.225236,-0.0454109,0.0613355,-0.184641,0.336399,0.290854,0.367674,0.373024,0.0936068,-0.172468,-0.023963,-0.0427364,-0.245103,-0.224321,-0.168204,0.177771,-0.191748,0.341855,-0.0193549,-0.125785,0.0317881,0.392651,0.31457,-0.0300791,-0.0135014,-0.299681,0.282837,-0.137855,0.167222,0.345263,0.0726993,0.369669,-0.00440836,0.306301,-0.0207224,0.0627834,0.063836,-0.0110025,0.134206,-0.304195,-0.124643,0.138924,0.260596,0.282845,-0.116962,-0.054561,0.12273,0.286584,0.389959,0.398889,-0.246336,0.078338,-0.0142918,0.0240333,0.0641743,0.118057,-0.0468336,-0.083704,0.0794048,0.256557,-0.159197,0.331788,-0.103482,0.0317026,-0.239411,0.152285,-0.0544819,0.294537,0.200301,0.366225,0.0690451,-0.249583,0.204678,-0.207349,0.188571,0.034907,0.103162
0.298248,-0.201773,0.338112,-0.137684,-0.0817133,0.134437,0.0739158,-0.0786584,0.24217,-0.0419355,-0.277526,-0.198526,0.171844,0.0165136,0.131831,-0.0619953,0.313031,0.107691,0.213266,-0.0681692,-0.0917325,0.318052,0.31474,0.0671011,0.0715659,0.156655,0.00628069,-0.00807521,0.133476,0.156847,0.362465,0.00912195,0.156633,0.367721,0.175475,0.273949,-0.0688975,0.307129,0.384145,-0.155643,-0.194867,0.39701,-0.147982,-0.0151891,-0.0268573,0.357165,0.280901,0.363704,0.0593643,0.171775,-0.108737,0.247853,-0.17272,-0.191754,-0.0429609,0.337236,0.0621021,-0.194339,0.326917,-0.162124,0.239393,0.306905,0.316553,-0.181303,-0.261045,-0.0446647,0.0295202,-0.232295,-0.0854992,-0.0813491,0.154542,0.394674,-0.234802,-0.213634,-0.14435,-0.133968,0.0826485,-0.27813,0.116599,0.253989,0.237492,0.36379,-0.184191,0.0334544,0.0100192,0.389938,-0.22288,0.217624,0.0908495,-0.0688193,0.232313,-0.103845,-0.279696,-0.155989,0.408347,0.421899,0.171256,0.257964,-0.281983,0.21523,-0.124271,-0.256202,-0.0806406,0.0395246,-0.0213475,0.144276,0.141669,-0.298757,0.351959,-0.00620471,-0.226036,0.0793847,0.310938,0.368062,-0.291176,0.297802,-0.298209,0.295996,0.350082,0.249005,0.127586,0.197119,0.372431,0.0275707,0.145931,-0.266769,0.268066,-0.334927,-0.0992448,0.34283,0.229084,0.322413,-0.297675,-0.306309,0.380983,-0.0123641,-0.214696,0.160596,0.103536,0.185516,-0.102841,0.00200811,0.109816,0.244568,-0.0630919,-0.0192945,0.346868,0.280381,0.176003,0.35982,0.1791,0.158204,0.153463,0.0787041,0.159205,0.11939,0.14351,0.244705,-0.107598,-0.267574,-0.251312,0.128156,0.230842,-0.136099,-0.173249,0.0914469,-0.101632,0.0257994,0.157381,-0.153706,0.204995,0.0625055,0.355782,-0.280002,-0.146404,0.423419,0.433195,-0.166983,0.137938,-0.0336642,0.0146831,0.144508,-0.213213,-0.239924,0.0637157,-0.228744,-0.356709,-0.131701,-0.463845,-0.139925,-0.145628,0.126166,0.216872,0.148358,-0.148304,0.210774,-0.172997,0.239513,-0.105947,-0.236133,0.09706,0.201206,-0.135618,-0.103976,-0.161854,-0.272524,0.0537641,0.000398365,0.187601,-0.251087,-0.188173,0.00930974,-0.128179,-0.275566,-0.0471972,-0.117498,-0.389681,-0.0290913,0.207456,0.163345,-0.339975,0.243013,-0.0452313,-0.186562,0.226939,-0.149658,-0.171573,0.0949733,-0.248734,0.0476854,0.333485,0.251584,0.196843,0.223165,0.220132,0.175188,0.203133,-0.0642862,0.0132289,0.189004,-0.209013,0.0431465,-0.101797,-0.31287,-0.289388,-0.188062,0.182781,-0.104331,0.275472,-0.25285,-0.141938,0.221902,-0.0841273,0.0831468,0.0253626,-0.000134589,-0.25888,0.101457,-0.208061,0.0542105,0.134184,-0.483907,0.19113,0.194823,-0.0318966,-0.374969,0.260413,0.246378,0.205944,-0.0316012,0.0600359,0.261402,-0.283696,-0.0718897,0.272662,0.215539,-0.0824531,-0.178103,-0.0900306,0.251056,0.172485,0.0963155,-0.0499937,-0.131649,0.282436,-0.116003,-0.225412,-0.472664,-0.489344,-0.526696,-0.494205,-0.500184,-0.229746,0.245592,0.252239,0.200546,-0.0799956,-0.116149,0.387455,-0.0600537,0.289292,0.406018,-0.0915015,0.11329,0.21935,0.183122,0.276529,-0.00794451,0.372399,-0.265729,0.214584,-0.196145,0.256869,-0.308462,0.150939,-0.464877,-0.133415,-0.155933,-0.646962,-0.148176,-0.192541,-0.166856,0.165664,-0.0495924,0.309902,-0.13257,0.442344,0.0764938,0.368204,0.0956849,-0.188513,-0.491262,0.112035,0.201418,-0.115656,0.395832,-0.223884,-0.00361983,0.293044,-0.277975,-0.265333,-0.0674784,0.0923585,-0.152639,-0.261097,-0.127708,-0.00738226,-0.178291,-0.262078,-0.179284,-0.103706,0.2452,0.0286032,0.375107,0.384717,0.34162,0.251933,0.242356,0.0564509,0.0795986,-0.0944963,0.263221,-0.0333425,0.0416223,0.193292,0.281945,-0.000462825,0.308813,-0.325296,0.0388833,0.0768519,-0.159898,-0.396217,-0.196984,0.184293,0.39617,-0.0368419,0.0185329,0.252325,-0.17562,0.11823,0.32433,0.071065,0.317609,-0.169078,0.385728,-0.311372,-0.254584,0.412778,-0.0235277,0.0331367,-0.118551,0.138752,-0.00122366,0.388949,-0.158224,0.155957,0.0780816,-0.145454,-0.103412,0.0773073,0.190763,-0.106764,0.658643,-0.10563,0.0946449,0.133932,-0.00183848,0.276007,0.331411,-0.188106,0.245528,0.22995,0.294143,-0.463388,0.0648414,-0.204496,-0.118089,-0.207421,-0.22861,0.14655,-0.267359,-0.276332,0.00684266,0.0642544,0.0881839,-0.388316,-0.385727,-0.356435,-0.0403708,0.585379,0.477061,0.0655677,0.320659,0.165831,0.601818,0.189547,-0.308146,0.0124338,0.0603087,0.238201,0.0544677,-0.201689,-0.245618,-0.0177515,0.195471,-0.0985989,-0.172545,0.0569109,-0.163039,-0.191067,-0.135638,-0.280667,0.0941269,-0.242301,-0.532813,-0.114799,0.296363,-0.0392069,0.430967,0.171736,0.42185,-0.0256315,-0.247169,0.0688017,0.119821,0.0235114,-0.177511,0.323641,-0.0139046,0.0865535,-0.263971,-0.330788,0.035438,-0.118619,0.188935,0.242213,-0.156616,-0.0706027,0.391824,-0.289299,-0.537204,-0.280285,-0.323469,-0.445776,-0.42018,-0.128639,-0.148378,0.415664,-0.438177,-0.257768,0.248671,-0.217463,-0.303231,-0.37174,0.267304,-0.0278925,-0.163893,-0.230747,-0.394736,-0.0803163,0.00185113,-0.234957,0.336311,0.187353,0.107235,-0.0518482,0.517456,0.0486269,0.00663446,-0.372608,-0.404679,-0.426963,-0.325493,0.177781,-0.0790018,-0.00591401,-0.411335,-0.222216,0.451618,0.122289,-0.296822,0.112273,0.115672,-0.0437327,-0.225165,-0.442849,-0.443617,0.144408,0.18413,-0.276617,-0.0728341,0.0903867,0.143368,-0.0672177,0.230555,-0.153464,-0.361325,-0.308343,0.151303,-0.0763301,-0.498028,0.0507828,-0.0344808,-0.231219,-0.0182846,0.0664412,0.429834,0.0894139,0.0307661,-0.414008,-0.314095,-0.269141,-0.0592646,-0.497123,-0.419575,-0.345598,-0.179646,0.201044,0.102069,0.298825,-0.134374,-0.207337,-0.0406411,0.567136,-0.0272844,-0.155186,-0.304088,-0.0410361,-0.320547,-0.43469,0.161195,0.185583,0.00178804,0.21252,-0.0508167,0.0098324,0.105614,-0.165036,-0.0442713,-0.0117144,-0.276305,0.0193405,-0.341184,0.170904,0.0310243,-0.117186,0.382532,0.047148,0.114692,0.289434,0.41766,-0.116002,0.0211422,0.266637,-0.377005,-0.329262,0.0165835,-0.0981851,0.0282653,-0.121212,0.300035,-0.0907836,0.335937,0.249124,0.123291,-0.139087,-0.117476,-0.286305,0.0510095,0.129189,0.169356,0.147318,-0.298326,0.22524,-0.137016,0.111686,-0.129234,0.192864,0.162616,-0.0932933,0.0994369,0.40899,-0.359219,0.198163,-0.383695,-0.238421,0.204321,-0.322052,0.0410169,0.223141,0.480238,0.327644,0.167865,-0.23874,-0.0392103,-0.162457,-0.223054,0.275926,-0.0768597,-0.01264,0.205299,0.0644255,-0.157864,0.347682,0.399909,-0.0901642,0.141434,-0.14116,-0.0325419,0.359265,-0.170471,-0.408414,-0.0618915,0.188528,-0.198275,0.266804,-0.219886,0.137755,-0.117067,-0.118771,0.0163855,-0.0752957,-0.119514,-0.0590402,0.292057,0.17387,0.207423,0.311307,-0.0106857,-0.301579,-0.0558214,0.224845,-0.288379,0.391329,0.21377,-0.128726,-0.206921,0.266581,-0.0310238,-0.133245,-0.14606,-0.293632,0.22349,-0.104024,0.152171,0.00435083,-0.050766,0.243756,-0.0625766,-0.101018,0.0497722,-0.234643,-0.130311,-0.06213,0.120122,0.12884,-0.21591,0.234886,0.0853236,0.326853,0.223392,-0.278509,0.160842,0.284779,0.375665,-0.224874,0.258844,0.139432,-0.317907,0.122738,0.217776,-0.100091,-0.134063,0.340985,-0.0480272,-0.0111403,0.134656,-0.185189,-0.0706539,0.0884725,-0.0450784,-0.0504124,-0.240538,-0.161383,0.250203,-0.250545,-0.240077,0.330058,0.385858,-0.0422773,-0.138923,-0.0662894,-0.203574,-0.0934675,0.201252,-0.241335,-0.15002,-0.0262477,-0.00103576,0.235635,-0.276282,-0.0924009,0.097696,0.0431811,-0.228084,0.114462,0.100639,-0.247696,0.0360332,-0.193079,0.390385,0.293164,0.344542,-0.296261,0.0587481,-0.172399,0.173852,0.363747,0.0974151,0.268938,-0.26129,-0.284639,0.118795,-0.219326,-0.122284,-0.189015,0.297458,0.357573,0.0563341,0.268169,0.321543,-0.195091,-0.258594,-0.15302,0.156295,0.0908994,-0.281393,0.333113,-0.0446486,-0.0345866,0.1326,-0.194275,-0.287631
0.3141,0.294467,0.395557,0.219547,-0.0460799,-0.182696,0.020658,0.30047,-0.169579,-0.234288,0.234587,0.302969,0.325187,-0.0300363,0.371053,-0.197885,-0.166161,0.229908,0.319825,0.210489,0.323521,0.180474,0.317902,0.241765,0.02884,-0.0596027,-0.209378,-0.17492,-0.00339672,-0.183636,-0.273061,-0.283038,-0.262209,-0.215766,0.123072,-0.193108,0.29614,-0.180896,-0.220202,0.166924,-0.203978,0.397332,-0.215957,0.132664,-0.23112,0.0386983,-0.230573,0.178146,0.334181,-0.282866,0.173211,-0.234181,-0.272036,-0.19592,0.29075,0.127964,0.0480025,0.0730186,-0.247832,0.273147,-0.278466,0.332965,0.209117,0.0647643,-0.244696,0.313011,0.159858,0.0712498,0.0812394,-0.122783,0.0205355,0.129325,-0.257007,0.271095,-0.176803,0.320608,0.364821,-0.190069,-0.294699,0.00383031,-0.00138861,0.0727195,0.239415,0.0295022,-0.0326213,-0.0570178,0.157445,0.213758,-0.174222,-0.139673,-0.241781,0.0458515,0.260007,-0.114206,-0.190222,0.355527,0.358772,-0.00661636,0.0585764,-0.254428,-0.219882,0.148942,-0.259553,-0.154346,0.148098,0.244014,0.0843069,-0.247881,0.00462218,0.169431,-0.200303,-0.108161,-0.0358043,0.160649,-0.0987396,0.227878,0.0398607,0.284292,0.326433,0.122224,-0.0833205,-0.156268,-0.280975,0.285818,-0.20473,-0.0514261,-0.0879816,0.0958145,0.309596,-0.183676,-0.300108,-0.0825587,-0.308305,-0.152135,0.092845,0.339354,0.286705,-0.136284,-0.0412886,-0.289468,-0.0689596,0.360308,0.394998,0.38944,0.167438,0.354835,0.3084,-0.140418,0.152062,0.244372,-0.166934,0.139346,-0.268368,0.0125673,-0.110929,0.246657,-0.242439,0.268484,-0.22589,0.145466,0.0165327,0.283109,0.164185,-0.0267142,0.0356157,0.0658526,0.0796779,-0.273605,0.320872,0.206665,-0.0765478,0.356516,-0.157805,0.086524,-0.245139,-0.138887,-0.00409149,-0.300416,0.186427,0.131308,-0.239507,-0.215663,-0.190322,-0.294675,0.148727,-0.318955,0.299991,-0.317159,0.312128,-0.0454373,0.269309,0.00580334,0.0877608,-0.236606,-0.0581452,0.147219,0.0945311,0.21513,0.196674,0.279801,-0.0812008,0.33839,0.095764,-0.00374028,-0.0823451,0.187918,0.326176,0.12401,-0.131398,0.278064,0.00131044,-0.31477,0.121433,-0.0844272,0.109329,-0.214081,-0.275647,-0.0978816,-0.101261,-0.202423,-0.304941,0.167332,-0.116064,0.307369,-0.146123,0.314792,0.0751314,0.298356,-0.284172,0.165839,0.181559,-0.0387901,0.316444,0.154305,0.329395,0.155726,0.388149,-0.0683468,-0.182957,0.193891,0.207996,-0.122025,0.000781708,-0.347468,-0.281697,0.194311,-0.161135,-0.294734,0.337699,0.060289,-0.0408772,0.043964,-0.273681,0.157168,0.152583,0.329949,0.293383,-0.10477,-0.135845,-0.135138,-0.00199583,0.376871,-0.0235109,0.351061,0.257044,0.349406,0.132582,0.373009,0.345636,-0.366961,-0.0871586,0.194928,-0.310759,0.140536,0.0311557,0.0329523,0.298598,0.344334,0.126299,0.117043,0.116343,-0.0753503,0.243592,0.189319,-0.114333,0.13731,-0.286062,-0.0697638,-0.261172,0.0741786,-0.285544,0.0646275,-0.20325,0.0868356,-0.0475267,-0.181796,-0.137569,0.260597,-0.0962106,-0.202712,0.234842,0.204581,-0.184048,-0.112658,0.0689871,-0.157664,0.277412,0.252382,-0.210404,0.040779,0.166849,0.280631,0.0720636,-0.0233168,0.000776316,0.199077,0.214082,0.189112,0.185728,-0.280559,0.281822,-0.356196,0.249242,0.0847288,-0.0817133,0.00707046,0.0399994,-0.234999,-0.357477,0.260813,0.096286,0.147995,-0.0612864,0.21023,0.0273345,0.0354969,0.105426,-0.0691836,-0.13534,0.124286,-0.349296,0.0302,-0.26519,-0.0134747,0.0998119,0.236515,-0.228382,-0.201534,-0.158079,-0.0524421,0.146234,0.181264,0.0462757,-0.111706,0.0616941,-0.304199,-0.309661,-0.159973,0.195667,0.123887,-0.247813,-0.0296022,-0.092949,-0.168085,0.0629352,-0.143336,0.161512,-0.0998814,-0.233444,0.0905777,-0.288076,-0.306486,-0.162601,-0.342725,0.271257,-0.106792,0.184046,-0.0660065,0.284454,-0.327945,0.167018,-0.107336,0.00105328,0.356937,0.129047,-0.15471,-0.26255,0.107798,0.269054,0.289065,0.32432,-0.0306692,0.0768853,0.339586,0.128306,0.0759095,-0.0743992,-0.128393,-0.00456111,0.190765,-0.0389592,-0.28202,-0.0615382,0.207157,0.0427356,-0.120976,0.287388,-0.225504,0.0175732,0.0442232,0.00325795,-0.0865141,-0.0918512,-0.106385,-0.346578,-0.331621,0.236507,0.0368097,-0.0853613,0.247829,-0.151485,-0.284588,0.174825,0.209209,0.227581,-0.218179,-0.0319453,-0.142685,0.24771,-0.205443,-0.339321,-0.351345,0.319928,0.0852889,0.0765801,0.220254,-0.17027,-0.0119405,0.30754,-0.180389,-0.117752,-0.0536889,0.271317,0.273175,-0.115206,-0.233598,0.281191,0.119812,-0.152937,-0.244635,-0.200746,0.289413,-0.0926243,-0.197094,-0.369666,-0.159306,0.237282,-0.0444108,0.0254451,0.0173191,0.0547523,-0.279359,0.300837,0.271131,-0.187242,-0.329437,-0.0191735,-0.160939,-0.00361656,-0.0899739,0.311133,-0.240498,-0.139291,0.140455,-0.295244,0.20284,0.167891,0.263802,-0.247575,0.226411,-0.234517,-0.202826,-0.131068,-0.342037,-0.0369089,0.111911,-0.294223,0.0852575,0.128097,0.00961146,0.130015,-0.123052,0.0415449,-0.337238,0.208659,0.301968,0.0622267,0.36746,0.154477,-0.260895,-0.186617,-0.0832751,0.373751,-0.123007,-0.0177099,0.253633,0.382447,-0.046056,-0.241731,0.0271235,-0.265476,0.16612,-0.199104,-0.205561,-0.0540538,-0.347286,-0.0512914,-0.257058,0.181501,0.191305,-0.0927701,0.0975456,-0.0755204,0.0301839,0.0999141,-0.157083,0.273871,0.328734,0.269215,0.0545914,-0.165335,0.0106101,-0.254881,0.0217924,0.35675,0.260245,-0.100472,0.202422,0.0860166,0.14509,-0.189042,0.302328,-0.0146814,0.197948,0.0808635,0.159602,-0.340405,-0.0770291,0.0865355,0.29695,-0.340297,-0.193316,-0.25931,-0.00498613,0.19922,-0.245078,0.360396,0.155492,0.238812,-0.0243604,0.275753,-0.0354642,0.0948285,0.329867,0.219548,0.0811203,0.293405,0.294073,0.106743,0.0664939,-0.156672,-0.327527,-0.147565,-0.199224,-0.068978,0.211549,-0.191574,-0.256544,-0.0786925,0.0764497,0.158421,-0.211827,0.317739,0.237241,-0.211249,-0.143136,-0.0761799,0.109468,0.177526,0.170946,0.0823749,0.312113,0.0287053,-0.0905963,0.276587,-0.0700403,-0.148371,0.346018,0.281062,0.131799,0.00151933,-0.185602,0.140433,-0.256467,0.000666461,-0.143232,-0.0803788,0.184229,0.194303,-0.00092082,0.0214686,-0.159417,0.11862,0.0717198,0.0754387,0.161752,-0.287909,0.267418,-0.143888,0.383439,-0.106347,-0.277324,-0.212411,0.138518,0.104117,-0.279614,0.180228,-0.0591139,0.355963,0.22843,-0.282989,-0.259965,-0.209094,-0.295695,-0.0833493,-0.255001,0.188564,0.354595,-0.305006,-0.00464634,0.239019,0.0392621,0.151653,0.00326767,-0.00623798,-0.0035824,0.382162,0.239969,-0.201579,-0.244962,-0.230557,0.0715446,0.294128,-0.264292,0.0193178,-0.254087,0.352269,0.259072,-0.0904125,0.113162,0.0331056,0.170524,0.0491375,-0.263119,-0.0611975,0.173535,-0.163123,-0.00553013,0.0552662,-0.165826,0.13579,0.114142,0.0193335,-0.0106815,0.252294,0.205797,0.294939,0.325948,-0.0242979,0.35214,-0.171599,0.398013,-0.216408,-0.270438,0.171869,0.362177,0.158877,-0.11007,0.379952,0.176651,-0.0768238,-0.052708,0.161095,-0.21841,-0.0379484,-0.0933473,0.245089,0.0181036,0.0744926,-0.249413,-0.000277758,-0.264837,0.284576,0.306793,-0.234997,0.0483984,-0.0350187,0.397252,-0.00353478,0.137474,0.361533,0.348964,-0.100971,0.254507,0.381561,0.123067,0.00484626,-0.0555697,0.215056,0.00790774,0.259855,-0.262386,0.360538,-0.175294,0.1809,0.367785,0.276437,0.0953856,0.208246,-0.103098,-0.00997654,-0.0392651,0.166354,-0.256751,-0.152145,0.268114,-0.0885007,-0.187633,-0.0379074,0.105919,0.0073918,0.371437,0.255389,-0.0888682,0.139666,0.257619,0.348234,0.241899,0.288321,0.19931,0.233083,0.0430119,0.10047,-0.0488144,0.325486,-0.21348,0.311643,0.381585,-0.224055,0.00980559,0.118137,-0.268874,-0.0732277,-0.246829,-0.131116,0.010708,-0.0663611,0.312284,0.376073,0.385986,-0.0988251,-0.175263,0.384552,0.348725,-0.133912,0.202789,0.320145,0.06975,0.215509,0.0436018,-0.134523,-0.275304,0.292224,-0.0551378
