0.252104,-0.0390942,-0.173403,-0.0804529,-0.278701,0.17242,0.00563979,-0.0709464,0.290921,-0.24514,0.0271096,-0.170241,-0.0215766,-0.231553,-0.177398,-0.0593677,-0.0644948,-0.117454,-0.239158,-0.0251229,0.314719,0.0130955,0.0232002,-0.0494553,-0.274963,0.293313,0.0792138,0.101794,-0.2141,-0.250459,-0.053856,0.337556,-0.161547,0.00455031,0.367144,0.144478,0.12414,0.379492,0.092352,0.181286,-0.110532,-0.183059,-0.00269175,0.160991,0.326618,0.396924,0.322987,-0.131809,0.209015,-0.13292,0.0719718,0.00822473,-0.268383,0.159859,0.24499,-0.0650929,-0.285003,-0.282226,0.352296,0.153963,-0.217539,0.0991668,0.38417,0.348964,0.170028,0.285836,-0.224952,0.126426,0.278359,0.0650502,-0.0543687,0.227302,0.0259987,-0.0928434,-0.14294,0.201431,-0.0866909,-0.188891,0.262038,0.0920316,0.25674,-0.0603717,-0.21316,0.0270241,-0.2978,-0.0842128,-0.0710959,0.363918,-0.222175,0.303226,0.00401622,-0.214463,0.194467,0.341337,-0.172143,0.293078,0.054091,0.357851,0.266054,0.393313,0.17524,0.130293,-0.162935,0.12743,-0.00553301,0.218479,-0.0974365,-0.0624226,0.354091,0.339564,-0.170711,0.218586,0.0344371,-0.292053,0.257124,0.351335,0.141166,-0.288272,0.0574663,-0.134907,0.00593889,-0.152767,0.216535,-0.174749,0.110831,-0.115766,0.227772,0.0934843,-0.105148,-0.116962,0.227708,0.357424,0.352916,-0.164281,0.0600726,-0.123606,-0.014185,0.353215,0.101837,0.340355,0.31128,-0.12993,-0.0638753,-0.211408,0.394745,0.289276,-0.293741,0.185644,0.110062,-0.262123,0.235014,-0.199637,-0.011301,-0.243153,-0.256206,-0.0138646,-0.132621,-0.00455034,0.0561418,0.308182,0.293335,0.0333262,-0.180538,-0.284619,-0.203589,0.30126,0.229972,0.103269,0.387802,0.0230293,0.0948088,-0.135057,0.394125,0.249968,0.115873,0.377312,0.287139,0.110062,0.229716,-0.281222,-0.0825892,-0.0561632,0.0878018,0.0659474,0.212305,0.14843,-0.188336,0.265627,0.346828,0.301901,-0.0927366,0.0295236,-0.0525315,-0.0101261,0.272655,-0.151741,0.137684,0.306153,-0.0160863,-0.0285196,0.385025,-0.250972,-0.106751,0.0510147,0.358791,0.285794,-0.0763726,-0.00576803,0.257958,-0.193741,0.0946806,0.124012,-0.281457,0.0385815,-0.0360607,-0.207498,-0.0402051,-0.152275,-0.0821192,0.245524,0.178722,0.189853,0.39718,0.384255,-0.14796,-0.256697,0.390451,0.32147,0.055501,-0.210981,0.381008,-0.021128,0.0590472,0.161696,-0.119141,-0.0774621,-0.191754,-0.0564409,0.336467,0.0832728,0.350481,0.123179,0.0403332,0.0588763,0.215702,0.190387,0.233454,0.145054,0.111194,-0.110105,-0.067977,-0.207968,-0.0605213,0.205042,0.0638752,0.333454,-0.201239,0.0936125,0.0479598,0.284747,0.175497,-0.15204,-0.297864,-0.142341,0.388272,-0.0992309,0.113181,0.18793,0.292416,0.348643,0.253236,-0.0772485,0.104764,-0.184576,-0.222346,-0.134651,-0.142064,0.327024,-0.111835,0.122986,0.343303,0.0194403,0.0955992,-0.244285,0.052446,-0.0475326,0.267186,0.172634,-0.223862,-0.149904,0.192096,-0.127729,0.27022,-0.0596881,-0.249861,-0.0255928,-0.252083,-0.184533,0.317603,-0.260115,-0.29201,0.285794,-0.00525531,0.125358,-0.0421491,-0.152895,0.0895749,0.169814,-0.25877,0.135548,0.0418714,0.0600512,-0.170199,0.0902371,0.32194,-0.128498,0.0878231,0.196603,0.288806,0.131639,-0.0303568,0.0315531,0.0417219,0.202564,-0.0409101,-0.0171331,0.249712,-0.069921,0.21019,0.164409,-0.10658,-0.144414,-0.00134587,0.399103,-0.0963683,-0.161931,-0.15642,-0.108417,0.0308267,-0.21709,0.108502,-0.237599,-0.269857,0.224396,0.0413159,0.0655415,0.196283,0.158727,0.162658,0.0612262,0.132344,0.374706,0.0615467,0.366033,-0.112519,-0.12147,0.108374,0.351784,0.247362,-0.0400128,-0.15595,-0.0845332,0.0118137,-0.00350353,0.154881,0.392096,0.344456,0.242384,-0.107306,-0.26834,-0.271972,-0.100171,0.349391,-0.186541,0.110532,0.118522,-0.154732,0.0179662,0.375753,0.221043,0.240867,-0.170498,-0.176736,0.300449,-0.068981,-0.0089938,0.392032,-0.112519,0.031254,-0.217475,0.211557,0.233839,-0.284576,0.246037,0.11583,-0.0915189,-0.285965,-0.27242,0.303568,0.354048,-0.267208,-0.0404828,0.379748,-0.100043,-0.299509,-0.0460799,0.26238,-0.120658,-0.293997,0.129545,-0.210724,-0.0534928,0.133305,0.24405,0.108908,-0.0581713,0.354112,0.253365,-0.210276,0.101025,0.287759,0.27007,-0.0674215,0.155693,0.387097,0.342747,0.0203589,0.321812,0.160414,-0.272143,0.189276,-0.176757,-0.111643,-0.123328,0.0562914,0.147191,0.0453322,0.308374,-0.0130955,0.278124,0.284747,-0.00835294,-0.16223,0.207605,0.19765,-0.293292,0.358492,-0.0337749,0.20376,-0.190728,0.186947,-0.024781,-0.115232,0.0686605,-0.0773553,-0.235975,-0.18135,0.201688,-0.0877804,0.1511,0.0251228,0.074514,-0.268276,0.334544,0.380795,0.294061,-2.13683e-05,-0.110297,0.314228,0.0607562,-0.192737,-0.0795129,0.339564,0.00504163,0.193933,0.061098,-0.0615681,-0.121149,-0.0369366,0.275369,-0.0502457,0.224418,-0.138133,-0.0495407,-0.223927,-0.00807521,0.0157872,-0.26834,0.366674,-0.0717155,0.350075,-0.00465715,-0.213865,0.208567,0.0829524,0.00681478,0.0282845,0.0319163,-0.275091,0.0601153,-0.015595,0.254411,0.268447,0.146464,0.225379,-0.0201667,0.202371,0.248195,0.107157,0.0811365,-0.264367,0.00536209,0.258791,0.373702,0.264602,0.0515488,0.0623798,-0.0871182,0.0679769,-0.0341807,0.384533,-0.262593,0.164452,0.0379192,-0.231639,0.0303354,0.316834,0.393399,-0.0540056,0.119953,-0.182867,-0.22461,-0.22006,0.292053,-0.1627,0.130421,-0.20596,-0.164431,0.279556,0.394446,-0.0979064,0.0936125,-0.188955,0.326704,-0.105597,-0.0585132,-0.282974,-0.112391,-0.00882292,0.163982,-0.0430464,0.308032,-0.177548,-0.0467849,-0.0422132,0.0465926,0.14358,-0.100406,0.229182,0.181948,0.0458663,0.297201,-0.165477,-0.163128,0.271865,0.0357616,-0.197415,0.381136,-0.205704,0.301111,-0.186157,-0.290216,-0.231553,0.155693,0.345994,0.244243,-0.0829951,0.121534,-0.286969,0.0521897,0.0568895,0.136958,0.282461,-0.165734,0.227665,0.309293,0.00435802,0.0734672,0.230357,-0.0645375,0.33762,0.0945097,-0.263234,-0.287951,-0.293185,-0.0697287,-0.222068,-0.192993,0.0749412,-0.0582568,-0.228327,0.114698,-0.0345226,-0.211451,-0.00170907,0.266204,0.119034,0.0971801,0.183914,0.116919,0.0182867,0.0231788,-0.0992096,0.382952,0.266033,0.354903,-0.155907,-0.051442,0.250353,-0.244969,-0.105768,0.0164281,-0.218351,0.087524,0.0244606,-0.277676,-0.264345,0.0256996,-0.0370434,0.386648,-0.113181,-0.110233,0.168682,0.223991,0.166567,-0.290579,0.030549,0.183337,0.0306772,0.159175,0.0492843,-0.0599017,0.0703696,0.262893,-0.288934,-0.187524,-0.148921,0.114548,-0.0872891,0.223371,0.313779,-0.287802,0.247597,-0.219675,-0.17727,0.0517411,0.0115573,0.395172,-0.105426,0.377612,0.238475,0.214826,-0.107349,-0.162914,0.224589,0.285965,0.221085,0.235441,-0.148943,0.124589,0.303268,-0.0618031,-0.235804,-0.287033,0.378744,0.117945,0.22273,-0.104529,-0.297052,0.092352,-0.228776,-0.204636,0.184576,0.150203,0.149648,0.0244392,0.344114,-0.187631,0.397522,-0.192908,-0.171053,0.124824,-0.137022,0.291198,0.0686178,0.0299722,0.0756462,0.0670369,0.304871,0.314078,-0.00751978,0.0669515,-0.219034,0.276586,-0.223457,0.366738,-0.275326,-0.0806025,-0.0823329,-0.238838,-0.191177,-0.198248,0.354347,0.235698,0.224525,0.158641,-0.293442,-0.0946166,-0.149071,-0.171032,-0.0212989,0.344072,0.256056,0.0906003,0.0418287,-0.0253365,-0.28714,-0.0509293,0.0549242,0.14294,0.26567,-0.122922,0.134394,-0.253301,0.129929,-0.148921,0.0311685,0.141978,0.0614185,0.282632,-0.0753044,0.39827,0.17774,0.0905576,-0.006473,-0.275283,-0.232707,-0.188464,0.271352,-0.260884,0.370263,-0.204593,-0.151613,0.301346,0.164965,-0.0175177,-0.272784,-0.216407,0.245418,-0.2906,-0.00762659,-0.201196,0.323072,-0.159304,-0.196753,0.0595172,0.23809,0.0728263,-0.030314,0.188699,0.214057,0.00743431,-0.180517,-0.245289,0.140611,0.340995,0.0171972,0.0523179,-0.0815424,0.167272,0.243858,0.301025,-0.249071,0.0400341
-0.103333,0.183593,0.31677,-0.207498,-0.181735,-0.00431532,0.308097,0.060329,-0.0851955,-0.17084,0.368575,0.0054689,-0.227665,0.260457,-0.284747,0.187246,-0.0693015,0.366225,0.0794702,0.277996,-0.275475,-0.262038,-0.249733,-0.1304,-0.149391,0.317667,0.0553941,-0.231446,-0.0291605,0.0258492,0.0637898,0.125507,0.210511,-0.095172,-0.255715,-0.203055,0.360949,-0.0519547,-0.0353343,0.285644,0.0459731,-0.262123,-0.0345012,-0.243687,-0.0381115,0.0639393,0.293185,0.0742363,-0.250395,-0.0566973,-0.0734459,-0.237236,0.309293,-0.0852169,-0.218586,0.0273873,-0.184085,-0.270711,-0.0725913,0.242555,0.345952,-0.0923093,-0.0985687,0.248836,0.373809,0.188528,-0.0476821,-0.143431,-0.151933,0.137107,0.000769049,0.303461,0.10643,-0.161803,-0.250887,0.162593,0.138923,0.343794,0.225443,0.248045,0.158705,0.398035,0.395962,0.21474,-0.0100192,0.311322,0.330592,-0.000363201,-0.26787,-0.294787,0.355672,0.000747681,0.00965604,8.54433e-05,-0.0215766,-0.158535,0.167272,-0.2326,0.0174962,0.116449,0.119398,0.118714,-0.176138,-0.0336894,0.0136296,-0.147212,0.0265328,-0.222068,-0.0825892,0.333177,-0.112497,-0.24279,-0.0128178,-0.182141,-0.299722,0.17116,-0.170177,0.0130741,0.116214,0.306067,0.315168,0.372719,-0.266802,-0.160991,0.24937,0.115851,0.331147,0.369216,0.268532,0.283679,0.0883358,0.306067,0.0615039,-0.0919248,0.263341,-0.238945,-0.118073,0.31363,0.076693,0.24044,0.15815,-0.27539,0.376714,0.384811,0.361098,-0.10032,-0.0760308,-0.146358,0.0388379,-0.0350566,-0.0214057,0.000726312,0.377761,-0.131532,0.324952,0.13762,0.0993164,-0.172784,0.317881,-0.267785,0.152062,-0.0111515,-0.0148045,-0.260799,-0.192138,-0.0202094,0.0704336,0.109037,0.0224952,-0.237919,0.250459,-0.0274941,0.168853,0.0700918,0.0122623,0.348131,-0.196667,0.34969,0.0233283,-0.231724,-0.0261056,0.171224,0.0799402,0.172121,0.329566,-0.0614185,-0.132322,0.161141,-0.159346,-0.134138,0.018778,-0.0349498,0.189233,0.0438368,-0.0996369,0.114164,0.0388592,-0.132194,0.118287,-0.0342021,0.243431,0.348943,-0.129438,-0.219013,-0.195941,-0.11912,-0.0647511,-0.101068,-0.166268,0.283508,0.0265755,0.00544754,0.238838,0.395557,-0.0957061,-0.256975,0.0770989,0.338496,-0.0299082,0.15862,0.301367,0.0227515,0.235868,0.236616,0.24828,0.31897,0.397992,-0.0864986,-0.118351,0.265456,-0.0981414,0.321427,-0.150331,0.13433,0.0316385,0.0570818,0.165242,0.227686,-0.091348,-0.076693,0.0689596,0.326084,0.333796,0.239949,-0.115723,0.160948,0.357594,0.37069,-0.276223,0.232984,-0.18731,-0.0365734,0.0563127,-0.151784,0.393057,0.350203,0.394317,0.0938475,0.314035,0.00416577,-0.289639,0.225443,0.338069,0.00025633,-0.256911,0.0877376,0.10015,0.0762871,0.100684,-0.159474,-0.282717,-0.158214,0.322559,-0.188229,0.316898,-0.269109,-0.0922239,0.149818,0.267614,0.146657,0.269857,0.296283,0.347917,0.393292,0.327302,0.0520401,-0.063918,0.0434949,0.189319,0.157552,0.256398,0.137535,-0.254006,-0.040141,0.265627,-0.138923,0.322367,-0.111921,-0.185601,0.09859,-0.294424,0.00884426,-0.132087,-0.290835,-0.0950652,0.284341,-0.280282,0.121854,-0.246272,0.103909,-0.115937,-0.103119,0.112476,-0.0880581,0.100043,-0.249669,0.0828882,-0.296689,-0.267357,0.388549,0.0921598,0.00848109,-0.195151,0.349327,0.0563555,0.140184,-0.0548601,-0.00294811,0.0830805,0.0235847,-0.0152959,-0.031724,0.322025,0.381478,0.189062,0.21474,-0.276565,-0.103162,0.057979,-0.159304,0.113437,0.224396,0.17853,0.381713,-0.0543687,-0.0270669,0.0652638,0.121107,0.238646,-0.269472,-0.0277505,0.291775,0.0585772,-0.0455886,0.311066,0.259581,-0.143815,-0.202777,0.359133,-0.264345,-0.182333,0.391882,0.393121,-0.185943,0.338923,0.366546,-0.168789,-0.117945,0.182205,-0.28825,-0.280773,0.399765,0.125037,-0.228199,0.0443922,0.195834,-0.0397351,0.0815637,0.2116,0.376415,0.156911,0.121598,0.166311,-0.0060671,0.241209,-0.28746,-0.00151679,-0.227195,0.307092,-0.178808,-0.288058,-0.261205,-0.184491,0.3,-0.206409,0.0489639,0.0920957,-0.168383,0.0667379,-0.0308695,-0.217731,0.200983,0.262957,0.0956419,0.173574,-0.13401,-0.203012,-0.0316813,-0.155907,-0.0504807,0.178979,0.371545,-0.253087,-0.0763085,-0.151912,0.370263,0.289489,-0.190622,0.262551,-0.222132,0.317496,0.161718,-0.270135,-0.0972442,-0.137236,-0.135698,0.11207,-0.029545,-0.235762,-0.196347,0.0898098,0.26834,0.0216193,-0.154326,0.120423,0.309421,-0.209037,-0.013715,-0.22649,0.262636,0.18182,0.0978637,-0.0208075,0.246123,0.164858,0.0434736,-0.0272591,0.130271,0.0498184,0.180859,0.0704764,0.0479385,0.04279,-0.172314,0.0609912,0.05815,-0.057445,0.0105533,0.146187,-0.13965,0.0849605,0.368938,-0.183465,-0.193634,-0.20502,0.0364879,0.194852,-0.0935698,-0.244029,0.0713095,0.333006,0.176608,0.354924,-0.242961,-0.00410169,-0.275903,0.313694,-0.253087,0.117283,0.0178594,0.265413,0.172249,0.16144,-0.0593677,0.185195,0.387503,0.375326,-0.030015,0.234822,0.373894,-0.234394,0.284811,0.230634,-0.0268746,-0.115125,0.344371,0.294104,0.173382,0.361354,0.136531,-0.00572529,-0.180944,-0.243645,0.142427,-0.0582141,0.366909,0.28464,0.213929,0.343303,0.15941,-0.119376,0.0113651,-0.223606,-0.0618031,0.246422,-0.202094,-0.106217,0.36881,0.364708,0.0376629,-0.283636,-0.00119635,-0.088229,-0.00559711,-0.0753899,0.321342,0.254689,0.0778039,0.107477,-0.23433,0.166802,-0.266161,0.278423,0.0869686,-0.153557,-0.173339,0.11771,-0.0233924,-0.127174,-0.0917112,0.250438,0.0656697,0.283572,0.0234565,-0.280261,-0.25721,-0.29169,0.246144,0.264559,0.158748,-0.257103,-0.105042,0.360949,0.139201,-0.201923,0.124097,0.137065,0.077932,0.207669,-0.0634694,0.12053,-0.167849,0.2301,-0.183123,0.227772,0.0917966,0.327943,0.230293,0.154817,0.244755,0.259795,0.0843623,-0.121278,0.109806,0.268746,-0.0988678,0.0293527,-0.0405896,-0.298099,0.0960051,0.140333,-0.0962615,0.345546,-0.190002,0.139094,0.0582995,-0.29028,-0.00685751,0.285089,-0.233284,-0.252617,0.0847895,0.015595,0.100876,0.141871,0.388592,0.008652,0.209699,0.247362,0.188635,0.222132,0.139244,-0.183358,0.203589,0.318693,-0.00467852,0.200641,0.12587,0.135932,0.370861,0.353813,-0.157402,0.310852,0.209656,-0.1699,-0.0146764,0.0182867,-0.171245,0.303824,-0.0947234,0.332578,0.370946,0.299359,-0.078808,0.371844,-0.290686,-0.135249,0.336232,0.334223,-0.123841,0.0731681,-0.128626,-0.0144627,0.137428,0.0864772,0.0118991,-0.292331,-0.114911,-0.234288,-0.286584,0.367101,0.16928,0.0625294,0.265413,0.0126896,0.0416791,0.075988,-0.142213,-0.23715,0.3326,-0.190664,-0.251442,0.0903867,-0.166909,-0.189148,0.178701,-0.134715,0.00435802,-0.266845,0.231425,0.364473,0.386157,0.295663,0.0826319,0.00781882,0.125999,0.18417,0.2395,0.229972,-0.298654,0.0722281,-0.286007,-0.152681,0.0562273,0.398462,0.328285,-0.270647,0.224418,0.184405,0.198675,0.0340098,-0.238838,0.327174,0.395407,-0.0838069,0.0551164,-0.248857,0.124717,0.168896,0.342192,-0.246593,0.23025,-0.193655,-0.00613117,0.0270241,0.16082,0.348622,0.101025,0.296539,-0.198975,-0.283316,-0.174279,0.15031,-0.287887,-0.00200814,0.142619,-0.196155,-0.0205939,-0.208844,-0.0581927,-0.0215125,0.313608,0.289831,-0.0847469,0.129994,0.202628,0.0145482,-0.101688,0.211301,0.360927,0.352446,0.188443,0.303739,0.0730827,0.313651,0.21301,-0.198676,0.0787652,-0.135569,0.167956,0.282247,-0.0045076,0.0458235,0.399188,-0.248003,-0.0732963,0.337342,-0.0512925,-0.107157,0.151399,0.375347,0.237193,0.0032258,0.142619,0.185281,-0.0950224,-0.0375561,-0.0885922,-0.263085,0.0833796,-0.0957274,0.0234565,0.38261,-0.181948,0.0341807,-0.215275,-0.11301,0.216578,0.174493,-0.256334,-0.291305,-0.158428,0.371822,0.306259,0.142256,-0.0778894,0.0512283,-0.188955,-0.119547,-0.195813,-0.148537,-0.0387738,0.106003,-0.186734,0.125507,0.260094,0.272164,0.34984,0.240996,-0.15266,0.381628,0.390344,0.364922,0.282803
-0.277078,0.315424,0.0666951,0.374343,-0.126063,0.336958,0.324311,0.397159,-0.168361,0.146144,-0.232344,-0.198932,0.177761,0.154241,0.14373,0.152852,-0.0606495,0.148109,-0.0624012,0.210233,0.254091,-0.0678274,0.234053,-0.22523,-0.10079,-0.121299,0.354006,-0.0796625,0.293826,0.358663,0.349947,0.143794,0.13386,0.0742363,-0.204892,0.33542,0.0688955,-0.0340526,0.150481,-0.284896,0.380453,0.115168,0.144136,-0.0679342,0.170925,-0.185324,-0.152831,0.274129,-0.0771203,0.128861,0.080987,-0.115894,-0.162529,0.215296,0.2395,-0.170156,0.0119846,0.0298654,0.0616962,0.324717,-0.234416,-0.0129032,0.0379406,-0.0543047,0.0726768,0.397629,0.385131,-0.154134,0.113138,0.354689,0.274578,0.207904,0.299081,0.291626,0.0473189,0.33574,-0.012711,0.181927,-0.29891,0.131318,0.136808,-0.29577,-0.116749,0.353001,-0.17915,0.0435163,0.0743431,0.102799,0.35298,0.350951,0.196176,0.139137,0.335911,-0.26614,0.329374,-0.0378979,0.293591,-0.101987,-0.1257,0.0680196,0.19483,-0.286328,-0.0599872,0.120231,0.128477,-0.0722068,-0.204679,0.232963,0.0392224,0.193869,0.266887,0.315189,0.3837,0.341401,0.0179449,-0.22869,0.315873,-0.0429609,0.39295,0.205512,0.161461,-0.201068,-0.138603,0.126704,-0.109485,-0.183486,0.0465712,-0.298996,0.347597,0.0973296,0.172121,0.348494,0.349007,0.21286,-0.18793,-0.268853,-0.0936338,-0.21457,0.0780175,-0.171032,-0.114057,-0.0522965,0.0277932,-0.0490707,-0.0369579,0.116877,0.130442,0.077932,-0.119056,0.255437,-0.228477,0.384277,0.273702,0.240226,-0.0667379,-0.0651784,0.362166,0.211985,0.133753,0.00474256,-0.0173467,-0.173275,0.059859,0.318329,-0.242427,0.281478,-0.122004,-0.0458663,-0.132557,0.0355693,-0.142769,0.313416,0.333647,8.54433e-05,0.289019,0.19812,-0.228755,0.016599,0.237983,-0.00393081,-0.278552,0.297671,0.308289,0.119697,0.322752,0.150587,0.259496,0.195343,0.0303781,-0.0434736,0.157018,0.250075,-0.156462,0.126853,0.0907285,-0.107114,0.249327,0.208161,0.146806,0.237001,-0.256804,0.258663,-0.13339,0.360265,-0.0647298,-0.0330058,0.277569,0.0506088,0.201517,-0.264153,0.0297158,-0.0666952,0.189596,-0.0979278,-0.0768853,0.22681,0.138539,0.215125,0.359667,-0.275625,-0.178359,-0.0541124,-0.295706,-0.251912,0.0719718,0.0476607,-0.21019,-0.0279855,-0.000106812,0.0409741,-0.0505875,-0.0380474,0.162038,0.14452,-0.188314,0.327921,-0.109272,-0.0762017,-0.05768,-0.163256,-0.256035,-0.220701,0.266674,-0.118394,0.0844905,0.046379,0.057979,0.0550096,-0.252062,-0.171651,0.125272,-0.277441,-0.190771,0.135078,-0.214527,-0.155736,0.306452,0.148494,-0.24593,0.339863,-0.168148,0.287289,0.0386669,-0.154411,-0.150801,0.192352,-0.230079,0.159111,-0.153237,-0.294766,-0.045909,-0.180795,-0.114399,0.0609699,-0.0183081,0.117325,0.152104,0.0676351,0.0765648,0.288037,0.0746635,-0.105853,-0.180325,0.274834,-0.0866268,0.238539,0.032258,-0.281521,0.38244,0.39812,0.252318,0.364901,-0.28543,-0.186135,-0.210767,-0.161184,-0.173168,0.310724,0.190558,0.080987,-0.00299084,0.305426,0.305512,0.195001,0.210254,-0.0957061,-0.0204444,-0.198825,0.285281,-0.237684,0.0644948,0.144072,0.139265,0.0258065,0.0780816,0.350438,-0.0989105,-0.269942,0.0982055,-0.11504,0.332215,0.174578,-0.17477,-0.299936,0.164388,0.0468703,-0.00232857,-0.172997,-0.0859859,-0.182461,-0.205234,-0.0949797,0.38197,0.377847,0.311109,0.395578,-0.201325,0.142042,0.0369152,-0.221748,0.223756,0.0863063,0.129289,0.175582,-0.140803,-0.054091,-0.192373,-0.0969024,0.0863704,-0.0571673,0.358812,0.0923307,0.38496,0.365392,0.18543,0.382696,0.144392,0.0718436,0.0824183,0.329844,0.126575,0.240184,-0.224375,-0.272912,0.188998,-0.264644,0.00726339,-0.213309,0.0284982,0.316385,0.302286,-0.221961,0.254091,0.354753,-0.299701,0.169494,0.0488143,0.186499,0.387289,-0.129096,-0.0700278,-0.13057,-0.188635,0.023542,0.266695,-0.132621,-0.082696,-0.16567,-0.135334,0.133647,0.183764,-0.298633,-0.0227088,-0.284683,0.298056,-0.0725486,-0.147639,0.0502456,0.152297,-0.231425,0.374194,0.0788507,-0.103995,-0.185665,-0.190237,0.342235,0.328797,-0.152959,0.319333,-0.011066,0.0678914,0.0762444,0.13965,0.36176,0.275155,-0.00403762,-0.0996155,-0.213224,0.0772057,-0.038902,0.0821192,0.236595,-0.236103,-0.2699,-0.124183,-0.0110019,-0.201218,-0.229267,0.353236,-0.045909,0.126341,0.275753,-0.192908,-0.109656,-0.289618,0.18543,0.27116,0.28276,0.0878445,0.263897,-0.221235,0.103995,0.272185,-0.074044,-0.130079,-0.0688955,0.0911984,0.261354,0.105832,-0.0607776,-0.00666526,0.153365,0.000512689,0.144285,-0.2931,0.0388379,-0.271331,0.116706,-0.11348,0.205939,-0.280474,-0.0621235,0.0314035,-0.222901,0.295492,0.321213,0.309571,0.0738303,0.0654774,0.169622,-0.127494,0.310062,-0.16787,-0.00820339,-0.00523394,-0.188784,0.22226,0.348195,-0.277505,0.305768,-0.20032,0.249647,0.0657766,0.0859218,0.0705191,0.0797479,0.218693,0.18479,0.339286,-0.0367657,-0.258193,0.366417,0.026191,0.252019,-0.00858793,0.175967,-0.195557,-0.0489639,-0.170498,0.346571,0.266802,-0.244435,-0.100406,0.209912,-0.0187353,-0.0781671,0.00211492,-0.292395,0.0449477,0.343046,0.353899,0.249733,0.195535,0.0524033,0.36646,-0.282098,-0.11034,0.0254219,0.127045,0.359496,-0.0921598,0.202777,0.31709,0.369942,0.39498,0.206195,0.152126,-0.190002,-0.00401625,0.268917,0.278124,0.0549455,0.396133,-0.0473403,-0.292096,0.122217,-0.0751763,0.273019,0.0325999,-0.124952,0.133198,-0.194937,0.392096,0.148109,-0.0962615,0.191241,-0.060799,-0.00713524,0.302371,-0.276971,0.381713,-0.011066,0.331553,0.218906,0.136595,-0.0813929,-0.205533,0.269558,-0.0187994,-0.24875,-0.0710532,0.0732322,-0.164837,-0.0653066,-0.178744,0.0323648,0.258043,0.140141,0.258428,0.133583,0.196432,0.157851,-0.270946,-0.216877,0.365691,-0.00989106,-0.168361,0.219248,0.299722,0.0386883,-0.100107,0.0737876,-0.145845,-0.166546,0.204422,0.204572,0.196539,0.398953,-0.159816,-0.0294382,0.368169,0.306174,0.259111,0.37178,-0.147703,0.305939,-0.143025,-0.274514,-0.26755,0.291177,0.374535,0.101175,0.275732,-0.0153173,0.0214911,0.385366,0.125123,0.399359,0.383422,-0.201132,-0.164431,-0.0323222,-0.079577,0.338154,0.237919,-0.112284,-0.282675,-0.237919,-0.235078,-0.0181799,-0.105469,-0.00286263,0.124418,0.315488,-0.260991,0.181735,-0.0469985,0.373104,0.264837,-0.0776971,-0.164431,-0.162807,-0.137556,0.182803,-0.275539,-0.231361,-0.0537065,0.0793206,0.242769,-0.166204,0.0601153,0.102029,0.106238,0.176479,0.0489852,0.236039,-0.251805,0.0808374,-0.0419569,0.00314033,-0.118287,-0.0775262,-0.133283,0.0964751,0.18323,-0.0455886,0.118201,0.029609,0.132685,0.325037,-0.0466781,-0.127665,0.193634,0.074514,-0.0916257,-0.205191,-0.23151,0.207157,0.386178,-0.108075,-0.0872036,0.185858,0.359645,0.309891,0.243004,-0.0538774,-0.182525,-0.0533006,0.122282,0.276266,0.111237,0.0488143,-0.141337,0.360543,0.212925,-0.224802,0.099765,0.0325144,-0.156975,-0.148665,0.0585772,-0.0650502,-0.222217,-0.0154241,-0.245289,0.133732,-0.204572,-0.137001,-0.0944456,0.182012,-0.02931,-0.0904721,-0.248665,-0.217795,0.176821,-0.286947,-0.250951,0.242,0.00472119,0.108844,0.319163,0.271779,0.258406,-0.170434,0.0794702,0.320017,-0.163897,0.399338,0.151057,-0.106345,0.35674,0.392224,-0.230164,-0.0395215,-0.25956,-0.272655,0.28887,-0.220145,-0.296454,0.0224952,0.00523391,0.259432,-0.0237343,-0.0222389,0.396347,0.383999,0.00328988,-0.188464,-0.100491,0.213929,-0.163683,-0.279577,0.0197607,-0.200385,-0.0220679,0.0851955,-0.100342,-0.19075,0.286178,0.294211,-0.0640248,0.216193,-0.20062,-0.293142,0.377483,0.0435591,0.390408,-0.27163,0.0879086,0.112326,0.0095706,0.0177953,0.309036,-0.110062,0.126255,-0.298312,-0.292373,0.186691,-0.172356,0.114655,0.241316,-0.00399488,-0.215146,0.338902,0.326939,-0.0736381,-0.254924,0.264879,-0.253365,-0.178979,0.159859,0.344584,-0.224674,0.212775
0.00803247,0.159389,-0.135633,0.110553,0.023606,0.374728,0.265627,0.0648579,-0.112818,-0.297223,0.0302713,0.208502,-0.00920746,-0.154241,-0.233048,0.120145,-0.164708,0.241166,-0.0067507,0.00681478,0.169707,-0.219013,0.265349,0.25298,0.232044,-0.0727836,-0.280303,0.23245,0.000790417,-0.205469,0.0117496,-0.269601,0.216514,0.0231361,0.0853023,0.372164,0.282931,-0.28714,-0.142384,-0.0944029,0.106986,-0.259282,0.154219,-0.165584,0.387011,0.233775,-0.122132,0.348601,-0.291498,-0.0808802,0.146058,0.24922,-0.242833,-0.17712,0.281542,0.314762,0.207797,0.140141,0.290066,-0.19498,0.199487,-0.252403,0.309784,-0.0494339,-0.144478,-0.219077,-0.233134,-0.0765435,-0.141935,-0.251378,0.0213843,-0.162935,0.236424,0.20423,-0.062038,-0.228626,-0.121235,-0.251122,0.0658406,0.270647,0.0265114,0.38605,-0.0377056,0.310553,-0.0396069,-0.0999146,0.143965,0.281414,0.0382611,-0.019013,0.200684,0.38464,0.293313,0.366652,0.355821,-0.110981,-0.0472549,0.0249305,0.107627,0.243944,0.0856441,0.147233,-0.163726,-0.003824,0.0398205,-0.124696,-0.289532,-0.0925657,0.376971,-0.166353,0.378253,-0.0807093,0.165328,0.188763,-0.223606,0.0624012,-0.060564,-0.092523,0.342939,0.257018,0.286178,0.0364238,-0.0334544,-0.0984832,0.366546,0.173894,-0.141893,-0.104038,0.332643,0.0566759,-0.122089,0.297458,0.0491134,0.333262,-0.196432,-0.245845,0.178402,-0.254646,0.172613,-0.28496,0.139244,0.290045,0.184234,-0.0381115,0.397885,0.0834864,0.294702,0.360863,0.101196,0.199359,-0.00942108,0.280047,0.311194,0.302542,-0.225593,0.0702841,0.350267,0.250972,-0.0531724,0.255928,0.316556,-0.0129246,0.320038,0.032194,0.0788507,0.190643,-0.253621,-0.183316,0.110233,0.215146,0.297137,0.351015,0.0701773,-0.0207007,0.274963,0.300192,-0.206046,0.235868,-0.204614,0.246315,-0.000555456,0.189361,0.321042,0.323307,0.369835,0.184747,0.182952,0.0899594,0.0224952,0.0388379,0.374023,-0.212198,0.12273,0.0364025,0.248088,0.380773,0.35204,0.0627643,0.209699,0.123734,0.190301,0.394766,0.128584,-0.243516,0.221192,0.322132,0.0633412,0.0702628,-0.279748,0.220829,-0.271438,-0.256505,-0.265178,-0.249498,-0.209827,0.293997,0.215488,-0.102094,0.0227088,0.143922,-0.291861,0.137898,0.213565,0.0449263,0.166289,-0.16567,0.248109,-0.239863,0.192779,0.0522965,0.360393,-0.150288,0.270391,0.20376,0.0835078,0.357103,-0.209378,0.398611,0.384234,-0.257402,0.340333,-0.27727,-0.18385,-0.138368,-0.0450759,-0.0847896,0.37586,0.0337107,-0.20156,-0.233818,-0.103888,-0.00012818,0.278936,0.207904,-0.0387738,-0.285046,0.359218,-0.18009,-0.122047,0.371673,0.172079,0.0213416,0.0871822,0.203418,0.399231,0.370989,0.250224,-0.0372998,-0.0763299,-0.251869,-0.00566119,-0.277932,-0.0854305,-0.0646657,0.151997,-0.205789,-0.245888,0.0752189,-0.122303,0.0183935,-0.0341807,0.223179,0.0774407,-0.290024,0.353514,0.367913,0.134693,0.219953,0.110382,-0.158449,-0.232557,-0.198953,0.00773337,0.291369,0.000726312,0.227921,0.12241,0.334715,0.388955,0.167699,0.21239,-0.230485,-0.227729,0.347938,-0.29968,0.0617176,-0.198248,-0.280837,0.173724,0.0816919,0.317304,-0.0416364,0.361675,-0.288208,-0.18714,0.310767,-0.20267,-0.203546,-0.126554,0.1163,-0.274514,-0.142961,0.218158,0.118372,-0.0354839,0.243174,0.0335185,0.30079,-0.117646,0.342576,-0.0681906,0.0506943,0.0957274,0.220957,-0.081521,-0.206259,-0.24828,0.114335,0.303055,0.0987396,0.00183719,0.245161,0.238111,0.198355,0.126832,0.284405,0.120423,0.323029,-0.277163,0.231425,-0.261077,-0.00516987,-0.292822,-0.0664815,-0.19639,0.178124,0.154006,-0.282995,0.139906,0.033903,0.318458,0.0515488,0.0828028,0.374813,0.259474,-0.0800256,-0.0446913,0.36755,0.319846,0.215082,0.0653065,0.27962,-0.0264687,-0.0644948,0.305405,0.317411,-0.00087589,-0.0973724,0.290045,-0.0479385,0.389276,0.370006,0.31442,0.380709,0.0549669,0.247554,0.269237,-0.18088,-0.165371,-0.287567,0.296155,0.37351,0.166866,-0.0719291,0.317753,0.0874386,-0.163683,0.243538,0.12696,0.111621,-0.247404,-0.104871,-0.0301645,-0.107178,-0.0292886,0.382034,-0.193655,-0.171032,0.213181,0.13762,-0.0165136,0.387503,-0.197308,0.0688314,0.10502,0.333476,0.265157,0.385046,0.232237,-0.135377,0.211814,0.288443,-0.199658,0.100256,-0.239351,-0.152147,-0.215616,-0.179598,-0.0941466,0.2279,-0.000470012,-0.197244,0.0947874,0.195129,-0.130165,0.253771,-0.277847,-0.226661,0.150053,0.280923,-0.199509,-0.13025,-0.0655416,0.303333,0.0161931,0.343922,-0.26223,0.24702,0.031019,0.0412732,0.0817774,0.0221961,0.237727,-0.13668,0.0725272,0.0291604,0.329844,-0.203952,0.102329,-0.210083,-0.00546893,0.0687887,-0.13903,0.152083,0.0881008,0.165029,-0.00959197,0.162209,0.203568,0.257488,-0.0325999,0.355415,0.0894681,0.188891,-0.151506,0.057915,0.129609,-0.129395,-0.138368,-0.250331,-0.0573595,-0.279086,-0.121128,0.283807,0.111472,0.114826,-0.245482,0.209635,-0.198804,-0.132835,-0.236958,-0.203482,0.175625,-0.278787,0.0211493,-0.295001,0.0710745,0.364174,0.228498,0.102307,0.137407,0.24185,0.0112582,0.0690237,-0.194617,0.194211,-0.197009,0.294018,-0.210318,-0.116364,-0.252702,-0.195898,0.087054,0.0380047,0.0563982,0.225785,-0.120978,0.380004,0.310126,-0.0745995,-0.201538,0.265093,-0.270113,-0.0748558,0.369366,0.299658,0.11175,-0.258556,-0.120893,0.0613117,0.152895,0.142619,0.193142,-0.00679344,0.356249,0.0727195,-0.0296091,-0.205747,0.247276,-0.161248,-0.109934,-0.022837,0.0875026,-0.0926298,0.048088,0.315979,0.0190985,-0.291134,0.133241,-0.24467,-0.275112,-0.205383,0.0422132,-0.0969665,-0.0618885,-0.154881,0.342769,-0.122132,-0.213608,0.0756249,0.244563,0.0345225,-0.295685,-0.0639821,0.187011,0.237727,0.398953,0.251848,-0.296518,-0.292972,-0.0975433,-0.0963897,-0.228755,0.204636,0.196689,0.190878,0.306473,-0.0124333,0.243645,0.278167,-0.0861782,-0.103354,0.206387,0.369814,-0.250118,-0.0963042,-0.00521258,0.210126,-0.290194,-0.210959,0.120508,-0.243858,-0.00343946,-0.228712,-0.104636,0.119803,-0.217795,0.0608844,0.257808,-0.273937,-0.279427,0.0598162,-0.0383679,-0.11551,0.0206152,0.378936,0.111322,0.0204016,0.139842,-0.00502029,0.17853,0.263128,0.207392,0.119163,-0.216065,0.0378551,-0.264174,0.0990387,-0.121064,-0.141807,0.0313181,-0.274236,0.111451,-0.13401,0.261183,0.26849,0.0104465,0.215616,-0.111237,-0.292373,0.0731254,0.349519,0.234458,0.389318,-0.110318,0.161653,0.372442,0.0722922,-0.110361,0.0961547,-0.277334,-0.0102542,0.344136,0.37759,-0.252596,0.197458,0.00880152,-0.0799829,0.311258,-0.269558,-0.0586413,0.0118137,-0.0850673,-0.160073,0.178445,0.0225165,0.261333,-0.167721,-0.294125,0.0295022,-0.136424,-0.117795,0.00707111,-0.289425,0.25471,0.341594,0.223435,-0.000320464,-0.292224,0.0163426,0.311814,0.35266,0.126341,-0.267251,0.232728,0.219761,-0.0857937,0.365477,0.354112,0.371972,-0.115766,0.248686,0.204828,0.0777611,-0.0847255,0.0428541,0.0625721,-0.222559,0.116813,0.378359,-0.290109,0.351891,0.310425,0.34828,0.243709,0.23213,0.387887,0.3721,-0.228498,0.347597,0.25471,0.00205082,0.0798761,-0.0411878,-0.180944,-0.205661,-0.291562,0.372249,-0.164986,-0.0834224,0.314826,0.283657,-0.140291,-0.286114,0.363939,-0.252788,-0.266247,0.00521255,0.226768,0.0169195,0.144307,-0.268404,-0.277441,0.157488,0.279983,-0.07116,0.288977,0.0713309,0.0373638,0.345631,-0.185516,0.338752,-0.111921,0.279812,0.0176885,0.117945,0.265969,0.154134,-0.292737,0.302029,-0.116044,0.00346079,0.10784,-0.120466,-0.260479,-0.204444,-0.214869,0.39577,0.318714,-0.14294,-0.244093,0.161397,0.15736,0.026426,-0.184191,0.105512,0.0697714,0.00630206,0.37069,0.119803,0.203461,0.236402,-0.0952147,0.0909207,-0.17037,0.159346,0.271075,-0.132279,0.329054,0.201175,0.13715,-0.239586,0.28197,0.138218,-0.0281137,0.0183294,-0.0775903,0.172613,0.306836,0.183337,0.365307,0.187823,-0.143303,0.265755
0.166396,0.00653705,-0.266524,-0.260543,-0.175796,0.322474,0.038496,-0.196539,-0.0167486,0.127985,-0.0333262,0.00621662,-0.251976,0.109784,0.307669,0.280196,-0.232878,0.133882,-0.122217,0.183166,0.396924,0.292309,0.167614,0.0932066,0.303909,-0.0667593,-0.0607776,0.354241,-0.184405,-0.0537065,0.357744,0.319205,0.378722,-0.0749626,0.291263,0.287289,0.234587,0.378445,0.264003,-0.117347,0.0708182,0.21333,0.296347,0.0711386,-0.141273,0.359624,0.317005,0.26176,-0.0640248,0.26003,0.280859,-0.209656,0.143495,0.196539,0.277483,0.13166,0.276501,0.375134,-0.135591,0.337171,-0.141444,-0.0593249,-0.290558,0.245354,-0.201495,0.144392,-0.123286,-0.238816,-0.26097,0.134758,-0.0594104,0.352104,-0.0430036,0.0947447,0.161803,-0.143431,0.224161,0.19671,-0.189554,0.0532365,0.288208,0.296817,0.269835,-0.113565,-0.0166631,0.0411664,-0.0941038,0.0955778,0.129481,0.105234,0.236381,-0.154839,0.129994,0.0385174,-0.115809,-0.097821,-0.273211,-0.263533,0.049327,-0.0421064,0.122645,0.0113223,0.0836146,-0.259175,0.029609,0.183935,-0.0970092,-0.0822474,0.0535356,0.068276,-0.278701,-0.17022,-0.226704,0.0707327,-0.15988,-0.0397351,0.224909,-0.224268,0.0790643,-0.118778,0.349113,-0.0600086,0.181008,0.275689,0.112604,-0.133262,0.076223,-0.217924,0.261547,-0.0175177,-0.059624,0.158428,0.217261,0.187417,0.330229,0.0123264,0.173275,0.301944,0.231724,0.394317,-0.197031,0.180966,0.304743,-0.299039,0.33762,0.217731,0.0589831,-0.214954,0.323521,-0.190771,-0.254881,0.0192694,0.218436,0.105127,-0.104038,-0.189489,-0.164089,0.211664,0.201559,0.311771,0.2975,0.17304,-0.246934,-0.0718436,0.101688,-0.0983551,0.3395,0.264431,-0.230506,0.379235,0.131617,0.310233,-0.224482,-0.199252,-0.262252,-0.28934,-0.0756035,0.0830805,0.265563,0.118415,0.281436,0.309998,-0.0259133,0.274728,-0.0825892,0.235783,-0.0490707,-0.284127,-0.123606,0.218928,0.198227,-0.247682,0.326383,-0.291903,0.062508,-0.183123,-0.298398,0.252083,-0.207648,0.229289,-0.203333,-0.244392,0.358235,0.373916,0.121042,0.0530228,-0.280752,-0.162786,0.173745,-0.178552,0.17084,-0.0976928,-0.0522752,-0.194296,-0.242213,0.346934,-0.17712,0.076458,-0.11269,0.14232,-0.0426191,0.193612,0.0260201,-0.200726,0.336702,0.197031,-0.284384,-0.0412519,0.189532,-0.00388807,-0.208396,0.273553,0.0301004,-0.0196967,-0.0610126,0.178082,0.136274,-0.277526,-0.129972,-0.00672933,0.122666,0.396881,-0.142277,-0.236958,-0.281628,0.083465,0.210019,-0.130314,-0.191476,0.181051,0.318543,0.12476,0.349028,0.20015,0.366674,-0.017539,-0.186093,-0.141444,0.0312326,0.0723136,-0.215125,-0.249519,0.0619312,-0.00190133,-0.258107,-0.0881436,0.373211,0.299893,0.364858,0.153301,-0.167293,0.0258919,-0.295001,0.0827601,-0.219013,-0.0886136,-0.163768,-0.110254,0.366375,-0.18887,-0.055031,-0.187225,0.12978,0.382546,-0.231596,0.0623371,-0.176244,-0.233903,-0.159688,-0.179235,-0.0999573,0.160457,0.0539201,-0.108652,0.349925,0.338325,-0.198911,-0.0817988,0.0320017,0.200812,-0.202734,0.348921,-0.0281564,-0.283529,-0.248494,0.0619099,0.0672506,0.142405,0.391028,-0.169643,-0.0156804,0.373809,-0.200342,-0.255693,-0.0218543,-0.180688,0.27947,0.0633625,-0.177227,-0.0511857,0.295087,-0.0788507,-0.01536,-0.189554,0.309848,-0.145738,-0.276074,0.0638752,-0.126426,-0.223328,-0.241551,0.326725,0.070925,-0.227793,-0.026191,0.180837,-0.110233,0.22649,-0.184982,-0.164452,-0.0806665,0.27054,0.24326,0.294531,-0.163106,0.15768,0.192651,-0.276843,0.293036,0.245759,-0.288977,-0.136402,-0.145781,0.106558,-0.0805597,0.293997,-0.287353,0.234095,0.0743645,-0.021128,-0.177889,0.0739799,0.0674642,0.00786155,-0.12993,-0.254561,0.246913,0.369152,-0.0556933,-0.121982,-0.105319,0.0547105,0.304636,-0.065157,0.244435,0.344649,0.0179021,-0.0558214,0.0741295,0.266546,0.166781,-0.288549,0.257765,0.177804,0.190728,-0.266823,-0.289233,0.367058,0.0692587,-0.01489,-0.18667,0.121726,-0.293634,0.106174,-0.254176,0.258898,-0.174194,-0.0497971,-0.178723,-0.134095,-0.0635334,-0.17257,0.148515,0.0480666,-0.222752,0.107242,-0.189041,-0.170284,-0.199252,0.204657,-0.00469986,-0.193805,0.105277,0.12179,0.154027,0.0931638,0.374364,0.366695,-0.263149,-0.229908,0.233476,-0.0790216,0.17492,-0.234715,-0.217176,-0.0212989,0.0522324,0.278787,-0.28385,-0.172485,-0.151057,0.29013,0.0844905,0.295001,0.0906217,0.0482375,-0.0855587,-0.268917,0.187844,0.0898312,0.240419,0.0491989,0.000790417,-0.216599,0.159966,0.0974151,0.212818,0.145781,0.371801,0.181991,0.0477675,-0.0721427,0.305939,-0.0852809,0.315061,0.216791,-0.195108,-0.0936338,-0.182824,0.250908,-0.133988,-0.0222816,0.103824,0.395022,0.103503,0.210382,0.30705,-0.127857,0.0403119,0.309079,-0.158065,0.299338,-0.21128,0.0973083,-0.19295,-0.176351,0.229139,0.118393,-0.13104,0.106131,0.346614,0.263469,0.365435,-0.250481,0.234181,0.29874,0.111557,-0.0822687,-0.277142,0.213416,0.34311,-0.056975,-0.252916,0.060564,0.381671,0.268297,-0.0945525,0.0126255,0.35565,0.321192,0.0257851,0.30329,0.0620167,0.266994,-0.10564,0.377889,0.202478,-0.163085,0.0580218,-0.275881,-0.0208289,0.379086,-0.0408246,-0.295172,0.0836787,-0.171395,-0.187396,-0.235249,0.164089,0.0441572,0.38385,-0.0666524,-0.195706,0.107263,0.0780602,0.195172,-0.199872,-0.0680197,0.299231,0.25016,0.166204,0.381072,0.288763,0.0351848,0.0586627,-0.264046,0.102948,0.329182,0.247276,0.0174962,-0.0613117,0.31348,0.0220252,-0.0961333,-0.233177,-0.190793,0.368212,0.343046,0.0825251,0.264003,0.394232,0.306323,0.0318735,0.309165,0.246956,0.380111,0.0243751,0.26003,0.298761,0.0425123,0.190558,0.180752,0.0403546,0.0218329,0.393933,0.285623,-0.235633,-0.216257,0.15689,0.198825,0.0735313,0.144093,0.0100406,0.244563,0.198035,0.354112,-0.176266,-0.110959,-0.0434096,0.355052,-0.167934,0.00692159,0.0453749,0.348943,-0.0921812,-0.106879,-0.110916,-0.0175604,-0.00153813,-0.107028,0.338945,-0.209314,0.0820764,-0.128455,-0.0484085,0.198013,-0.247148,0.194766,-0.16646,0.0222388,-0.00444353,0.343837,0.185238,0.279727,0.257915,-0.26505,0.0294595,-0.162252,0.380987,0.0662251,0.0582995,-0.0886563,-0.203717,-0.236552,-0.217133,-0.2489,0.049498,0.146998,0.120594,-0.180496,0.25956,-0.108695,-0.196069,-0.298334,-0.0267678,0.199124,0.245332,0.0484084,-0.275924,0.0622303,0.242427,-0.00228584,-0.244862,-0.169451,0.0582568,0.071865,-0.185025,0.161589,-0.239436,-0.102799,-0.213587,-0.128071,0.154625,0.0429182,-0.142897,0.0628498,0.29389,0.126298,-0.00848112,-0.158214,-0.0966888,0.380944,0.213758,0.1116,-0.00106817,0.235014,0.0604144,0.0493698,0.238795,0.396283,0.112925,-0.0530229,0.289105,-0.109207,-0.231297,-0.0651998,0.240333,0.152339,-0.23918,-0.139222,0.357466,-0.0908353,0.0849178,0.346806,0.0987609,-0.0348003,-0.25674,-0.206217,0.187481,0.222282,0.165392,-0.0420209,-0.0291177,0.340739,-0.1859,0.169857,0.150951,0.38464,0.0368724,-0.182418,0.321149,0.249178,-0.128413,0.367357,-0.0064089,-0.183508,-0.133753,-0.0583422,0.251036,0.0372997,0.321918,-0.271822,0.00807518,-0.115253,0.0180944,-0.159218,0.115809,-0.122047,-0.269558,-0.295749,0.194595,0.121299,-0.20047,0.185388,0.02884,0.0572527,0.260478,0.141444,0.208866,-0.221192,-0.207306,0.00843835,-0.146614,0.299081,-0.100812,0.201047,0.0977569,-0.175796,0.0745781,-0.0543474,-0.0181372,0.227323,0.171502,-0.281115,-0.277761,-0.230549,-0.075454,0.313245,0.102713,0.265349,-0.0587909,0.301688,0.36802,-0.160094,-0.280795,0.3232,0.154625,0.173254,-0.200406,-0.138923,0.143474,0.0802392,0.114869,-0.164046,-0.0315958,0.122346,0.2417,0.185153,-0.0346507,-0.102286,-0.0826106,0.150652,0.396176,0.107327,-0.0701773,0.247298,-0.168319,0.143132,0.339692,0.33292,0.328285,-0.204102,0.344926,-0.247191,0.0824183,0.0290963,0.246571,0.279983,0.0975219,0.215851,0.0251228,0.322944,-0.0525956,0.0859645
-0.112732,0.023542,0.0709463,0.279662,0.0919462,0.116108,0.381991,-0.0448622,-0.184725,0.169942,0.0291818,0.0466567,0.0639179,0.0871822,-0.00999787,0.119996,-0.10423,-0.022132,0.0332194,0.222538,0.0578936,0.183828,0.134416,-0.125849,-0.199402,0.0736594,-0.0213203,-0.00343946,0.277547,0.180453,0.335227,-0.0726127,0.290643,0.00399485,-0.0623371,0.216172,-0.11034,0.249776,0.0551592,-0.150993,0.385708,-0.273894,-0.111985,-0.00102544,0.187759,-0.12822,-0.127345,0.148686,0.222047,0.135612,0.230122,0.0825037,0.143281,-0.0197821,-0.0576373,-0.105213,-0.202777,-0.168426,0.291177,0.311258,-0.255779,-0.0534928,-0.0566973,0.370327,-0.0974365,0.019483,-0.282931,0.36129,-0.0785516,-0.0986541,-0.185751,0.0662038,0.342982,0.051207,-0.0483657,0.20235,-0.237877,-0.00638753,-0.123029,-0.0878445,0.34452,-0.297031,0.203397,0.2975,0.111087,0.0868831,0.346657,-0.154924,-0.250801,-0.209549,-0.200128,0.140184,0.259474,-0.106644,0.22993,0.0149327,0.297565,-0.278466,-0.070455,0.0288827,0.320786,0.245439,-0.189511,0.327985,-0.00168771,0.386605,-0.129096,-0.220808,0.194723,-0.0953643,-0.277825,-0.272228,0.186114,-0.213822,0.309378,-0.0264901,0.0182653,-0.191903,0.1094,0.113501,0.0662038,0.296304,-0.258385,0.147938,0.00433666,0.0525956,-0.124781,0.195749,-0.253044,0.271075,0.0673574,0.217176,0.367998,0.115979,0.217026,0.289981,-0.140205,0.0830378,0.368554,0.236381,-0.0598804,0.216129,-0.150652,-0.152724,-0.133369,0.200876,-0.123734,-0.0990387,-0.231425,0.307541,0.114676,0.322858,-0.0453108,-0.295407,0.32508,-0.116449,-0.193143,0.215253,0.381265,0.0817347,0.219034,0.138389,-0.00538349,0.108737,-0.109677,0.206302,-0.171203,0.242235,-0.0675924,0.000662237,-0.260842,-0.134971,0.099765,-0.101239,0.0214697,-0.243217,-0.297244,0.171972,0.00416577,-0.245375,-0.18731,-0.291818,-0.131574,0.0303354,0.218094,-0.0198248,0.0307413,-0.11959,0.341957,-0.0683615,-0.228092,0.176138,0.378872,0.00311896,-0.0526383,-0.129438,-0.0381542,0.26913,0.262743,-0.290899,-0.282076,-0.291049,0.149242,0.0407605,0.221961,-0.217411,0.0233711,0.276778,0.208054,-0.266161,0.0649861,0.193698,-0.251869,0.0924802,0.298483,0.127558,-0.243324,0.397201,-0.188934,0.256227,0.0312967,-0.088464,0.292972,0.216663,-0.211557,-0.045674,-0.166524,-0.0460158,0.103568,-0.183465,0.357552,0.249391,0.315125,0.28684,-0.0628712,0.323478,-0.29812,-0.242918,0.36176,0.0621021,-0.00709254,-0.269771,-0.197436,0.0616535,-0.280688,-0.197864,0.254476,0.0404401,-0.232429,0.339244,0.290344,0.0131382,-0.0564196,-0.0759453,0.0120701,-0.124674,0.306665,0.190429,-0.0672933,0.394723,0.383294,0.220017,0.373873,-0.143794,0.219504,0.122538,-0.0869472,-0.142534,-0.118372,0.17101,0.1652,-0.198035,-0.0353343,-0.285772,0.0325999,-0.113565,-0.282482,-0.261654,0.00798973,-0.170669,0.244841,-0.00074771,0.364708,-0.162337,0.294275,0.197693,-0.181265,0.158577,-0.210788,0.319184,0.19671,0.11286,0.0157658,-0.189639,-0.105811,-0.0429182,0.223585,-0.186306,-0.140867,0.171459,-0.149883,-0.267464,-0.0158086,0.12006,-0.172549,0.0483016,-0.157338,-0.219697,0.280923,-0.138368,-0.147554,0.188913,-0.0207007,0.379577,0.0022431,0.000640869,-0.254241,0.0202734,-0.0756035,-0.0928007,-0.211237,0.0577868,0.248964,-0.28714,0.162572,0.177804,-0.0771203,-0.186114,-0.0833583,0.067336,-0.0706473,0.278509,-0.0568255,-0.29075,0.391092,0.174279,0.182354,-0.195685,0.0922239,0.139927,0.394531,-0.108118,0.103183,0.34828,0.0587908,-0.208161,0.242854,0.35736,0.307327,-0.160906,-0.137684,-0.00363171,-0.0452468,-0.0672506,0.084875,0.0835932,-0.267806,-0.128092,0.0861781,0.0229224,-0.215061,0.299808,-0.0504593,0.176031,0.343516,-0.271929,-0.119953,-0.242982,-0.27272,0.263491,-0.0874386,0.246315,0.29028,0.00837427,0.397351,0.170861,0.367934,0.15721,0.398312,0.347404,0.335035,-0.139265,-0.112369,-0.164388,0.133583,-0.119996,0.0716941,0.29827,0.280004,0.00168765,0.0322367,-0.285217,-0.188464,0.0368724,0.117454,0.145866,0.380645,-0.124717,-0.232792,-0.00497758,0.157039,0.0164067,0.2069,0.364901,0.046913,0.149733,0.394018,0.154518,0.288208,0.0060457,0.152297,0.394809,0.131938,0.051207,0.277377,0.168896,0.368447,-0.0551592,0.248579,-0.28558,-0.291839,0.0353984,0.130998,0.0545182,0.176394,0.313694,0.30267,0.0541551,-0.068981,-0.00339672,-0.00946382,-0.15063,-0.136702,-0.136937,0.15031,0.345439,0.29013,0.0140141,-0.225892,0.0314249,0.098056,0.0782098,0.260372,-0.192096,-0.152104,0.135868,-0.0695364,0.274471,0.199487,0.281927,0.326511,0.0741295,-0.0341807,-0.0991882,0.0743858,0.0415082,-0.143709,0.174749,0.046678,0.0515061,0.118009,0.397052,-0.190173,0.315574,0.234629,0.0127964,-0.0102542,0.322089,0.0924588,-0.241423,0.340461,0.168169,0.272741,-0.177142,-0.250096,0.279492,0.179684,0.299444,-0.132365,0.0650074,0.0636616,-0.244755,0.3884,-0.0963683,0.0489211,-0.0149968,0.276116,0.00948516,0.125016,0.173937,-0.0371716,-0.127152,-0.188272,-0.258962,-0.0931852,0.223478,0.0563982,0.0843623,0.344029,0.0133945,-0.226725,0.000234962,-0.28229,0.165712,0.0843837,0.198633,0.120231,0.286669,0.270904,-0.213929,-0.268404,0.0875881,-0.105127,0.138282,0.188998,0.113715,0.20032,-0.265606,-0.22822,0.226661,0.353108,0.274514,0.336381,0.237471,-0.17069,-0.0475753,0.28511,-0.262679,-0.289041,-0.194189,0.103845,0.12226,0.198932,-0.284896,-0.247554,0.259346,-0.297992,0.173424,-0.257488,-0.00910062,-0.187951,0.399252,-0.11316,0.123606,-0.176159,-0.186221,-0.145076,-0.200577,-0.19028,-0.24514,-0.281072,0.195471,0.108011,-0.150929,-0.275604,0.0490707,0.134651,-0.0856655,0.270156,0.355715,-0.222517,-0.285345,-0.0682119,0.235954,-0.0174963,-0.26129,0.213117,-0.0811792,0.19154,0.224546,0.159774,-0.161888,-0.259474,0.201816,0.0197607,-0.111151,0.178188,0.0739372,-0.115275,-0.259731,0.213758,-0.2884,-0.103076,0.0528519,-0.14593,-0.220338,-0.144115,-0.104273,-0.161419,0.369387,-0.0907285,0.0116214,0.332023,-0.242256,0.162294,0.226148,0.384106,-0.0340098,0.189981,-0.0518266,0.0157018,0.23871,-0.213053,-0.141444,0.140611,-0.183978,-0.161354,-0.266482,0.0823756,0.220273,-0.25125,0.300064,-0.204144,-0.270797,0.106986,-0.129951,0.252531,0.35768,0.0316812,-0.0501602,-0.00119635,-0.280581,-0.0282846,0.0724204,0.247468,-0.00871611,0.101666,0.248857,-0.289425,0.0511643,0.195257,0.3859,-0.0658193,0.211985,0.210831,0.366845,0.243367,0.323499,-0.226362,-0.0578723,0.257787,0.363704,-0.0107028,0.0270241,0.286435,0.391647,0.172228,0.352724,0.0613971,-0.116172,-0.075454,-0.0317454,0.119868,0.325828,-0.151463,-0.260158,-0.00636616,-0.119098,0.128135,0.0444777,0.315766,0.107904,0.062978,-0.195236,0.203461,0.249797,-0.109955,-0.138069,-0.17319,-0.234779,0.276821,0.0336466,0.222645,0.024482,0.120466,-0.146229,-0.237385,-0.0578082,-0.0623157,0.0408673,0.335676,0.268276,0.279043,-0.00786158,0.253215,0.109229,0.352745,0.250011,0.237214,-0.298462,0.291775,0.337812,0.200278,0.00922877,0.349113,0.212027,-0.123072,-0.133006,-0.244819,-0.0727623,-0.0841273,0.141572,-0.278018,0.161312,0.392074,0.232322,0.0282845,0.297244,0.348579,-0.116385,-0.0298227,0.208887,0.227195,0.0305277,0.111686,0.347084,0.297159,0.249712,0.21912,-0.0266396,-0.258278,-0.162423,0.314505,0.0380047,0.0116642,0.087524,0.231446,0.0492416,0.304913,0.087759,-0.291348,0.330528,-0.0177526,-0.287738,0.00502026,-0.287182,-0.0219611,0.0262337,-0.0293741,0.0587908,-0.184747,0.0779961,0.158513,-0.0344798,-0.215381,-0.100555,0.21081,0.242982,-0.00311902,0.286669,0.304422,0.0147831,0.267635,0.0827387,0.290173,-0.261419,0.244349,-0.265413,0.309656,-0.207648,0.23448,-0.0543474,0.0247383,-0.276138,0.0446058,-0.00354627,0.243495,0.110233,-0.210575,-0.0453536,-0.12273,0.224161,-0.0195044,0.146785,-0.286755,-0.246059,-0.0464004,0.0133091,0.336637,-0.125849,0.344478,0.218928,0.0872249,0.0135227
0.272207,0.34012,-0.0155523,0.317496,-0.160414,0.201559,-0.194702,-0.148302,0.00969878,-0.016364,-0.0503952,-0.156206,-0.0315958,0.172613,0.276992,-0.0900662,0.132002,-0.0246529,0.0498611,0.0633839,-0.290963,0.170818,-0.0330912,-0.0483444,-0.223478,-0.0802606,-0.0787225,-0.280709,0.0788507,-0.195322,-0.232023,0.243174,-0.190365,-0.0778466,0.23495,0.136958,0.38558,0.398953,0.0618244,-0.128007,0.171438,0.154027,-0.198718,-0.0888058,0.166076,-0.121427,-0.033134,-0.297244,0.10831,0.15548,-0.238133,-0.169024,-0.187524,-0.00972015,0.173873,0.17054,-0.107221,-0.0242683,0.168746,-0.158513,-0.114164,-0.0385602,0.269066,0.211707,-0.169045,0.35078,0.1511,-0.0563555,-0.182696,0.396667,0.344542,0.132301,0.0574877,-0.181521,0.269729,0.131297,0.196838,-0.0883572,-0.103589,0.0138645,-0.282141,-0.0284128,0.0587267,0.0657979,0.249284,-0.0951933,0.310382,-0.0431318,-0.261483,-0.0522965,-0.145161,-0.111856,0.298141,-0.0338176,-0.265371,0.0615039,0.0841273,-0.242875,-0.0857937,0.0685965,0.116727,0.0239692,-0.0594104,0.146058,-0.0975433,-0.151869,0.316684,0.293719,0.166802,0.128391,-0.0292032,-0.0972228,-0.14294,-0.290408,0.257659,0.191006,0.12476,-0.0266823,0.374535,0.191284,0.346892,-0.288635,0.227323,-0.20893,0.2953,0.255202,-0.169173,-0.13072,-0.186114,-0.118137,0.0774834,-0.272784,0.312625,0.269515,0.25909,0.0611194,0.137919,-0.176629,-0.0241615,-0.227558,0.0290109,0.144819,0.117048,-0.236552,0.219098,-0.235206,0.0478103,-0.0857723,-0.208823,0.0141636,0.386349,0.288784,0.147789,-0.0481094,0.105811,-0.233518,0.103781,0.32414,0.145589,0.346165,-0.138026,-0.225059,0.166012,-0.180709,-0.0193976,-0.218693,-0.0690664,-0.0403333,-0.00777614,0.134053,0.352766,0.325913,0.283337,0.0362743,0.284042,-0.0758385,-0.00589621,-0.05815,0.190216,-0.07257,0.147639,0.305042,0.387674,0.298782,-0.131938,0.0637684,0.081756,0.314933,-0.20314,0.128071,0.288763,0.0376202,-0.133113,-0.00429395,0.0767357,0.128968,-0.0567614,-0.233198,-0.29107,-0.141722,0.290664,-0.120658,0.124824,-0.203204,-0.123499,0.337556,-0.257445,-0.0524247,-0.0309336,0.154796,-0.28229,-0.193036,-0.159923,0.183059,-0.257744,0.20502,-0.268575,0.250887,-0.2815,0.121342,-0.00521258,0.0814356,-0.107947,0.223521,0.36411,-0.187097,0.0784661,0.024781,0.169964,-0.207306,0.367806,-0.292096,-0.0446486,0.367827,-0.258663,-0.187716,-0.297842,-0.0572955,-0.11474,0.0307626,-0.272185,-0.272997,0.135099,0.113544,0.161376,0.144649,-0.0642384,-0.0743645,0.15847,0.126469,0.351335,0.25501,-0.235441,0.358043,0.00905788,0.0180731,-0.0141209,0.00461438,0.111921,-0.140376,-0.222987,-0.114805,-0.0959624,0.0939115,0.205341,0.217453,0.0234779,0.18385,-0.199188,0.305298,0.0266823,0.305127,-0.248857,0.191327,-0.181008,0.292245,0.151228,-0.254347,0.375646,0.0131596,0.366631,0.113202,0.187289,-0.0303568,0.120188,0.191049,0.315253,-0.130079,0.361418,0.0583209,-0.21034,0.270797,-0.172442,-0.170199,-0.163875,0.135954,0.356505,0.255522,0.0642811,0.307349,0.0598376,-0.161888,0.203204,0.136445,0.0166417,0.389895,0.317945,0.0725272,0.0962401,-0.298697,-0.208759,0.254497,-0.22978,0.0430464,-0.0946166,0.203311,-0.177569,-0.0270028,-0.192074,0.162038,-0.183294,0.270882,-0.203867,0.0799402,-0.16834,-0.128605,0.304358,0.288144,-0.0784021,0.0187353,0.0286477,-0.136979,0.213501,0.213437,-0.226896,0.224909,-0.00121769,-0.0257638,0.0522752,0.168276,0.129908,-0.213822,-0.26614,0.370882,0.0804956,-0.142598,-0.143516,0.0784448,0.279,-0.144157,0.306366,-0.18825,0.37477,0.348494,-0.212348,-0.206922,-0.153792,0.0142705,0.0709036,0.238881,0.0102969,-0.146828,-0.246614,0.215552,-0.157125,0.0628925,0.216578,-0.194937,0.0689383,0.105277,-0.0857082,0.177676,0.232536,0.234245,0.376629,0.0179662,-0.29451,0.30705,0.0632984,-0.298163,-0.0555437,-0.249113,0.151592,-0.229182,0.05533,0.106793,-0.207563,0.200641,-0.225016,0.0220679,0.0198248,0.311045,-0.170882,0.214292,0.147169,0.213886,-0.223991,-0.122538,0.235591,0.145845,0.0953428,-0.0466781,-0.231895,-0.0166845,0.231361,0.338795,-0.185537,0.185751,0.0502243,0.152062,0.220444,0.164708,-0.0797479,0.0288186,-0.193399,0.225379,-0.124909,0.170733,0.210575,0.277377,0.0686392,0.117817,0.357082,0.0618244,0.181436,0.266866,0.390536,0.391412,-0.0121983,-0.0925016,-0.0459304,0.350545,0.14311,0.198013,-0.150246,-0.24781,-0.199509,-0.147447,0.364324,0.398654,-0.0835505,0.361995,0.394382,0.0425977,-0.245311,0.119675,-0.243773,-0.104144,0.347639,-0.125336,-0.28605,-0.017539,0.324738,0.283914,-0.0895535,0.382803,-0.0324931,-0.01489,0.0358897,0.165883,0.299957,0.162764,0.217795,0.156804,-0.225785,0.228391,0.0671224,-0.0643666,-0.139116,0.387652,0.164879,0.115424,-0.297095,-0.0842769,0.323478,0.295428,0.242982,-0.0871182,-0.192801,0.237172,0.0833155,0.0623371,0.146464,0.259432,-0.0123478,0.262102,0.32963,-0.000106812,0.384533,0.152617,-0.29248,-0.0605854,0.381136,-0.287652,-0.205597,-0.0633198,0.147554,0.242875,-6.41048e-05,-0.130656,-0.21959,-0.184512,0.1768,0.129182,0.00521255,0.00149539,0.117966,0.0675496,-0.0728477,-0.242769,-0.211899,-0.161525,-0.010532,0.28684,0.223756,0.236189,-0.251314,0.253578,-0.213843,0.373467,0.0264473,0.262316,-0.298376,0.398526,-0.253215,0.18479,0.273446,-0.00339672,-0.181158,-0.15078,0.299872,-0.126554,0.173766,-0.0330485,-0.0174322,-0.232536,0.215766,-0.183059,0.259944,0.187609,-0.003824,-0.239073,0.249391,0.0234565,-0.229737,0.210617,-0.266588,0.0249946,0.146037,0.218821,-0.0265115,0.0982055,-0.215787,-0.0834864,-0.0137791,-0.285943,-0.140632,0.167891,-0.233711,-0.122623,0.340696,0.164666,-0.109613,-0.147618,0.102564,0.332215,-0.113459,0.392202,-0.0760735,0.0690664,0.203375,0.368703,0.0858577,-0.208481,0.363405,-0.0499252,0.0267891,0.305576,0.234928,0.0225165,0.164666,-0.122282,-0.193078,-0.196838,0.0455886,0.226939,0.201239,-0.158705,-0.0719077,0.10893,-0.093762,-0.245845,-0.0374279,0.31568,0.166909,-0.00499895,-0.124738,0.160884,0.214997,-0.200449,0.315915,0.174279,-0.225871,-0.0917753,0.378915,0.175945,0.0243324,0.11066,0.156911,-0.247127,0.15956,0.209784,0.0365093,0.109613,0.323649,0.0518692,-0.00482804,0.314612,0.358449,0.219846,-0.290942,0.214548,0.248473,-0.263512,-0.0691092,0.238197,0.0967101,0.0745353,0.347233,-0.138112,-0.0839992,-0.0797479,-0.0252297,0.358299,-0.130036,-0.211985,0.204849,0.30047,-0.151698,0.23198,-0.244542,-0.0568255,-0.289489,0.152211,-0.159645,0.153108,-0.217304,-0.0579364,-0.285473,0.109998,0.14153,-0.126298,0.205341,-0.249327,0.369942,-0.131681,0.28887,-0.0224952,-0.281115,0.148558,0.120637,0.30361,0.0596026,-0.180731,-0.219547,0.25627,0.360457,-0.125721,0.140141,0.0108097,-0.226746,-0.0248665,0.0140995,0.276437,0.162914,0.399573,0.201901,-0.293805,-0.0349498,-0.093997,0.182055,0.352937,0.306046,0.211237,0.166759,-0.157295,-0.130421,0.127921,-0.123435,0.388293,0.144478,-0.140974,-0.255373,0.0136936,0.337641,-0.103974,0.109848,0.312711,0.0870754,0.31756,-0.0918821,0.312006,-0.240953,0.335591,0.221406,0.261974,0.363683,0.386007,0.193612,0.32634,-0.126533,0.310254,-0.227024,-0.207413,-0.120637,0.12523,0.290088,-0.0245888,-0.231809,-0.272057,-0.16896,0.334544,0.0563555,-0.167699,0.315189,0.0792993,-0.236146,-0.215745,0.136616,0.3815,0.363213,0.152766,-0.221064,-0.131532,-0.212604,0.143217,-0.137236,0.218564,0.231617,-0.169942,0.13495,-0.16975,-0.0673361,0.0557573,-0.140526,0.0875667,0.360842,0.192758,-0.281072,0.0928648,-0.291604,-0.0845119,0.0861354,0.189703,-0.0907071,0.279128,-0.0248879,-0.0531724,0.173894,-0.247896,-0.0686606,-0.274151,0.074044,0.0992523,-0.130293,-0.0959624,-0.138133,0.262273,0.0204871,-0.125742,0.057445,0.134651,0.19216,-0.00587484,-0.110831,0.0778466,-0.0894467,0.205768,0.121577,-0.124653,0.243837,-0.101431,0.0547532,-0.228071
0.0725486,-0.263448,-0.170092,0.294552,0.214185,0.222175,-0.0747704,0.00209355,-0.238517,-0.181542,-0.123307,-0.239329,0.144349,0.00185856,0.00792563,0.0913053,-0.126234,-0.233433,-0.196261,0.187033,0.378445,0.25345,0.211451,-0.153792,0.292117,-0.0754754,0.00465712,0.318885,0.00215763,0.255437,-0.206366,-0.286926,0.117945,0.267293,0.316727,-0.0419355,0.268938,-0.129524,0.197266,-0.0288827,0.0913907,0.141337,0.100171,-0.274899,-0.28637,0.204529,0.272954,0.363362,0.198654,-0.157659,-0.195065,-0.141124,-0.146208,-0.19686,-0.0102329,0.164943,0.166909,-0.169451,-0.175027,0.1536,-0.221876,0.385623,0.0333262,0.0891049,0.0467848,0.383422,0.140141,0.333497,-0.0771417,-0.283657,0.0911984,-0.269579,0.182247,0.285815,0.0453108,0.165007,0.335334,0.313929,0.0260842,0.345759,-0.131959,0.157787,0.0673574,0.00621662,-0.274877,0.397479,-0.263662,0.372506,0.294595,-0.0800897,-0.230656,0.394104,0.202905,-0.0292032,-0.196048,-0.215445,-0.119568,0.195856,-0.157616,-0.0309122,0.206323,0.343794,0.130186,-0.0143132,0.19216,-0.0473617,0.0848323,0.13715,0.11395,-0.108631,0.0584917,-0.0597522,0.0517624,0.17853,0.269216,0.369451,0.246272,0.0500748,-0.0147618,-0.258321,0.231703,0.298056,0.396454,0.239415,0.354476,-0.148067,0.257595,-0.281649,-0.162871,-0.0751335,0.33762,-0.202606,-0.103461,-0.00393081,0.159197,-0.0231361,-0.223969,0.352019,0.263363,0.382739,-0.19906,0.357573,-0.216919,0.382931,0.0164708,0.179513,-0.239436,0.273339,0.117838,0.0339884,-0.107648,0.279748,-0.268426,-0.220252,-0.163234,-0.127088,-0.142277,-0.0705619,-0.231895,0.0438154,0.332002,-0.0998505,0.111835,0.335441,-0.282418,0.175967,0.0451185,0.278423,0.185751,0.00337532,0.297351,-0.172698,-0.00536212,0.0925229,0.0347148,0.0443068,-0.074279,-0.154903,0.363384,0.0270668,-0.0126255,-0.0184149,0.0355052,-0.271822,0.144542,0.0892758,0.0927579,-0.237684,0.284405,-0.137001,0.231297,0.148579,-0.123008,-0.139265,0.122922,0.284512,0.240483,0.0455031,0.376693,-0.000961363,0.0700064,0.335655,0.275176,-0.219163,-0.259795,0.0357189,0.270113,0.0292031,0.139949,0.369045,0.0714591,0.224161,0.349306,-0.0153173,0.314399,-0.0369793,0.217731,0.260137,0.0387096,-0.0402051,0.253151,-0.228242,0.0647938,0.0546891,-0.0189703,0.355052,0.300662,0.0303354,-0.217005,-0.0738517,0.364537,0.281927,0.374364,0.0870754,-0.0429609,-0.26238,0.0297372,0.185922,-0.0321513,-0.0231147,-0.183551,0.254411,0.050502,0.342534,0.144884,-0.105618,-0.0494339,-0.0054262,0.295129,0.135292,0.320808,0.101837,0.329438,0.234202,-0.191882,-0.281436,0.249797,-0.059154,0.246678,0.243046,0.00993374,-0.101218,-0.0588763,0.10455,0.141295,0.205298,0.175091,0.176373,0.302158,0.301324,0.0283913,0.160948,-0.290622,0.213672,-0.26191,0.144435,0.262294,0.0212348,0.28746,0.167507,0.217667,0.367058,-0.142961,0.109271,0.225678,0.188208,0.0227088,-0.26896,-0.2141,0.0853023,-0.0655416,-0.222944,0.332835,-0.196411,-0.239116,-0.221192,0.010126,0.347319,0.0332835,-0.239906,-0.15674,-0.100534,-0.0259133,0.0893613,0.0698141,0.368725,0.343709,0.376543,0.0365734,-0.264879,-0.109635,0.0609271,0.0230933,0.317154,0.0373852,0.187396,0.201111,-0.269024,-0.108182,-0.0827387,-0.0111088,0.264965,-0.290579,-0.128755,0.0101901,-0.059859,-0.2,0.250993,0.117048,0.279492,-0.292544,0.236274,-0.114228,0.357317,0.0491348,-0.0954924,-0.054326,0.250737,-0.0513993,-0.0301431,0.0496048,0.265349,0.146507,-0.111728,-0.0539628,0.156612,-0.176394,0.125806,0.361867,0.119184,0.0205939,0.0367656,0.355074,0.0657338,0.288827,-0.0511857,0.247362,0.367421,0.0566332,0.30173,0.095172,-0.122388,-0.254625,0.13668,0.109271,0.0111301,-0.180367,0.383123,-0.0182653,0.200342,-0.193997,0.239842,0.0301858,-0.199509,0.364901,-0.202606,-0.281948,0.165905,-0.0506302,-0.00147405,-0.0390942,0.268789,0.336061,-0.216514,-0.122303,-0.11709,-0.0382183,-0.282632,-0.00346082,0.203738,-0.149242,0.0460371,-0.225571,-0.173211,0.366631,0.377548,0.040141,-0.24341,0.273553,0.136274,0.319718,-0.0324931,0.141017,-0.0137791,0.254006,-0.211344,-0.123542,-0.129524,-0.0324717,0.034843,0.120209,0.163918,0.198184,0.255159,0.0871395,0.18573,-0.15313,0.221171,0.18934,-0.131126,0.156847,-0.27319,-0.0757531,0.233283,-0.118329,0.221555,0.0626789,0.059389,-0.24828,0.248793,0.320722,-0.190515,-0.10188,0.111579,0.150566,0.393185,0.143538,0.0371929,0.134053,0.124097,0.119718,0.262636,-0.286456,-0.135292,0.0204016,-0.0869686,-0.0554369,0.106131,0.349626,0.294531,0.00433666,-0.0203162,0.0742363,0.373745,0.340867,0.147255,-0.0594104,-0.134266,-0.203119,-0.0328349,-0.135762,-0.197885,0.292865,-0.0173895,-0.0476181,-0.0986969,0.103461,0.129246,0.368255,0.112882,-0.187674,-0.190793,-0.203247,0.0578295,-0.121299,0.0280496,0.321213,0.236531,-0.0989532,-0.258235,0.269771,0.126383,0.211557,-0.0895108,0.341572,-0.159026,-0.2138,-0.293933,0.37178,-0.227345,0.204508,-0.229801,0.144713,-0.00959197,-0.156462,-0.230143,-0.185174,0.114762,-0.0595813,0.247319,0.0443709,0.04185,-0.29216,0.21113,0.217689,0.138368,0.0368084,-0.234565,-0.258919,-0.120872,-0.0289254,-0.0759453,0.0880367,-0.150459,-0.112369,-0.193612,-0.00145268,-0.215659,-0.232237,0.162294,0.392672,0.364922,0.19263,0.122175,0.207114,0.0468276,0.0482375,0.319889,-0.285388,0.239436,-0.0259774,-0.0153386,0.235121,0.309677,-0.0609485,-0.250417,-0.0016236,-0.0684042,-0.0190771,-0.127259,0.267464,0.0537278,0.191049,0.018778,-0.217924,-0.293826,-0.118906,0.0968596,0.0317881,0.219077,-0.285089,-0.0972655,0.117603,0.074514,-0.259795,-0.138881,0.212241,0.363918,-0.0956847,-0.0844051,0.0778039,-0.127836,0.188699,0.262978,-0.249541,-0.238816,-0.0537706,0.278637,0.0516129,0.374194,-0.124055,0.0302286,0.234523,0.332557,-0.080752,0.0261055,0.226383,0.0478317,0.0123051,0.0957487,-0.125251,0.219718,-0.221085,0.0487503,-0.142213,0.242854,-0.101859,0.209528,0.167785,0.393612,-0.169066,0.27445,0.127302,0.119184,0.240761,0.18825,0.047383,-0.199274,-0.108417,0.0867336,0.0870327,-0.287823,0.258705,0.202499,-0.0765862,0.0472121,-0.064153,-0.119398,0.392288,-0.064623,-0.226469,0.10126,0.207819,0.0202734,0.132899,0.255907,0.12132,0.220679,-0.0108738,-0.125849,-0.0717155,0.0472121,0.269259,0.248088,-0.0170904,0.0961119,0.158428,-0.149113,0.32963,0.191903,-0.0408246,0.19671,0.0111728,-0.198911,-0.0621662,-0.0614612,0.162166,0.388699,0.342854,0.151186,0.148024,-0.0608417,-0.271096,-0.00401625,0.15815,0.314057,0.271822,0.114249,0.213138,0.168126,-0.292224,-0.0537919,-0.104764,0.395428,0.282183,0.0226661,-0.0386883,-0.272121,0.341786,0.325721,0.347853,-0.242299,0.354924,0.165755,-0.0726127,-0.194296,0.19389,-0.228263,0.225657,0.207392,-0.135868,-0.058855,0.258727,0.0387951,0.114463,-0.053087,0.0998718,0.153792,-0.287439,-0.151848,0.335099,0.354689,-0.179427,-0.298761,0.316941,0.168276,0.354561,-0.28135,-0.123948,-0.251122,0.162743,0.171822,0.399594,-0.119398,-0.0933989,0.185473,0.135975,-0.299808,-0.120743,-0.180132,-0.0644093,0.21301,0.0455458,0.388165,0.286392,0.32335,0.138069,-0.294638,0.253984,-0.248473,0.0939115,0.316407,0.185858,-0.240761,0.0658834,0.0992309,-0.111451,-0.0448195,0.293121,0.0909207,-0.262444,0.302841,0.065157,0.332814,-0.0707541,0.30235,0.263961,0.381799,-0.265926,0.268169,0.318308,-0.214975,0.360671,0.174685,0.354668,-0.235762,-0.0101688,0.29122,0.0794702,0.00709248,-0.0117283,-0.221235,0.276437,0.212134,0.361055,0.270092,-0.146101,0.284448,-0.0478317,0.104999,-0.0735527,-0.27131,-0.24687,0.242833,0.164708,-0.0634907,0.328135,-0.175967,0.298526,0.11504,0.115702,0.302542,-0.292908,0.353728,0.316321,0.320893,0.281072,-0.224162,0.0248237,0.250182,-0.109677,-0.227879,-0.0824824,-0.0336894,-0.157381,0.26285,0.253087,0.384832,0.366781,0.385601,0.296731,0.0258492,-0.195001,-0.0444136
0.326981,-0.0686819,0.248985,-0.204743,0.034373,-0.193762,0.303717,0.0799402,0.0717582,0.10564,0.113779,0.396838,-0.135035,-0.0604786,0.0361247,-0.0362316,-0.156035,-0.0825678,-0.105875,0.304999,-0.19671,-0.195599,-0.203119,-0.269579,0.151335,0.110468,0.35847,0.115702,-0.141957,0.285324,-0.198889,-0.0704123,-0.0399274,-0.159795,-0.222602,0.305704,0.133027,-0.0311472,-0.105148,0.205554,-0.00999787,0.0891476,-0.221812,-0.230442,0.315873,0.177804,-0.146892,-0.196838,-0.203226,-0.180517,0.0862636,0.39451,-0.0459517,-0.0574023,-0.234544,-0.0888272,-0.158022,0.263384,0.354817,0.172271,0.218799,-0.189703,-0.190963,0.143025,0.150417,-0.149327,-0.0186499,0.0488357,0.156014,-0.208887,0.109143,0.35533,-0.244948,0.0741722,0.112155,0.0116214,0.0251228,-0.157659,-0.0127964,0.103589,-0.270434,-0.107733,0.134031,-0.186114,-0.174834,0.0898739,0.0964537,-0.0643025,0.00809655,0.369344,-0.146443,0.137043,0.00854516,0.0871608,-0.255181,0.322666,-0.207263,-0.0466567,0.363961,-0.00989106,0.182076,-0.0882718,-0.0944029,0.32711,0.148494,-0.00888699,0.0993377,0.146934,-0.00427261,0.299167,0.015424,0.208972,0.385644,0.181072,0.0765221,0.0207434,0.118863,-0.285452,-0.240141,0.269024,0.129673,0.0634693,0.124311,-0.123756,-0.196261,0.261525,0.246443,0.129609,0.0787866,0.248195,0.10032,-0.0207221,0.136894,0.0286691,0.365178,-0.146934,0.0486648,-0.120188,-0.204743,0.183914,0.377612,-0.126405,0.236659,0.097586,-0.0949797,0.140547,0.32476,-0.0429823,-0.0157872,0.144371,-0.152446,-0.0894894,-0.116492,-0.20972,0.00854516,0.24044,0.0277291,-0.0615467,-0.126276,-0.140696,0.297052,0.244542,0.137407,0.150502,-0.206986,0.299359,-0.209336,-0.000192285,-0.0691519,-0.110532,0.327409,-0.284725,-0.232536,0.150417,0.271694,0.382119,0.124781,0.0347148,0.261632,0.249071,-0.182803,0.366375,0.0732963,-0.106024,-0.156676,0.103674,0.119611,0.264537,0.250652,-0.117603,0.00839561,-0.258342,-0.0670156,0.261162,0.394018,0.222324,0.169836,-0.0594531,0.00679341,0.368276,-0.232814,0.278637,0.39498,0.0182012,0.108972,0.373702,-0.236851,0.209613,0.278744,0.237022,0.341914,-0.292395,-0.139329,-0.172955,0.172677,-0.212476,0.0797052,0.266887,0.0427473,-0.0321299,-0.110404,-0.0828456,-0.0459304,-0.0591113,0.0688955,0.0261055,-0.239158,0.197629,0.0336466,0.0284127,0.0600726,-0.206217,-0.273296,0.0152745,-0.230827,-0.145866,0.392608,0.246956,-0.224397,0.0614825,-0.202371,-0.169771,-0.00779751,0.22775,0.204358,-0.167785,-0.0967956,-0.206302,0.160094,0.352531,-0.264943,0.354134,0.308524,0.325913,-0.263854,-0.144392,-0.116065,0.0768853,0.300513,0.363704,0.0976073,-0.00153813,-0.281051,-0.153941,0.175304,0.276693,-0.00692162,0.368981,0.155757,-0.0669515,-0.00457171,0.353536,-0.290942,0.106537,-0.288977,-0.211066,0.0848323,0.0471053,-0.255736,0.0493698,-0.151186,-0.157381,0.225529,-0.0886563,-0.0818201,-0.248836,0.102029,0.218799,0.154155,0.36035,0.247383,-0.107798,0.221726,-0.254433,0.173745,-0.0708182,0.275732,0.249583,0.181585,0.19295,0.182653,0.0542405,0.130912,0.0359111,-0.162444,0.367464,0.368831,0.155031,-0.0143986,-0.103717,0.197095,-0.0742149,-0.192908,-0.271438,0.114975,0.211985,-0.22367,0.094937,-0.279107,0.2978,-0.247511,0.232685,0.307862,0.33918,0.112946,0.324055,-0.163384,0.0815851,0.0876308,-0.0699851,-0.178552,0.340718,-0.295578,0.292138,-0.0878018,0.0932066,0.204465,0.0239051,-0.292245,-0.125785,0.236979,-0.0362957,0.384811,0.128605,0.193036,-0.288891,-0.223841,0.31286,0.087524,0.218458,0.0838709,-0.00563982,-0.15125,-0.140461,0.160094,0.0449904,0.0250373,-0.252489,-0.0583422,0.276095,-0.132472,0.123435,0.171374,0.0112369,-0.100897,0.0876949,-0.208695,0.0443068,0.328007,-0.00384536,0.0420636,-0.120893,0.316193,-0.107263,0.152382,-0.102158,-0.0384747,0.300385,-0.0462936,0.255159,0.203183,0.142405,-0.0961547,-0.155437,-0.290408,0.215873,-0.145824,-0.265542,0.0586627,-0.0109806,0.344777,-0.280111,0.0688528,0.344691,0.0618885,0.0879086,0.391583,0.0413159,0.24217,0.0425336,-0.076693,-0.0861141,-0.14232,-0.0133092,0.247362,-0.21395,0.0667165,-0.192117,0.364452,0.015894,0.364089,0.364409,0.0216193,0.346892,0.0157445,0.318949,0.198611,0.286029,-0.187951,-0.283294,0.161354,-0.0190558,0.223756,0.354625,-0.0581927,0.217924,0.0954283,0.338496,-0.0464644,-0.187246,0.360521,0.175539,0.30235,0.21615,0.112519,0.298291,-0.09859,0.205768,0.0165349,0.367507,0.050502,0.28652,0.395599,-0.149434,-0.0119633,0.37131,-0.123777,-0.277676,0.276159,-0.136274,0.127558,-0.114676,0.127515,-0.18496,0.178338,-0.143837,0.333604,0.176736,-0.153749,0.115082,0.00367442,0.221085,-0.0359752,-0.234651,0.17398,0.0513352,0.0363384,-0.200406,0.396261,0.0733176,-0.087524,-0.0801752,-0.0347576,-0.149498,-0.191476,0.307968,0.39451,0.214441,0.363897,-0.206046,-0.200449,0.252104,-0.133647,-0.281863,0.298441,0.0424909,0.130015,0.0348857,0.188186,0.0640675,-0.039436,-0.245824,-0.292566,-0.255181,0.292224,0.168426,-0.156056,0.0772484,-0.069216,-0.139244,-0.103461,0.169536,0.387054,0.242384,-0.148836,0.355522,0.134971,0.115275,-0.0200598,0.334501,0.279235,0.107434,0.223008,0.0635761,-0.133946,0.377505,0.162273,0.27383,0.0222815,-0.164516,0.0465071,-0.167763,0.0563768,-0.123307,0.17727,0.121854,-0.193506,-0.124461,-0.18511,0.361034,-0.230656,0.0362102,-0.0860714,0.334672,-0.0054262,0.247041,0.347575,0.0585131,-0.221128,0.0355266,0.130186,0.249028,-0.15548,0.170733,0.397565,0.12006,-0.063918,-0.190002,-0.245952,-0.121128,-0.17962,0.237043,-0.0537065,0.24294,0.123627,-0.0121555,0.272378,0.0493698,-0.209848,0.111878,0.0862636,0.379235,-0.102564,0.164794,-0.293142,0.168255,0.111322,0.18009,0.190686,0.125935,0.316172,-0.283807,-0.0220893,-0.0650502,0.00405896,0.126234,0.0710959,-0.0472762,0.257787,-0.253301,0.355715,0.0869899,0.211579,0.0529801,0.122239,0.0672506,-0.175924,-0.122752,0.0988891,0.0840205,0.148323,-0.0630421,0.154433,-0.282247,0.332301,0.369729,-0.219333,-0.270733,0.0354411,0.222153,-0.286435,-0.266524,0.194488,-0.210895,-0.0972869,-0.171438,0.323862,0.0506515,-0.111536,-0.0977996,-0.0156591,0.103034,0.296026,-0.213224,-0.195151,0.131147,0.305832,0.285601,-0.108567,0.318949,0.309806,-0.158214,0.108011,-0.255266,-0.287353,0.171929,0.0630634,0.35862,-0.212391,0.236082,-0.213138,-0.211771,0.146208,0.266332,0.333518,-0.229609,0.130998,0.125593,0.391946,-0.0449049,-0.00869474,-0.281542,0.0408246,0.378744,-0.149391,-0.273745,0.0311685,-0.146251,-0.274557,-0.112198,0.0312326,0.271245,0.00502026,0.098056,0.318159,-0.136509,0.0510361,0.146379,-0.149242,0.123435,-0.0732322,-0.133647,0.107541,0.32775,0.115381,-0.281051,-0.0753472,0.160692,0.036082,0.0810297,-0.181906,-0.214933,0.0182012,-0.0391583,0.324204,0.357979,-0.157936,-0.287161,0.243345,-0.0626148,-0.0936125,0.0730827,0.320872,0.376971,0.231297,-0.0124546,0.0495193,-0.144115,-0.143474,0.255159,0.128263,-0.0595172,0.244114,0.0571886,0.361162,-0.275561,-0.155159,0.395279,-0.0686606,0.344862,0.238197,0.109336,0.334074,0.120423,-0.19545,-0.101901,-0.296753,0.109293,0.239756,0.0133091,-0.183956,0.332963,-0.229225,0.0499679,-0.190387,0.16317,-0.217774,-0.195642,-0.00525531,-0.0810084,0.113053,-0.178359,0.30032,0.37054,-0.0675283,-0.094937,-0.0666738,-0.00350353,-0.244841,-0.191519,0.288763,-0.00777614,-0.195642,0.38432,0.193442,0.0753685,0.0826533,0.30831,0.218735,-0.01442,0.159987,-0.0462081,0.245845,0.225828,-0.162358,-0.163555,0.0187139,0.141401,0.098355,0.302029,0.168383,0.184213,-0.0986969,0.37868,0.14358,0.158641,0.131596,0.365798,0.331596,0.296368,-0.23621,-0.218714,-0.0960052,-0.243495,-0.251485,0.139116,-0.228327,0.0985259,0.381713,-0.0210639,0.083166,-0.0758812,-0.0341167,0.0198034,0.251164,0.135676,0.12288,0.259816,0.0411237,-0.292502,0.367058,-0.106623,-0.0931852,0.0173253
-0.10109,0.0683828,-0.193442,-0.265734,-0.271929,0.0545823,0.285302,-0.289041,-0.0149114,0.145653,0.156078,-0.124226,0.231532,-0.233668,0.166118,-0.12711,-0.272271,-0.0931425,-0.0189703,0.146593,-0.132472,-0.24373,-0.0277078,-0.183422,0.139244,0.156761,0.0418287,-0.0582568,0.322538,0.250694,-0.0316813,0.118522,0.280367,-0.05768,-0.190365,-0.188699,0.255373,0.146037,-0.054326,0.061568,0.0302072,0.142961,-0.0041658,0.17242,-0.138966,0.117881,0.395984,-0.28417,0.143687,-0.20173,0.268661,-0.241017,-0.0781884,-0.132557,0.271459,0.357039,0.29639,-0.12664,-0.142427,0.108759,0.245952,0.00555435,-0.266973,-0.277654,0.0170049,-0.238624,0.345097,-0.0120701,0.293826,0.174087,0.185858,0.303803,-0.292758,-0.176031,0.145994,0.0532792,-0.108396,-0.294958,0.202329,-0.120957,0.349348,0.168831,0.274215,0.251741,0.0325144,0.116984,-0.0673147,-0.020188,-0.199188,-0.134928,0.397052,-0.242491,0.265307,0.348964,0.00301215,0.0977355,0.377099,0.0958983,-0.122987,0.146764,0.370669,0.132109,-0.199145,0.0276864,-0.278829,0.0488143,0.301175,-0.0904721,0.0247169,0.298547,0.0481521,-0.151335,-0.0386243,0.243452,0.3978,-0.100385,-0.0497116,0.0279,-0.13809,0.34217,0.155971,-0.00331128,0.140782,0.121427,0.355501,0.131275,0.202158,0.347981,0.025721,0.225486,0.0414655,-0.245289,0.160009,-0.227238,-0.292502,0.157616,0.273852,0.387033,-0.172185,-0.283251,-0.191348,-0.0716086,-0.281713,-0.254839,0.193356,0.056505,0.0113223,0.0617817,-0.0273232,0.282589,0.286947,0.235612,0.262059,0.242427,0.0412091,-0.0818201,0.33824,0.0622516,-0.223798,0.210703,-0.0751122,0.239201,0.0463149,-0.0368084,-0.117219,0.00818199,0.144606,0.152339,0.363918,-0.182568,-0.135676,-0.265136,0.0386242,-0.11598,-0.28056,0.323414,0.355693,-0.24828,0.258663,0.281756,0.244093,-0.077163,0.0574877,-0.213865,-0.0837428,-0.0141423,0.022602,0.249968,-0.117817,-0.0889981,0.292865,0.0580218,-0.166546,0.335463,0.17131,0.107904,0.3069,0.109806,-0.0272805,0.10502,-0.11301,0.228349,-0.179086,-0.191818,-0.0433241,-0.185751,-0.119803,0.172634,-0.0443068,0.282226,-0.144542,0.387439,0.0558,-0.150224,0.145054,-0.245909,-0.187439,0.119889,0.381158,-0.296753,-0.0971801,-0.0939757,-0.158406,0.196304,-0.292843,0.122025,0.368084,-0.191113,-0.0529802,-0.191562,0.174364,0.0431532,0.335527,0.117368,0.179684,0.065392,0.0517624,-0.172741,0.0510361,-0.0835719,0.0975219,-0.0895749,-0.0106601,-0.208887,-0.0540269,0.0239479,0.143132,0.134138,0.141914,0.246892,0.384875,-0.0511002,-0.237449,0.0351848,0.0338603,0.166375,0.398654,0.0161076,0.260179,0.37069,-0.0352489,-0.00563982,0.35392,-0.0713737,-0.101154,0.191498,0.394595,0.219568,-0.0402906,-0.2094,0.104294,0.112818,-0.017774,-0.191754,0.119718,0.289468,0.299658,0.165242,0.366973,0.155373,-0.10799,0.0785302,0.373702,0.142192,0.0706259,0.0456954,-0.297095,0.143388,0.157338,-0.1558,-0.157082,-0.117924,-0.0314036,-0.0829096,0.13762,0.357744,-0.236851,-0.132856,0.291519,0.268126,-0.13683,0.0312113,-0.0658406,-0.145909,-0.292245,-0.143132,0.077932,-0.236531,-0.0512711,-0.247084,-0.246208,0.381265,0.347575,0.135868,0.35941,-0.277291,-0.116855,0.1442,-0.196112,0.236894,0.229652,0.242256,0.183657,0.216343,0.113886,-0.0143773,-0.126426,-0.238923,-0.0884427,0.0700491,0.0681905,-0.207114,-0.208267,-0.064623,0.156761,0.267058,0.268896,0.046913,0.0671865,-0.121406,0.372036,0.125636,0.0626575,-0.0904294,0.190066,0.34937,0.0256782,-0.185495,0.20314,0.296689,-0.0861568,-0.209186,-0.0412305,-0.144478,-0.0785516,0.031019,-0.29718,0.368297,-0.0681906,0.00369576,-0.176009,-0.264666,0.294211,0.0600299,0.321876,0.0487716,0.0100406,0.312796,0.0573168,-0.221662,-0.0374706,-0.215424,0.0951506,0.281436,0.274471,-0.12743,0.397906,0.0588335,0.128071,-0.274087,-0.219568,0.22852,0.33166,0.183465,0.284875,0.23871,0.167336,0.368105,-0.0154668,0.292801,0.00416577,0.0849818,-0.122709,0.00754112,-0.188955,-0.179876,-0.223179,-0.023542,0.153835,0.286755,-0.238432,-0.0395001,0.0109378,0.315616,0.290664,0.377676,0.092053,-0.0631917,0.0463362,0.11348,0.393976,-0.25031,0.0118564,0.124418,-0.0219184,-0.0725272,0.244884,0.2558,0.304208,-0.24608,-0.0450331,0.146229,-0.195599,0.338688,-0.0548387,0.0405255,-0.0679128,0.208139,-0.173147,-0.217133,-0.130165,-0.281179,0.26708,0.212156,0.131211,-0.209848,-0.122025,0.331147,-0.0599017,-0.296753,-0.19248,0.071865,0.222687,-0.237043,0.0409955,-0.0714591,-0.104166,0.269942,-0.227302,0.280239,0.0868191,-0.200812,-0.143025,0.0750267,-0.231852,0.332942,0.0981841,-0.202478,0.242512,-0.156697,-0.111023,-0.00818202,-0.138325,0.173254,-0.143858,0.261354,-0.0859432,0.311194,-0.276629,-0.182034,0.265157,0.107221,-0.149519,0.301923,0.0853664,-0.0727623,0.258385,0.0443495,-0.250609,0.292224,0.399081,0.0948302,0.341807,0.29906,-0.219718,-0.0149541,0.352895,0.270263,-0.0961974,0.051207,-0.000534087,-0.270626,-0.0728263,0.186477,0.154817,0.348643,-0.192053,-0.0544115,0.0220466,0.0659474,-0.160009,0.373745,0.135655,-0.0816065,-0.158898,-0.119034,0.12508,-0.0116215,0.201346,-0.0652852,-0.0748345,-0.289831,0.351592,0.29169,0.167656,-0.0671011,0.361504,0.241508,-0.062038,0.287567,-0.173638,0.283593,0.231916,-0.245589,-0.247789,-0.290643,0.0965605,0.277953,0.198547,-0.0882718,0.0896389,0.326127,0.0879086,-0.206729,0.0419141,-0.0591327,0.34217,0.0957274,0.156719,-0.0233497,-0.0458449,0.221897,0.131446,0.273937,0.154732,0.172399,-0.2652,-0.235377,-0.0159368,0.268981,-0.275347,-0.243922,-0.172933,0.0860072,0.240718,0.0908139,-0.278167,-0.237556,-0.243858,-0.0714591,-0.0991669,0.216001,0.123157,-0.152297,0.174001,-0.169088,-0.203931,0.213117,0.0132877,0.242256,0.367101,0.206665,0.14796,-0.112519,0.0983764,0.168062,-0.170135,-0.152147,0.285473,-0.257573,0.378359,-0.0486007,0.236103,0.0814997,0.0640034,-0.140782,0.39859,-0.204593,0.0405896,-0.0929716,-0.0753472,-0.0978424,0.08464,0.323969,-0.199231,-0.228883,0.35204,-0.0997437,-0.0677419,0.00792563,-0.188998,-0.274023,-0.0851528,-0.122602,-0.139244,-0.227537,0.277975,0.311472,0.295257,0.238347,-0.0661824,0.0989105,0.321598,0.332173,-0.0827601,-0.19624,0.192138,0.113416,0.0501388,0.3094,0.0599017,0.16379,0.0150609,0.0349284,0.0166204,-0.189383,-0.127409,0.121171,0.0227088,-0.125678,0.306366,-0.0674856,0.188742,0.161739,-0.26943,-0.127751,0.117411,-0.222773,-0.255886,0.157466,-0.134031,0.273531,-0.0341594,-0.0489639,-0.162166,0.113929,0.0349925,0.19733,0.0632557,0.068041,0.311856,-0.141679,0.378103,0.312775,0.162209,0.0973083,-0.139671,-0.239671,0.0605426,-0.193036,-0.16646,0.0855586,0.0961974,-0.171523,0.39671,-0.226276,-0.28338,-0.0410169,0.389682,0.261525,0.392672,-0.206323,-0.145973,0.392459,-0.0605854,0.10015,0.19812,-0.141209,-0.22194,0.370946,-0.273916,-0.248003,-0.127921,-0.247874,0.0403546,-0.106623,-0.177227,-0.205832,-0.0237983,-0.0331767,-0.241551,0.122068,0.278957,-0.0743217,-0.0985687,0.171758,-0.117945,0.395514,0.14734,0.189703,-0.00380263,-0.0555651,-0.0588336,-0.0577655,0.368297,-0.256484,-0.21568,0.231959,-0.279791,-0.111771,-0.242897,0.0676992,0.126255,0.00356761,-0.108951,0.185131,0.0387524,0.304486,-0.124631,0.164751,0.221534,0.333198,0.132023,-0.155651,0.300214,-0.0541124,0.343644,-0.0273446,0.38887,-0.229994,0.268874,0.200897,0.202478,0.104486,0.329246,-0.140526,0.314505,0.384555,-0.1978,0.316578,0.0689169,0.283081,-0.0953856,0.365178,0.306174,0.37037,-0.199124,0.235997,-0.18778,-0.0958129,-0.179534,0.0826319,-0.049498,0.171908,-0.0811792,0.136146,0.0854945,-0.243345,-0.0337321,0.275924,0.357979,-0.050438,0.399252,-0.0865414,0.0208502,0.379513,0.0182226,0.136253,0.195236,0.282653,-0.0334544,-0.0915616,-0.0442213,0.183508,0.174941,0.17524,0.205148,-0.190622,0.105554,-0.032194,0.0465926,0.310105,-0.11959,-0.2442
0.114142,0.304807,0.328306,0.344072,0.369814,0.127921,0.134608,-0.0394147,-0.172869,0.295898,-0.171609,0.232621,-0.289383,0.166781,0.291412,-0.102307,0.00999784,0.314399,-0.0772485,0.246422,0.0392651,-0.110874,-0.155672,-0.255886,-0.0405683,0.187011,0.280901,-0.272015,-0.125465,0.0991241,0.299402,0.0266609,-0.239607,0.263128,0.141786,0.0991668,0.335078,0.188913,0.135826,-0.0598804,-0.26896,0.280026,0.318137,0.248045,0.0779107,0.0228797,0.353963,0.303375,-0.0448195,0.0657124,0.388079,0.0537278,0.12476,0.158919,0.310916,-0.0474899,-0.0979064,-0.0209785,0.174664,0.148366,0.375668,-0.292459,-0.0564837,0.271908,0.234053,0.387481,-0.087524,0.0168126,-0.289938,0.228327,-0.0209998,0.36238,-0.198804,0.182418,-0.197928,0.033668,0.37571,0.263832,0.132899,0.347212,-0.276031,-0.0681692,0.351656,-0.262081,-0.135548,0.111194,0.194681,0.215403,-0.136937,-0.129481,0.00643024,0.0451185,0.376351,0.0310831,-0.199252,-0.197372,0.2768,-0.272185,-0.134565,0.296838,0.170498,0.294147,0.395065,-0.0904935,-0.0340098,0.392908,0.0857936,-0.0520829,-0.296155,0.264986,0.27712,0.357488,-0.093463,-0.282525,-0.125529,-0.0089511,0.157466,0.0236701,0.237492,-0.117817,-0.130784,-0.043965,0.367721,-0.0812006,-0.0500534,0.324802,0.180901,-0.0356334,0.227152,0.243516,-0.102371,0.0233711,-0.261184,0.193783,0.0368297,-0.00187996,0.350673,0.0106601,-0.153301,-0.0664815,-0.190835,-0.138945,0.0574022,-0.10314,-0.110169,0.0366802,0.0894681,0.389383,0.349754,-0.066567,-0.196902,0.336637,0.144243,-0.260585,0.121833,-0.145653,-0.28338,0.303076,0.0157231,-0.0630635,-0.0794275,-0.19671,0.277868,-0.035078,-0.215488,0.194018,0.378958,-0.12085,-0.122602,0.344285,0.234117,0.217624,0.18526,0.0462294,0.166396,-0.137599,-0.0422987,0.212818,-0.298633,0.0936552,0.334159,0.336937,0.377142,0.0968596,-0.291305,0.233988,-0.0959624,0.221107,0.143495,0.139714,0.358791,0.234587,0.0893613,-0.114762,0.246849,-0.225571,0.12382,0.321,0.118009,0.137962,-0.2348,0.0116642,-0.0308481,-0.0883145,0.172634,0.173937,-0.0813715,0.385559,-0.109079,0.378701,-0.113181,-0.0510361,-0.149605,0.0900021,-0.0329203,-0.284619,-0.119932,-0.237706,0.0214484,0.27272,0.144435,-0.232066,0.185559,-0.0941038,0.262679,-0.0231574,0.117133,0.0891903,-0.28009,0.360243,0.0724418,-0.105789,0.0299936,-0.159816,0.244905,-0.1884,0.358641,0.0570604,0.050502,0.132087,0.367101,0.0764793,0.0943388,0.384811,-0.114911,-0.0921385,0.102329,0.37915,0.0726768,0.25642,-0.246999,0.247255,-0.119697,0.280282,-0.106644,0.033903,0.166546,0.374963,-0.126811,-0.269216,0.182846,-0.143388,0.382568,0.302029,0.18449,0.0665029,-0.173766,0.297629,-0.222474,-0.0321513,-0.0797052,-0.197864,0.160692,0.357723,0.144285,0.0149541,-0.128306,0.265114,0.234095,-0.290664,-0.102264,0.257701,0.149583,-0.0328349,0.0587908,-0.271331,-0.0985687,0.235932,-0.276074,0.0857936,-0.128648,-0.0946807,0.169472,0.214441,-0.189489,0.349818,-0.0616535,0.33668,-0.0500107,-0.065627,0.110468,-0.0621021,0.308182,0.030314,0.343089,0.283294,0.228947,-0.162316,-0.209421,-0.00431532,-0.164495,0.161675,-0.136702,-0.183102,-0.166076,0.239265,-0.165563,0.124418,-0.0491562,0.0637257,-0.245375,0.324952,0.139799,0.0031617,0.283636,-0.20267,-0.059624,0.360414,-0.101901,-0.293826,0.124824,0.370861,0.0854518,-0.241765,-0.083871,-0.0145054,0.0825037,-0.276479,0.212433,-0.264409,0.168938,-0.207093,-0.198441,-0.0739158,-0.0256569,-0.205832,-0.0994019,0.0547105,0.308695,-0.261824,-0.195428,-0.296625,-0.124696,0.317411,0.378616,0.399124,0.275967,0.228349,0.278103,-0.108994,0.167165,0.139842,0.231254,0.0404187,0.377334,0.379214,0.268105,0.17101,0.144072,0.0580645,0.330784,-0.124397,-0.0191412,0.109528,0.349156,-0.0729759,-0.267315,-0.241017,-0.283871,0.0891049,0.329887,0.100021,-0.0525529,-0.0246101,-0.10047,0.0975219,-0.0402906,0.352318,-0.256014,0.0898526,0.351485,-0.166781,0.345759,0.211814,-0.178317,-0.239158,0.107862,-0.289468,0.109827,0.324482,0.0897671,-0.0240547,-0.208139,0.00910059,0.147362,-0.242405,0.316984,0.323264,0.237086,0.0902584,-0.281158,-0.0976714,-0.00681481,0.399402,0.1862,0.234608,-0.162316,-0.190985,0.02696,0.106281,0.232151,-0.176394,-0.289831,0.312989,0.23104,0.00568253,0.220487,-0.0657552,0.345717,0.321384,0.308994,0.117988,0.378466,0.375603,0.275454,0.171801,0.0362529,0.108609,-0.0343089,-0.192117,-0.0169622,-0.123777,0.0189703,0.0387737,-0.0593249,0.285067,0.349413,-0.229737,-0.102905,-0.295001,-0.00397351,0.188934,0.331703,0.330805,0.0257851,-0.00939971,-0.182952,-0.285601,0.323734,-0.152895,-0.0936552,0.340205,0.355095,-0.142042,0.265905,0.164772,0.333155,-0.0162572,0.262252,0.193377,0.277782,-0.191583,-0.236937,-0.285473,0.398633,-0.0729545,-0.0386883,-0.134779,0.287524,-0.0940184,-0.218073,0.14796,0.354518,0.0125614,-0.119205,0.171929,0.191711,0.26082,-0.00531939,0.340312,0.09953,-0.229673,0.252147,-0.245161,-0.240461,-0.214826,-0.0953429,-0.239329,0.288528,0.0494552,-0.113031,0.202094,0.157637,0.286819,-0.133518,0.312198,0.311792,-0.0197394,0.390878,-0.292566,-0.12711,-0.200278,0.0932707,0.209699,-0.138176,-0.026191,-0.0354839,-0.233113,-0.176736,0.352681,-0.248344,0.195044,-0.112262,0.259154,-0.107627,-0.287396,0.15565,0.074813,0.344264,0.389831,0.136894,-0.142235,-0.0811152,0.0843837,-0.0685537,-0.260756,0.0794702,0.385559,0.284298,0.195834,0.0120487,0.138646,0.399744,-0.0561205,0.22899,-0.228541,-0.250673,0.0537278,0.114719,-0.00502029,-0.0423627,0.12963,0.372698,-0.200278,-0.299786,0.0531724,-0.016834,-0.27994,0.398526,0.136402,0.0310617,-0.111878,0.245589,-0.118137,-0.186691,0.249178,-0.052617,0.0964324,0.385153,0.160393,-0.186114,0.155565,0.254433,-0.154903,0.384149,0.065157,-0.216086,0.223884,0.220231,-0.182333,-0.28981,0.0948088,0.253899,0.0895321,-0.160756,-0.215232,-0.0794061,0.276437,0.127515,-0.256783,0.0651784,0.0138859,-0.291733,-0.299124,-0.0463149,0.179385,0.272527,0.164815,-0.124567,-0.27665,0.263448,-0.028135,0.170177,-0.274343,0.294467,0.0725486,-0.235954,-0.175347,-0.0502884,0.266909,-0.250459,-0.184533,0.0766503,-0.235569,0.392972,-0.0354625,-0.170284,0.190023,-0.0955992,0.237257,-0.224738,0.207456,0.154561,0.385559,0.316065,-0.0172399,0.372228,0.392267,-0.254433,-0.241017,0.107456,-0.280624,0.0911984,0.264431,0.194638,-0.243324,-0.144585,-0.274023,-0.100662,0.217902,0.0149541,0.10987,-0.0157231,0.181286,0.286563,-0.138774,0.077633,0.121299,0.119419,-0.235356,0.0790856,0.228455,0.323243,-0.102542,0.287439,-0.235954,0.191369,0.297778,0.184085,-0.253151,0.0284554,0.118842,0.35721,-0.281692,-0.257894,0.19201,-0.199402,-0.0164495,-0.0924589,0.269878,0.0717154,0.0747062,0.16505,0.0715445,0.143217,-0.0664174,-0.0406324,0.301987,-0.267422,0.160692,-0.0195471,0.167229,-0.156078,0.127088,0.215018,0.157424,0.10643,0.0964537,-0.031959,0.319355,-0.155971,-0.146123,-0.0359966,-0.00922883,0.360308,-0.0117283,-0.0132237,-0.282162,-0.026661,-0.274407,-0.132151,0.128007,0.284747,0.259325,0.0822687,-0.120017,-0.182931,-0.224674,-0.038667,0.0628284,-0.195578,0.318094,0.281863,0.365734,0.370092,0.094702,-0.158876,-0.00922883,-0.0239052,-0.235826,-0.223136,-0.169707,0.178701,-0.191583,0.341957,-0.0193549,-0.125785,0.0317881,0.392651,0.31457,-0.0300791,-0.0135014,-0.29968,0.283551,-0.136103,0.17037,0.345845,0.0726981,0.368426,-0.00619528,0.305661,-0.0207221,0.0615253,0.0631703,-0.0104892,0.137428,-0.299402,-0.122858,0.138923,0.260414,0.282845,-0.116962,-0.054561,0.12273,0.286584,0.389959,0.398889,-0.246336,0.078338,-0.0142918,0.0240333,0.0641743,0.119376,-0.0456954,-0.0842555,0.0790856,0.256526,-0.159197,0.331788,-0.103482,0.0317026,-0.239393,0.152318,-0.0537279,0.294253,0.200043,0.366225,0.0690451,-0.249583,0.204678,-0.207349,0.188571,0.034907,0.103162
0.298248,-0.201773,0.338112,-0.137684,-0.0817133,0.134437,0.0739158,-0.0786584,0.24217,-0.0419355,-0.277526,-0.198526,0.171844,0.0165136,0.131831,-0.0619953,0.313031,0.107691,0.213266,-0.0681692,-0.0917325,0.318052,0.31474,0.0671011,0.0715659,0.156655,0.00628069,-0.00807521,0.133476,0.156847,0.362465,0.00912195,0.156633,0.367721,0.175475,0.273745,-0.0695151,0.3069,0.384085,-0.155672,-0.194894,0.397009,-0.147981,-0.0151891,-0.0268532,0.357167,0.280901,0.363704,0.0593677,0.17178,-0.108737,0.247853,-0.17272,-0.191754,-0.0429609,0.337236,0.0621021,-0.194339,0.326917,-0.162124,0.239393,0.306281,0.317539,-0.180175,-0.261162,-0.0485794,0.0128818,-0.243217,-0.0872891,-0.0856441,0.153792,0.394681,-0.232151,-0.20893,-0.147404,-0.154518,0.0711173,-0.278317,0.116706,0.254006,0.237492,0.36379,-0.184191,0.0334544,0.0100192,0.389938,-0.22288,0.217624,0.0912198,-0.0690451,0.242811,-0.0740654,-0.264773,-0.162828,0.374044,0.388614,0.160009,0.279064,-0.263704,0.228477,-0.110916,-0.24044,-0.0500534,0.0467421,-0.0178167,0.159859,0.140675,-0.290942,0.364067,-0.00982699,-0.225935,0.0793847,0.310938,0.368062,-0.291177,0.2978,-0.296005,0.29545,0.352809,0.249818,0.109207,0.156676,0.35642,0.0237983,0.192801,-0.190686,0.327729,-0.296945,-0.0679128,0.38966,0.303632,0.390109,-0.269472,-0.295407,0.361312,0.00931421,-0.203183,0.132173,0.104614,0.185516,-0.102841,0.00200811,0.109742,0.244734,-0.0598804,-0.0216834,0.364174,0.234394,0.103653,0.31662,0.183721,0.209806,0.26317,0.216407,0.242,0.183636,0.23072,0.341829,-0.00373855,-0.114698,-0.136018,0.131617,0.244627,-0.0726127,-0.145054,0.070925,-0.10156,0.0255501,0.157381,-0.153706,0.204657,0.0691091,0.362508,-0.243965,-0.0977142,0.389233,0.382397,-0.202329,0.14749,0.0211493,0.150246,0.30455,-0.108545,-0.192096,0.197159,-0.0469131,-0.154283,0.0419355,-0.285537,-0.0868404,-0.0808161,0.191754,0.261397,0.162743,-0.139073,0.210468,-0.172997,0.239372,-0.106131,-0.227067,0.106259,0.249882,-0.127131,-0.16144,-0.201004,-0.289596,0.0521683,0.0865413,0.291861,-0.161397,-0.10361,0.12038,0.0319376,-0.130229,0.11944,0.0888058,-0.247981,0.0190558,0.185687,0.219547,-0.24358,0.261205,-0.0421491,-0.18684,0.226939,-0.14984,-0.173959,0.093762,-0.241658,0.0501175,0.301987,0.263384,0.282845,0.299893,0.313266,0.256932,0.292502,0.082696,0.0817347,0.244606,-0.0804102,0.222944,0.120316,-0.121299,-0.216236,-0.217795,0.132984,-0.0684042,0.365606,-0.224033,-0.148259,0.221747,-0.0841273,0.0832087,-0.00440079,-0.0252724,-0.239885,0.070455,-0.214634,0.116129,0.307434,-0.197201,0.399017,0.343153,0.123307,-0.237257,0.301709,0.27163,0.275668,0.149797,0.235185,0.305811,-0.286456,-0.218094,0.300598,0.327195,-0.0123264,-0.128883,-0.080752,0.249754,0.172485,0.0949583,-0.0942961,-0.161867,0.298932,-0.0642384,-0.0624653,-0.264025,-0.242726,-0.290472,-0.243858,-0.29921,-0.120423,0.256355,0.183059,0.192865,-0.0392865,-0.085815,0.385879,-0.185537,0.128092,0.348067,0.0786157,0.34687,0.3185,0.256142,0.290429,-0.0188208,0.372399,-0.274877,0.187332,-0.208972,0.304208,-0.143602,0.381265,-0.157253,0.158577,0.134886,-0.289297,0.190878,-0.0883145,-0.137364,0.127537,-0.0446486,0.227024,-0.170904,0.374151,-0.0724632,0.32508,0.0393505,0.0854091,-0.198334,0.0761803,0.173125,-0.100021,0.378893,-0.223884,-0.00442216,0.314869,-0.259496,-0.186413,0.092288,0.268148,0.0377056,-0.0108738,0.15016,0.283935,-0.106067,-0.00529802,0.0559068,-0.0359966,0.267678,0.113416,0.334501,0.260521,0.171758,0.148878,0.198761,0.314121,0.296582,-0.156825,0.232749,-0.00820339,0.0337748,0.193292,0.280068,0.00914332,0.347362,-0.175027,0.259581,0.270882,0.0893399,-0.166161,0.0800042,0.214484,0.306323,0.0525742,0.0754112,0.391134,-0.0655629,0.154048,0.233625,-0.0317881,0.229054,-0.250523,0.339116,-0.112006,-0.0736595,0.391113,0.00243536,0.0667379,-0.116257,0.138752,-0.00175178,0.368404,-0.104294,0.399573,0.383316,0.0378124,0.132151,0.30047,0.316898,-0.272741,0.396155,-0.297501,-0.0449904,0.101025,-0.152168,0.116663,0.240718,-0.247874,0.191391,0.130293,0.262102,-0.284042,0.272057,-0.196261,-0.100128,-0.18526,-0.220145,0.14655,-0.263448,-0.282397,0.00717792,0.232365,0.349113,-0.249605,-0.243196,-0.237898,-0.0433455,0.339564,0.247511,-0.165093,0.245589,0.0247597,0.313886,-0.0640889,-0.256548,0.0243751,-0.0524247,0.000405878,-0.0359539,-0.111835,-0.223713,-0.0361248,0.194873,-0.0781884,-0.171886,0.0569109,-0.150395,-0.182632,-0.122623,-0.145054,0.356996,0.0742576,-0.180602,0.0414655,0.30799,-0.155074,0.270754,-0.00516987,0.333305,-0.110169,-0.258022,0.0574877,0.233155,0.0759026,-0.220188,0.197201,-0.0690878,0.102905,-0.27477,-0.280303,0.0726981,-0.107798,0.185025,0.242213,-0.155245,-0.077868,0.363063,-0.213373,-0.269536,0.0444136,-0.0516129,-0.197137,-0.221085,-0.133967,-0.192715,0.38041,-0.293164,-0.0690237,0.275582,-0.141423,-0.194253,-0.213971,0.398633,-0.00576803,-0.123563,-0.134843,-0.284426,-0.00363171,0.0622303,-0.223029,0.334907,0.187353,0.103375,-0.0707755,0.397842,-0.000470012,0.184042,-0.224781,-0.223029,-0.132621,-0.106003,0.316236,0.0066866,0.123798,-0.123051,-0.0558214,0.392117,0.160372,-0.112903,0.35941,0.293762,0.0610339,-0.0740227,-0.252702,-0.265264,0.268084,0.281692,-0.251143,-0.0727623,0.0903867,0.1417,-0.0912626,0.0650288,-0.287075,-0.297864,-0.164025,0.379321,0.216983,-0.155715,0.261248,0.104486,-0.0294809,0.101089,0.125101,0.350566,0.0980773,0.185046,-0.21818,-0.170519,-0.110532,0.199509,-0.247105,-0.267956,-0.24326,-0.094702,0.214805,0.102115,0.298825,-0.135548,-0.244819,-0.19483,0.383016,-0.067037,-0.0177526,-0.0615681,0.303012,0.0244606,-0.178872,0.37853,0.322581,0.0165563,0.0821833,-0.185537,-0.0357189,0.222068,0.035142,0.162529,0.252959,-0.00350353,0.273959,-0.190536,0.272634,0.104166,-0.0938902,0.381735,0.047148,0.114335,0.251442,0.286819,-0.296881,-0.0502457,0.284234,-0.275817,-0.0751122,0.359069,0.203461,0.212326,-0.0390515,0.235121,-0.234758,0.228776,0.291156,0.251164,0.0619526,0.110233,-0.0862209,0.236552,0.282397,0.309613,0.262487,-0.235954,0.237449,-0.14358,0.111686,-0.129374,0.185495,0.118265,-0.219419,-0.0168127,0.342064,-0.290686,0.394574,-0.128071,0.00790426,0.343431,-0.286435,0.00237125,0.100171,0.378295,0.387075,0.308332,-0.0792566,0.047853,-0.055501,-0.142149,0.346379,0.0294595,0.0810297,0.233604,0.0747276,-0.15689,0.347682,0.399829,-0.0889767,0.129118,-0.194638,-0.12226,0.329417,-0.0983551,-0.247768,0.101282,0.293399,-0.175497,0.283551,-0.225294,0.0700705,-0.193612,-0.106537,0.00465712,-0.0779534,-0.137748,-0.0215552,0.327686,0.211899,0.237876,0.351228,0.00576797,-0.296988,-0.0558214,0.224845,-0.288379,0.391903,0.198782,-0.12367,-0.224824,0.255351,0.0207007,-0.0507798,-0.0862209,-0.251912,0.27618,-0.0958342,0.117389,-0.0659688,-0.0783807,0.277377,-0.0888058,-0.113608,0.0410169,-0.244157,-0.132899,-0.0593249,0.124567,0.12916,-0.21395,0.234886,0.0853236,0.326853,0.223392,-0.278509,0.160842,0.300983,0.378423,-0.214484,0.29671,0.163234,-0.278957,0.152895,0.258684,-0.0642598,-0.123627,0.323649,-0.0294595,0.0253364,0.139714,-0.18558,-0.0757531,0.0802392,-0.0561419,-0.0555223,-0.240419,-0.161119,0.250203,-0.250545,-0.240077,0.330058,0.385858,-0.0422773,-0.138923,-0.0662893,-0.201453,-0.0868404,0.220188,-0.237962,-0.148857,-0.0208289,0.0413159,0.269921,-0.272399,-0.0919889,0.104935,0.0542192,-0.227494,0.110019,0.0977782,-0.248494,0.0358043,-0.193078,0.390387,0.293164,0.344542,-0.296261,0.0587481,-0.172399,0.173852,0.363747,0.0974151,0.268938,-0.26129,-0.279641,0.120423,-0.218885,-0.12147,-0.18872,0.297458,0.357573,0.0563341,0.268169,0.321534,-0.195108,-0.255586,-0.153044,0.155757,0.0908994,-0.281393,0.333113,-0.0446486,-0.0345866,0.1326,-0.194275,-0.287631
0.3141,0.294467,0.395557,0.219547,-0.0460799,-0.182696,0.020658,0.30047,-0.169579,-0.234288,0.234587,0.302969,0.325187,-0.0300363,0.371053,-0.197885,-0.166161,0.229908,0.319825,0.210489,0.323521,0.180474,0.317902,0.241765,0.02884,-0.0596027,-0.209378,-0.17492,-0.00339672,-0.183636,-0.273061,-0.283038,-0.262209,-0.215766,0.123072,-0.192673,0.296646,-0.180731,-0.220701,0.16693,-0.203974,0.39733,-0.215958,0.132664,-0.231126,0.0387951,-0.230549,0.178146,0.334181,-0.282867,0.173211,-0.234181,-0.272036,-0.19592,0.29075,0.127964,0.0480025,0.0730186,-0.247832,0.273147,-0.278466,0.332856,0.208524,0.0652638,-0.244008,0.313865,0.161376,0.0719718,0.0813715,-0.122282,0.0206152,0.12899,-0.255821,0.273339,-0.175689,0.317945,0.362123,-0.189618,-0.294595,0.00382394,-0.00138861,0.0727195,0.239415,0.0295022,-0.0326213,-0.0570178,0.157445,0.213758,-0.174792,-0.13903,-0.240761,0.0500748,0.263512,-0.112967,-0.189703,0.352766,0.35721,-0.00737023,0.0574236,-0.252467,-0.219312,0.150075,-0.252638,-0.146785,0.150139,0.242961,0.0827814,-0.248494,0.00162357,0.169536,-0.200299,-0.108161,-0.0358043,0.160649,-0.0987396,0.227879,0.0377056,0.284234,0.331703,0.13292,-0.0658406,-0.14185,-0.274834,0.290835,-0.207285,-0.0566119,-0.0859859,0.109293,0.326875,-0.160671,-0.269985,-0.047383,-0.286029,-0.146913,0.0842769,0.34059,0.286029,-0.135249,-0.0412519,-0.289468,-0.0689596,0.360308,0.39498,0.389212,0.164772,0.354369,0.313544,-0.12837,0.181799,0.2743,-0.150887,0.153578,-0.25454,0.0277932,-0.0647939,0.31474,-0.173788,0.325721,-0.176778,0.199103,0.0472762,0.282034,0.1699,-0.0099338,0.0475539,0.0629352,0.077868,-0.273595,0.320872,0.206665,-0.0766289,0.356505,-0.159133,0.0862209,-0.244264,-0.122645,0.0310617,-0.263341,0.202905,0.155885,-0.210639,-0.180966,-0.132771,-0.221748,0.226597,-0.257466,0.346464,-0.274557,0.327985,-0.0828456,0.263405,0.0208075,0.0976073,-0.241807,-0.0604145,0.147233,0.0945311,0.215104,0.196603,0.28041,-0.0794488,0.346016,0.119718,0.0352488,-0.0315104,0.210126,0.368426,0.1721,-0.109336,0.29968,0.067806,-0.239927,0.197031,-0.016364,0.165413,-0.156163,-0.258193,-0.115574,-0.112134,-0.188955,-0.29122,0.160329,-0.118094,0.307392,-0.146123,0.314719,0.073574,0.295706,-0.285025,0.204529,0.230763,0.00664386,0.347874,0.169494,0.362679,0.177056,0.398163,-0.0457595,-0.158727,0.223606,0.268126,-0.055031,0.0787011,-0.251912,-0.211771,0.192672,-0.155138,-0.278423,0.352382,0.0447981,-0.039671,0.043965,-0.273681,0.157103,0.147917,0.326191,0.289084,-0.0922239,-0.121833,-0.10846,0.0158086,0.385452,-0.00745568,0.34358,0.262465,0.373189,0.139051,0.396561,0.360991,-0.299765,0.0044862,0.316407,-0.215253,0.183465,0.0777825,0.0681264,0.293377,0.330143,0.128733,0.117133,0.116343,-0.0756035,0.236552,0.18103,-0.114805,0.16881,-0.247447,-0.0210639,-0.227046,0.102991,-0.268447,0.0751762,-0.14922,0.171523,0.0160008,-0.135997,-0.0791925,0.362529,0.00749838,-0.107285,0.335014,0.289105,-0.0899594,-0.0305918,0.0588122,-0.164602,0.279257,0.252766,-0.210404,0.0393292,0.162038,0.270519,0.0886776,0.0334117,0.0611407,0.263405,0.23683,0.216129,0.20878,-0.198227,0.372228,-0.224674,0.38385,0.171331,0.0205725,0.135783,0.157082,-0.124845,-0.22367,0.352318,0.19859,0.248943,-0.0549455,0.221149,0.0318735,0.0359325,0.105426,-0.0695151,-0.130934,0.118992,-0.298953,0.123008,-0.188421,0.0560991,0.121235,0.291305,-0.149434,-0.0833369,-0.0204871,0.0790856,0.251399,0.265178,0.150417,0.00916469,0.156932,-0.21081,-0.227323,-0.0893826,0.293591,0.218628,-0.220679,-0.0332194,-0.0852809,-0.167037,0.0629352,-0.143858,0.165734,-0.0963469,-0.163469,0.207755,-0.194873,-0.231874,-0.101282,-0.256804,0.366204,-0.0173467,0.262679,0.0269814,0.393228,-0.249263,0.25847,-0.00284129,0.0371502,0.374001,0.167934,-0.101794,-0.15533,0.222303,0.301581,0.287802,0.325187,-0.0296732,0.0768853,0.339479,0.130186,0.0969237,0.00722066,0.0132236,0.129289,0.294617,0.0610339,-0.184405,0.0172185,0.285922,0.100406,-0.0786157,0.336445,-0.206665,0.0586199,0.0786797,0.0492843,-0.0400556,-0.0342662,-0.0308909,-0.255373,-0.232579,0.282098,0.0455672,-0.0872463,0.248558,-0.151485,-0.281542,0.173446,0.240611,0.313074,-0.0866695,0.0911557,-0.0227088,0.343474,-0.12916,-0.237962,-0.234779,0.384661,0.111835,0.106964,0.242448,-0.129139,0.0384319,0.354817,-0.134352,-0.0485153,-0.00598165,0.350908,0.322965,-0.0597309,-0.24687,0.2743,0.119141,-0.152937,-0.236296,-0.201239,0.330207,0.00164494,-0.0868404,-0.218223,-0.0258278,0.328733,0.040675,0.115659,0.0949797,0.0839991,-0.233091,0.325443,0.306281,-0.0899808,-0.236424,0.047853,-0.10784,0.0216834,-0.0654775,0.37571,-0.188528,-0.119355,0.130058,-0.297971,0.202863,0.167891,0.266802,-0.251549,0.237107,-0.186071,-0.125529,0.0121342,-0.186071,0.0960051,0.241786,-0.184469,0.150096,0.161675,0.08323,0.193634,-0.0447981,0.188122,-0.201367,0.302734,0.342961,0.0365947,0.347426,0.185302,-0.226084,-0.188699,-0.0907712,0.375368,-0.122901,-0.0177099,0.25313,0.378552,-0.0529374,-0.218714,0.0870113,-0.188614,0.26364,-0.0694296,-0.0908994,0.0342021,-0.269216,0.0135014,-0.166417,0.261867,0.28182,0.0465285,0.212027,-0.0131382,0.0475966,0.0619312,-0.177355,0.29906,0.334822,0.260756,0.049263,-0.163469,0.0109592,-0.254881,0.0215338,0.351891,0.243153,-0.110532,0.23903,0.128156,0.187417,-0.139991,0.350096,0.029139,0.275518,0.141829,0.208203,-0.281841,-0.00384536,0.182952,0.377227,-0.270177,-0.182824,-0.285217,0.00754112,0.22899,-0.253835,0.358449,0.154946,0.241444,-0.0242683,0.275753,-0.0356548,0.0907285,0.310852,0.175347,0.0897671,0.325294,0.324631,0.132194,0.0728477,-0.129545,-0.259966,-0.0694937,-0.148323,-0.0103397,0.28385,-0.110681,-0.178274,-0.0109165,0.109806,0.179962,-0.179278,0.350395,0.238368,-0.205106,-0.14044,-0.0744072,0.109271,0.177526,0.170882,0.0788079,0.294061,-0.0283273,-0.102606,0.308866,-0.0344585,-0.0989532,0.391647,0.337428,0.170946,0.037257,-0.150887,0.196966,-0.194446,0.0661183,-0.0531297,0.0028199,0.234074,0.211664,0.00903651,0.0439222,-0.144115,0.127088,0.0714805,0.0763085,0.161995,-0.287909,0.267293,-0.14593,0.379705,-0.134074,-0.294809,-0.218073,0.152446,0.135505,-0.237577,0.223841,-0.0486007,0.368233,0.264217,-0.24796,-0.234159,-0.17163,-0.228306,-0.0290109,-0.231104,0.18699,0.350096,-0.299701,0.00608844,0.244243,0.0388806,0.151485,0.00296944,-0.00623798,-0.00373855,0.382311,0.238966,-0.211472,-0.260692,-0.236274,0.0845118,0.317304,-0.248003,0.0434736,-0.252104,0.351143,0.282845,-0.0595813,0.12916,0.0697073,0.203995,0.054796,-0.272527,-0.0738731,0.153899,-0.172207,-0.000662267,0.0602221,-0.164879,0.135762,0.114142,0.0193335,-0.0106815,0.252489,0.203931,0.29624,0.321235,-0.0350994,0.354646,-0.156783,0.39357,-0.22429,-0.264751,0.172121,0.364815,0.177911,-0.0881009,0.399295,0.191433,-0.0647725,-0.0561205,0.145225,-0.233241,-0.0468704,-0.0916471,0.247981,0.0182867,0.0744926,-0.249413,-0.000277758,-0.264837,0.284576,0.306793,-0.233839,0.047853,-0.0405255,0.396048,-0.00230724,0.131874,0.342576,0.328712,-0.107947,0.257381,0.383102,0.127793,0.017774,-0.0435377,0.221705,0.0102115,0.257573,-0.269643,0.356804,-0.174941,0.181371,0.367785,0.276437,0.0953856,0.208246,-0.103098,-0.00997654,-0.0392651,0.166353,-0.257253,-0.155886,0.267058,-0.0892331,-0.188678,-0.0430677,0.100961,0.00816065,0.373125,0.255586,-0.0847469,0.14781,0.267421,0.350758,0.242363,0.288528,0.199231,0.233091,0.043025,0.10047,-0.0488144,0.325486,-0.21348,0.311643,0.381585,-0.224055,0.00980559,0.118137,-0.268874,-0.074749,-0.247853,-0.132237,0.00982693,-0.0663747,0.312284,0.376073,0.385986,-0.0988251,-0.175262,0.384555,0.349263,-0.13386,0.202713,0.320145,0.06975,0.215509,0.0436018,-0.134523,-0.275304,0.292224,-0.0551378
