0.252154,-0.0389638,-0.173022,-0.0807764,-0.279042,0.172091,0.00541412,-0.0713857,0.29069,-0.244813,0.0271221,-0.170746,-0.0217342,-0.231795,-0.177669,-0.0596313,-0.0640739,-0.117375,-0.239519,-0.0253227,0.314842,0.0134315,0.0228431,-0.0495967,-0.27548,0.293563,0.0791383,0.101411,-0.213925,-0.25039,-0.0542247,0.337229,-0.161843,0.00431663,0.367015,0.144428,0.124251,0.379652,0.0927388,0.181234,-0.110463,-0.183573,-0.00285722,0.160478,0.327026,0.396519,0.322781,-0.131957,0.208843,-0.133252,0.0715722,0.00787382,-0.268605,0.159426,0.245242,-0.0654038,-0.284896,-0.282687,0.352449,0.15394,-0.217762,0.0986585,0.384288,0.349006,0.169701,0.285377,-0.225458,0.126432,0.277834,0.0652473,-0.0546405,0.227555,0.0263135,-0.0931833,-0.142787,0.20184,-0.0867929,-0.189252,0.261532,0.0923284,0.257096,-0.0600371,-0.213413,0.0266158,-0.297545,-0.084354,-0.0712255,0.36393,-0.222319,0.302905,0.00427891,-0.214908,0.194729,0.340798,-0.172083,0.292834,0.0537967,0.357866,0.266434,0.393604,0.175365,0.130638,-0.163169,0.12777,-0.00580328,0.218388,-0.0979248,-0.0629877,0.353627,0.339439,-0.171074,0.218099,0.0339496,-0.292605,0.256898,0.351577,0.140633,-0.287922,0.0572678,-0.135312,0.00610954,-0.152753,0.21641,-0.174557,0.110754,-0.115728,0.227843,0.0931047,-0.10514,-0.116644,0.227555,0.35707,0.353334,-0.163983,0.0602332,-0.123717,-0.014185,0.353118,0.101483,0.340405,0.310847,-0.129561,-0.0641952,-0.211617,0.394938,0.28923,-0.294134,0.185259,0.110297,-0.26185,0.23511,-0.199601,-0.0113023,-0.243619,-0.256371,-0.0137871,-0.13269,-0.00421433,0.0556647,0.308536,0.293572,0.0335313,-0.180135,-0.284471,-0.203901,0.301122,0.230323,0.103674,0.388088,0.0229353,0.0943239,-0.134933,0.394276,0.250299,0.115728,0.377496,0.28699,0.110424,0.230102,-0.281251,-0.082217,-0.0561827,0.0873344,0.0657443,0.212043,0.148244,-0.188125,0.265357,0.346284,0.301499,-0.0932691,0.0290245,-0.0529614,-0.0101268,0.272493,-0.15141,0.13787,0.306028,-0.0166255,-0.0282317,0.385259,-0.251186,-0.106445,0.050879,0.358267,0.285821,-0.0762954,-0.00604526,0.258248,-0.193904,0.0941874,0.124005,-0.281807,0.0384433,-0.036479,-0.207344,-0.0399742,-0.152315,-0.081779,0.245514,0.178395,0.189972,0.396891,0.384674,-0.148384,-0.257069,0.390536,0.321485,0.0557275,-0.210678,0.381317,-0.0213826,0.0589904,0.161653,-0.119703,-0.077668,-0.192085,-0.0566263,0.336477,0.0834367,0.350412,0.12324,0.0398546,0.0585596,0.215517,0.189827,0.232903,0.145325,0.111042,-0.11035,-0.0682744,-0.207866,-0.0608567,0.20538,0.0636093,0.333808,-0.200908,0.0932187,0.0483298,0.285103,0.1755,-0.151803,-0.298369,-0.142498,0.388242,-0.0997304,0.112701,0.187738,0.292225,0.348794,0.253251,-0.077079,0.104289,-0.184201,-0.222116,-0.134271,-0.142504,0.327358,-0.111768,0.123107,0.343654,0.0189496,0.0956274,-0.244656,0.0519719,-0.0477721,0.266985,0.172999,-0.223454,-0.149859,0.192185,-0.127822,0.269956,-0.0598497,-0.249594,-0.0261318,-0.251731,-0.184504,0.317997,-0.260005,-0.292051,0.285409,-0.00507977,0.125575,-0.0417588,-0.153197,0.0892565,0.169606,-0.259163,0.135783,0.0419493,0.0595874,-0.170153,0.0904158,0.322205,-0.12906,0.0881203,0.196577,0.288634,0.132003,-0.0305493,0.0312201,0.0416033,0.202041,-0.0413527,-0.0168081,0.24938,-0.0695532,0.209805,0.164203,-0.106456,-0.144115,-0.00117656,0.398929,-0.0960657,-0.162254,-0.156173,-0.108923,0.0309125,-0.217172,0.10808,-0.237633,-0.270019,0.22455,0.040985,0.0658274,0.195901,0.158543,0.162668,0.0609075,0.131828,0.374814,0.0615532,0.365799,-0.11293,-0.121153,0.108012,0.351842,0.247723,-0.0398545,-0.156237,-0.0849414,0.0117981,-0.00320511,0.154318,0.391618,0.34438,0.242065,-0.106967,-0.268431,-0.272055,-0.100014,0.349482,-0.186159,0.110937,0.118044,-0.154323,0.0179182,0.376175,0.221333,0.240513,-0.170825,-0.176563,0.300641,-0.0690163,-0.00878265,0.39229,-0.112559,0.0313146,-0.21801,0.211395,0.234092,-0.284491,0.245901,0.115295,-0.0911749,-0.286223,-0.272835,0.30383,0.354307,-0.266875,-0.0408824,0.379597,-0.0998154,-0.299743,-0.0465899,0.261997,-0.12066,-0.29402,0.129438,-0.210405,-0.0536312,0.133449,0.243877,0.108897,-0.0580981,0.35421,0.252885,-0.210067,0.101311,0.287674,0.270166,-0.0672112,0.155651,0.386773,0.342355,0.0206498,0.321858,0.160411,-0.272245,0.189577,-0.17646,-0.11125,-0.123457,0.0560494,0.147377,0.045451,0.308725,-0.0131433,0.277893,0.284234,-0.00794967,-0.162107,0.207372,0.197104,-0.293184,0.358247,-0.0337554,0.20405,-0.190942,0.186893,-0.0252217,-0.115014,0.0682233,-0.0769723,-0.23562,-0.181502,0.201114,-0.0873871,0.151454,0.0252613,0.0740113,-0.26854,0.334041,0.380938,0.293645,-0.000238069,-0.110838,0.313942,0.0609099,-0.193061,-0.0796455,0.339151,0.00544305,0.193817,0.0607165,-0.0621036,-0.121529,-0.0369542,0.275533,-0.0503151,0.224062,-0.137978,-0.049212,-0.223908,-0.00849513,0.0157331,-0.268896,0.366106,-0.0721771,0.350008,-0.0050893,-0.213831,0.208061,0.0828656,0.00722679,0.0279615,0.0321332,-0.274856,0.0599023,-0.0155835,0.254561,0.268172,0.146659,0.225704,-0.0197899,0.202221,0.24858,0.107179,0.0806336,-0.264406,0.00486414,0.258612,0.374081,0.264433,0.0510895,0.0626462,-0.0871548,0.0681822,-0.0341531,0.384327,-0.262867,0.164706,0.0382194,-0.232117,0.0304614,0.316825,0.392825,-0.054458,0.119804,-0.183156,-0.224363,-0.220567,0.291776,-0.162931,0.129915,-0.205682,-0.164014,0.279055,0.394837,-0.0979336,0.0936167,-0.189289,0.326535,-0.105365,-0.0586424,-0.282895,-0.112951,-0.00890411,0.163607,-0.042848,0.307798,-0.177873,-0.0464317,-0.0422249,0.046143,0.143018,-0.100729,0.228987,0.181749,0.0456536,0.297319,-0.165553,-0.162816,0.271474,0.0360441,-0.197223,0.38147,-0.206232,0.301317,-0.186597,-0.28995,-0.231451,0.155188,0.34578,0.24406,-0.0830148,0.121093,-0.286655,0.0518578,0.0567787,0.136507,0.282142,-0.165618,0.228016,0.308725,0.00427395,0.0730939,0.229913,-0.0649967,0.337512,0.0940968,-0.263332,-0.287659,-0.293293,-0.0699787,-0.222332,-0.192583,0.0750841,-0.0581213,-0.227937,0.114736,-0.0345907,-0.211423,-0.00151122,0.266618,0.118767,0.097136,0.184172,0.116415,0.0184181,0.0233314,-0.0991458,0.382808,0.266131,0.35437,-0.156356,-0.051911,0.250421,-0.244781,-0.106141,0.0166395,-0.218826,0.0872623,0.0243064,-0.277451,-0.264524,0.0253794,-0.0368132,0.386397,-0.112772,-0.110085,0.168679,0.223756,0.16633,-0.290592,0.0305326,0.183635,0.0303082,0.158793,0.0490845,-0.059559,0.0707079,0.263091,-0.288643,-0.187811,-0.149244,0.114544,-0.0878122,0.223185,0.313493,-0.287536,0.247955,-0.219399,-0.177532,0.0517579,0.0116251,0.395524,-0.105303,0.377194,0.237933,0.214826,-0.107773,-0.16342,0.224307,0.285816,0.22146,0.235289,-0.148787,0.124394,0.303619,-0.0618199,-0.236042,-0.28672,0.378724,0.117408,0.223139,-0.104144,-0.296771,0.0920711,-0.228997,-0.204615,0.184848,0.150409,0.149114,0.0238766,0.34429,-0.187588,0.39699,-0.193197,-0.171588,0.125073,-0.137284,0.291219,0.0684871,0.030098,0.0750827,0.0673814,0.305252,0.313688,-0.00710133,0.0665649,-0.219574,0.276675,-0.223691,0.366991,-0.275035,-0.0806811,-0.0821277,-0.238555,-0.191592,-0.198745,0.353927,0.235229,0.224004,0.158364,-0.293838,-0.0951812,-0.148741,-0.17077,-0.0208758,0.343981,0.255765,0.090482,0.0421238,-0.025609,-0.286849,-0.0511004,0.0544598,0.142871,0.265247,-0.123263,0.134779,-0.253729,0.130171,-0.149087,0.0311014,0.141574,0.0612011,0.282538,-0.0758685,0.398145,0.177632,0.090649,-0.00698134,-0.274991,-0.232502,-0.188648,0.271727,-0.260742,0.370591,-0.204589,-0.151827,0.301524,0.164882,-0.0175729,-0.272366,-0.216283,0.244986,-0.290367,-0.00778364,-0.201368,0.323014,-0.159593,-0.197051,0.0591112,0.237829,0.072736,-0.0304636,0.18903,0.214165,0.00750796,-0.180689,-0.245603,0.140875,0.341016,0.016781,0.0521758,-0.081943,0.167157,0.244261,0.300555,-0.249043,0.040421
-0.103337,0.183581,0.316729,-0.207462,-0.181698,-0.00427632,0.308122,0.0603808,-0.0851676,-0.170876,0.368574,0.00552741,-0.227648,0.260485,-0.284718,0.187275,-0.0693507,0.366216,0.0795128,0.278015,-0.275486,-0.262074,-0.249698,-0.130387,-0.149338,0.317638,0.055402,-0.231403,-0.0291824,0.0258419,0.0638328,0.125543,0.210542,-0.0951444,-0.255702,-0.203051,0.360936,-0.0519751,-0.0353794,0.285649,0.045966,-0.26207,-0.034481,-0.243634,-0.0381596,0.0639865,0.293207,0.0742539,-0.250375,-0.056658,-0.0733994,-0.2372,0.309318,-0.0851664,-0.218615,0.0274232,-0.184099,-0.270665,-0.07261,0.242558,0.345977,-0.0922496,-0.0985827,0.248833,0.373845,0.188576,-0.0476234,-0.143431,-0.151879,0.13709,0.000800963,0.303431,0.106396,-0.161764,-0.250904,0.162547,0.138935,0.34383,0.225496,0.248014,0.158669,0.397999,0.395992,0.214785,-0.0100497,0.311335,0.330604,-0.000364501,-0.267855,-0.294751,0.355642,0.000799037,0.00962466,0.00014781,-0.0215832,-0.158507,0.167303,-0.232601,0.0174515,0.116418,0.119386,0.118677,-0.176112,-0.0337294,0.013661,-0.1472,0.0265904,-0.222007,-0.0825348,0.33319,-0.112461,-0.242738,-0.0127603,-0.182082,-0.299697,0.171132,-0.170123,0.0130332,0.116232,0.306111,0.315149,0.372716,-0.266789,-0.161009,0.249378,0.115845,0.331139,0.369257,0.268532,0.283643,0.0883537,0.306102,0.0614548,-0.0919605,0.263324,-0.238933,-0.118073,0.313642,0.0767347,0.240436,0.158195,-0.275428,0.37675,0.384835,0.361079,-0.100317,-0.075985,-0.146315,0.0388095,-0.0350895,-0.0214163,0.000722157,0.377761,-0.131484,0.324971,0.137612,0.0993243,-0.172821,0.317933,-0.26782,0.152035,-0.0111761,-0.0148514,-0.260816,-0.192103,-0.0201927,0.0703926,0.108993,0.022461,-0.237907,0.250512,-0.0275093,0.168836,0.0700527,0.0122809,0.348112,-0.19665,0.349654,0.0232829,-0.231719,-0.0261489,0.171227,0.0799955,0.172142,0.329595,-0.0613951,-0.132346,0.16117,-0.159291,-0.134094,0.0188408,-0.0348911,0.189277,0.0438368,-0.0996165,0.114128,0.0388357,-0.132182,0.118342,-0.0342356,0.243406,0.348968,-0.12947,-0.219,-0.195887,-0.119123,-0.0647594,-0.101041,-0.166299,0.283527,0.0266336,0.00544827,0.238874,0.39557,-0.0956573,-0.256994,0.0770717,0.338499,-0.029948,0.15862,0.301403,0.0227373,0.235899,0.236573,0.248324,0.319008,0.39798,-0.0865,-0.118376,0.265424,-0.0981784,0.321455,-0.150326,0.134331,0.0317037,0.0571066,0.165278,0.227707,-0.0913492,-0.0767127,0.0689669,0.326078,0.333848,0.239985,-0.115704,0.161009,0.357652,0.370661,-0.276206,0.233012,-0.187279,-0.0365853,0.0563519,-0.151822,0.393086,0.350168,0.39428,0.0938932,0.313998,0.00412348,-0.289639,0.225416,0.338122,0.000275893,-0.256906,0.0877964,0.1002,0.0763111,0.100701,-0.159491,-0.282718,-0.158233,0.322608,-0.188269,0.316873,-0.26915,-0.0921728,0.14978,0.267607,0.146645,0.269821,0.296338,0.347912,0.393331,0.327352,0.0520685,-0.0638934,0.043452,0.189274,0.157549,0.256386,0.137547,-0.253979,-0.0401212,0.2656,-0.138868,0.322331,-0.111926,-0.185645,0.0985774,-0.294423,0.00888989,-0.132107,-0.29086,-0.0951106,0.284373,-0.280246,0.121877,-0.246228,0.103883,-0.115945,-0.10307,0.112472,-0.0880797,0.100013,-0.249608,0.0828535,-0.296686,-0.267337,0.388512,0.0921831,0.0085201,-0.195141,0.349381,0.0564076,0.140148,-0.0548208,-0.00299127,0.0831257,0.0236098,-0.0153103,-0.0317598,0.322006,0.381498,0.189031,0.214776,-0.276593,-0.103108,0.0579698,-0.159294,0.11348,0.224401,0.178549,0.381694,-0.0543298,-0.0271001,0.0653085,0.121126,0.238646,-0.269436,-0.0276909,0.291761,0.0585766,-0.0455599,0.311111,0.259545,-0.143779,-0.202783,0.359097,-0.264362,-0.182302,0.391927,0.393124,-0.185974,0.338984,0.366595,-0.168781,-0.117909,0.182168,-0.288238,-0.280762,0.399748,0.125025,-0.22824,0.044345,0.195883,-0.0397831,0.0815687,0.211556,0.376384,0.156946,0.121634,0.166291,-0.00609049,0.241215,-0.287482,-0.00154786,-0.227194,0.307086,-0.178753,-0.288039,-0.261234,-0.184503,0.300013,-0.206354,0.0489236,0.0921268,-0.168339,0.0667065,-0.0309007,-0.21777,0.201027,0.262974,0.0956151,0.173599,-0.133958,-0.202969,-0.031681,-0.155904,-0.0504682,0.178943,0.371558,-0.253102,-0.0762869,-0.151912,0.370255,0.289477,-0.190572,0.262528,-0.222163,0.317508,0.161706,-0.270157,-0.0972393,-0.1372,-0.135655,0.11204,-0.0295504,-0.235762,-0.196333,0.0897741,0.268309,0.021573,-0.154313,0.120448,0.309402,-0.209047,-0.013756,-0.226487,0.262661,0.181873,0.0978169,-0.0208219,0.246148,0.164913,0.0434607,-0.0272293,0.130268,0.0497834,0.180884,0.0704825,0.0479904,0.042763,-0.172269,0.0609464,0.0581081,-0.0574252,0.0106201,0.146144,-0.139685,0.0849446,0.368992,-0.183437,-0.193579,-0.205035,0.0365362,0.194875,-0.093507,-0.243998,0.0712916,0.333042,0.176621,0.354969,-0.243005,-0.00408755,-0.275861,0.313749,-0.253046,0.117286,0.0178385,0.26542,0.172285,0.161421,-0.0594062,0.185192,0.387547,0.37533,-0.0299504,0.234883,0.373943,-0.234387,0.284856,0.230629,-0.0268163,-0.115113,0.344325,0.29414,0.173359,0.361328,0.136553,-0.00572664,-0.180961,-0.243616,0.142406,-0.0582525,0.366869,0.284657,0.213886,0.3433,0.159464,-0.119371,0.0114238,-0.223585,-0.0618472,0.246442,-0.202045,-0.106245,0.368816,0.364687,0.03766,-0.283613,-0.00116312,-0.0882595,-0.00563232,-0.0753346,0.321331,0.254689,0.0778706,0.107523,-0.234313,0.166833,-0.266189,0.278477,0.0870019,-0.153532,-0.173285,0.117681,-0.0234412,-0.127119,-0.091757,0.250443,0.0656694,0.28361,0.0234778,-0.280286,-0.257198,-0.291698,0.246205,0.264567,0.158788,-0.257121,-0.105016,0.360985,0.139166,-0.201922,0.124143,0.137126,0.0779701,0.207689,-0.0634446,0.120552,-0.167859,0.230108,-0.183158,0.227815,0.0917637,0.327924,0.230254,0.154871,0.244732,0.25984,0.0843302,-0.121292,0.109859,0.268771,-0.0988448,0.0293548,-0.0405386,-0.298135,0.096044,0.140347,-0.0962091,0.345582,-0.190012,0.139058,0.0583658,-0.29027,-0.00681368,0.285134,-0.233235,-0.252603,0.0848374,0.0156061,0.100845,0.141885,0.38862,0.00868414,0.209654,0.247349,0.188622,0.222089,0.139238,-0.183351,0.203586,0.318676,-0.00472743,0.200669,0.125873,0.135902,0.370916,0.353801,-0.157419,0.310846,0.209671,-0.169913,-0.0146149,0.0183387,-0.171196,0.303817,-0.0947471,0.332618,0.370924,0.299408,-0.0787773,0.371861,-0.290711,-0.135228,0.336268,0.334198,-0.123812,0.07312,-0.128643,-0.0144622,0.137453,0.0865061,0.0119003,-0.292329,-0.114942,-0.234251,-0.286542,0.367121,0.169243,0.0624898,0.265392,0.0126551,0.0417131,0.0760261,-0.142213,-0.237096,0.332617,-0.190633,-0.251469,0.0903445,-0.166938,-0.189119,0.178698,-0.134722,0.00431664,-0.266855,0.231469,0.364528,0.386157,0.295706,0.0826906,0.00785263,0.126016,0.18413,0.239517,0.229953,-0.298633,0.0721871,-0.286004,-0.152654,0.0561906,0.398465,0.32834,-0.270693,0.224375,0.184376,0.198704,0.0340369,-0.238841,0.327145,0.395384,-0.0837451,0.0551827,-0.248878,0.124715,0.168951,0.342223,-0.246538,0.230221,-0.193627,-0.00613376,0.0270393,0.160809,0.348683,0.100988,0.296497,-0.198932,-0.28336,-0.174236,0.150365,-0.287899,-0.00198005,0.142589,-0.196186,-0.0205853,-0.208865,-0.0582261,-0.0214642,0.313662,0.289874,-0.0846926,0.130048,0.202657,0.0145947,-0.101627,0.211265,0.360899,0.352403,0.188455,0.30377,0.0730961,0.31362,0.213038,-0.198707,0.0787862,-0.13552,0.167964,0.28229,-0.00446714,0.0457781,0.399232,-0.248031,-0.0732752,0.337348,-0.0512456,-0.107134,0.151411,0.375408,0.237206,0.00323901,0.142607,0.185334,-0.0950575,-0.0375816,-0.0885689,-0.263125,0.0833628,-0.0957654,0.0234559,0.382635,-0.181969,0.0341899,-0.21527,-0.113054,0.216567,0.174538,-0.256359,-0.291288,-0.158408,0.371828,0.30629,0.142287,-0.0778424,0.0512602,-0.188943,-0.119531,-0.195849,-0.148551,-0.0387816,0.106023,-0.186699,0.12548,0.260091,0.272209,0.349853,0.24104,-0.15265,0.381584,0.390393,0.364919,0.28276
-0.277056,0.315481,0.0668722,0.374202,-0.126214,0.33681,0.32421,0.396963,-0.168464,0.14629,-0.232336,-0.199161,0.177694,0.15413,0.143603,0.152738,-0.0604548,0.148143,-0.0625707,0.210143,0.254144,-0.0676726,0.233894,-0.225294,-0.101022,-0.121189,0.353974,-0.0798424,0.293903,0.358693,0.349787,0.14365,0.133726,0.0741276,-0.204953,0.335398,0.0689488,-0.0339752,0.150652,-0.284919,0.380479,0.114938,0.144064,-0.0681688,0.171109,-0.185504,-0.152925,0.274065,-0.0772016,0.128712,0.0808018,-0.116049,-0.162632,0.215104,0.23961,-0.170293,0.0120355,0.0296556,0.0617706,0.324707,-0.234519,-0.013139,0.0379976,-0.0542842,0.0725238,0.397428,0.384905,-0.154131,0.112903,0.354776,0.274459,0.208014,0.299218,0.291479,0.0473911,0.335924,-0.0127585,0.181764,-0.299139,0.131447,0.136968,-0.295622,-0.11686,0.352821,-0.179038,0.0434517,0.0742835,0.102806,0.352913,0.350809,0.19629,0.138942,0.336027,-0.266382,0.329402,-0.0380156,0.293462,-0.101979,-0.125529,0.0681588,0.194887,-0.286177,-0.0601008,0.120379,0.12836,-0.0722507,-0.204901,0.232707,0.0390098,0.193812,0.266726,0.314976,0.383482,0.341151,0.0178364,-0.228578,0.315632,-0.0427979,0.392862,0.205332,0.161537,-0.201063,-0.13866,0.126792,-0.109519,-0.183466,0.0466073,-0.299165,0.347601,0.0974776,0.172055,0.348334,0.349193,0.212997,-0.18786,-0.268906,-0.0936338,-0.214612,0.0778505,-0.17101,-0.114252,-0.0521237,0.0276458,-0.0491729,-0.0368659,0.116857,0.130268,0.0777515,-0.118949,0.255564,-0.228435,0.384294,0.273702,0.240023,-0.0668165,-0.0651421,0.362135,0.212134,0.133541,0.00490684,-0.0172315,-0.173188,0.0600467,0.318393,-0.242564,0.281414,-0.121848,-0.0456782,-0.132428,0.0355253,-0.142987,0.313473,0.333713,0.000240354,0.288951,0.198204,-0.228823,0.0167688,0.238159,-0.003945,-0.278388,0.297663,0.308079,0.11961,0.322636,0.150501,0.259594,0.195216,0.0301291,-0.0436611,0.156776,0.249844,-0.156654,0.126853,0.0906507,-0.106966,0.249413,0.208104,0.14656,0.237127,-0.256697,0.258563,-0.133253,0.360204,-0.0649692,-0.0329941,0.277602,0.0504802,0.20165,-0.264229,0.0294873,-0.0666981,0.189442,-0.0979913,-0.0770788,0.226882,0.13864,0.215107,0.359814,-0.275629,-0.178505,-0.0540555,-0.295838,-0.251726,0.0717746,0.0474876,-0.210151,-0.0279791,-2.33406e-06,0.0411169,-0.0504416,-0.0381657,0.162012,0.144504,-0.18857,0.327831,-0.10942,-0.0762871,-0.0576757,-0.163184,-0.256063,-0.220673,0.266461,-0.118531,0.0844013,0.0461233,0.0577269,0.0551394,-0.252134,-0.171765,0.125143,-0.277395,-0.190919,0.135226,-0.214643,-0.155577,0.3066,0.148323,-0.24577,0.340023,-0.168146,0.287399,0.038435,-0.154485,-0.150816,0.192121,-0.230292,0.159023,-0.153324,-0.2947,-0.0459033,-0.180719,-0.114606,0.0611447,-0.0181984,0.117493,0.151911,0.0677903,0.0765983,0.288092,0.0748269,-0.106074,-0.180313,0.274671,-0.0868462,0.238435,0.0321622,-0.281361,0.38262,0.39814,0.252361,0.364858,-0.285551,-0.186207,-0.210644,-0.16143,-0.173011,0.310739,0.190732,0.0810399,-0.00300982,0.305254,0.305593,0.195104,0.21043,-0.0958486,-0.0205914,-0.198919,0.285107,-0.237575,0.0645315,0.143865,0.139287,0.0258888,0.0782094,0.350183,-0.098773,-0.269954,0.0981241,-0.114881,0.332131,0.17443,-0.174823,-0.300169,0.164189,0.04702,-0.00248426,-0.172838,-0.0861665,-0.182553,-0.205181,-0.0948376,0.382046,0.377771,0.311242,0.395434,-0.20121,0.141815,0.0369555,-0.221787,0.223567,0.0862912,0.129213,0.175654,-0.140949,-0.0539586,-0.192544,-0.0969912,0.0863745,-0.057314,0.358582,0.0923832,0.384964,0.365285,0.185245,0.382835,0.144229,0.0718705,0.0825878,0.329911,0.126446,0.240004,-0.224379,-0.272781,0.188745,-0.264853,0.00722678,-0.213449,0.028657,0.316341,0.302247,-0.221894,0.254135,0.354921,-0.29952,0.169287,0.0490064,0.18648,0.387478,-0.128963,-0.0701943,-0.130716,-0.188559,0.0236335,0.266678,-0.132529,-0.0825728,-0.16569,-0.135307,0.133405,0.183688,-0.298521,-0.0226674,-0.284747,0.297814,-0.0723894,-0.147753,0.050052,0.152413,-0.231309,0.374344,0.0786655,-0.104065,-0.185562,-0.190344,0.342003,0.328627,-0.152959,0.319323,-0.0111169,0.0680394,0.0761808,0.139717,0.361684,0.275149,-0.00400372,-0.0995691,-0.213437,0.0773072,-0.0387673,0.0820776,0.236637,-0.236011,-0.269919,-0.124326,-0.011185,-0.201092,-0.229245,0.353236,-0.0459587,0.126478,0.275889,-0.192734,-0.109717,-0.289725,0.185516,0.271213,0.282916,0.0878236,0.263794,-0.221464,0.104174,0.272238,-0.0741549,-0.130325,-0.0688434,0.0910801,0.261362,0.105965,-0.0608818,-0.00669118,0.153168,0.000617927,0.14409,-0.292929,0.0390051,-0.271403,0.116447,-0.113309,0.206098,-0.280412,-0.0623566,0.0312767,-0.223127,0.295558,0.321026,0.309477,0.0735826,0.0653423,0.169686,-0.12764,0.310005,-0.168056,-0.00801749,-0.00528976,-0.188953,0.222014,0.348026,-0.27751,0.305844,-0.200348,0.249487,0.0658524,0.0860733,0.070528,0.0795536,0.218671,0.184537,0.33903,-0.0369792,-0.258223,0.366224,0.0262057,0.251796,-0.00862803,0.176151,-0.195698,-0.0488628,-0.170391,0.346477,0.266809,-0.244371,-0.100533,0.210002,-0.0185845,-0.0779918,0.00204378,-0.292219,0.044958,0.342818,0.353879,0.249503,0.195451,0.0525794,0.366379,-0.2823,-0.110224,0.025406,0.127132,0.359508,-0.0922602,0.20265,0.317202,0.370075,0.394773,0.206248,0.152122,-0.190261,-0.00422599,0.268853,0.277995,0.0550643,0.395909,-0.0474723,-0.292199,0.121989,-0.075044,0.273203,0.0323725,-0.124781,0.133186,-0.194934,0.391947,0.148028,-0.0961513,0.191185,-0.0607606,-0.00739053,0.302337,-0.277137,0.381801,-0.01118,0.331408,0.219063,0.136588,-0.081601,-0.205787,0.269415,-0.018892,-0.248839,-0.0711523,0.0732891,-0.164871,-0.0651608,-0.178915,0.0324957,0.258132,0.140292,0.258191,0.133677,0.196239,0.157972,-0.270901,-0.217108,0.365591,-0.00997909,-0.168369,0.219053,0.299859,0.0385354,-0.100157,0.0735818,-0.145986,-0.166493,0.204577,0.204316,0.196502,0.398789,-0.160012,-0.0296508,0.368119,0.305991,0.259066,0.371913,-0.147753,0.305828,-0.143145,-0.27433,-0.267486,0.291238,0.374706,0.101195,0.275703,-0.0153046,0.0215822,0.385553,0.124999,0.399341,0.383536,-0.201358,-0.164374,-0.0322514,-0.0795478,0.338087,0.237964,-0.112525,-0.282872,-0.238131,-0.235048,-0.0180895,-0.105632,-0.00276439,0.124211,0.315375,-0.261056,0.181834,-0.0470835,0.372965,0.26494,-0.0778171,-0.164248,-0.162743,-0.137556,0.182696,-0.275649,-0.231368,-0.0537141,0.0794622,0.24261,-0.166373,0.0600234,0.102177,0.106389,0.176566,0.0491223,0.23591,-0.251948,0.0808356,-0.0421994,0.00304981,-0.118416,-0.0773983,-0.133123,0.0966066,0.183114,-0.0455808,0.118228,0.0297733,0.132738,0.324855,-0.0469259,-0.127665,0.193445,0.0742831,-0.0917593,-0.205259,-0.231346,0.207087,0.38625,-0.108165,-0.0870405,0.185853,0.359535,0.310028,0.242996,-0.0541232,-0.182341,-0.0531196,0.122408,0.276139,0.111134,0.0488238,-0.14121,0.360637,0.212681,-0.225057,0.0998508,0.0325327,-0.157217,-0.148794,0.0583317,-0.064931,-0.222337,-0.0154143,-0.245346,0.133785,-0.204828,-0.13685,-0.0942675,0.181841,-0.0291162,-0.0906514,-0.248907,-0.217752,0.176714,-0.286837,-0.250819,0.241966,0.00481645,0.10897,0.318975,0.271562,0.258221,-0.170637,0.0792322,0.319892,-0.164071,0.399081,0.151205,-0.106229,0.356926,0.39218,-0.230293,-0.0395764,-0.259431,-0.272775,0.288999,-0.220221,-0.296661,0.0224598,0.00503575,0.259281,-0.0235533,-0.0224359,0.396458,0.383923,0.00325897,-0.188644,-0.100585,0.213886,-0.163939,-0.279635,0.0197085,-0.200344,-0.0223037,0.085335,-0.100248,-0.190834,0.286343,0.294276,-0.0638742,0.216196,-0.200719,-0.293062,0.377444,0.0435341,0.390593,-0.271577,0.0877074,0.112433,0.0094979,0.0177139,0.309009,-0.110194,0.126119,-0.298493,-0.292493,0.18665,-0.172419,0.114803,0.241366,-0.00396078,-0.215223,0.338765,0.327059,-0.0736284,-0.255109,0.264815,-0.253539,-0.179032,0.160038,0.344381,-0.224662,0.212947
0.00808319,0.15951,-0.135276,0.11025,0.023281,0.374416,0.265424,0.0644435,-0.113034,-0.296914,0.0302834,0.208023,-0.00935569,-0.154469,-0.233303,0.119905,-0.164302,0.241239,-0.00709477,0.0066258,0.169821,-0.218696,0.265012,0.252854,0.231556,-0.0725408,-0.280369,0.232085,0.00096031,-0.205405,0.0114017,-0.269907,0.21623,0.0229156,0.0851742,0.372118,0.283035,-0.286989,-0.14202,-0.0944551,0.107049,-0.259768,0.15407,-0.166069,0.387399,0.233391,-0.122326,0.348462,-0.291657,-0.0811972,0.145685,0.248892,-0.243041,-0.177536,0.281776,0.314474,0.207896,0.139703,0.290211,-0.195001,0.199279,-0.25289,0.309896,-0.0493896,-0.144789,-0.219516,-0.233613,-0.0765388,-0.142428,-0.251201,0.0211276,-0.1627,0.236716,0.203913,-0.0618912,-0.228232,-0.12133,-0.251465,0.0653701,0.270921,0.0268513,0.386364,-0.0379494,0.310171,-0.0393606,-0.10004,0.143847,0.281426,0.0381216,-0.0193194,0.200923,0.384216,0.293557,0.366142,0.355876,-0.11121,-0.0475334,0.0249423,0.107988,0.244225,0.0857682,0.147556,-0.163949,-0.00350057,0.0395656,-0.124783,-0.289999,-0.0930993,0.376531,-0.166471,0.37791,-0.0811606,0.164863,0.188245,-0.223817,0.062639,-0.061057,-0.092192,0.34276,0.256637,0.286332,0.0364401,-0.0335794,-0.0982965,0.366474,0.17393,-0.141826,-0.104395,0.332651,0.0569779,-0.12223,0.29712,0.0495117,0.333549,-0.196288,-0.245947,0.178402,-0.254737,0.172276,-0.284914,0.138822,0.290391,0.183935,-0.0383194,0.398065,0.0834399,0.294332,0.360498,0.101415,0.199616,-0.00932938,0.280079,0.311194,0.302103,-0.225747,0.070357,0.350201,0.251287,-0.0536226,0.25626,0.316782,-0.0127306,0.320415,0.0323384,0.0785528,0.190513,-0.253292,-0.182931,0.110501,0.215059,0.296673,0.351137,0.0703234,-0.0203852,0.274829,0.300365,-0.20619,0.236212,-0.204247,0.246288,-0.00020387,0.189344,0.32059,0.323124,0.36959,0.184572,0.183151,0.0896955,0.0219888,0.0384562,0.373514,-0.212677,0.122314,0.0364018,0.247936,0.381085,0.352215,0.0626394,0.209182,0.123996,0.19052,0.394565,0.128873,-0.243636,0.220699,0.322156,0.0634143,0.0700015,-0.279471,0.220676,-0.271909,-0.256512,-0.265507,-0.24962,-0.210229,0.294142,0.215696,-0.102136,0.0230296,0.143914,-0.292169,0.138011,0.213285,0.0453249,0.165877,-0.166017,0.248188,-0.239848,0.192982,0.0525884,0.360688,-0.150519,0.270339,0.20372,0.082985,0.356915,-0.209693,0.398442,0.384242,-0.257256,0.34027,-0.277215,-0.184312,-0.138663,-0.0452578,-0.0853107,0.375341,0.0339744,-0.201706,-0.234049,-0.104167,-2.72402e-05,0.278622,0.208222,-0.0390248,-0.284709,0.359532,-0.180461,-0.121702,0.372013,0.172082,0.0215752,0.0867112,0.203268,0.399204,0.37051,0.249769,-0.0374873,-0.0765155,-0.251728,-0.00564862,-0.277779,-0.0858691,-0.0643102,0.152212,-0.205432,-0.246308,0.0755372,-0.122236,0.0185151,-0.0338493,0.222709,0.0774674,-0.290371,0.353058,0.367695,0.134504,0.220297,0.110768,-0.158408,-0.232474,-0.199047,0.00747421,0.291224,0.000988076,0.227405,0.12274,0.334742,0.389325,0.167801,0.21235,-0.23085,-0.227571,0.348141,-0.299315,0.0614263,-0.198544,-0.281034,0.173354,0.0819238,0.317372,-0.0420749,0.361718,-0.288046,-0.186886,0.310239,-0.202395,-0.20357,-0.126713,0.116642,-0.274687,-0.143273,0.218051,0.117881,-0.0359012,0.243478,0.0332015,0.301132,-0.118011,0.342383,-0.0680712,0.0509848,0.0958869,0.220794,-0.081235,-0.206566,-0.248048,0.113856,0.303133,0.0986592,0.00143497,0.245129,0.237959,0.198499,0.126523,0.284667,0.120064,0.322856,-0.277155,0.231127,-0.261564,-0.00506312,-0.292815,-0.0667112,-0.196789,0.178422,0.153662,-0.282941,0.140249,0.0340523,0.318188,0.0511643,0.0827882,0.375087,0.258941,-0.0804661,-0.0447655,0.36725,0.320165,0.214995,0.065226,0.279761,-0.0263803,-0.0641337,0.305789,0.316964,-0.000484817,-0.0974176,0.29045,-0.0476547,0.388939,0.369698,0.314581,0.380888,0.0549337,0.247745,0.26948,-0.180918,-0.165316,-0.288068,0.296004,0.373746,0.166945,-0.0720622,0.317248,0.0877629,-0.163924,0.243134,0.127205,0.111864,-0.247089,-0.105245,-0.0303157,-0.106974,-0.0295158,0.381544,-0.194018,-0.171032,0.21316,0.137521,-0.0162104,0.387379,-0.197175,0.0686632,0.10501,0.333541,0.265248,0.384591,0.232435,-0.135109,0.211735,0.288534,-0.199467,0.100217,-0.239655,-0.152519,-0.215349,-0.179555,-0.0941486,0.227805,-0.000179191,-0.196958,0.0951633,0.195007,-0.130385,0.253944,-0.27774,-0.226333,0.150014,0.280707,-0.199994,-0.129874,-0.0654236,0.303115,0.0156842,0.344023,-0.262461,0.247037,0.0313033,0.041061,0.0817241,0.0217805,0.237931,-0.137103,0.0728896,0.0294983,0.329697,-0.204493,0.102699,-0.209746,-0.00533893,0.0683148,-0.139281,0.151612,0.0882398,0.164633,-0.00979641,0.161697,0.203299,0.257628,-0.0329103,0.355295,0.0890758,0.189267,-0.151615,0.057554,0.129096,-0.129752,-0.138382,-0.250177,-0.0574248,-0.279427,-0.120983,0.284115,0.111489,0.114423,-0.245529,0.209113,-0.199338,-0.133278,-0.237025,-0.203898,0.175657,-0.279261,0.0210679,-0.294616,0.0707698,0.364371,0.228722,0.102112,0.13742,0.24199,0.010991,0.0692137,-0.19431,0.194564,-0.197149,0.294383,-0.210298,-0.116846,-0.252738,-0.196377,0.0868769,0.0383626,0.0562329,0.225342,-0.120735,0.379968,0.310312,-0.0745734,-0.201733,0.264836,-0.269877,-0.0745718,0.368917,0.299774,0.111742,-0.259097,-0.121332,0.0611666,0.152619,0.142851,0.192666,-0.00706244,0.356033,0.0722523,-0.0293392,-0.205341,0.246806,-0.160879,-0.109959,-0.0228331,0.0871845,-0.0927944,0.0483125,0.315861,0.0191747,-0.291659,0.133169,-0.245021,-0.274933,-0.205606,0.041904,-0.0966339,-0.0618995,-0.155316,0.342242,-0.122436,-0.213788,0.0754299,0.244369,0.0346377,-0.295757,-0.0636847,0.18664,0.237984,0.399132,0.252163,-0.297012,-0.292777,-0.0979534,-0.0961305,-0.22866,0.204157,0.196488,0.190706,0.306456,-0.0128446,0.24394,0.277856,-0.0862825,-0.103785,0.206085,0.369923,-0.24979,-0.0968351,-0.00529181,0.209779,-0.29062,-0.211402,0.120407,-0.244244,-0.00353668,-0.22843,-0.104735,0.119574,-0.218047,0.0612718,0.257936,-0.273817,-0.279056,0.0598511,-0.0384322,-0.115485,0.020801,0.379331,0.111067,0.0203585,0.140082,-0.00548522,0.178651,0.263266,0.20745,0.11903,-0.215974,0.0373613,-0.2646,0.0985953,-0.120997,-0.141631,0.0309647,-0.274043,0.111004,-0.134247,0.261043,0.268699,0.010273,0.215317,-0.111029,-0.292607,0.0735164,0.349657,0.234455,0.389099,-0.110544,0.16164,0.37243,0.0725814,-0.110706,0.0957934,-0.277514,-0.00993113,0.344451,0.377774,-0.252319,0.197185,0.00849453,-0.0799865,0.310759,-0.269733,-0.0589173,0.0120738,-0.0847262,-0.159814,0.178199,0.0225321,0.261396,-0.167391,-0.294011,0.0291054,-0.136937,-0.117795,0.00666768,-0.289902,0.254444,0.341451,0.223784,-0.000471856,-0.292076,0.0161522,0.312143,0.352646,0.126116,-0.266955,0.232708,0.219255,-0.0854038,0.365841,0.354376,0.371716,-0.115974,0.248706,0.205084,0.0779655,-0.0852232,0.0423229,0.0627471,-0.222519,0.116311,0.378087,-0.290614,0.352123,0.310174,0.3483,0.243588,0.232245,0.387349,0.37242,-0.228137,0.347225,0.255103,0.00168588,0.0793736,-0.0411007,-0.181163,-0.205426,-0.291285,0.372178,-0.164801,-0.0831503,0.314433,0.283192,-0.140701,-0.286554,0.363447,-0.253049,-0.266621,0.00467987,0.227082,0.0171731,0.144721,-0.268491,-0.277718,0.157382,0.280255,-0.0714172,0.28925,0.0711696,0.0369243,0.345565,-0.185928,0.338431,-0.111556,0.279402,0.0179251,0.11779,0.265907,0.153757,-0.292934,0.301935,-0.116582,0.00333465,0.107739,-0.120385,-0.260967,-0.204162,-0.214674,0.395597,0.319066,-0.142808,-0.243788,0.161401,0.157159,0.0265998,-0.184267,0.105464,0.0701677,0.00642103,0.37027,0.120022,0.203318,0.236243,-0.0952698,0.0906381,-0.170657,0.158965,0.270824,-0.13236,0.328919,0.20149,0.13725,-0.239523,0.281811,0.137924,-0.0278556,0.0183495,-0.0779824,0.172485,0.306461,0.183231,0.36569,0.18738,-0.143278,0.266119
0.166407,0.00656618,-0.266443,-0.260613,-0.175871,0.322401,0.0384459,-0.196633,-0.0168012,0.128057,-0.0333231,0.00610514,-0.252012,0.109728,0.307607,0.280141,-0.232786,0.133898,-0.122298,0.183123,0.396953,0.292383,0.167536,0.0931759,0.303799,-0.0667022,-0.0607941,0.354157,-0.184366,-0.0536912,0.357662,0.319134,0.378655,-0.0750143,0.291235,0.287278,0.234611,0.37848,0.264087,-0.117358,0.0708331,0.21322,0.296313,0.0710255,-0.141185,0.359538,0.316958,0.261725,-0.0640635,0.259956,0.28077,-0.209732,0.143447,0.196444,0.277537,0.131591,0.276523,0.375035,-0.135554,0.337166,-0.141493,-0.0594383,-0.290529,0.245361,-0.201567,0.144291,-0.123394,-0.238814,-0.261084,0.1348,-0.0594708,0.352158,-0.0429332,0.0946691,0.161839,-0.143343,0.224137,0.19663,-0.189662,0.0533023,0.288287,0.29689,0.269781,-0.113651,-0.0166049,0.0411359,-0.0941319,0.0955801,0.129449,0.105163,0.236436,-0.154932,0.130053,0.0383983,-0.115796,-0.0978773,-0.273275,-0.263529,0.0494135,-0.0420396,0.122676,0.0114006,0.0835605,-0.259098,0.029549,0.183913,-0.097118,-0.0823739,0.0534329,0.0682469,-0.278782,-0.170324,-0.226812,0.0706108,-0.159929,-0.0396792,0.224795,-0.224192,0.0790202,-0.118864,0.349148,-0.0600047,0.180977,0.275731,0.112588,-0.133254,0.0762395,-0.218005,0.26155,-0.0174458,-0.0596579,0.158349,0.217353,0.187484,0.330266,0.0123014,0.173275,0.30192,0.231646,0.394328,-0.197124,0.181049,0.304675,-0.299089,0.337663,0.217724,0.0588942,-0.215039,0.323574,-0.190708,-0.254859,0.0192771,0.218436,0.105026,-0.104073,-0.189476,-0.164104,0.211738,0.201456,0.311848,0.297555,0.173084,-0.246847,-0.0718106,0.101621,-0.0983862,0.339576,0.264517,-0.230444,0.379213,0.131509,0.310264,-0.224446,-0.199179,-0.262284,-0.289295,-0.0756381,0.0831629,0.265649,0.118409,0.281518,0.309996,-0.0260181,0.274684,-0.082649,0.23574,-0.0490219,-0.284189,-0.123721,0.218841,0.198112,-0.24779,0.326288,-0.291903,0.0624713,-0.18305,-0.298354,0.252052,-0.207765,0.229351,-0.203281,-0.244442,0.358304,0.373887,0.120928,0.0530288,-0.280739,-0.162848,0.17381,-0.178587,0.170731,-0.0976944,-0.0523542,-0.194325,-0.242305,0.34697,-0.177071,0.0764487,-0.112615,0.142317,-0.0426936,0.193641,0.0259536,-0.200634,0.336607,0.196949,-0.284366,-0.0412489,0.18958,-0.00381898,-0.208329,0.273499,0.0300884,-0.0197055,-0.0611366,0.178037,0.136201,-0.277567,-0.129969,-0.00669268,0.12265,0.396894,-0.142381,-0.237025,-0.281673,0.0833415,0.209901,-0.130252,-0.191513,0.180996,0.318478,0.12478,0.348954,0.200226,0.366618,-0.0174585,-0.186019,-0.14153,0.0313159,0.0723949,-0.215125,-0.249464,0.0618197,-0.00193864,-0.258113,-0.0882552,0.373108,0.299851,0.364816,0.153337,-0.167289,0.0259287,-0.295103,0.082845,-0.218963,-0.0885281,-0.163861,-0.11018,0.366393,-0.188839,-0.0549518,-0.187332,0.129785,0.382464,-0.231699,0.062284,-0.176289,-0.233821,-0.159602,-0.179228,-0.0999373,0.160433,0.0538592,-0.108689,0.349987,0.338208,-0.198834,-0.081792,0.032091,0.200836,-0.202744,0.348835,-0.0281179,-0.283482,-0.248408,0.0618408,0.0671802,0.142356,0.39094,-0.16959,-0.0156636,0.373707,-0.200335,-0.255656,-0.0217931,-0.180807,0.279535,0.0633569,-0.177264,-0.0511027,0.295042,-0.0789244,-0.015386,-0.189667,0.309754,-0.145667,-0.276148,0.063958,-0.126512,-0.223375,-0.241521,0.326792,0.070962,-0.227831,-0.0261236,0.180766,-0.110179,0.226383,-0.184964,-0.16447,-0.080762,0.270533,0.243225,0.294568,-0.163178,0.157742,0.192567,-0.276888,0.293039,0.245692,-0.289087,-0.136379,-0.145779,0.106505,-0.0806528,0.294064,-0.287434,0.234107,0.0744464,-0.0210935,-0.177951,0.0738884,0.0674605,0.00792823,-0.13005,-0.254662,0.246899,0.369084,-0.0556161,-0.122004,-0.105337,0.0547445,0.304656,-0.0650711,0.244521,0.344547,0.017995,-0.0558315,0.0742249,0.266611,0.166703,-0.288621,0.257802,0.177846,0.190721,-0.266776,-0.289177,0.367048,0.0692718,-0.0150074,-0.186705,0.12178,-0.293616,0.106144,-0.25429,0.258973,-0.17425,-0.0498909,-0.178665,-0.134039,-0.0634579,-0.172659,0.148478,0.0481169,-0.222805,0.107131,-0.189125,-0.170284,-0.199257,0.204635,-0.00462818,-0.193834,0.105309,0.121753,0.154023,0.0931797,0.374388,0.366592,-0.2631,-0.229846,0.233458,-0.0790004,0.174967,-0.234722,-0.217247,-0.0213876,0.052297,0.278794,-0.28385,-0.172505,-0.150989,0.290197,0.0845799,0.294973,0.0905679,0.0482805,-0.0855327,-0.268841,0.187837,0.0897785,0.240309,0.0492894,0.000818275,-0.216651,0.159849,0.0974396,0.212763,0.145783,0.371866,0.181942,0.0477555,-0.0722413,0.305987,-0.0853789,0.315144,0.216869,-0.195145,-0.093761,-0.182738,0.250986,-0.133959,-0.022394,0.103765,0.394914,0.103535,0.21029,0.307002,-0.127972,0.040247,0.309114,-0.158137,0.299306,-0.21137,0.0973986,-0.192977,-0.176433,0.229024,0.118312,-0.131042,0.106166,0.346598,0.26339,0.365472,-0.250409,0.234183,0.298648,0.111546,-0.0823914,-0.277262,0.213315,0.343092,-0.0570718,-0.252909,0.0604537,0.381653,0.268385,-0.0946241,0.0126736,0.355703,0.321144,0.0257878,0.303325,0.0619537,0.267038,-0.105569,0.377969,0.202443,-0.162999,0.0580266,-0.27599,-0.020837,0.378977,-0.0408664,-0.295091,0.0836402,-0.171497,-0.187338,-0.235257,0.164133,0.0441635,0.383802,-0.0667152,-0.195652,0.107328,0.0779557,0.195203,-0.199875,-0.0681467,0.299132,0.250125,0.166139,0.381126,0.288656,0.0351214,0.0586101,-0.264154,0.10301,0.329274,0.247169,0.0175847,-0.061318,0.313481,0.021949,-0.0961718,-0.233126,-0.190824,0.368228,0.342927,0.0825075,0.263922,0.394274,0.30627,0.0317996,0.309242,0.246952,0.380013,0.0242513,0.259959,0.298717,0.0424666,0.19051,0.18078,0.0403375,0.0219035,0.393847,0.285686,-0.23559,-0.216183,0.156776,0.198873,0.073434,0.144154,0.0100637,0.244455,0.197985,0.354068,-0.176268,-0.111052,-0.0433384,0.354979,-0.167956,0.00682237,0.045302,0.34897,-0.0921022,-0.106999,-0.110933,-0.0176442,-0.00163647,-0.10713,0.338922,-0.209402,0.0820539,-0.128389,-0.0484328,0.197957,-0.247208,0.194854,-0.16643,0.0222682,-0.00435556,0.343847,0.185222,0.279732,0.257957,-0.264958,0.0293975,-0.162262,0.381042,0.0661151,0.0583278,-0.0886231,-0.203704,-0.236584,-0.217109,-0.249013,0.0493992,0.146897,0.120612,-0.180454,0.259479,-0.108648,-0.196171,-0.298389,-0.0268011,0.199173,0.245291,0.0483363,-0.275875,0.0621732,0.242515,-0.0022518,-0.244862,-0.169504,0.0582018,0.0718626,-0.185027,0.161656,-0.23952,-0.102881,-0.21363,-0.127994,0.154699,0.0429635,-0.142832,0.0627845,0.293819,0.126297,-0.00859792,-0.158257,-0.0967539,0.381006,0.213838,0.111662,-0.00112828,0.235016,0.060429,0.0494494,0.238824,0.396191,0.11281,-0.0530226,0.28901,-0.109315,-0.231359,-0.0652342,0.240413,0.152302,-0.239144,-0.139266,0.357542,-0.090839,0.0848626,0.346873,0.098756,-0.0349193,-0.256652,-0.206131,0.187542,0.222218,0.165343,-0.042016,-0.0290554,0.340787,-0.186013,0.169737,0.150992,0.38465,0.0367544,-0.182483,0.321035,0.249231,-0.128472,0.36736,-0.00643803,-0.183477,-0.133873,-0.0582647,0.25112,0.0372112,0.32201,-0.271906,0.0079562,-0.115232,0.0180412,-0.159164,0.115874,-0.122061,-0.269514,-0.295687,0.194503,0.121191,-0.200562,0.185285,0.0287254,0.0571892,0.260389,0.141324,0.208939,-0.221133,-0.207214,0.00841738,-0.146679,0.299054,-0.100747,0.200988,0.0978229,-0.175831,0.074474,-0.0543636,-0.0182331,0.227248,0.171588,-0.28121,-0.277705,-0.230584,-0.0754685,0.313158,0.102664,0.265325,-0.0589172,0.301657,0.367997,-0.160073,-0.280905,0.323266,0.154673,0.17321,-0.200325,-0.138891,0.143545,0.0802402,0.114819,-0.164005,-0.0316144,0.122335,0.241792,0.185183,-0.0347483,-0.102233,-0.0826448,0.150615,0.396164,0.107262,-0.0702453,0.247212,-0.168378,0.143113,0.33966,0.332993,0.328308,-0.204084,0.344889,-0.247258,0.0824791,0.0291013,0.246483,0.279953,0.0974319,0.215825,0.0252133,0.322843,-0.0525893,0.0860515
-0.112697,0.0236195,0.0711737,0.279474,0.0917405,0.115911,0.381861,-0.0451239,-0.184864,0.170134,0.0291893,0.0463584,0.0638243,0.0870324,-0.0101648,0.11984,-0.103984,-0.0220842,0.0330018,0.22242,0.0579677,0.184026,0.134206,-0.125932,-0.199699,0.0738135,-0.0213644,-0.00367075,0.277653,0.180496,0.335011,-0.0728073,0.290466,0.00385551,-0.0624175,0.216139,-0.110272,0.249875,0.0553899,-0.151028,0.38575,-0.27419,-0.112083,-0.00132687,0.188,-0.128456,-0.127468,0.148596,0.221943,0.135414,0.229888,0.0822944,0.143148,-0.0200386,-0.0574829,-0.105392,-0.202714,-0.16869,0.291274,0.311245,-0.255912,-0.0537963,-0.0566243,0.370351,-0.0976342,0.0192118,-0.283221,0.361293,-0.0788603,-0.0985354,-0.185911,0.0663582,0.343163,0.0510045,-0.0482732,0.20259,-0.237936,-0.00660475,-0.12332,-0.0876673,0.344734,-0.296833,0.203243,0.297262,0.111242,0.0867994,0.346583,-0.154918,-0.250888,-0.209739,-0.199973,0.139927,0.259632,-0.106955,0.229967,0.0147815,0.297393,-0.27846,-0.0702261,0.0290623,0.320861,0.245644,-0.189656,0.328188,-0.00184896,0.386549,-0.129381,-0.22114,0.194454,-0.0954436,-0.278041,-0.272509,0.185829,-0.214143,0.309243,-0.0263394,0.0179528,-0.191696,0.109283,0.113264,0.0663057,0.296313,-0.25846,0.148056,0.00428879,0.0526173,-0.124734,0.195525,-0.253041,0.27126,0.067265,0.216962,0.368247,0.116157,0.217122,0.289913,-0.140205,0.0829795,0.368343,0.236414,-0.0601403,0.216347,-0.150837,-0.152851,-0.133251,0.200846,-0.123965,-0.0992707,-0.231284,0.307706,0.114732,0.322877,-0.0453116,-0.295674,0.324979,-0.116402,-0.193189,0.215451,0.380985,0.0819463,0.21918,0.138509,-0.00514202,0.108827,-0.109859,0.206217,-0.170995,0.242472,-0.0674181,0.000606151,-0.261127,-0.134897,0.0998572,-0.101041,0.0213813,-0.243105,-0.297339,0.172187,0.00439899,-0.245392,-0.187091,-0.291828,-0.131851,0.0302133,0.217936,-0.0199417,0.0308737,-0.119754,0.341642,-0.0686025,-0.228403,0.175847,0.378619,0.00311853,-0.0527398,-0.12924,-0.0380371,0.269055,0.262426,-0.29073,-0.281935,-0.291178,0.149422,0.0406802,0.221657,-0.217397,0.0234165,0.276614,0.208229,-0.266261,0.0646918,0.193695,-0.252076,0.0923985,0.298239,0.127655,-0.243191,0.397178,-0.188732,0.256223,0.0311004,-0.0883911,0.292797,0.216912,-0.211806,-0.0458961,-0.166472,-0.0460074,0.103698,-0.183287,0.357734,0.249239,0.31509,0.286819,-0.0632018,0.323357,-0.298318,-0.243026,0.361764,0.0622004,-0.00713414,-0.269734,-0.197717,0.0614652,-0.2808,-0.198188,0.254157,0.0406071,-0.232526,0.339092,0.29017,0.0132013,-0.0566193,-0.0757414,0.0119114,-0.124464,0.306863,0.190199,-0.0670726,0.394937,0.383295,0.220163,0.373581,-0.143892,0.219487,0.122247,-0.0872288,-0.142652,-0.118488,0.171104,0.165206,-0.197935,-0.0356108,-0.285553,0.032741,-0.113341,-0.282737,-0.261456,0.00803255,-0.170596,0.245049,-0.00104013,0.364722,-0.162556,0.293996,0.197552,-0.181386,0.158793,-0.210549,0.319212,0.196765,0.112802,0.0156019,-0.189736,-0.105647,-0.0432399,0.223793,-0.186289,-0.140636,0.171526,-0.149904,-0.267692,-0.015703,0.120191,-0.172321,0.0481177,-0.157522,-0.219824,0.280692,-0.138222,-0.147507,0.188641,-0.0206718,0.379682,0.00240776,0.000310549,-0.254067,0.0202576,-0.0757088,-0.092581,-0.211349,0.0575884,0.248896,-0.287441,0.162312,0.177994,-0.0773209,-0.185898,-0.0835905,0.067209,-0.0705725,0.278687,-0.0567234,-0.290856,0.391268,0.174087,0.182506,-0.195975,0.0922742,0.139876,0.394282,-0.108136,0.103083,0.348377,0.0585937,-0.207994,0.242629,0.357248,0.307331,-0.16109,-0.137981,-0.00356419,-0.0452427,-0.0673962,0.0846275,0.0837831,-0.268021,-0.128055,0.0863957,0.0230165,-0.215233,0.299569,-0.050469,0.176205,0.343188,-0.272204,-0.120001,-0.243169,-0.272517,0.263435,-0.0874888,0.246409,0.290336,0.00860219,0.397588,0.170588,0.368175,0.157183,0.398561,0.347579,0.334825,-0.139458,-0.112264,-0.16427,0.133565,-0.119873,0.0718524,0.298249,0.280041,0.00137465,0.0321354,-0.285063,-0.188412,0.0367883,0.117143,0.14607,0.380488,-0.124961,-0.232634,-0.00481904,0.157239,0.0161687,0.206804,0.365033,0.0467691,0.149434,0.393792,0.154518,0.288197,0.00597999,0.152483,0.39473,0.132025,0.0510995,0.277371,0.168942,0.368505,-0.0554408,0.248706,-0.28541,-0.291891,0.0354559,0.131121,0.054491,0.176204,0.313463,0.30284,0.0541841,-0.068982,-0.00346056,-0.0092799,-0.150452,-0.136471,-0.137014,0.150169,0.345551,0.290198,0.0142242,-0.225918,0.031283,0.0977543,0.0784501,0.260443,-0.192237,-0.152421,0.135934,-0.0696886,0.274481,0.199662,0.281798,0.326476,0.0738669,-0.0340447,-0.0994486,0.0746145,0.0417224,-0.143806,0.174416,0.0469125,0.0517195,0.118088,0.396759,-0.190334,0.315287,0.234716,0.0125471,-0.010384,0.321775,0.0922847,-0.241333,0.340268,0.168094,0.272498,-0.176907,-0.250167,0.279268,0.17937,0.29922,-0.132374,0.0651084,0.0636211,-0.244969,0.388497,-0.0961722,0.0489332,-0.015247,0.276081,0.0091582,0.124686,0.173665,-0.0372137,-0.127405,-0.188254,-0.259251,-0.0932361,0.223718,0.0562059,0.0844921,0.344175,0.0132665,-0.226719,0.000326579,-0.282457,0.165831,0.0845788,0.198854,0.120139,0.286897,0.270914,-0.214223,-0.268425,0.0872907,-0.105238,0.138504,0.188895,0.113447,0.200478,-0.265626,-0.2281,0.226675,0.352983,0.274348,0.336536,0.237646,-0.170966,-0.0474998,0.285107,-0.263012,-0.289305,-0.194279,0.103673,0.122412,0.198642,-0.285063,-0.247694,0.259056,-0.297825,0.173669,-0.257775,-0.00886562,-0.187965,0.399254,-0.113358,0.123503,-0.176019,-0.186294,-0.145027,-0.2009,-0.190329,-0.24536,-0.280954,0.195325,0.10782,-0.15072,-0.27561,0.0488026,0.134327,-0.0858595,0.270038,0.355594,-0.22264,-0.285274,-0.0682586,0.236136,-0.017731,-0.261125,0.213235,-0.0809778,0.191236,0.224671,0.159518,-0.161727,-0.259413,0.201525,0.0196271,-0.111262,0.178178,0.0736772,-0.115093,-0.259928,0.213693,-0.288661,-0.103263,0.0529236,-0.145723,-0.220668,-0.144165,-0.104492,-0.161678,0.369118,-0.0907952,0.0113757,0.331964,-0.242081,0.162229,0.226,0.383945,-0.0337651,0.190065,-0.0517463,0.0159366,0.238731,-0.213095,-0.14143,0.140727,-0.183735,-0.161518,-0.266506,0.0825333,0.219986,-0.251175,0.300154,-0.204106,-0.270884,0.107046,-0.130259,0.252271,0.357403,0.0317236,-0.0500422,-0.00141976,-0.280458,-0.028561,0.072264,0.247375,-0.0085777,0.101558,0.248672,-0.289292,0.05101,0.195499,0.38599,-0.065821,0.211844,0.210685,0.366839,0.243359,0.323677,-0.226579,-0.0580999,0.257669,0.363907,-0.0105014,0.0271471,0.286607,0.391475,0.172038,0.352722,0.0610844,-0.116286,-0.0756281,-0.0315806,0.120082,0.325995,-0.151621,-0.260149,-0.00632577,-0.11889,0.128206,0.0442269,0.315452,0.107904,0.0627232,-0.195526,0.203292,0.249703,-0.109736,-0.138166,-0.173093,-0.234898,0.277028,0.0336365,0.222498,0.024671,0.120456,-0.14654,-0.237144,-0.0575756,-0.0621439,0.0406996,0.335543,0.268286,0.279207,-0.00773285,0.252905,0.108899,0.352853,0.250033,0.236905,-0.298634,0.291464,0.337966,0.200118,0.00924194,0.349039,0.212099,-0.123403,-0.132802,-0.244594,-0.0729971,-0.083878,0.141346,-0.278331,0.161368,0.391933,0.232476,0.028463,0.297196,0.348699,-0.116216,-0.030072,0.208602,0.226946,0.0302545,0.111385,0.346917,0.296925,0.24938,0.219318,-0.0264791,-0.25803,-0.162479,0.314333,0.037934,0.0118406,0.087361,0.231618,0.0491385,0.30464,0.0877152,-0.291601,0.330323,-0.01752,-0.287987,0.00517015,-0.287283,-0.022,0.0259923,-0.0295042,0.0587314,-0.185078,0.0779166,0.158447,-0.0344259,-0.215678,-0.10038,0.210933,0.24287,-0.00289455,0.286755,0.304612,0.0147852,0.267506,0.0828498,0.290122,-0.261454,0.244594,-0.265341,0.3094,-0.207507,0.234386,-0.0544535,0.0247045,-0.276313,0.0444232,-0.00378816,0.243335,0.110181,-0.210664,-0.0451538,-0.122665,0.224207,-0.0196104,0.146603,-0.286594,-0.246049,-0.0466482,0.0132247,0.336402,-0.125917,0.344713,0.218659,0.0872414,0.0137535
0.272258,0.340242,-0.0151872,0.317192,-0.160739,0.201245,-0.194913,-0.148721,0.00947156,-0.0160477,-0.0503829,-0.156682,-0.0317458,0.172379,0.27673,-0.0903184,0.132403,-0.0245743,0.0495121,0.0631917,-0.290846,0.171135,-0.0334334,-0.0484794,-0.223962,-0.0800138,-0.0787952,-0.281075,0.0790237,-0.195256,-0.232372,0.242868,-0.190651,-0.0780708,0.234824,0.13691,0.385687,0.399108,0.0621949,-0.128058,0.171501,0.153547,-0.198873,-0.0892895,0.166466,-0.12181,-0.0333389,-0.297386,0.108144,0.155163,-0.23851,-0.169354,-0.187738,-0.0101331,0.174114,0.170249,-0.107118,-0.0247023,0.168897,-0.158536,-0.114379,-0.0390468,0.269179,0.21175,-0.169359,0.350344,0.150624,-0.0563504,-0.183187,0.396851,0.344287,0.132542,0.0577893,-0.181841,0.269873,0.131685,0.196741,-0.0887058,-0.104065,0.0141499,-0.2818,-0.0280919,0.058479,0.0654066,0.249528,-0.0953279,0.31026,-0.0431214,-0.26162,-0.0526078,-0.144917,-0.112275,0.298391,-0.0343277,-0.265314,0.0612614,0.0838445,-0.242864,-0.0854261,0.0688858,0.116849,0.0243023,-0.0596446,0.146381,-0.0978017,-0.151957,0.31622,0.293177,0.166363,0.128266,-0.0295533,-0.0976811,-0.143404,-0.290925,0.257441,0.191243,0.124264,-0.0263459,0.374349,0.1909,0.34705,-0.288618,0.2272,-0.208744,0.295225,0.255236,-0.169102,-0.131079,-0.186107,-0.117837,0.0773347,-0.273124,0.313029,0.269803,0.259239,0.0610096,0.137919,-0.176722,-0.0245047,-0.227509,0.0285925,0.14517,0.11675,-0.236759,0.219285,-0.235252,0.0474303,-0.0861452,-0.208598,0.0144339,0.386438,0.288818,0.147789,-0.0485458,0.105653,-0.233445,0.10371,0.324457,0.145132,0.346497,-0.137794,-0.224868,0.166392,-0.180567,-0.0197008,-0.218826,-0.0687296,-0.0399433,-0.00749597,0.133965,0.352302,0.326035,0.283481,0.0365951,0.283902,-0.0756535,-0.00604797,-0.0578002,0.190585,-0.0725989,0.14799,0.305023,0.387228,0.298591,-0.132189,0.0635813,0.0819681,0.314671,-0.203652,0.127691,0.288256,0.0371429,-0.133524,-0.00429461,0.0765744,0.129282,-0.0565741,-0.233321,-0.29158,-0.141453,0.290889,-0.120868,0.125116,-0.20333,-0.12399,0.337582,-0.257372,-0.0526895,-0.030644,0.154638,-0.282762,-0.193042,-0.160253,0.18293,-0.258143,0.205172,-0.268359,0.250845,-0.281181,0.121335,-0.00552822,0.0815537,-0.108227,0.223924,0.363705,-0.187448,0.0785506,0.0247943,0.170175,-0.207017,0.368102,-0.292334,-0.044702,0.36779,-0.25919,-0.187908,-0.298158,-0.0574738,-0.114733,0.0309189,-0.27225,-0.272939,0.134643,0.113248,0.161195,0.144126,-0.0647594,-0.0740969,0.158319,0.126231,0.351057,0.25511,-0.235757,0.358364,0.00880281,0.0184157,-0.0137992,0.00423689,0.112272,-0.140036,-0.222984,-0.114574,-0.0964405,0.0937517,0.205311,0.216977,0.0230252,0.183664,-0.199372,0.305442,0.0266947,0.305285,-0.249299,0.191681,-0.180787,0.292604,0.150812,-0.25403,0.375713,0.0132829,0.366961,0.112734,0.187317,-0.0307137,0.119735,0.190826,0.315061,-0.12973,0.361803,0.0583669,-0.210255,0.270703,-0.172699,-0.17035,-0.163615,0.135442,0.356836,0.255551,0.0646626,0.307455,0.059799,-0.162254,0.203369,0.136656,0.0170156,0.389607,0.317649,0.0723187,0.0958595,-0.298468,-0.208686,0.254054,-0.229734,0.0432181,-0.0943529,0.202787,-0.177291,-0.0270275,-0.19224,0.162385,-0.183474,0.270568,-0.203978,0.0794473,-0.168763,-0.1283,0.304042,0.28849,-0.0787751,0.0185321,0.0287686,-0.13669,0.213659,0.213269,-0.226613,0.224601,-0.000972572,-0.0262402,0.052358,0.168196,0.129499,-0.213855,-0.266296,0.371033,0.0801783,-0.14233,-0.143877,0.0782599,0.279007,-0.144453,0.305883,-0.188145,0.374776,0.348267,-0.212742,-0.206624,-0.154136,0.0143276,0.0712527,0.239029,0.0100153,-0.147213,-0.246629,0.215831,-0.157656,0.0624457,0.216504,-0.195238,0.0692665,0.105189,-0.0857903,0.17782,0.232623,0.234606,0.377013,0.0175205,-0.294115,0.307006,0.0637065,-0.297881,-0.0558864,-0.249424,0.151759,-0.228996,0.0552968,0.106989,-0.207316,0.200604,-0.224961,0.0215647,0.0196644,0.311286,-0.170799,0.214159,0.146664,0.21421,-0.224238,-0.122935,0.235841,0.146093,0.0956672,-0.0470608,-0.232044,-0.0164666,0.231136,0.338312,-0.185902,0.185751,0.0502021,0.151959,0.220744,0.164579,-0.0796071,0.0286469,-0.193409,0.225449,-0.124816,0.170281,0.210778,0.27765,0.0685547,0.117907,0.357278,0.0617802,0.181131,0.266493,0.390809,0.391459,-0.0122006,-0.0926043,-0.0456342,0.350832,0.143486,0.197885,-0.150471,-0.247629,-0.199398,-0.147117,0.36428,0.398433,-0.0840341,0.362375,0.394499,0.0423685,-0.245823,0.119779,-0.244011,-0.104125,0.347921,-0.125547,-0.286101,-0.0179616,0.32495,0.283495,-0.0891862,0.383141,-0.0326467,-0.0154349,0.0362665,0.166218,0.300086,0.162285,0.217539,0.156334,-0.225648,0.227993,0.0669141,-0.0648788,-0.139389,0.387794,0.164571,0.115301,-0.297489,-0.0838919,0.323366,0.295067,0.242474,-0.0874829,-0.192818,0.23733,0.0832488,0.0619913,0.146617,0.259741,-0.0123286,0.261705,0.329579,-0.000632039,0.383996,0.152174,-0.292547,-0.0609998,0.381169,-0.288123,-0.205678,-0.0629243,0.147251,0.243078,0.000171218,-0.130856,-0.21958,-0.184369,0.176536,0.129371,0.00552619,0.00185702,0.117823,0.0679235,-0.0728265,-0.243249,-0.211935,-0.161999,-0.0107127,0.287198,0.223591,0.23575,-0.251066,0.253544,-0.213652,0.373495,0.0262404,0.262052,-0.298133,0.398807,-0.253662,0.184908,0.273439,-0.00394025,-0.181592,-0.150922,0.299594,-0.126315,0.173293,-0.0333215,-0.0176594,-0.233007,0.216034,-0.18266,0.259474,0.187981,-0.00385108,-0.23907,0.249074,0.0232889,-0.229515,0.210495,-0.266512,0.0244662,0.145961,0.218467,-0.0263208,0.0979706,-0.216095,-0.0831483,-0.0137904,-0.286373,-0.141156,0.167586,-0.233899,-0.122815,0.340497,0.164779,-0.109688,-0.147322,0.102195,0.332478,-0.113272,0.392519,-0.0765696,0.0692731,0.202959,0.368962,0.0859602,-0.208957,0.363196,-0.0501087,0.02677,0.305162,0.235224,0.0221979,0.164562,-0.122707,-0.193381,-0.196726,0.0459249,0.226403,0.20116,-0.159057,-0.0723299,0.108493,-0.0938696,-0.246233,-0.0375267,0.315962,0.166805,-0.00523861,-0.124994,0.161272,0.21513,-0.200324,0.316287,0.174313,-0.225934,-0.091749,0.379099,0.17634,0.0240663,0.110618,0.157156,-0.247598,0.159683,0.209926,0.0365707,0.109476,0.323747,0.0513671,-0.00525121,0.314164,0.358516,0.22003,-0.291295,0.214746,0.248031,-0.263756,-0.0692563,0.238415,0.0965328,0.0742283,0.347448,-0.138353,-0.0836011,-0.0796021,-0.0252327,0.358074,-0.130267,-0.211995,0.204834,0.300757,-0.152047,0.231619,-0.244729,-0.0564972,-0.289173,0.152402,-0.159368,0.152833,-0.217609,-0.0579401,-0.285971,0.109815,0.141257,-0.126039,0.205683,-0.249063,0.369691,-0.131666,0.288932,-0.0221572,-0.280998,0.148157,0.120129,0.30361,0.0591925,-0.181204,-0.219816,0.256122,0.360811,-0.125872,0.140295,0.0106156,-0.226416,-0.0248827,0.0138615,0.276733,0.162894,0.399067,0.202289,-0.293435,-0.034674,-0.0942661,0.18184,0.352957,0.306308,0.21144,0.166255,-0.157832,-0.130246,0.12796,-0.123936,0.388015,0.143973,-0.140733,-0.255629,0.0137143,0.337519,-0.103856,0.109311,0.313035,0.0874431,0.317189,-0.0914806,0.31164,-0.241461,0.335676,0.221181,0.262215,0.363963,0.385933,0.193803,0.326609,-0.126931,0.309789,-0.227428,-0.207852,-0.121124,0.124962,0.289712,-0.0251303,-0.231493,-0.271806,-0.168557,0.334456,0.0560708,-0.16781,0.315466,0.0790385,-0.235869,-0.215903,0.136172,0.381429,0.362805,0.152441,-0.220695,-0.131941,-0.21237,0.143057,-0.137298,0.218184,0.231414,-0.170036,0.134411,-0.169875,-0.0674441,0.0558453,-0.14101,0.0878566,0.361043,0.192578,-0.280719,0.0930045,-0.291298,-0.0845083,0.085921,0.189876,-0.0907892,0.279077,-0.0244849,-0.0530514,0.173478,-0.247671,-0.0688106,-0.274317,0.0739887,0.098965,-0.13058,-0.0963514,-0.138388,0.262188,0.0203442,-0.125426,0.0575523,0.134722,0.191994,-0.00617802,-0.110575,0.0778673,-0.0898458,0.205635,0.121199,-0.124762,0.244217,-0.10187,0.0547795,-0.227705
0.0725488,-0.263448,-0.170091,0.294551,0.214184,0.222174,-0.0747716,0.00209167,-0.238517,-0.181541,-0.123307,-0.239331,0.144349,0.00185749,0.00792444,0.091304,-0.126233,-0.233433,-0.196262,0.187033,0.378445,0.253451,0.21145,-0.153792,0.292115,-0.0754741,0.0046568,0.318884,0.0021584,0.255437,-0.206367,-0.286927,0.117944,0.267293,0.316727,-0.0419357,0.268938,-0.129524,0.197267,-0.0288829,0.0913909,0.141335,0.100171,-0.274901,-0.286369,0.204528,0.272954,0.363362,0.198654,-0.15766,-0.195066,-0.141125,-0.146208,-0.196861,-0.0102316,0.164942,0.166909,-0.169452,-0.175027,0.1536,-0.221876,0.385621,0.0333265,0.0891051,0.0467832,0.38342,0.140139,0.333497,-0.0771439,-0.283657,0.091197,-0.269579,0.182248,0.285814,0.0453118,0.165008,0.335334,0.313928,0.0260819,0.34576,-0.131958,0.157788,0.0673561,0.00621488,-0.274877,0.397479,-0.263662,0.372506,0.294595,-0.0800912,-0.230656,0.394103,0.202905,-0.0292054,-0.196048,-0.215445,-0.119568,0.195856,-0.157615,-0.0309108,0.206323,0.343795,0.130186,-0.0143116,0.19216,-0.047362,0.0848301,0.137148,0.113949,-0.108631,0.0584902,-0.0597543,0.0517602,0.178528,0.269216,0.369451,0.24627,0.0500763,-0.0147629,-0.258322,0.231703,0.298056,0.396454,0.239415,0.354476,-0.148067,0.257595,-0.28165,-0.162871,-0.0751321,0.33762,-0.202607,-0.10346,-0.0039295,0.159197,-0.0231364,-0.223969,0.352019,0.263362,0.382739,-0.199061,0.357574,-0.21692,0.382931,0.0164719,0.179513,-0.239437,0.273338,0.117838,0.0339898,-0.107648,0.279748,-0.268426,-0.220253,-0.163234,-0.127088,-0.142277,-0.0705604,-0.231897,0.0438169,0.332002,-0.0998493,0.111836,0.335441,-0.282419,0.175967,0.04512,0.278424,0.185751,0.00337493,0.297349,-0.172698,-0.00536147,0.0925244,0.034714,0.0443079,-0.0742799,-0.154902,0.363385,0.0270667,-0.012624,-0.0184149,0.0355031,-0.271822,0.144542,0.0892747,0.0927591,-0.237684,0.284403,-0.137002,0.231295,0.148577,-0.123009,-0.139265,0.122922,0.284513,0.240483,0.0455028,0.376691,-0.000960177,0.0700077,0.335655,0.275177,-0.219163,-0.259797,0.0357189,0.270113,0.0292017,0.13995,0.369045,0.0714569,0.224161,0.349305,-0.0153178,0.314398,-0.0369782,0.217731,0.260137,0.0387112,-0.0402051,0.25315,-0.228242,0.0647924,0.0546909,-0.0189721,0.355051,0.300662,0.0303354,-0.217005,-0.0738503,0.364538,0.281927,0.374364,0.0870753,-0.0429631,-0.26238,0.0297356,0.185922,-0.0321513,-0.0231136,-0.183551,0.254411,0.0504999,0.342533,0.144884,-0.10562,-0.0494361,-0.00542502,0.295129,0.135292,0.320807,0.101837,0.329437,0.234203,-0.191882,-0.281435,0.249798,-0.0591555,0.246679,0.243047,0.00993375,-0.101218,-0.0588786,0.10455,0.141295,0.205296,0.175089,0.176373,0.302158,0.301324,0.0283913,0.160948,-0.290624,0.213673,-0.26191,0.144436,0.262293,0.0212364,0.28746,0.167507,0.217668,0.367056,-0.142961,0.10927,0.225676,0.188208,0.0227076,-0.268959,-0.214099,0.0853024,-0.0655413,-0.222944,0.332835,-0.196411,-0.239116,-0.221194,0.0101275,0.347319,0.033285,-0.239906,-0.15674,-0.100535,-0.0259122,0.0893625,0.0698157,0.368724,0.343708,0.376543,0.0365719,-0.264879,-0.109635,0.060925,0.0230935,0.317154,0.0373866,0.187394,0.201112,-0.269024,-0.108182,-0.0827372,-0.0111099,0.264964,-0.290579,-0.128757,0.0101881,-0.0598576,-0.200001,0.250994,0.117047,0.279492,-0.292544,0.236275,-0.114228,0.357317,0.0491362,-0.095494,-0.0543247,0.250735,-0.0513991,-0.0301433,0.0496029,0.265349,0.146507,-0.111728,-0.0539644,0.156612,-0.176395,0.125806,0.361867,0.119183,0.0205918,0.0367659,0.355074,0.0657325,0.288826,-0.0511843,0.247361,0.367421,0.0566347,0.30173,0.0951706,-0.122389,-0.254625,0.136681,0.109269,0.011128,-0.180367,0.383122,-0.0182638,0.200342,-0.193997,0.239842,0.0301861,-0.199508,0.364902,-0.202608,-0.281947,0.165905,-0.0506284,-0.00147276,-0.0390957,0.268788,0.336061,-0.216514,-0.122303,-0.11709,-0.038217,-0.282632,-0.00346058,0.203736,-0.149242,0.0460384,-0.225571,-0.173211,0.366629,0.377549,0.0401397,-0.243411,0.273553,0.136274,0.319719,-0.0324946,0.141017,-0.0137779,0.254006,-0.211346,-0.123543,-0.129524,-0.0324717,0.0348427,0.12021,0.163918,0.198184,0.255159,0.0871395,0.18573,-0.15313,0.221169,0.18934,-0.131126,0.156847,-0.27319,-0.0757519,0.233283,-0.11833,0.221554,0.0626803,0.0593892,-0.24828,0.248793,0.320723,-0.190514,-0.101879,0.111579,0.150566,0.393185,0.143538,0.0371944,0.134053,0.124097,0.119716,0.262637,-0.286456,-0.135292,0.0203994,-0.0869683,-0.0554382,0.106131,0.349627,0.294531,0.00433643,-0.0203182,0.0742375,0.373744,0.340868,0.147256,-0.0594115,-0.134268,-0.203118,-0.0328334,-0.135762,-0.197887,0.292865,-0.0173917,-0.0476173,-0.0986988,0.103461,0.129244,0.368254,0.112882,-0.187675,-0.190793,-0.203248,0.057831,-0.121299,0.028048,0.321211,0.23653,-0.0989532,-0.258235,0.269771,0.126382,0.211557,-0.0895092,0.341572,-0.159027,-0.2138,-0.293935,0.371778,-0.227347,0.204508,-0.229802,0.144713,-0.00959406,-0.156462,-0.230142,-0.185175,0.114762,-0.05958,0.247319,0.0443709,0.0418509,-0.29216,0.21113,0.21769,0.138369,0.0368075,-0.234564,-0.258919,-0.120874,-0.0289255,-0.0759475,0.0880356,-0.150458,-0.112369,-0.193613,-0.00145154,-0.215659,-0.232237,0.162294,0.392672,0.364922,0.19263,0.122176,0.207112,0.0468279,0.0482375,0.319887,-0.285389,0.239436,-0.0259788,-0.0153373,0.235119,0.309677,-0.0609498,-0.250419,-0.00162239,-0.0684023,-0.0190793,-0.127258,0.267464,0.0537278,0.191048,0.0187769,-0.217924,-0.293826,-0.118906,0.0968574,0.0317879,0.219076,-0.285089,-0.0972668,0.117602,0.0745155,-0.259795,-0.138882,0.212239,0.363917,-0.0956858,-0.0844063,0.0778027,-0.127836,0.188699,0.262979,-0.249542,-0.238816,-0.0537695,0.278638,0.0516107,0.374194,-0.124056,0.03023,0.234523,0.332555,-0.0807532,0.0261044,0.226383,0.0478298,0.0123065,0.0957471,-0.125251,0.219717,-0.221086,0.0487506,-0.142212,0.242852,-0.101859,0.209527,0.167784,0.393611,-0.169066,0.274449,0.127302,0.119185,0.240761,0.18825,0.0473816,-0.199273,-0.108417,0.086734,0.0870342,-0.287823,0.258705,0.202499,-0.0765851,0.0472138,-0.0641544,-0.119398,0.392288,-0.0646252,-0.226469,0.10126,0.207819,0.0202725,0.132899,0.255905,0.121319,0.220677,-0.0108736,-0.125849,-0.071717,0.0472133,0.269257,0.248088,-0.0170914,0.0961132,0.158428,-0.149114,0.32963,0.191903,-0.040823,0.19671,0.0111728,-0.198911,-0.0621675,-0.0614612,0.162166,0.3887,0.342853,0.151185,0.148024,-0.0608401,-0.271095,-0.00401538,0.158151,0.314056,0.271821,0.114249,0.213136,0.168126,-0.292224,-0.0537905,-0.104763,0.395428,0.282183,0.0226661,-0.0386881,-0.27212,0.341786,0.32572,0.347851,-0.242299,0.354923,0.165753,-0.0726141,-0.194296,0.193891,-0.228263,0.225657,0.207392,-0.135867,-0.058855,0.258727,0.0387965,0.114463,-0.0530892,0.0998735,0.153793,-0.287439,-0.151848,0.335099,0.354689,-0.179427,-0.298761,0.316939,0.168274,0.354561,-0.28135,-0.12395,-0.251123,0.162741,0.171822,0.399594,-0.119398,-0.0933992,0.185473,0.135973,-0.299807,-0.120742,-0.180133,-0.0644074,0.213009,0.0455436,0.388165,0.286392,0.32335,0.13807,-0.294638,0.253984,-0.248473,0.0939098,0.316405,0.185857,-0.240762,0.0658812,0.0992295,-0.111452,-0.0448218,0.293122,0.0909221,-0.262443,0.302841,0.0651556,0.332814,-0.0707527,0.30235,0.263961,0.381799,-0.265927,0.268169,0.318307,-0.214976,0.360672,0.174684,0.354668,-0.235762,-0.010169,0.291219,0.079469,0.00709204,-0.0117306,-0.221235,0.276437,0.212134,0.361053,0.270093,-0.146101,0.284448,-0.0478302,0.104999,-0.0735512,-0.27131,-0.24687,0.242833,0.164708,-0.0634909,0.328136,-0.175967,0.298525,0.11504,0.115702,0.302542,-0.292908,0.353727,0.31632,0.320892,0.281072,-0.224162,0.0248228,0.250183,-0.109677,-0.227879,-0.0824835,-0.0336908,-0.157381,0.26285,0.253086,0.384832,0.36678,0.385601,0.296732,0.0258472,-0.195001,-0.044412
0.327016,-0.0685927,0.249238,-0.204955,0.034137,-0.193984,0.303569,0.0796387,0.0715961,0.10586,0.113789,0.396497,-0.135135,-0.0606499,0.0359324,-0.0364117,-0.155746,-0.0825115,-0.106118,0.304866,-0.19663,-0.195375,-0.203357,-0.269674,0.150992,0.110639,0.35842,0.115442,-0.14184,0.285367,-0.199137,-0.0706365,-0.0401361,-0.159946,-0.222691,0.30567,0.133103,-0.031032,-0.104888,0.205519,-0.00995096,0.0888009,-0.22192,-0.230787,0.316154,0.177529,-0.14703,-0.196935,-0.203343,-0.180741,0.0859896,0.39428,-0.0461084,-0.0576976,-0.234373,-0.0890403,-0.15795,0.26308,0.354923,0.172256,0.218647,-0.190046,-0.190879,0.143053,0.150197,-0.149634,-0.0189917,0.0488392,0.155663,-0.208756,0.108964,0.355502,-0.244738,0.0739396,0.112255,0.0119043,0.0250527,-0.157902,-0.0131381,0.103784,-0.270195,-0.107509,0.133859,-0.186389,-0.174665,0.0897779,0.0963651,-0.0642953,0.00799551,0.369131,-0.146274,0.136747,0.0087288,0.0867957,-0.25514,0.322498,-0.207456,-0.0466483,0.364219,-0.00968476,0.182161,-0.088034,-0.0945703,0.327335,0.148317,-0.00895142,0.0990037,0.146538,-0.00458723,0.29908,0.0151735,0.208644,0.385313,0.180699,0.0763621,0.0209158,0.118506,-0.285221,-0.240274,0.268752,0.129786,0.063481,0.124225,-0.123623,-0.196314,0.261552,0.246493,0.129358,0.0787916,0.248404,0.10022,-0.0209688,0.137184,0.0288795,0.365283,-0.14701,0.0486648,-0.12025,-0.204981,0.183948,0.377318,-0.12616,0.23645,0.0974352,-0.094842,0.140516,0.324492,-0.0432493,-0.0156224,0.144557,-0.152385,-0.0894662,-0.116492,-0.210027,0.00842819,0.24049,0.0276771,-0.0613166,-0.126603,-0.140463,0.297215,0.244674,0.137679,0.150599,-0.207191,0.299263,-0.209105,8.62886e-05,-0.0689511,-0.110595,0.327082,-0.28464,-0.232438,0.15064,0.271595,0.382245,0.124679,0.0349651,0.261894,0.24905,-0.182556,0.366363,0.0729756,-0.106159,-0.15685,0.103546,0.119757,0.264352,0.250284,-0.117875,0.00803066,-0.258682,-0.0673105,0.261162,0.393908,0.222547,0.169964,-0.0595435,0.00642376,0.368462,-0.232659,0.278489,0.395186,0.0181087,0.108621,0.373721,-0.236801,0.20943,0.278941,0.236911,0.34158,-0.292399,-0.139558,-0.173045,0.172392,-0.212369,0.0798631,0.26686,0.0429802,-0.032136,-0.110624,-0.082761,-0.046136,-0.0588215,0.0686035,0.0258506,-0.2391,0.197636,0.0338013,0.028625,0.0602897,-0.206385,-0.273333,0.0152465,-0.231207,-0.145998,0.392385,0.246835,-0.22439,0.0615945,-0.202414,-0.16973,-0.0081254,0.227545,0.204231,-0.168165,-0.0971685,-0.206117,0.159988,0.352363,-0.265138,0.354204,0.308301,0.326141,-0.264027,-0.144154,-0.115841,0.0766151,0.300757,0.363943,0.0976096,-0.00136829,-0.281392,-0.15405,0.175282,0.276353,-0.00724533,0.368848,0.155626,-0.0668459,-0.00456262,0.353647,-0.291257,0.106785,-0.288825,-0.210815,0.084534,0.0473365,-0.255691,0.0494577,-0.150955,-0.157714,0.225549,-0.0889118,-0.0821448,-0.248991,0.101896,0.219047,0.154431,0.360381,0.247445,-0.107863,0.221543,-0.254539,0.173928,-0.0711877,0.275966,0.249604,0.181846,0.193025,0.182624,0.0539732,0.131029,0.0360661,-0.162181,0.367258,0.368624,0.154888,-0.0146712,-0.103556,0.197145,-0.074533,-0.192877,-0.271323,0.115158,0.211601,-0.223476,0.0949197,-0.279224,0.298048,-0.247637,0.232462,0.307783,0.33883,0.112646,0.324269,-0.163608,0.0818372,0.0873635,-0.0701307,-0.178472,0.340922,-0.295467,0.292021,-0.087594,0.092982,0.204636,0.0235643,-0.292187,-0.125843,0.236692,-0.0363184,0.384701,0.128711,0.192816,-0.288701,-0.224095,0.312734,0.0875301,0.218249,0.083523,-0.00556229,-0.151246,-0.14062,0.159811,0.0452092,0.024787,-0.25245,-0.0580923,0.276197,-0.132662,0.12316,0.171366,0.011442,-0.101288,0.0873752,-0.208747,0.0440862,0.328233,-0.00390973,0.0420046,-0.120793,0.316256,-0.10701,0.152657,-0.102474,-0.0381903,0.300354,-0.0460019,0.255357,0.202945,0.142185,-0.0960325,-0.155304,-0.290433,0.216008,-0.145651,-0.265569,0.0587048,-0.0113405,0.344667,-0.279939,0.068914,0.344597,0.0615248,0.088144,0.391412,0.0410288,0.242343,0.0427151,-0.0764612,-0.0863882,-0.142425,-0.0131534,0.247206,-0.214295,0.0664514,-0.192117,0.364438,0.0158185,0.364299,0.364319,0.0217197,0.346776,0.0157376,0.318995,0.198673,0.285707,-0.187807,-0.283103,0.161296,-0.0189892,0.223891,0.354595,-0.0584156,0.217655,0.0956288,0.338527,-0.0464658,-0.187316,0.360726,0.175741,0.302613,0.216061,0.112362,0.298419,-0.0985083,0.206,0.0165032,0.367352,0.0501555,0.286786,0.395679,-0.149589,-0.0123335,0.371385,-0.123945,-0.277665,0.276357,-0.136422,0.127521,-0.114975,0.127667,-0.185255,0.178593,-0.143599,0.333498,0.176343,-0.153482,0.11532,0.00376889,0.220743,-0.0361626,-0.234984,0.174078,0.0510483,0.0361897,-0.20077,0.39607,0.0734222,-0.0877491,-0.0802657,-0.0350429,-0.149227,-0.191556,0.307713,0.394148,0.214189,0.363887,-0.205934,-0.200491,0.251866,-0.13354,-0.281646,0.298453,0.0422029,0.12998,0.0345101,0.187791,0.0637508,-0.0394861,-0.246115,-0.292542,-0.255518,0.292166,0.168705,-0.156266,0.0773972,-0.0690483,-0.139382,-0.103453,0.169634,0.386868,0.242518,-0.14862,0.355771,0.134873,0.115539,-0.0200446,0.334158,0.279208,0.107095,0.222884,0.0638356,-0.134063,0.377193,0.162446,0.273803,0.022423,-0.164496,0.0463595,-0.167949,0.0565546,-0.123109,0.176953,0.121935,-0.193513,-0.124859,-0.185415,0.360936,-0.23085,0.0363849,-0.0864118,0.334483,-0.00558877,0.246704,0.347765,0.0588011,-0.221461,0.035797,0.130166,0.249031,-0.155705,0.170616,0.39772,0.119976,-0.0638622,-0.190382,-0.246005,-0.121377,-0.179487,0.236883,-0.053931,0.243173,0.123618,-0.012464,0.271998,0.0491468,-0.209981,0.111746,0.0861171,0.379317,-0.102616,0.165,-0.293407,0.168441,0.111455,0.180316,0.190334,0.126076,0.315878,-0.283624,-0.0220161,-0.0653925,0.00390591,0.126109,0.0710823,-0.0475757,0.257992,-0.253521,0.355642,0.086685,0.211369,0.0530628,0.12247,0.0668651,-0.17598,-0.122999,0.0985872,0.0837054,0.148248,-0.0633249,0.154365,-0.282049,0.332228,0.369566,-0.219512,-0.270454,0.0355383,0.222241,-0.286168,-0.266497,0.194442,-0.210875,-0.0971508,-0.171153,0.323679,0.0506211,-0.111366,-0.098137,-0.0155694,0.103131,0.296069,-0.213322,-0.195083,0.13079,0.305533,0.285282,-0.108521,0.319079,0.309559,-0.158078,0.107696,-0.255435,-0.287451,0.172084,0.0629364,0.35841,-0.212239,0.235911,-0.212856,-0.211674,0.146205,0.266176,0.333356,-0.229617,0.130988,0.125795,0.391699,-0.0451665,-0.00883199,-0.281316,0.0410562,0.37888,-0.149196,-0.273938,0.0309454,-0.146254,-0.274913,-0.112326,0.0310319,0.271428,0.00526863,0.0982514,0.317984,-0.136499,0.0510832,0.146612,-0.149162,0.123146,-0.0735994,-0.133647,0.107252,0.327412,0.115196,-0.281152,-0.0750898,0.160586,0.0361946,0.0808905,-0.181675,-0.214943,0.0180313,-0.0389409,0.32419,0.357615,-0.157656,-0.2869,0.243532,-0.062808,-0.0937694,0.0730971,0.321058,0.377112,0.230937,-0.0128401,0.0496471,-0.14409,-0.143833,0.254965,0.1279,-0.0593416,0.243935,0.0572031,0.361077,-0.275481,-0.155548,0.395504,-0.0683974,0.344599,0.238483,0.109076,0.333707,0.120485,-0.195605,-0.101729,-0.296556,0.109242,0.239887,0.0135075,-0.184242,0.332632,-0.229516,0.0496537,-0.190735,0.16298,-0.218038,-0.19603,-0.00502552,-0.0808247,0.113344,-0.178422,0.300125,0.370462,-0.0673249,-0.0951237,-0.0664696,-0.00362076,-0.245156,-0.191568,0.288474,-0.00801255,-0.195379,0.384033,0.193608,0.0752498,0.0826066,0.308039,0.218591,-0.0144888,0.159592,-0.0462995,0.24577,0.225889,-0.162701,-0.163357,0.0188609,0.141275,0.0986126,0.302127,0.168598,0.184216,-0.0988502,0.3788,0.143522,0.158606,0.131884,0.365878,0.331302,0.296524,-0.236311,-0.218831,-0.0960449,-0.243692,-0.251686,0.138843,-0.228506,0.0984634,0.381614,-0.020834,0.0832425,-0.0758302,-0.0342384,0.0195864,0.251343,0.13569,0.122597,0.259721,0.0408487,-0.29258,0.367326,-0.106934,-0.0931666,0.0175911
-0.101008,0.0685916,-0.192823,-0.266246,-0.272479,0.0540511,0.284948,-0.289752,-0.0152903,0.146175,0.156097,-0.125031,0.231288,-0.234058,0.165677,-0.127524,-0.271588,-0.093012,-0.0195536,0.146281,-0.132279,-0.243195,-0.0282793,-0.183642,0.138424,0.157167,0.0417084,-0.0588766,0.322819,0.250805,-0.0322714,0.118004,0.279882,-0.0580532,-0.190574,-0.188779,0.255554,0.146296,-0.0537075,0.0614798,0.0303165,0.142146,-0.00443028,0.171606,-0.138295,0.117223,0.395655,-0.284408,0.143416,-0.202264,0.268017,-0.241576,-0.078554,-0.133255,0.271867,0.356546,0.296563,-0.127371,-0.142178,0.108719,0.245591,0.00474227,-0.266782,-0.277584,0.0164754,-0.239361,0.344292,-0.0120619,0.292995,0.174394,0.18543,0.304211,-0.292259,-0.176573,0.146236,0.0539383,-0.108556,-0.295537,0.201524,-0.120486,0.349921,0.169362,0.273807,0.251081,0.0329324,0.116764,-0.0675219,-0.0201707,-0.199418,-0.135442,0.397466,-0.243199,0.265728,0.34811,0.00310975,0.0973313,0.376633,0.0959184,-0.122364,0.147243,0.370871,0.132662,-0.199526,0.0282346,-0.279253,0.0486643,0.300388,-0.0913753,0.0239833,0.298342,0.0475672,-0.152106,-0.0394028,0.242575,0.397435,-0.0999872,-0.0505477,0.0284619,-0.1384,0.341512,0.156234,-0.00328251,0.140578,0.121736,0.355376,0.131333,0.202276,0.347374,0.0257331,0.225995,0.0412167,-0.245861,0.160695,-0.22675,-0.292254,0.15744,0.273852,0.38688,-0.172756,-0.28317,-0.192054,-0.0710145,-0.28222,-0.255186,0.193668,0.0564265,0.0106885,0.0611594,-0.0269384,0.283038,0.287096,0.235668,0.262057,0.24169,0.0409366,-0.0816967,0.338123,0.0627884,-0.224568,0.211269,-0.0747162,0.239521,0.0469611,-0.0365641,-0.117722,0.00795297,0.145168,0.152997,0.364377,-0.182713,-0.136457,-0.264934,0.0388715,-0.115451,-0.280794,0.323714,0.355447,-0.247699,0.259292,0.281707,0.244686,-0.0771944,0.0567394,-0.214183,-0.084173,-0.0144543,0.0229553,0.249527,-0.118681,-0.0896438,0.292009,0.0572247,-0.167243,0.335463,0.171048,0.108433,0.307204,0.109602,-0.0281424,0.105476,-0.112634,0.227998,-0.178592,-0.192026,-0.0441503,-0.185708,-0.119684,0.172198,-0.0438254,0.281964,-0.145335,0.387429,0.0552393,-0.150434,0.144374,-0.245656,-0.187078,0.119822,0.381699,-0.296765,-0.0977059,-0.0937779,-0.158883,0.19699,-0.293534,0.121432,0.368219,-0.191093,-0.0526196,-0.19107,0.174868,0.0427465,0.335441,0.117305,0.178796,0.0650607,0.0512279,-0.173031,0.0510503,-0.0833103,0.0974102,-0.0894762,-0.0114243,-0.20939,-0.0543364,0.0230659,0.142258,0.134579,0.141665,0.246494,0.384399,-0.0509298,-0.237982,0.0357314,0.0334347,0.166944,0.399189,0.0154784,0.260766,0.371263,-0.0352437,-0.00524373,0.353115,-0.0716401,-0.101204,0.190693,0.393833,0.219257,-0.0406075,-0.209158,0.104313,0.11308,-0.0185161,-0.191148,0.120086,0.290075,0.298954,0.165778,0.367086,0.155572,-0.107428,0.0777467,0.373749,0.141599,0.0698684,0.0453136,-0.297416,0.143973,0.157999,-0.155726,-0.156938,-0.118082,-0.0318432,-0.0831675,0.138056,0.356876,-0.236288,-0.132807,0.29216,0.268302,-0.136893,0.0305887,-0.0655605,-0.145555,-0.291616,-0.143623,0.0774237,-0.236868,-0.0519055,-0.2467,-0.246087,0.380514,0.347652,0.136148,0.359843,-0.278179,-0.116381,0.144157,-0.196383,0.237479,0.229352,0.241727,0.183471,0.215516,0.113172,-0.0138584,-0.12696,-0.238339,-0.0890651,0.06971,0.0683926,-0.206624,-0.208005,-0.0649095,0.157245,0.266537,0.269295,0.0461171,0.0673239,-0.121538,0.371344,0.125581,0.0623888,-0.0901704,0.189542,0.349818,0.0250653,-0.185795,0.203152,0.296183,-0.0869675,-0.20901,-0.0412201,-0.144857,-0.0792154,0.0315286,-0.297763,0.368386,-0.0676074,0.00394852,-0.176472,-0.265325,0.294187,0.060507,0.32098,0.0480263,0.00991438,0.312285,0.0578643,-0.221807,-0.0376076,-0.215182,0.0953002,0.282045,0.27513,-0.128182,0.39858,0.0587576,0.128761,-0.273607,-0.220139,0.227996,0.331934,0.183775,0.284819,0.239036,0.167755,0.368043,-0.0153706,0.291959,0.00389709,0.0853957,-0.122572,0.00731579,-0.189804,-0.179329,-0.223598,-0.0242116,0.154255,0.287173,-0.237891,-0.0401381,0.010682,0.315972,0.290288,0.376854,0.091435,-0.0631943,0.0462989,0.113307,0.394487,-0.250522,0.0120921,0.124138,-0.0219351,-0.0724102,0.24504,0.255038,0.304548,-0.245619,-0.0451732,0.146379,-0.195273,0.338618,-0.0553584,0.0398942,-0.0674471,0.208216,-0.17315,-0.2173,-0.129673,-0.280692,0.267724,0.211947,0.130832,-0.209547,-0.121839,0.331709,-0.0599772,-0.297122,-0.193295,0.0725092,0.22288,-0.237416,0.0401333,-0.0712788,-0.104564,0.269974,-0.226823,0.279886,0.0867294,-0.201523,-0.142668,0.0743271,-0.23123,0.333513,0.097927,-0.203387,0.243152,-0.156128,-0.110812,-0.00898539,-0.138754,0.172462,-0.143628,0.260674,-0.08629,0.310336,-0.277088,-0.181794,0.264636,0.107017,-0.150194,0.302575,0.0851731,-0.0733733,0.257524,0.0437402,-0.250635,0.292487,0.398972,0.0942523,0.34206,0.299581,-0.219683,-0.0156254,0.352813,0.269381,-0.0970948,0.0504684,-0.000648938,-0.271327,-0.072772,0.185679,0.154683,0.349311,-0.192565,-0.0540647,0.0224387,0.0656056,-0.159992,0.373985,0.13521,-0.0812828,-0.158378,-0.118427,0.12484,-0.0109976,0.201384,-0.066089,-0.0748952,-0.290635,0.351299,0.292297,0.167386,-0.0678362,0.361923,0.24145,-0.0617083,0.287612,-0.173972,0.283147,0.232326,-0.24511,-0.248544,-0.290447,0.0965476,0.277046,0.197817,-0.0885172,0.0891664,0.326525,0.0871142,-0.207182,0.0415351,-0.0599245,0.342618,0.0963991,0.15593,-0.0227202,-0.0458895,0.221903,0.13091,0.273669,0.155102,0.172198,-0.265075,-0.236263,-0.0160663,0.268379,-0.275038,-0.244304,-0.173454,0.0865719,0.240701,0.0900947,-0.279055,-0.238072,-0.244169,-0.0717896,-0.0995084,0.216191,0.123035,-0.151794,0.173361,-0.168642,-0.203619,0.213655,0.01246,0.242589,0.366397,0.207096,0.148127,-0.113325,0.0980193,0.167764,-0.17017,-0.152854,0.285976,-0.258097,0.378186,-0.049311,0.235591,0.081693,0.0645651,-0.141684,0.39846,-0.205188,0.0398854,-0.0937069,-0.0755269,-0.0985008,0.0844756,0.324452,-0.199404,-0.229273,0.351611,-0.0990876,-0.067514,0.00814128,-0.188359,-0.273965,-0.0852614,-0.122558,-0.138937,-0.226859,0.277534,0.311404,0.295671,0.237554,-0.0659724,0.0991543,0.321697,0.331942,-0.0825952,-0.197081,0.191424,0.112657,0.0502541,0.309708,0.0593028,0.164118,0.0143189,0.03451,0.0163742,-0.189019,-0.127698,0.120664,0.0230756,-0.126085,0.30704,-0.0672418,0.188738,0.161362,-0.269817,-0.127767,0.117386,-0.222285,-0.25647,0.156852,-0.134343,0.274077,-0.0336191,-0.0486357,-0.161696,0.113466,0.0344726,0.197325,0.0624192,0.0677284,0.311393,-0.141246,0.378678,0.313222,0.161787,0.097335,-0.139563,-0.239107,0.0607428,-0.193719,-0.167322,0.0855601,0.0955132,-0.172325,0.396259,-0.22652,-0.282781,-0.0412733,0.389936,0.261209,0.393232,-0.206348,-0.146362,0.392963,-0.0606198,0.0993016,0.198789,-0.140575,-0.221485,0.370503,-0.274276,-0.247965,-0.127479,-0.247539,0.0395113,-0.107525,-0.176935,-0.205766,-0.0246408,-0.0336492,-0.2424,0.122471,0.278528,-0.0742871,-0.0987775,0.171953,-0.118849,0.396062,0.147964,0.189063,-0.00313376,-0.0561835,-0.0596852,-0.0576184,0.367921,-0.256076,-0.215203,0.231837,-0.279471,-0.111315,-0.243578,0.066921,0.125569,0.00283447,-0.109778,0.184678,0.038114,0.303581,-0.124098,0.165172,0.22222,0.333053,0.131553,-0.155837,0.300683,-0.0545492,0.344113,-0.0276174,0.388118,-0.230111,0.268179,0.200348,0.203111,0.103795,0.329637,-0.140793,0.314399,0.383899,-0.198138,0.31642,0.0680151,0.282875,-0.0955659,0.36532,0.305354,0.370852,-0.198793,0.235697,-0.187174,-0.0955793,-0.179015,0.0826379,-0.049855,0.172198,-0.081316,0.136063,0.0861661,-0.24315,-0.0344286,0.276301,0.357735,-0.0507192,0.399165,-0.0870195,0.0203612,0.378857,0.0177863,0.136114,0.195002,0.283185,-0.0332758,-0.0914438,-0.0445025,0.183004,0.17537,0.175278,0.204473,-0.190844,0.104906,-0.0323832,0.0472374,0.309361,-0.119546,-0.243575
0.114138,0.304793,0.328264,0.344108,0.369852,0.127957,0.134633,-0.0393667,-0.172842,0.295862,-0.171609,0.232671,-0.289366,0.166809,0.291442,-0.102278,0.00995268,0.314391,-0.0772094,0.246445,0.0392521,-0.11091,-0.155632,-0.255871,-0.040513,0.186983,0.280909,-0.271973,-0.125485,0.0991171,0.299443,0.0266956,-0.239575,0.263153,0.141801,0.099172,0.335065,0.188895,0.135784,-0.0598748,-0.268967,0.280076,0.318155,0.248095,0.0778666,0.0229231,0.353988,0.303392,-0.0448013,0.0657478,0.388122,0.0537651,0.124785,0.158964,0.310888,-0.0474567,-0.097918,-0.0209288,0.174647,0.148369,0.375693,-0.292408,-0.0564966,0.271904,0.234089,0.387528,-0.0874697,0.0168122,-0.289887,0.228305,-0.0209714,0.362352,-0.198837,0.182455,-0.197945,0.0336233,0.37572,0.263872,0.132949,0.34718,-0.276071,-0.0682046,0.351684,-0.262038,-0.135576,0.111209,0.194695,0.215403,-0.136921,-0.129445,0.00640205,0.0451665,0.376322,0.031141,-0.199258,-0.197344,0.276832,-0.272185,-0.134607,0.296806,0.170484,0.294109,0.395093,-0.0905298,-0.0339816,0.392917,0.085847,-0.0520216,-0.296109,0.265001,0.27716,0.357534,-0.0934097,-0.282469,-0.125504,-0.0089782,0.157517,0.0236326,0.237514,-0.117774,-0.130803,-0.0439669,0.367736,-0.0812213,-0.0500451,0.324798,0.180893,-0.0355927,0.227152,0.243482,-0.102354,0.0234096,-0.261229,0.193751,0.0368134,-0.00186766,0.350673,0.0106703,-0.153261,-0.0664869,-0.190788,-0.138986,0.0574363,-0.103115,-0.110192,0.0366849,0.0895109,0.389425,0.349727,-0.0665967,-0.196912,0.336634,0.144243,-0.260536,0.121852,-0.145661,-0.283372,0.30304,0.0157753,-0.0631013,-0.0794534,-0.196733,0.277825,-0.0350936,-0.215455,0.194033,0.37892,-0.120893,-0.122634,0.344294,0.234163,0.21761,0.185243,0.0461938,0.166412,-0.13762,-0.0422825,0.212778,-0.298675,0.0936584,0.334118,0.336939,0.377189,0.0968807,-0.291276,0.23401,-0.0959854,0.221138,0.143548,0.139757,0.358843,0.234637,0.0894077,-0.114762,0.246867,-0.225607,0.123798,0.321015,0.118063,0.13793,-0.234827,0.0116875,-0.0308811,-0.0883006,0.172685,0.173934,-0.0813794,0.385589,-0.109111,0.37872,-0.113133,-0.0510354,-0.149567,0.0900164,-0.0328746,-0.284637,-0.119957,-0.237702,0.0214122,0.27272,0.144471,-0.232079,0.185591,-0.0941489,0.262724,-0.0231176,0.117125,0.0891887,-0.280115,0.36021,0.0724083,-0.105761,0.0299994,-0.159812,0.244961,-0.188376,0.358677,0.0570795,0.0505011,0.132069,0.367108,0.0764732,0.094391,0.384844,-0.114889,-0.0920786,0.102384,0.37912,0.0726933,0.256448,-0.246967,0.247244,-0.119661,0.280245,-0.106615,0.0338649,0.16651,0.375006,-0.126852,-0.269256,0.182846,-0.143416,0.382618,0.302047,0.184493,0.0665573,-0.173719,0.297652,-0.222452,-0.0321671,-0.0797067,-0.197883,0.160738,0.357682,0.144259,0.0149134,-0.128259,0.265077,0.234087,-0.290678,-0.102302,0.257749,0.14958,-0.0327952,0.0588424,-0.271304,-0.0985471,0.235891,-0.276117,0.0857887,-0.128657,-0.0946702,0.169502,0.214458,-0.189519,0.349872,-0.061691,0.336677,-0.0500533,-0.0656387,0.110472,-0.0620602,0.308163,0.0302905,0.343047,0.283327,0.22898,-0.162291,-0.209378,-0.00434173,-0.164503,0.161721,-0.136706,-0.183121,-0.166106,0.239321,-0.165595,0.124421,-0.049138,0.0636864,-0.245354,0.324988,0.139812,0.00321689,0.283682,-0.202706,-0.0595881,0.360373,-0.101859,-0.293801,0.124811,0.370829,0.0854343,-0.241746,-0.0839031,-0.0144707,0.0824771,-0.276429,0.212425,-0.264401,0.168984,-0.20709,-0.198423,-0.0739325,-0.0256218,-0.205864,-0.0993609,0.0547305,0.308695,-0.261791,-0.195378,-0.296638,-0.124696,0.317439,0.378661,0.39909,0.276007,0.228343,0.278063,-0.109011,0.167197,0.139885,0.231254,0.0403873,0.37739,0.37926,0.268113,0.171045,0.144035,0.0580743,0.330792,-0.124414,-0.019151,0.109486,0.349113,-0.0729249,-0.26736,-0.241013,-0.283917,0.0890732,0.329927,0.100057,-0.0525712,-0.0246308,-0.100467,0.0974999,-0.0403182,0.352322,-0.25602,0.0899097,0.351503,-0.166809,0.345751,0.211829,-0.178265,-0.239196,0.107891,-0.289422,0.109798,0.324453,0.0897314,-0.024012,-0.208122,0.00907615,0.147389,-0.242354,0.317026,0.323264,0.237089,0.0902699,-0.281192,-0.0976573,-0.00683065,0.399422,0.1862,0.2346,-0.162326,-0.190938,0.0269373,0.106249,0.232159,-0.176404,-0.289855,0.312993,0.231076,0.00572499,0.220455,-0.0657602,0.345717,0.321396,0.308961,0.117956,0.378423,0.375618,0.275481,0.17178,0.0362404,0.108571,-0.0343043,-0.19209,-0.016907,-0.12382,0.0189573,0.0387985,-0.0592664,0.285054,0.349441,-0.229739,-0.102937,-0.294976,-0.00396744,0.18898,0.331678,0.330851,0.0257442,-0.00943819,-0.182935,-0.285543,0.323691,-0.152935,-0.0936694,0.340255,0.355125,-0.141994,0.265889,0.164818,0.33318,-0.0161991,0.262284,0.19336,0.277818,-0.191568,-0.236892,-0.285516,0.398646,-0.0729135,-0.0386301,-0.134737,0.287525,-0.0940359,-0.218066,0.148,0.3545,0.0125266,-0.119207,0.171975,0.191715,0.260876,-0.00525905,0.340358,0.0995374,-0.229626,0.252144,-0.245112,-0.240453,-0.214871,-0.0953093,-0.239354,0.2885,0.0494775,-0.113031,0.202077,0.157669,0.286796,-0.133554,0.312157,0.311809,-0.0197812,0.390875,-0.292516,-0.127106,-0.200228,0.0932902,0.209658,-0.138157,-0.0261406,-0.0355117,-0.23311,-0.176759,0.352678,-0.248319,0.195076,-0.11229,0.259122,-0.10758,-0.28741,0.15565,0.0748745,0.344312,0.389848,0.136926,-0.142263,-0.0810611,0.0844136,-0.0685292,-0.260707,0.0794404,0.385513,0.284346,0.195791,0.0120519,0.138646,0.39978,-0.0561025,0.228963,-0.228527,-0.250681,0.0537876,0.114727,-0.00497981,-0.0423834,0.129658,0.372734,-0.200316,-0.299786,0.0532217,-0.016774,-0.279904,0.398549,0.136425,0.0310839,-0.111891,0.245597,-0.11817,-0.186649,0.249146,-0.0526377,0.0963966,0.385204,0.160368,-0.186067,0.155535,0.254422,-0.154853,0.384174,0.0651768,-0.216084,0.223931,0.220198,-0.182297,-0.289798,0.0948558,0.253934,0.0895196,-0.160794,-0.215174,-0.0793975,0.276478,0.127561,-0.256737,0.0651901,0.0139303,-0.291723,-0.299156,-0.0463032,0.179413,0.272557,0.164771,-0.124582,-0.276665,0.263406,-0.0281391,0.170184,-0.274346,0.294445,0.072504,-0.235924,-0.175343,-0.0503158,0.266957,-0.250473,-0.18455,0.0766439,-0.235553,0.392962,-0.0354055,-0.170238,0.19007,-0.0956066,0.237235,-0.224697,0.207431,0.154607,0.385588,0.316082,-0.0172638,0.372248,0.392302,-0.254458,-0.240989,0.107411,-0.280641,0.0911987,0.264458,0.194666,-0.243324,-0.144585,-0.274055,-0.100621,0.217944,0.0149749,0.109833,-0.015759,0.181263,0.286531,-0.138742,0.0776675,0.121299,0.11947,-0.235334,0.0791163,0.228425,0.323203,-0.102574,0.287468,-0.235954,0.191362,0.297739,0.184072,-0.253105,0.0285136,0.118842,0.357255,-0.281642,-0.257862,0.192027,-0.199443,-0.0164332,-0.0924759,0.269901,0.0716779,0.0747081,0.165078,0.0715109,0.14322,-0.0663599,-0.0406771,0.301945,-0.267454,0.160723,-0.0195234,0.167226,-0.156109,0.127063,0.21507,0.157482,0.10641,0.0964492,-0.0319017,0.319387,-0.155919,-0.146151,-0.035968,-0.00923112,0.360323,-0.0117415,-0.0131626,-0.2822,-0.026702,-0.274365,-0.132197,0.128049,0.284799,0.259316,0.0822935,-0.120045,-0.182963,-0.224666,-0.0386886,0.0627981,-0.195532,0.318141,0.281908,0.365781,0.370143,0.0947318,-0.158833,-0.00916817,-0.0239408,-0.235855,-0.223182,-0.169698,0.178733,-0.19157,0.341925,-0.0193263,-0.125817,0.0318058,0.392697,0.314578,-0.0300322,-0.0134648,-0.299722,0.283596,-0.136131,0.170389,0.345852,0.0727416,0.368451,-0.00618449,0.305719,-0.0207082,0.061537,0.063161,-0.0104339,0.137396,-0.299427,-0.122837,0.138882,0.260399,0.282809,-0.116962,-0.0545377,0.12271,0.286592,0.389963,0.398843,-0.246349,0.0783846,-0.0143167,0.0240493,0.0641925,0.119382,-0.0456639,-0.084223,0.0791289,0.256556,-0.159188,0.331804,-0.103518,0.0316909,-0.239401,0.152337,-0.0536943,0.294223,0.20004,0.36627,0.0690596,-0.24954,0.204691,-0.207392,0.188618,0.0349038,0.10312
0.298267,-0.201723,0.338255,-0.137806,-0.081845,0.134312,0.0738294,-0.0788272,0.242082,-0.0418094,-0.277522,-0.19871,0.171789,0.0164178,0.131728,-0.0620961,0.313189,0.107723,0.213129,-0.0682461,-0.0916849,0.318177,0.314608,0.067047,0.071371,0.156749,0.00625179,-0.00822383,0.133541,0.156875,0.362327,0.00899668,0.15652,0.367634,0.175423,0.273726,-0.0694711,0.306961,0.384229,-0.155694,-0.194866,0.396822,-0.148041,-0.0153827,-0.026694,0.357013,0.280823,0.363649,0.0592996,0.171655,-0.108886,0.247723,-0.172804,-0.191915,-0.0428622,0.337121,0.0621442,-0.194505,0.326973,-0.162132,0.239308,0.306094,0.317586,-0.180156,-0.261286,-0.048754,0.0126903,-0.243215,-0.0874872,-0.0855681,0.153691,0.394775,-0.232034,-0.209056,-0.147349,-0.154363,0.0710787,-0.278454,0.116523,0.254117,0.237628,0.363915,-0.184285,0.0332974,0.0101191,0.389885,-0.22293,0.217628,0.0911624,-0.0691693,0.242908,-0.0742334,-0.264676,-0.163024,0.374068,0.38852,0.159899,0.279068,-0.26356,0.228588,-0.110866,-0.240311,-0.050147,0.0468732,-0.0179202,0.159823,0.140496,-0.29115,0.3639,-0.00987808,-0.226072,0.079201,0.310761,0.367862,-0.291264,0.297894,-0.296197,0.29558,0.352737,0.249664,0.109269,0.156683,0.35637,0.0238747,0.192769,-0.190671,0.327758,-0.297086,-0.0679097,0.38978,0.303577,0.389974,-0.269314,-0.295294,0.361368,0.00927019,-0.203183,0.132134,0.104481,0.185535,-0.103002,0.00215052,0.109622,0.244655,-0.0598035,-0.0217012,0.364025,0.234249,0.103742,0.316725,0.183758,0.20982,0.26317,0.21624,0.241938,0.183667,0.230691,0.341954,-0.00392142,-0.114567,-0.135927,0.131691,0.244781,-0.0725533,-0.145172,0.0708692,-0.10143,0.0257065,0.157489,-0.153742,0.204481,0.0691589,0.362563,-0.24384,-0.097772,0.389303,0.382341,-0.202192,0.147636,0.0211379,0.150386,0.304543,-0.108716,-0.19217,0.197062,-0.046988,-0.154203,0.0418283,-0.285736,-0.0869958,-0.0810201,0.191571,0.261236,0.162743,-0.139134,0.210593,-0.172926,0.239322,-0.106331,-0.226961,0.106348,0.2498,-0.127016,-0.161492,-0.201195,-0.289586,0.0521969,0.0864352,0.291973,-0.161459,-0.103792,0.120377,0.0318036,-0.130281,0.119283,0.088869,-0.247896,0.0190398,0.185813,0.219544,-0.243702,0.261252,-0.0422637,-0.186682,0.226779,-0.14998,-0.173925,0.0937672,-0.241576,0.0502359,0.302105,0.26329,0.282822,0.299878,0.313062,0.256857,0.292377,0.0826244,0.0817382,0.244666,-0.0804363,0.222968,0.120142,-0.121417,-0.216307,-0.217998,0.132784,-0.068297,0.36555,-0.224127,-0.14837,0.221789,-0.0842551,0.0833394,-0.00450282,-0.0251358,-0.23976,0.0703035,-0.214496,0.116265,0.307434,-0.19711,0.398832,0.343093,0.123296,-0.237441,0.301537,0.271557,0.275597,0.149852,0.235189,0.305873,-0.286625,-0.217954,0.300686,0.327336,-0.0124933,-0.128757,-0.0807252,0.249804,0.172615,0.0947702,-0.0942855,-0.162007,0.29876,-0.06433,-0.0625451,-0.263887,-0.242572,-0.290453,-0.243823,-0.299249,-0.120524,0.256299,0.183161,0.192665,-0.0391516,-0.0858036,0.386027,-0.185493,0.128077,0.347923,0.0786836,0.346952,0.318646,0.256028,0.29031,-0.0189041,0.372251,-0.274787,0.187363,-0.209142,0.304227,-0.143538,0.381367,-0.157457,0.158688,0.134876,-0.289361,0.191016,-0.0883886,-0.137489,0.127491,-0.0448455,0.226863,-0.170782,0.374026,-0.0723224,0.324936,0.039269,0.0854574,-0.19822,0.0762457,0.17306,-0.0999055,0.378771,-0.22379,-0.00461292,0.314902,-0.259529,-0.186573,0.0922751,0.268087,0.0377682,-0.0110004,0.150266,0.283791,-0.106137,-0.00529462,0.055785,-0.0361912,0.267721,0.113419,0.334411,0.260364,0.171877,0.148741,0.198785,0.314258,0.296637,-0.156934,0.232595,-0.00820973,0.0338892,0.193085,0.279898,0.00911309,0.34724,-0.174899,0.259545,0.270849,0.0894004,-0.166126,0.0801509,0.214638,0.306153,0.0527337,0.075394,0.391295,-0.0654478,0.153916,0.233503,-0.0317194,0.229127,-0.250537,0.339193,-0.111909,-0.0736744,0.391137,0.00223423,0.0666729,-0.116162,0.138786,-0.00180586,0.368208,-0.104165,0.399476,0.383159,0.0379147,0.132248,0.300596,0.316749,-0.272797,0.396237,-0.29759,-0.0451856,0.100881,-0.152168,0.116655,0.240675,-0.247754,0.191338,0.130344,0.262038,-0.284045,0.272085,-0.196222,-0.1003,-0.185182,-0.220037,0.146516,-0.263411,-0.28232,0.00716012,0.232243,0.348965,-0.249498,-0.243177,-0.237898,-0.043386,0.339678,0.247624,-0.164944,0.245537,0.0246671,0.313957,-0.0640433,-0.256418,0.0243581,-0.0525155,0.000212301,-0.0357989,-0.111787,-0.223801,-0.0363313,0.194916,-0.0782858,-0.171879,0.0570261,-0.150477,-0.182655,-0.122785,-0.144972,0.356835,0.0744048,-0.180469,0.0414032,0.307781,-0.154926,0.270886,-0.00511705,0.333119,-0.11027,-0.258204,0.0575451,0.232998,0.0758195,-0.220385,0.197093,-0.0690281,0.102783,-0.27482,-0.28046,0.0728526,-0.107845,0.184882,0.242016,-0.155388,-0.0778745,0.363125,-0.213401,-0.269672,0.0444769,-0.0514873,-0.19713,-0.221242,-0.133986,-0.192917,0.380202,-0.293332,-0.0690503,0.275421,-0.14141,-0.194435,-0.214004,0.398788,-0.0058918,-0.123485,-0.134753,-0.284504,-0.00362717,0.0622901,-0.223135,0.33498,0.187475,0.103515,-0.0708353,0.397988,-0.000461296,0.183856,-0.224796,-0.223212,-0.132689,-0.105863,0.316172,0.00651033,0.123895,-0.123066,-0.0557421,0.392127,0.160294,-0.113009,0.359506,0.293873,0.0608546,-0.0739744,-0.252705,-0.265473,0.267918,0.281637,-0.251254,-0.0726648,0.090196,0.141594,-0.0913535,0.0648387,-0.286969,-0.297706,-0.164207,0.379469,0.216973,-0.155715,0.261123,0.104423,-0.0293897,0.101039,0.125133,0.350363,0.0980473,0.184906,-0.218108,-0.170609,-0.110654,0.19964,-0.247109,-0.268121,-0.243463,-0.0948265,0.214732,0.102041,0.298747,-0.135501,-0.244851,-0.194713,0.382868,-0.0669288,-0.0176758,-0.0614391,0.302821,0.0245432,-0.179033,0.378632,0.322623,0.0163644,0.0820978,-0.185607,-0.0357263,0.221908,0.035263,0.162404,0.252916,-0.00367384,0.273837,-0.190489,0.272764,0.103958,-0.0939217,0.381595,0.0469789,0.114167,0.251399,0.286664,-0.296921,-0.0501304,0.284191,-0.275909,-0.0752174,0.359224,0.203515,0.212378,-0.0388999,0.235136,-0.234786,0.228786,0.291227,0.251321,0.0618459,0.110215,-0.0861198,0.23637,0.282448,0.309667,0.262511,-0.236005,0.237489,-0.143772,0.111525,-0.129545,0.185523,0.118336,-0.219559,-0.0167311,0.341894,-0.290783,0.394519,-0.127986,0.00783362,0.343311,-0.286351,0.00227233,0.100327,0.37835,0.387075,0.308243,-0.079351,0.0478485,-0.0555072,-0.142036,0.346241,0.0293126,0.0809528,0.233732,0.0748567,-0.156816,0.347793,0.399721,-0.0891012,0.129118,-0.19483,-0.122331,0.329308,-0.0982496,-0.247632,0.101388,0.293302,-0.175491,0.283579,-0.225163,0.0701181,-0.19377,-0.106734,0.00465748,-0.0781176,-0.137931,-0.0216656,0.327631,0.212039,0.23782,0.351289,0.00569039,-0.296858,-0.0558277,0.224754,-0.288261,0.391896,0.198586,-0.123515,-0.224679,0.255457,0.0205931,-0.0508676,-0.0862131,-0.251809,0.276258,-0.0960364,0.117181,-0.0658969,-0.0783651,0.277183,-0.0889193,-0.113804,0.041115,-0.244258,-0.132891,-0.0593759,0.124615,0.128952,-0.213821,0.23503,0.0851723,0.32701,0.223248,-0.278705,0.160877,0.300894,0.378517,-0.214373,0.296678,0.163308,-0.278851,0.152738,0.258507,-0.0644224,-0.123794,0.323459,-0.0295688,0.0251828,0.139506,-0.185455,-0.0756501,0.0804015,-0.0561776,-0.055636,-0.240465,-0.161008,0.250102,-0.250434,-0.240139,0.329888,0.385829,-0.0424415,-0.139052,-0.0661394,-0.201614,-0.0867445,0.220126,-0.23799,-0.149011,-0.0209122,0.0412776,0.269713,-0.272451,-0.0920318,0.10497,0.0540242,-0.227381,0.110097,0.0977041,-0.248354,0.0358611,-0.192956,0.390387,0.293082,0.344608,-0.296294,0.0587281,-0.172241,0.1739,0.363586,0.0975074,0.268883,-0.261354,-0.279665,0.120312,-0.218998,-0.121624,-0.188821,0.297423,0.357518,0.0564622,0.268212,0.321562,-0.195172,-0.255704,-0.152943,0.155765,0.0907397,-0.281446,0.332964,-0.0446935,-0.0344313,0.132432,-0.194265,-0.287487
0.314102,0.294471,0.395567,0.219539,-0.0460895,-0.182706,0.0206519,0.30046,-0.169584,-0.234278,0.234589,0.302955,0.325184,-0.0300432,0.371046,-0.19789,-0.166149,0.229909,0.319817,0.210484,0.323524,0.180484,0.317894,0.241762,0.028825,-0.0595957,-0.209378,-0.174928,-0.00339153,-0.183636,-0.273069,-0.283048,-0.262216,-0.215771,0.123068,-0.192675,0.296647,-0.180726,-0.220694,0.166928,-0.203974,0.397317,-0.215962,0.132651,-0.231115,0.0387824,-0.230556,0.178143,0.334174,-0.282877,0.173202,-0.234188,-0.27204,-0.195929,0.290757,0.127958,0.0480052,0.0730049,-0.247828,0.273149,-0.27847,0.332845,0.208527,0.0652651,-0.244018,0.313852,0.161362,0.071972,0.0813562,-0.122277,0.0206078,0.128997,-0.255815,0.273329,-0.175686,0.317956,0.362122,-0.189626,-0.294609,0.00383252,-0.00137821,0.0727286,0.239408,0.0294895,-0.0326142,-0.0570211,0.157441,0.213758,-0.174795,-0.139039,-0.240757,0.0500616,0.263516,-0.112982,-0.189705,0.352759,0.357201,-0.00736992,0.0574355,-0.252457,-0.219308,0.15008,-0.252644,-0.146777,0.150134,0.242956,0.0827668,-0.248508,0.00161033,0.169532,-0.200307,-0.108171,-0.0358188,0.160636,-0.0987459,0.227886,0.0376902,0.284241,0.331698,0.13291,-0.0658365,-0.141847,-0.274838,0.29084,-0.207286,-0.0566111,-0.0859844,0.109281,0.326875,-0.160665,-0.269988,-0.0473934,-0.286019,-0.146907,0.0842807,0.340589,0.286029,-0.135254,-0.0412624,-0.289466,-0.0689729,0.360317,0.394974,0.389204,0.164777,0.354367,0.313536,-0.128378,0.181804,0.274307,-0.150882,0.153577,-0.25454,0.0277795,-0.064798,0.31474,-0.173788,0.325731,-0.176788,0.19911,0.047283,0.282041,0.16991,-0.00992939,0.0475451,0.0629318,0.0778781,-0.273585,0.32088,0.20666,-0.0766431,0.356509,-0.15913,0.0862302,-0.244267,-0.122642,0.0310578,-0.263333,0.202913,0.155886,-0.210631,-0.180966,-0.13278,-0.221755,0.226593,-0.257471,0.346472,-0.274564,0.32797,-0.0828576,0.26339,0.0207925,0.0975942,-0.241807,-0.0604184,0.147243,0.094536,0.2151,0.196588,0.280417,-0.0794423,0.346011,0.119724,0.0352457,-0.0315257,0.210124,0.368426,0.172093,-0.109326,0.299674,0.0677915,-0.239927,0.197024,-0.0163672,0.165402,-0.156159,-0.258189,-0.115575,-0.112124,-0.188955,-0.29123,0.160332,-0.118105,0.307402,-0.146132,0.314711,0.073576,0.295708,-0.285021,0.204535,0.230769,0.0066365,0.347872,0.169493,0.362666,0.177049,0.398153,-0.045764,-0.158727,0.22361,0.268126,-0.0550294,0.0786868,-0.251918,-0.211775,0.192661,-0.155152,-0.278416,0.352378,0.0447911,-0.0396792,0.0439675,-0.273691,0.157111,0.147913,0.326199,0.289094,-0.0922349,-0.121825,-0.108452,0.0158085,0.385459,-0.00747017,0.343575,0.262466,0.373175,0.139042,0.396556,0.360986,-0.299762,0.0044865,0.316413,-0.215264,0.183475,0.0777884,0.0681368,0.293368,0.330153,0.128733,0.117137,0.11635,-0.075618,0.23655,0.181022,-0.114814,0.168805,-0.247454,-0.021053,-0.227036,0.102993,-0.268442,0.0751738,-0.149227,0.171519,0.0160086,-0.136012,-0.0791824,0.362528,0.00750985,-0.107284,0.335013,0.289097,-0.0899552,-0.0305857,0.0588245,-0.164608,0.279251,0.252759,-0.210412,0.0393358,0.162039,0.270507,0.088679,0.0334161,0.0611484,0.263392,0.23684,0.216131,0.208772,-0.198219,0.372225,-0.224684,0.383847,0.171319,0.0205589,0.135792,0.157072,-0.124837,-0.223678,0.352311,0.198594,0.248949,-0.0549415,0.221141,0.0318818,0.0359235,0.105433,-0.0695297,-0.130933,0.118991,-0.298962,0.123009,-0.188427,0.0561031,0.121225,0.291312,-0.149443,-0.0833416,-0.0204868,0.0790766,0.251388,0.265179,0.150417,0.0091577,0.156921,-0.210804,-0.227331,-0.0893813,0.293599,0.218631,-0.220687,-0.0332321,-0.0852812,-0.167026,0.0629191,-0.143868,0.165733,-0.0963558,-0.163461,0.207751,-0.194874,-0.231871,-0.101277,-0.256794,0.366214,-0.0173606,0.26269,0.0269805,0.393237,-0.249252,0.258462,-0.00285086,0.0371545,0.374006,0.167935,-0.101787,-0.155326,0.222302,0.301582,0.28779,0.325182,-0.0296662,0.0768875,0.339476,0.130172,0.0969331,0.00721298,0.0132106,0.129293,0.294621,0.0610433,-0.184414,0.0172147,0.285926,0.100401,-0.0786308,0.336437,-0.206665,0.0586194,0.0786769,0.0492932,-0.0400591,-0.0342626,-0.0308953,-0.255373,-0.232579,0.282103,0.0455529,-0.0872407,0.248565,-0.151487,-0.281537,0.173453,0.24061,0.313065,-0.086681,0.0911639,-0.0227074,0.343474,-0.12916,-0.237956,-0.234773,0.384669,0.111831,0.106959,0.242452,-0.129136,0.0384416,0.354815,-0.134357,-0.0485303,-0.00596999,0.350912,0.32296,-0.0597467,-0.246869,0.274293,0.119144,-0.152927,-0.2363,-0.201241,0.330197,0.00165147,-0.0868537,-0.218214,-0.0258178,0.328729,0.0406584,0.115667,0.0949897,0.0840026,-0.233104,0.325437,0.306268,-0.0899772,-0.236436,0.0478471,-0.107855,0.0216753,-0.0654738,0.3757,-0.188532,-0.119366,0.130068,-0.297974,0.202853,0.167876,0.266791,-0.251552,0.237113,-0.186071,-0.125537,0.0121382,-0.186061,0.0960058,0.241774,-0.184471,0.150084,0.161661,0.0832162,0.193634,-0.0448113,0.188121,-0.20138,0.302732,0.342972,0.0365858,0.347433,0.185308,-0.226091,-0.188699,-0.0907675,0.375361,-0.122895,-0.0177007,0.25314,0.378549,-0.0529251,-0.218716,0.0869965,-0.188613,0.263626,-0.0694341,-0.0908889,0.0341979,-0.26923,0.0135088,-0.166416,0.261874,0.281818,0.0465229,0.21202,-0.0131311,0.047605,0.0619171,-0.177351,0.29906,0.334808,0.260743,0.0492594,-0.163478,0.0109662,-0.254895,0.0215259,0.351886,0.24314,-0.110525,0.239042,0.128143,0.187425,-0.139989,0.350096,0.0291297,0.275511,0.141834,0.208199,-0.28184,-0.0038613,0.182951,0.377216,-0.270172,-0.18283,-0.285227,0.00755133,0.22899,-0.253846,0.358438,0.154936,0.241439,-0.0242733,0.275746,-0.0356517,0.0907266,0.310858,0.175339,0.0897745,0.325299,0.324641,0.132182,0.0728533,-0.129554,-0.259959,-0.0694913,-0.148337,-0.0103457,0.283847,-0.11068,-0.178283,-0.0109077,0.109796,0.179961,-0.179288,0.350387,0.238371,-0.205099,-0.140454,-0.0744091,0.109262,0.177516,0.170868,0.0788054,0.29405,-0.0283298,-0.102597,0.308865,-0.0344654,-0.0989608,0.391658,0.33743,0.17095,0.0372693,-0.150888,0.196966,-0.194448,0.0661233,-0.0531167,0.00281185,0.234073,0.211669,0.00902224,0.0439253,-0.144112,0.127086,0.0714768,0.0763109,0.161983,-0.287919,0.267284,-0.14593,0.37971,-0.134083,-0.294802,-0.218084,0.152441,0.135502,-0.237573,0.223838,-0.0486095,0.368237,0.26421,-0.247949,-0.234156,-0.17163,-0.228311,-0.0290177,-0.231104,0.186987,0.350102,-0.299709,0.00607742,0.244238,0.0388903,0.151495,0.00297538,-0.00622943,-0.00374703,0.382302,0.238966,-0.211484,-0.260697,-0.236281,0.0845195,0.317312,-0.247996,0.0434662,-0.252101,0.351143,0.282852,-0.0595783,0.129148,0.0696916,0.203995,0.054783,-0.272541,-0.073881,0.153896,-0.172197,-0.000666902,0.0602261,-0.164885,0.135769,0.114139,0.0193266,-0.0106727,0.252491,0.203916,0.296251,0.321243,-0.0350915,0.354639,-0.156787,0.393568,-0.224283,-0.264744,0.172109,0.364801,0.177914,-0.0880997,0.399282,0.191424,-0.064788,-0.0561134,0.145219,-0.233243,-0.0468735,-0.0916439,0.247967,0.0182963,0.0745032,-0.249421,-0.000265677,-0.264844,0.284561,0.306798,-0.233844,0.0478599,-0.0405172,0.396047,-0.00230126,0.131881,0.342564,0.328699,-0.107957,0.257367,0.38309,0.127786,0.0177616,-0.043554,0.221715,0.0102189,0.257583,-0.269647,0.356794,-0.174944,0.18138,0.367779,0.276447,0.0953816,0.208235,-0.103098,-0.00998958,-0.0392747,0.166361,-0.257262,-0.155879,0.267051,-0.0892348,-0.188688,-0.0430736,0.100958,0.00814435,0.373121,0.255585,-0.0847447,0.147799,0.267431,0.350765,0.24236,0.288539,0.199234,0.233101,0.0430249,0.100466,-0.04881,0.325485,-0.213482,0.311655,0.381589,-0.224064,0.00981251,0.118134,-0.268881,-0.0747505,-0.247864,-0.132243,0.00981523,-0.0663822,0.312279,0.37607,0.385996,-0.0988225,-0.175262,0.384547,0.349257,-0.133854,0.202711,0.320134,0.0697465,0.2155,0.0435988,-0.134513,-0.275317,0.292222,-0.0551258
