0.252104,-0.0390942,-0.173403,-0.0804529,-0.278701,0.17242,0.00563979,-0.0709464,0.290921,-0.245061,0.0272561,-0.170223,-0.0215766,-0.231553,-0.177398,-0.0593677,-0.0644948,-0.117454,-0.239158,-0.0251229,0.314719,0.0130955,0.0232002,-0.0494553,-0.274963,0.293313,0.0792138,0.101794,-0.2141,-0.250459,-0.053856,0.337556,-0.161547,0.00455031,0.367144,0.144865,0.126268,0.385565,0.0987146,0.186945,-0.106113,-0.181739,-0.00269175,0.160991,0.326618,0.396924,0.322987,-0.131809,0.209015,-0.13292,0.0719718,0.00822473,-0.268383,0.159859,0.24499,-0.0650929,-0.285003,-0.282226,0.352296,0.153963,-0.217539,0.0991696,0.384924,0.357236,0.178161,0.287689,-0.215026,0.133766,0.279802,0.0687754,-0.0551439,0.210065,0.00636454,-0.112478,-0.161878,0.196715,-0.0960938,-0.200808,0.257993,0.0920316,0.25674,-0.0603717,-0.21316,0.0270241,-0.2978,-0.0842128,-0.0710959,0.363918,-0.222777,0.302771,0.00372208,-0.201176,0.208211,0.315557,-0.200706,0.283831,0.0379285,0.352998,0.257975,0.388826,0.172888,0.126616,-0.175791,0.112432,-0.0120091,0.20544,-0.110297,-0.0624227,0.354091,0.339564,-0.170711,0.218586,0.0344371,-0.292053,0.257124,0.351335,0.127623,-0.29034,0.079347,-0.144597,-0.0498958,-0.1918,0.187017,-0.205343,0.0565437,-0.153073,0.186122,0.0414491,-0.135327,-0.123912,0.210967,0.325808,0.322239,-0.189013,0.0488797,-0.127385,-0.0174965,0.35642,0.102041,0.340355,0.31128,-0.12993,-0.0638747,-0.21303,0.389286,0.314214,-0.279967,0.16316,0.0756063,-0.277509,0.202814,-0.274637,-0.08409,-0.270474,-0.273012,-0.0796828,-0.198998,-0.0260005,0.0389632,0.276783,0.234441,-0.0246443,-0.207074,-0.2935,-0.21311,0.298577,0.23063,0.103269,0.387802,0.0230293,0.0948591,-0.145199,0.377762,0.242395,0.133999,0.367627,0.271933,0.080395,0.169493,-0.341799,-0.128607,-0.0780679,0.025465,0.0561916,0.188559,0.110455,-0.249298,0.120713,0.18654,0.136607,-0.157918,0.0371344,-0.03298,-0.00796589,0.27462,-0.151741,0.137684,0.306153,-0.0147455,-0.0337205,0.38635,-0.263645,-0.126656,0.0227623,0.288297,0.190992,-0.160678,-0.0153262,0.1429,-0.29738,0.0376265,0.117315,-0.239805,0.0238294,-0.128438,-0.413028,-0.24441,-0.365697,-0.221502,0.193541,0.212833,0.215222,0.400936,0.384264,-0.14796,-0.257754,0.394758,0.329385,0.0802763,-0.217418,0.384487,-0.0167708,-0.03742,-0.00104896,-0.152286,-0.107568,-0.29518,-0.120994,0.279512,0.12743,0.525971,0.162437,-0.0435356,-0.0335367,0.0553284,-0.0742002,0.00831798,0.0443461,0.0931062,-0.165233,-0.0700351,-0.20796,-0.0605213,0.203818,0.0687748,0.323676,-0.22644,0.0186004,-0.044391,0.236701,0.156594,-0.188891,-0.274684,-0.126822,0.389136,-0.104993,0.0667239,0.34293,0.493727,0.351176,0.20366,-0.0227942,0.0697938,-0.390269,-0.454041,-0.256909,-0.203417,0.269214,-0.12522,0.123658,0.343303,0.0193044,0.108135,-0.2524,0.0594142,-0.0837309,0.140091,0.198636,-0.130055,-0.0629184,0.271324,-0.178951,0.250259,-0.0322169,-0.276398,0.0909854,-0.101734,-0.171233,0.375844,-0.116123,-0.254122,0.23959,-0.256822,-0.0571737,-0.163943,-0.18487,0.0773564,0.179901,-0.25877,0.135682,0.0615796,0.0501126,-0.174635,0.0725718,0.169204,-0.206934,0.152435,0.210289,0.248575,0.0772522,0.00846283,0.247497,0.122631,0.265957,0.0650817,0.0109183,0.360467,0.0633216,0.339365,0.216561,-0.18825,-0.365155,-0.0357774,0.359824,-0.0998483,-0.155062,-0.15642,-0.108389,0.0314589,-0.222771,0.0166758,-0.395085,-0.432478,0.00931676,-0.0491765,-0.0445021,0.10679,0.105368,0.125235,0.0807461,0.0185387,0.251757,-0.0114018,0.332608,-0.0965927,-0.158822,0.172277,0.384301,0.134107,-0.232877,-0.226952,-0.111803,0.00196047,-0.00255813,0.154881,0.392096,0.335781,0.236744,-0.221443,-0.443892,-0.413416,-0.421841,0.153101,-0.312878,0.0181788,-0.028409,-0.41185,-0.285543,0.0125039,-0.105712,0.0163503,-0.255103,-0.14131,0.231782,-0.0970917,0.0571632,0.391947,-0.216798,-0.0345173,-0.235553,0.166252,0.232428,-0.284576,0.246024,0.118878,-0.0827904,-0.350745,-0.421086,0.10457,0.103038,-0.347863,-0.107569,0.227568,-0.27859,-0.507712,-0.403514,-0.0637374,-0.341745,-0.274578,0.135012,-0.216277,-0.164255,0.0398056,0.217641,0.0905467,-0.219636,0.223281,0.24865,-0.211854,0.104125,0.287759,0.270059,-0.0695678,0.24137,0.362084,0.294178,-0.0729482,0.163821,0.0735526,-0.362509,0.0520959,-0.183047,-0.194995,-0.227879,-0.0608028,0.207568,0.196583,0.348882,0.00888289,0.193791,0.179482,-0.0522483,-0.233376,0.0336058,0.106848,-0.281829,0.369734,-0.0270513,0.20376,-0.190714,0.190506,0.059252,-0.163621,0.0271877,-0.128753,-0.359357,-0.317781,-0.017429,-0.25515,0.320064,0.220292,0.167653,-0.190939,0.415404,0.580652,0.499065,0.0440938,-0.313893,0.0813723,-0.180389,-0.398789,-0.261025,0.260113,-0.0202198,0.161877,0.0654589,-0.0615681,-0.120772,-0.0261355,0.343921,0.0242637,0.151605,-0.26326,-0.253841,-0.437492,-0.28837,-0.201226,-0.217709,0.499132,0.0662238,0.467985,0.119801,-0.0980565,0.318124,0.0165166,-0.0611915,-0.130815,-0.145786,-0.394453,-0.082725,-0.124313,0.179765,0.281103,0.154086,0.225379,-0.0191206,0.209936,0.338213,0.250337,0.0461095,-0.495102,-0.379477,-0.00229852,0.138988,0.0229147,-0.0847793,0.039888,0.0168175,0.196908,0.142969,0.471217,-0.275816,0.109799,-0.0354528,-0.378666,-0.114399,0.22836,0.272184,-0.17275,0.0640585,-0.14839,-0.225392,-0.22006,0.292053,-0.161044,0.194645,-0.0873927,-0.218162,0.0578515,0.0470969,-0.371403,-0.152686,-0.376849,0.206271,-0.140998,0.0914667,-0.212551,0.0316556,0.0745363,0.111077,-0.16865,0.189864,-0.425253,-0.258251,-0.201611,-0.0693391,0.125816,-0.122176,0.23708,0.187271,0.0458663,0.297201,-0.16445,-0.127162,0.315754,-0.047513,-0.376636,0.17181,-0.398244,0.0657168,-0.32926,-0.343323,-0.173922,0.217306,0.316343,0.24067,-0.0701391,0.0639943,-0.407021,-0.144372,-0.193245,-0.0907371,0.154251,-0.206735,0.203249,0.272303,0.00364936,0.0725188,0.230357,-0.0645375,0.337893,0.118359,-0.273123,-0.324488,-0.408708,-0.20999,-0.330258,-0.336263,0.0292801,-0.00419683,-0.189665,0.182035,0.0280843,-0.159691,-0.0609482,0.126503,-0.0749667,-0.116728,0.00289137,-0.0125697,-0.0482784,-0.0270925,-0.125401,0.368039,0.267051,0.354844,-0.155907,-0.051442,0.250621,-0.214064,-0.0952473,0.0218599,-0.30019,-0.00666966,-0.0365618,-0.351531,-0.31842,0.0137731,0.00528522,0.422696,-0.0360597,-0.044746,0.108125,0.139605,0.0475088,-0.430497,-0.0390083,0.150781,-0.00653717,0.13629,0.0383437,-0.0748633,0.0756922,0.262893,-0.288934,-0.187524,-0.14874,0.128466,-0.067546,0.224345,0.277077,-0.368437,0.141007,-0.354523,-0.252981,0.0449219,0.0252293,0.396001,-0.133452,0.397976,0.203201,0.177569,-0.144411,-0.191738,0.212222,0.262739,0.218945,0.24436,-0.160481,0.117034,0.303192,-0.0618031,-0.235804,-0.287033,0.37875,0.122527,0.23228,-0.126029,-0.332717,0.0275158,-0.328563,-0.314682,0.109568,0.101769,0.133552,0.0353857,0.336532,-0.162162,0.392346,-0.203759,-0.184324,0.0927122,-0.172069,0.257227,0.06257,0.0343771,0.0725749,0.0663106,0.304871,0.314078,-0.00751978,0.0669515,-0.219034,0.276586,-0.223813,0.35859,-0.292516,-0.130041,-0.175017,-0.307906,-0.23845,-0.245568,0.338939,0.243293,0.234244,0.18862,-0.282065,-0.110662,-0.171287,-0.186761,-0.0211565,0.34427,0.258338,0.0938324,0.0418678,-0.0253365,-0.28714,-0.0509293,0.0549242,0.14294,0.26567,-0.122922,0.133617,-0.254886,0.114967,-0.165446,-0.00425682,0.133264,0.0508775,0.248829,-0.0855368,0.399337,0.182746,0.114401,-0.00253766,-0.279562,-0.226756,-0.181974,0.273819,-0.260838,0.370264,-0.204593,-0.151613,0.301346,0.164965,-0.0175177,-0.272784,-0.216407,0.245418,-0.2906,-0.00762659,-0.201196,0.320304,-0.159498,-0.202404,0.0585897,0.237443,0.0728263,-0.030314,0.188699,0.214057,0.00758631,-0.18554,-0.250134,0.142512,0.341371,0.0171972,0.0523179,-0.0815424,0.167272,0.243858,0.301025,-0.249071,0.0400341
-0.103333,0.183593,0.31677,-0.207498,-0.181735,-0.00431532,0.308097,0.060329,-0.0851955,-0.170841,0.368574,0.00546887,-0.227665,0.260457,-0.284747,0.187246,-0.0693015,0.366225,0.0794702,0.277996,-0.275475,-0.262038,-0.249733,-0.1304,-0.149391,0.317667,0.0553941,-0.231446,-0.0291605,0.0258492,0.0637898,0.125507,0.210511,-0.095172,-0.255715,-0.203058,0.360487,-0.0494444,-0.0328206,0.289075,0.0515337,-0.261454,-0.0345012,-0.243687,-0.0381115,0.0639393,0.293185,0.0742363,-0.250395,-0.0566973,-0.0734459,-0.237236,0.309293,-0.0852169,-0.218586,0.0273873,-0.184085,-0.270711,-0.0725913,0.242555,0.345952,-0.0923083,-0.0985613,0.248827,0.372796,0.187898,-0.0501077,-0.142867,-0.147411,0.141429,0.00191732,0.296114,0.0980623,-0.170168,-0.258955,0.160586,0.130314,0.332937,0.221696,0.248045,0.158705,0.398035,0.395962,0.21474,-0.0100192,0.311322,0.330592,-0.000363201,-0.267282,-0.29436,0.356016,0.00302763,0.0182626,0.00345393,-0.0239646,-0.160412,0.174981,-0.217478,0.019697,0.115205,0.120288,0.12537,-0.174032,-0.0351327,0.0101251,-0.157279,0.0147695,-0.222025,-0.0825852,0.333177,-0.112497,-0.24279,-0.0128178,-0.182141,-0.299722,0.17116,-0.167814,0.0176971,0.144849,0.340929,0.356756,0.393272,-0.268953,-0.171871,0.256851,0.142434,0.371495,0.405586,0.304105,0.323827,0.129117,0.349631,0.0952434,-0.0823298,0.258041,-0.236142,-0.122823,0.29524,0.0767607,0.24044,0.15815,-0.27539,0.376691,0.384239,0.361517,-0.0874453,-0.0247296,-0.100821,0.0613777,-0.0739516,-0.0943416,-0.0623668,0.331725,-0.200058,0.283912,0.14769,0.170067,-0.0363396,0.481417,-0.1153,0.273855,0.0656625,0.0143882,-0.269017,-0.218263,-0.0357826,0.0706501,0.109037,0.0224952,-0.237919,0.250174,-0.0289367,0.163222,0.089455,0.0534234,0.342343,-0.239493,0.2615,-0.0888983,-0.339465,-0.153594,0.0371041,-0.0213402,0.13018,0.335178,0.0346667,-0.00108087,0.281478,-0.0605104,-0.0426696,0.077635,-0.0270133,0.169317,0.0426876,-0.0991703,0.114164,0.0388592,-0.132194,0.110821,-0.0572407,0.207034,0.347256,-0.122684,-0.247174,-0.297789,-0.23899,-0.233374,-0.293986,-0.379145,0.153158,-0.0169224,0.0258271,0.228797,0.378345,-0.0356755,-0.167606,0.146579,0.390713,0.0223538,0.167878,0.314755,0.0227655,0.233125,0.236612,0.24828,0.318916,0.374261,-0.129607,-0.166963,0.297972,-0.0762828,0.294847,-0.285611,-0.0842001,-0.251944,-0.196549,-0.000306858,0.171517,-0.158513,-0.171294,-0.0418822,0.231594,0.300522,0.299873,-0.090678,0.19229,0.440353,0.425302,-0.257875,0.222455,-0.193699,-0.036576,0.0563127,-0.151853,0.382153,0.331097,0.399187,0.149609,0.35354,-0.0242701,-0.446671,-0.0572895,0.0290113,-0.230609,-0.433734,-0.0251645,0.0274941,-0.023095,-0.000523325,-0.22006,-0.31925,-0.175961,0.268574,-0.199562,0.372146,-0.186801,-0.0378737,0.120471,0.256838,0.146587,0.269857,0.29618,0.342501,0.353483,0.342039,0.134781,0.0670271,0.0738767,0.0983799,0.000776476,0.0325541,-0.105227,-0.458997,-0.141356,0.154664,-0.241477,0.20455,-0.164493,-0.267974,-0.00115364,-0.303155,0.0142941,-0.0643734,-0.214257,-0.0774758,0.245849,-0.290457,0.120809,-0.246272,0.102953,-0.140265,-0.162574,0.0580196,0.0467161,0.297384,-0.213746,-0.00723238,-0.388535,-0.396806,0.289657,-0.000502684,-0.103269,-0.257682,0.229949,-0.0851144,0.0671011,-0.143852,-0.136474,0.0515588,0.0483665,0.132876,0.117927,0.321657,0.36326,0.168771,0.214053,-0.276565,-0.103202,0.0260414,-0.242938,0.0822359,0.371786,0.257612,0.33696,-0.160619,-0.0692273,0.00576307,0.0573962,0.142854,-0.428709,-0.179609,0.157129,-0.089987,-0.122162,0.252102,0.156108,-0.253381,-0.255935,0.415609,-0.120167,-0.188297,0.340392,0.346519,-0.185854,0.338923,0.366531,-0.19676,-0.132813,0.266586,-0.125464,-0.252656,0.305015,0.0349568,-0.308159,-0.116814,-0.0304523,-0.244597,-0.164658,-0.0496801,0.180034,0.00411454,-0.0102694,0.0255678,-0.148404,0.148437,-0.398684,-0.0478069,-0.117034,0.333927,-0.228819,-0.317432,-0.260548,-0.184491,0.300025,-0.202092,0.0835964,0.159317,0.0102011,0.113301,-0.099434,-0.27278,0.051042,0.0397042,-0.250619,-0.147908,-0.436246,-0.537374,-0.322795,-0.360688,-0.242567,0.0304176,0.282453,-0.357238,-0.269037,-0.22346,0.414198,0.315768,-0.250913,0.238397,-0.219469,0.317496,0.161758,-0.260939,-0.0509451,-0.0670121,-0.0123095,0.177681,-0.0445718,-0.278483,-0.344562,-0.161906,-0.107342,-0.369336,-0.473663,-0.203123,-0.00748794,-0.4186,-0.160951,-0.347176,0.194364,0.0738593,-0.148322,-0.165147,0.266553,0.144642,-0.0260629,-0.0412924,0.132836,0.0498184,0.180859,0.0724103,0.0607228,0.072964,-0.102706,0.196953,0.123487,-0.059148,-0.109005,-0.117408,-0.464974,-0.227772,0.0941314,-0.445217,-0.44107,-0.412537,-0.0432506,0.158828,-0.140726,-0.370364,-0.148803,0.229583,0.199814,0.316536,-0.285843,-0.00521075,-0.274909,0.313694,-0.253105,0.104553,0.0207524,0.256404,0.226037,0.298694,0.0761983,0.268706,0.308509,0.224271,-0.216047,0.0366018,0.173432,-0.395708,0.078516,0.129922,-0.0322624,-0.0906886,0.282099,0.164419,-0.00491719,0.343242,0.0940576,-0.0624835,-0.234734,-0.260091,0.143086,-0.0582141,0.366887,0.267228,0.201736,0.287472,0.200321,0.0157214,0.0767892,-0.212817,-0.0387096,0.244751,-0.280763,-0.267899,0.225848,0.254079,-0.0472271,-0.366522,0.0014455,-0.0896258,-0.0300702,-0.150478,0.27468,0.277707,0.0507816,0.079714,-0.270614,0.145661,-0.269429,0.278423,0.0869686,-0.164012,-0.22447,0.0292011,-0.0445199,-0.0670958,-0.00886554,0.262194,0.0728155,0.279585,-0.103274,-0.447467,-0.399855,-0.371085,0.167674,0.215296,0.16806,-0.263164,-0.183119,0.254981,0.121948,-0.159157,0.136861,0.141321,0.0335281,0.18565,-0.0668526,0.12053,-0.167849,0.219154,-0.22685,0.131835,0.0290806,0.356374,0.302442,0.229268,0.317854,0.290405,0.0248461,-0.171546,0.074582,0.26757,-0.120848,-0.0025844,-0.0406428,-0.334944,0.00701696,0.0970562,-0.066323,0.401675,-0.163368,0.131838,0.0231895,-0.306293,-0.00726272,0.285089,-0.233284,-0.252685,0.0357047,-0.0684383,-0.00760587,0.103935,0.407468,0.0377965,0.295915,0.338225,0.209621,0.194343,0.145737,-0.157466,0.237698,0.325283,0.0115012,0.135421,0.0673071,0.136272,0.424071,0.389772,-0.156467,0.299997,0.204349,-0.171965,-0.0146889,0.0182867,-0.171245,0.303758,-0.134382,0.273727,0.320626,0.274197,-0.0701779,0.410687,-0.168544,-0.0290386,0.364356,0.301488,-0.162777,0.0175256,-0.162327,-0.0351026,0.108333,0.0284885,0.00445874,-0.258263,-0.0900928,-0.224924,-0.300473,0.363205,0.169601,0.0613354,0.265413,0.0126896,0.0416791,0.0759434,-0.16265,-0.280974,0.292146,-0.20485,-0.260908,0.0760463,-0.155354,-0.197118,0.111841,-0.204886,-0.0425063,-0.332073,0.170767,0.31672,0.374879,0.359533,0.143085,0.0393607,0.136167,0.175521,0.228198,0.224002,-0.298362,0.0722076,-0.286007,-0.152681,0.0562273,0.398461,0.322362,-0.285636,0.206077,0.177603,0.20978,0.0274681,-0.274405,0.290059,0.335364,-0.134971,0.00275156,-0.301722,0.101926,0.193883,0.395512,-0.211831,0.25363,-0.171557,-0.00349224,0.0257222,0.161201,0.348145,0.100977,0.296539,-0.198975,-0.283316,-0.174279,0.15031,-0.287887,-0.00207229,0.143469,-0.200349,-0.0333704,-0.233708,-0.0691606,-0.0388415,0.285649,0.26888,-0.105919,0.113655,0.218352,0.0461923,-0.0589215,0.233717,0.388067,0.366003,0.189501,0.302833,0.0733739,0.313673,0.21301,-0.198676,0.0787652,-0.135569,0.167956,0.282247,-0.0045076,0.0457816,0.399016,-0.252717,-0.0852424,0.314994,-0.0561955,-0.111208,0.130946,0.368273,0.235186,0.00506273,0.156525,0.200716,-0.0767391,-0.0281828,-0.0787715,-0.260453,0.0834764,-0.0957257,0.0234565,0.38261,-0.181948,0.0341807,-0.215275,-0.11301,0.216578,0.174493,-0.256334,-0.291305,-0.158428,0.370355,0.306213,0.142876,-0.0779093,0.0510834,-0.188955,-0.119547,-0.195813,-0.148537,-0.0385682,0.118181,-0.174276,0.128376,0.260662,0.272164,0.34984,0.240996,-0.15266,0.381628,0.390344,0.364922,0.282803
-0.277078,0.315424,0.0666951,0.374343,-0.126063,0.336958,0.324311,0.397159,-0.168361,0.146144,-0.232345,-0.198932,0.177761,0.154241,0.14373,0.152852,-0.0606495,0.148109,-0.0624012,0.210233,0.254091,-0.0678274,0.234053,-0.22523,-0.10079,-0.121299,0.354006,-0.0796625,0.293826,0.358663,0.349947,0.143794,0.13386,0.0742363,-0.204892,0.33542,0.0688953,-0.0340277,0.150514,-0.284859,0.380496,0.115174,0.144136,-0.0679342,0.170925,-0.185324,-0.152831,0.274129,-0.0771203,0.128861,0.080987,-0.115894,-0.162529,0.215296,0.2395,-0.170156,0.0119846,0.0298654,0.0616962,0.324717,-0.234416,-0.0129032,0.0379406,-0.0543223,0.0726366,0.397547,0.384999,-0.154505,0.112564,0.354723,0.274595,0.207914,0.299093,0.291638,0.0473305,0.335742,-0.0124997,0.182194,-0.298818,0.131318,0.136808,-0.29577,-0.116749,0.353001,-0.17915,0.0435163,0.0743431,0.102799,0.352973,0.350946,0.196168,0.138957,0.335544,-0.267014,0.329004,-0.0382757,0.29294,-0.102059,-0.12566,0.0679806,0.194714,-0.286773,-0.0605247,0.119862,0.12838,-0.071945,-0.204385,0.232962,0.0392223,0.193869,0.266887,0.315189,0.3837,0.341401,0.0179449,-0.22869,0.315207,-0.0441419,0.391605,0.203509,0.159542,-0.203247,-0.140306,0.126082,-0.110714,-0.183754,0.0464234,-0.299143,0.346845,0.0969305,0.171944,0.348194,0.34839,0.2127,-0.18764,-0.268833,-0.0936496,-0.214582,0.0780174,-0.171032,-0.114057,-0.0522965,0.0277932,-0.0490401,-0.0369,0.115747,0.127346,0.0747713,-0.121326,0.253891,-0.229749,0.38367,0.272412,0.240961,-0.0662141,-0.0667453,0.360595,0.211062,0.132714,0.00396846,-0.0180045,-0.174092,0.0591664,0.318139,-0.241678,0.281408,-0.122004,-0.0458663,-0.132557,0.0355693,-0.142769,0.313575,0.333664,-0.00137851,0.286797,0.197969,-0.230705,0.0128209,0.235397,-0.00407873,-0.278317,0.297555,0.305068,0.110507,0.315355,0.147294,0.257331,0.193987,0.029069,-0.0451245,0.155354,0.249428,-0.154366,0.127041,0.0907067,-0.107114,0.249327,0.208161,0.146832,0.237064,-0.257948,0.254955,-0.133526,0.361376,-0.0666927,-0.0365428,0.278148,0.057052,0.209406,-0.26007,0.0246776,-0.0728714,0.17699,-0.10736,-0.0779246,0.227779,0.13544,0.21119,0.357308,-0.275283,-0.178584,-0.0561726,-0.295886,-0.251912,0.0719718,0.0476698,-0.210162,-0.028245,-0.00284951,0.0315606,-0.0542647,-0.0401752,0.159434,0.14286,-0.178077,0.344577,-0.0927166,-0.0711592,-0.0633261,-0.172361,-0.268827,-0.226292,0.260072,-0.120045,0.0862986,0.0439324,0.0564554,0.0542138,-0.251942,-0.173919,0.124642,-0.277441,-0.190771,0.135089,-0.214621,-0.156386,0.299947,0.133633,-0.251675,0.3262,-0.192164,0.281751,0.0466496,-0.14669,-0.141809,0.207351,-0.222796,0.155198,-0.165568,-0.298811,-0.0490292,-0.180443,-0.105298,0.0654584,-0.0155566,0.118627,0.152768,0.0635581,0.0752131,0.287996,0.0746635,-0.105851,-0.180484,0.273244,-0.0964013,0.212422,0.0131454,-0.308385,0.355123,0.388637,0.244718,0.365397,-0.273046,-0.170728,-0.199819,-0.151189,-0.17169,0.309694,0.180254,0.0845264,0.0069387,0.314408,0.30981,0.197862,0.21387,-0.0946033,-0.0223734,-0.199443,0.285281,-0.237637,0.0644186,0.142029,0.13213,0.00496418,0.0567286,0.329345,-0.110519,-0.270778,0.0965906,-0.117149,0.32162,0.168823,-0.174001,-0.288125,0.168332,0.0447679,-0.00672811,-0.160461,-0.0752678,-0.170437,-0.194321,-0.0950027,0.37446,0.378409,0.309379,0.395166,-0.201325,0.142047,0.0371353,-0.222961,0.217337,0.0773611,0.115393,0.16231,-0.14161,-0.0533565,-0.205493,-0.111038,0.0814938,-0.0521805,0.364807,0.0952772,0.392881,0.370201,0.203721,0.407283,0.16104,0.0939225,0.0990993,0.337312,0.125085,0.238628,-0.224834,-0.272951,0.188998,-0.264642,0.00797974,-0.212626,0.0240067,0.319071,0.304178,-0.219697,0.255901,0.348385,-0.307349,0.172907,0.059226,0.207266,0.409711,-0.10915,-0.0509498,-0.114995,-0.171993,0.0381752,0.279521,-0.11166,-0.0679141,-0.168598,-0.133064,0.128639,0.183087,-0.299201,-0.0227088,-0.284682,0.298827,-0.0695618,-0.145811,0.061446,0.168288,-0.22074,0.376933,0.0821473,-0.0865417,-0.151511,-0.161705,0.380918,0.368354,-0.124496,0.341932,0.00784457,0.080306,0.0914669,0.158502,0.377261,0.272856,-0.021441,-0.109159,-0.225699,0.0740244,-0.040986,0.0821192,0.2366,-0.234521,-0.265211,-0.114495,0.00852566,-0.187218,-0.204001,0.364176,-0.0334727,0.145166,0.305571,-0.15712,-0.07935,-0.266808,0.190191,0.269699,0.273852,0.0847692,0.275256,-0.200984,0.123879,0.282256,-0.0770803,-0.126098,-0.0646776,0.0939182,0.261252,0.105832,-0.0607545,-0.00520657,0.160121,0.0124924,0.159886,-0.279034,0.051194,-0.269293,0.109861,-0.118583,0.217086,-0.26325,-0.047426,0.0364848,-0.233162,0.286828,0.317703,0.319339,0.0893256,0.0877469,0.187799,-0.116955,0.315783,-0.15182,0.000912519,-0.00257253,-0.188014,0.22226,0.348264,-0.276612,0.31147,-0.188302,0.267029,0.0835799,0.0940105,0.0775119,0.0856657,0.233834,0.202978,0.360113,-0.022094,-0.262659,0.355249,0.0263745,0.252029,-0.000360859,0.187829,-0.186984,-0.0461519,-0.169259,0.355202,0.274821,-0.24652,-0.105104,0.208592,-0.0187353,-0.0780342,0.00249639,-0.289003,0.0542706,0.354619,0.364493,0.263989,0.207398,0.062894,0.379496,-0.268673,-0.0949796,0.0336914,0.124585,0.345154,-0.0986274,0.201135,0.320352,0.374187,0.392148,0.197691,0.144075,-0.187962,-0.000198653,0.269587,0.277645,0.0549267,0.396133,-0.0473403,-0.29192,0.124501,-0.0688187,0.28256,0.0414702,-0.118687,0.14284,-0.185886,0.397159,0.152727,-0.0900406,0.197209,-0.0570765,-0.0141614,0.289651,-0.284314,0.384612,-0.00892705,0.332386,0.217617,0.134862,-0.0809973,-0.207811,0.267346,-0.0186106,-0.248783,-0.0710532,0.0732322,-0.164775,-0.0626724,-0.172928,0.0377209,0.261935,0.142594,0.262555,0.138278,0.19905,0.156627,-0.268153,-0.212366,0.370057,-0.0161611,-0.17805,0.206148,0.291039,0.0353288,-0.101825,0.0694772,-0.14949,-0.164788,0.205553,0.204535,0.196543,0.39897,-0.159816,-0.0294382,0.368245,0.308564,0.260441,0.373555,-0.145133,0.308263,-0.142201,-0.273815,-0.271052,0.287543,0.376774,0.102683,0.278506,-0.0235141,0.0137653,0.377302,0.116433,0.388307,0.375345,-0.206396,-0.162309,-0.0277149,-0.0783575,0.338526,0.237926,-0.112284,-0.282675,-0.237919,-0.235003,-0.01664,-0.104679,-0.00201694,0.125759,0.315579,-0.264153,0.181615,-0.0517948,0.371914,0.266084,-0.0772275,-0.166172,-0.174536,-0.147134,0.175703,-0.275096,-0.238489,-0.0654516,0.0754,0.246092,-0.162595,0.0612427,0.103017,0.106239,0.176479,0.0489852,0.236039,-0.251755,0.0808948,-0.0415826,0.00324627,-0.119751,-0.0806064,-0.133363,0.0996006,0.181885,-0.0453225,0.118132,0.0287723,0.129896,0.309432,-0.0563928,-0.135684,0.192605,0.0745889,-0.0955595,-0.208549,-0.232649,0.20826,0.386443,-0.107732,-0.0872036,0.185858,0.359645,0.309891,0.243005,-0.0538723,-0.1825,-0.0541762,0.119953,0.275179,0.114693,0.0553197,-0.140777,0.360857,0.213049,-0.225175,0.0984214,0.0199881,-0.166946,-0.154449,0.0573742,-0.067207,-0.223319,-0.0170249,-0.251586,0.128319,-0.204626,-0.137,-0.0944456,0.182012,-0.02931,-0.0904721,-0.248665,-0.217795,0.176812,-0.287925,-0.252739,0.242515,0.00922645,0.113285,0.319503,0.272154,0.258633,-0.17075,0.0784625,0.309276,-0.170506,0.394364,0.149569,-0.108997,0.355274,0.392233,-0.232409,-0.0459664,-0.259676,-0.272655,0.28887,-0.220145,-0.296454,0.0224952,0.00523391,0.259432,-0.0237454,-0.0227344,0.395137,0.384569,0.00713504,-0.186494,-0.100337,0.214382,-0.163526,-0.279529,0.0190258,-0.207923,-0.0263319,0.0820335,-0.102169,-0.192756,0.285655,0.29421,-0.0640248,0.216193,-0.20062,-0.293142,0.377483,0.0435591,0.390408,-0.27163,0.0879086,0.112326,0.0095706,0.0177953,0.309078,-0.110068,0.125809,-0.298335,-0.292339,0.186691,-0.172356,0.114655,0.241316,-0.00400958,-0.217317,0.336644,0.326213,-0.0737819,-0.254924,0.264879,-0.253365,-0.178979,0.159859,0.344584,-0.224674,0.212775
0.00803247,0.159389,-0.135633,0.110553,0.023606,0.374728,0.265627,0.0648579,-0.112818,-0.297226,0.0302626,0.208502,-0.00920746,-0.154241,-0.233048,0.120145,-0.164708,0.241166,-0.0067507,0.00681478,0.169707,-0.219013,0.265349,0.25298,0.232044,-0.0727836,-0.280303,0.23245,0.000790417,-0.205469,0.0117496,-0.269601,0.216514,0.0231361,0.0853023,0.372159,0.282897,-0.279012,-0.129429,-0.0815832,0.119974,-0.257734,0.154219,-0.165584,0.387011,0.233775,-0.122132,0.348601,-0.291498,-0.0808802,0.146058,0.24922,-0.242833,-0.17712,0.281542,0.314762,0.207797,0.140141,0.290066,-0.19498,0.199487,-0.252403,0.308854,-0.0548218,-0.145951,-0.219826,-0.23541,-0.0853607,-0.159858,-0.241262,0.0260765,-0.162995,0.236357,0.204163,-0.0621035,-0.228643,-0.122315,-0.25249,0.0653765,0.270647,0.0265114,0.38605,-0.0377056,0.310553,-0.0396069,-0.0999146,0.143965,0.281414,0.038633,-0.0189424,0.19476,0.359706,0.263251,0.300759,0.317127,-0.130892,-0.082662,0.0355933,0.126312,0.24514,0.0850187,0.1575,-0.156811,0.00240497,0.0460889,-0.123247,-0.291078,-0.092569,0.376971,-0.166353,0.378253,-0.0807093,0.165328,0.188763,-0.223606,0.0624012,-0.0616029,-0.0944484,0.350186,0.212135,0.21238,-0.0430262,-0.117929,-0.160448,0.282458,0.159536,-0.160045,-0.128796,0.33039,0.075679,-0.101557,0.302415,0.0581334,0.344571,-0.196284,-0.245798,0.168836,-0.282731,0.172519,-0.28496,0.139244,0.290045,0.184247,-0.0371073,0.400656,0.0821129,0.28816,0.305097,-0.0178833,0.140677,-0.0737516,0.195395,0.199045,0.298324,-0.192387,0.0686577,0.333246,0.288905,0.0108366,0.305424,0.295237,-0.0402603,0.308319,0.0143205,0.0493087,0.164701,-0.253918,-0.183316,0.110233,0.215146,0.297227,0.362714,0.084215,-0.00429321,0.266341,0.151239,-0.351775,0.140715,-0.318377,0.0819608,-0.137884,0.114907,0.304842,0.378769,0.390589,0.185112,0.228827,0.120787,-0.0180072,-0.0432223,0.296493,-0.259089,0.0962748,0.0198662,0.244462,0.380773,0.35204,0.0627643,0.209885,0.1493,0.232827,0.420787,0.152031,-0.281479,0.184695,0.247858,-0.105404,-0.156611,-0.535968,0.151589,-0.119639,-0.0340592,-0.135655,-0.186523,-0.180779,0.206571,0.103032,-0.195115,-0.107017,0.0386059,-0.326261,0.110011,0.207349,0.0449233,0.166289,-0.16568,0.248673,-0.200434,0.28992,0.135948,0.436593,-0.177066,0.215035,0.0104458,-0.110814,0.11754,-0.40843,0.34064,0.46637,-0.0487819,0.58108,-0.154567,-0.205003,-0.19228,-0.213313,-0.200567,0.251896,-0.117565,-0.287447,-0.26777,-0.10669,-0.000130506,0.278936,0.207889,-0.0353948,-0.245207,0.488193,-0.091049,-0.167493,0.208292,0.0744258,-0.135502,-0.102945,-0.0357957,0.303564,0.386532,0.367935,0.148286,0.0947277,-0.238124,0.0203303,-0.212896,-0.205994,-0.182852,0.0641721,-0.356161,-0.332219,0.0388689,-0.141634,0.0184171,-0.0341807,0.223159,0.0878373,-0.235832,0.517113,0.512494,-0.0200178,0.100285,0.0541336,-0.16902,-0.39692,-0.41831,-0.063932,0.325232,0.102104,0.410193,0.263848,0.392945,0.339778,0.0888139,0.0863792,-0.285145,-0.379725,0.210871,-0.382573,0.0227858,-0.243682,-0.280483,0.173724,0.0816895,0.331746,0.0146554,0.547801,-0.099153,-0.398885,0.163982,-0.296044,-0.174142,-0.268063,0.0600605,-0.270153,-0.0922513,0.381293,0.308903,0.100658,0.407203,0.135226,0.268712,-0.280384,0.23947,-0.241131,-0.134519,-0.0189545,0.163183,-0.11026,-0.206079,-0.24828,0.114333,0.316156,0.183339,0.112741,0.221764,-0.0607594,-0.0522453,-0.0461598,0.159207,-0.0263583,0.230428,-0.420064,0.210953,-0.165639,0.126735,-0.19902,0.0464501,-0.212051,0.0884331,0.077629,-0.291203,0.0142669,-0.311877,0.0630248,-0.0875474,-0.00815441,0.374213,0.259474,-0.0800301,-0.0394956,0.426455,0.38456,0.062699,-0.278194,-0.19962,-0.411658,-0.305063,-0.00612731,-0.0562461,-0.294088,-0.301857,0.220298,0.0194184,0.429023,0.319961,0.264614,0.244838,0.0411398,0.267998,0.111557,-0.572591,-0.47638,-0.53728,0.149769,0.36872,0.166866,-0.0719572,0.327663,0.12877,-0.142146,0.0497717,-0.289185,-0.491027,-0.795849,-0.564257,-0.492279,-0.470155,-0.350577,0.0524914,-0.263462,-0.0377254,0.398037,0.155934,-0.0420854,0.357167,-0.121836,0.00291911,-0.127795,-0.0971295,-0.0632559,0.132138,0.10628,-0.143365,0.211814,0.288402,-0.198173,0.165653,-0.274678,-0.311669,-0.618137,-0.69588,-0.571347,-0.13152,-0.328407,-0.470671,-0.191331,0.0777805,-0.190145,0.347874,0.00200929,-0.123219,0.155999,0.305925,-0.151588,-0.245961,-0.314752,-0.0224581,-0.11449,0.236271,-0.346104,0.243759,0.031019,0.041264,0.085492,0.0575071,0.142588,-0.292589,-0.125743,-0.32678,0.0322627,-0.228447,0.0578372,-0.0593774,0.139774,0.112041,-0.0727768,0.293423,0.362918,0.415526,0.180296,0.183936,0.138153,-0.00660515,-0.372623,0.0634711,-0.090888,0.0752063,-0.268121,0.054922,0.129609,-0.1289,-0.127119,-0.184197,-0.0691486,-0.396357,-0.249271,-0.0156303,-0.0738533,0.131356,-0.125058,0.393039,0.0269309,0.0831438,0.130941,0.0545088,0.32712,-0.207234,0.0318352,-0.30982,-0.0433577,0.0699622,-0.0283541,-0.187261,-0.0948789,-0.00334055,-0.0841038,0.0643968,-0.194617,0.195656,-0.188685,0.383609,-0.153025,-0.11986,-0.324826,-0.436573,-0.131115,-0.0608516,-0.143022,0.130615,-0.129429,0.509993,0.569294,0.17532,-0.0623928,0.257302,-0.27799,-0.154517,0.270835,0.120126,-0.0318843,-0.3842,-0.19096,-0.0476971,0.124113,0.133129,0.193142,-0.00679344,0.361094,0.124265,0.0258601,-0.210912,0.212641,-0.29597,-0.332316,-0.26036,-0.127447,-0.243939,-0.0410537,0.48405,0.250794,-0.117138,0.390355,-0.266393,-0.382247,-0.307318,-0.100299,-0.269429,-0.198386,-0.257375,0.361353,-0.178873,-0.237087,0.0697794,0.244563,0.0345225,-0.295725,-0.0343102,0.177163,0.175414,0.287337,0.120421,-0.478542,-0.464635,-0.168887,-0.132331,-0.200368,0.284156,0.236417,0.212041,0.330728,-0.0429012,0.181451,0.196369,-0.181804,-0.231371,0.117558,0.387467,-0.236926,-0.145055,-0.0211481,0.208661,-0.290194,-0.210959,0.121948,-0.220467,-0.0178292,-0.290605,-0.2345,-0.0173851,-0.407748,-0.184384,0.19734,-0.230089,-0.263889,0.051221,-0.0406175,-0.200767,-0.123432,0.240295,-0.00207004,-0.056305,0.128396,0.0102015,0.201981,0.331101,0.226253,0.0945166,-0.221756,0.0378511,-0.264174,0.0990387,-0.119635,-0.129093,0.0309976,-0.245011,0.0535661,-0.184129,0.0887139,0.0749461,-0.132917,0.153999,-0.163412,-0.387892,0.0216838,0.303437,0.0826818,0.345801,-0.123849,0.24583,0.4714,0.138617,-0.0464031,0.142804,-0.260319,-0.00971933,0.339053,0.37759,-0.252596,0.197458,0.00976334,-0.0755006,0.305311,-0.267544,-0.087521,-0.0344036,-0.187503,-0.299763,0.0654045,-0.0280486,0.205212,-0.257509,-0.426783,-0.0674334,-0.273024,-0.160359,0.0721396,-0.143534,0.380288,0.421287,0.293412,0.04771,-0.280255,0.0249351,0.311828,0.35266,0.126341,-0.267251,0.232756,0.2216,-0.094374,0.334074,0.311518,0.366043,-0.201425,0.103505,0.0994594,0.00727375,-0.115927,0.000777528,0.0217753,-0.246414,0.0313158,0.350686,-0.229373,0.453098,0.372654,0.375482,0.269615,0.253542,0.389891,0.372694,-0.228498,0.347597,0.25471,0.00205082,0.0798761,-0.0411878,-0.192198,-0.233969,-0.327132,0.347081,-0.248781,-0.146144,0.282463,0.250235,-0.13571,-0.297944,0.356094,-0.256818,-0.291344,-0.00963751,0.235842,0.0349827,0.156641,-0.267629,-0.27037,0.172547,0.280227,-0.07116,0.288977,0.0713309,0.0373638,0.345631,-0.185516,0.338752,-0.122901,0.265223,-0.0139684,0.102495,0.230975,0.145758,-0.288868,0.303816,-0.116523,0.000866491,0.107017,-0.129308,-0.260797,-0.203292,-0.208761,0.4052,0.323549,-0.142356,-0.244089,0.161397,0.15736,0.026426,-0.184191,0.105512,0.0697714,0.00630206,0.37069,0.119803,0.203461,0.236402,-0.094353,0.0908615,-0.176189,0.158839,0.271183,-0.132279,0.329054,0.201175,0.13715,-0.238724,0.281038,0.13708,-0.0268166,0.0185863,-0.0775903,0.172613,0.306836,0.183337,0.365307,0.187823,-0.143303,0.265755
0.166396,0.00653705,-0.266524,-0.260543,-0.175796,0.322474,0.038496,-0.196539,-0.0167486,0.127991,-0.0333157,0.00621859,-0.251976,0.109784,0.307669,0.280196,-0.232878,0.133882,-0.122217,0.183166,0.396924,0.292309,0.167614,0.0932066,0.303909,-0.0667593,-0.0607776,0.354241,-0.184405,-0.0537065,0.357744,0.319205,0.378722,-0.0749626,0.291263,0.287299,0.234323,0.378235,0.260965,-0.119163,0.0718617,0.213546,0.296347,0.0711386,-0.141273,0.359624,0.317005,0.26176,-0.0640248,0.26003,0.280859,-0.209656,0.143495,0.196539,0.277483,0.13166,0.276501,0.375134,-0.135591,0.337171,-0.141444,-0.0593225,-0.290518,0.24523,-0.204096,0.141571,-0.131924,-0.25274,-0.271025,0.135609,-0.06096,0.33591,-0.0614483,0.0763,0.144012,-0.147861,0.218604,0.189679,-0.191956,0.0532365,0.288208,0.296817,0.269835,-0.113565,-0.0166631,0.0411664,-0.0941038,0.0955778,0.128379,0.104864,0.238746,-0.152913,0.130942,0.02649,-0.156647,-0.119465,-0.299807,-0.295134,0.0370995,-0.0446984,0.11807,-0.0117343,0.0470821,-0.292248,0.00962877,0.175684,-0.104275,-0.0821615,0.0535432,0.068276,-0.278701,-0.17022,-0.226704,0.0707327,-0.15988,-0.0397351,0.220921,-0.213586,0.11515,-0.083737,0.338956,-0.103118,0.153706,0.27992,0.085065,-0.131302,0.092139,-0.21413,0.215535,-0.0648603,-0.14818,0.0612151,0.133953,0.148669,0.307559,0.0074093,0.173733,0.302404,0.231724,0.394317,-0.197031,0.180966,0.304754,-0.299129,0.337366,0.25967,0.126719,-0.202202,0.304659,-0.202922,-0.250785,0.0835712,0.33715,0.309003,0.0872392,-0.0711916,-0.0953592,0.247216,0.202535,0.251508,0.171236,0.0620914,-0.277384,-0.0946131,0.102882,-0.095792,0.3395,0.264431,-0.230506,0.379235,0.131972,0.310591,-0.198926,-0.137314,-0.213613,-0.303463,-0.070491,0.0783691,0.235486,0.0888518,0.355728,0.575867,0.245776,0.46305,0.0911806,0.344737,-0.0095106,-0.363718,-0.317405,0.0324304,0.159695,-0.265994,0.327822,-0.291031,0.0624685,-0.183123,-0.298398,0.252083,-0.198539,0.259214,-0.159833,-0.228783,0.328154,0.290749,0.0638264,0.0465337,-0.320357,-0.191712,0.288924,0.0920064,0.481942,0.125894,0.102546,-0.145089,-0.191032,0.385997,-0.318149,-0.163455,-0.207733,0.121007,-0.0475357,0.173684,0.0256077,-0.200726,0.336702,0.197195,-0.252446,-0.00868021,0.176683,-0.103965,-0.219722,0.234309,-0.0724289,-0.10103,-0.0839707,0.258482,0.414543,0.0292766,0.0918567,0.0321037,0.0515983,0.373849,-0.0552198,-0.0776227,-0.383995,-0.217539,-0.00187962,-0.215716,-0.181506,0.168649,0.318465,0.12476,0.349028,0.200368,0.389177,0.0165617,-0.23249,-0.250816,0.00254241,0.0146725,-0.192401,-0.312724,-0.0262997,0.127856,0.00385509,0.119618,0.468291,0.247636,0.242533,0.0901069,-0.101173,0.238982,-0.319495,-0.166536,-0.524265,-0.167599,-0.125723,-0.124878,0.365704,-0.188957,-0.055031,-0.186999,0.131568,0.388011,-0.296006,-0.179014,-0.278179,-0.201985,-0.104428,-0.148844,0.0158021,0.202446,0.190999,-0.0399471,0.251241,0.189781,-0.31453,-0.120407,0.0893392,0.335216,-0.0870129,0.300113,-0.257351,-0.283655,-0.194054,0.029244,0.064419,0.141101,0.391028,-0.167628,-0.00914431,0.345408,-0.315603,-0.486712,-0.0327722,-0.0728595,0.386943,0.211512,-0.14912,-0.0299364,0.22615,-0.252117,-0.2545,-0.403343,0.138259,-0.326522,-0.395239,0.0883986,-0.154489,-0.202168,-0.305016,0.331292,0.0966693,-0.23635,-0.047521,0.179972,-0.110233,0.227419,-0.15554,-0.181439,-0.203132,0.130798,0.223287,0.207065,-0.158692,0.187796,0.0797709,-0.429499,0.0169231,-0.0609099,-0.625646,-0.375187,-0.412657,-0.1553,-0.279749,0.231956,-0.429318,0.129532,-0.0426704,0.0279096,-0.127726,0.0643796,0.0332214,0.00783126,-0.12993,-0.253955,0.283281,0.363776,-0.147905,-0.140793,-0.172836,-0.127492,0.198785,-0.0877124,0.130206,0.1511,-0.213295,-0.36121,-0.29645,-0.0644489,-0.140095,-0.707035,-0.109477,0.00751015,0.128126,-0.342344,-0.384877,0.469388,0.147764,-0.025155,-0.226442,0.119306,-0.293634,0.106446,-0.255683,0.224842,-0.381715,-0.0676738,-0.316507,-0.231556,-0.107823,-0.334527,-0.125036,-0.182833,-0.459906,-0.00704719,-0.409241,-0.42155,-0.482817,-0.252055,-0.390044,-0.441099,-0.0457624,0.0770282,0.243412,0.248987,0.407,0.311966,-0.30162,-0.240505,0.233476,-0.0789394,0.170143,-0.260207,-0.458257,-0.240833,-0.0189706,0.245891,-0.332942,-0.325282,-0.387607,0.117794,-0.0581737,0.272715,-0.000299755,-0.179813,-0.355568,-0.703945,-0.178002,-0.157522,0.182705,0.0971667,0.160026,-0.0261771,0.175973,0.0185604,0.185357,0.141281,0.371801,0.182066,0.0505463,-0.10056,0.151728,-0.391759,0.133602,0.23039,-0.235048,-0.372411,-0.372787,0.262292,-0.0675581,-0.108922,-0.0273883,0.212017,-0.230304,-0.190815,0.0352038,-0.273981,0.0973785,0.470957,-0.0319348,0.408914,-0.228596,0.0404047,-0.218545,-0.175544,0.229139,0.118537,-0.131181,0.0678502,0.295701,0.0531395,0.0517725,-0.335129,0.0574486,-0.0259177,0.00713409,-0.0797083,-0.18475,0.300215,0.250793,-0.319022,-0.635811,-0.158485,0.328708,0.324066,0.00746039,0.118935,0.352194,0.300644,-0.0752321,0.224712,0.0231119,0.265098,-0.10564,0.378079,0.197026,-0.163949,0.0983131,-0.303184,-0.22714,0.0900825,-0.396139,-0.60336,0.046988,-0.242406,-0.208967,-0.172327,0.177752,-0.0393022,0.349831,-0.0898876,-0.154018,0.180054,0.115206,0.354486,-0.17295,-0.145387,0.205879,0.163233,0.1306,0.376489,0.288763,0.0351848,0.0548254,-0.235965,0.118767,0.376369,0.129064,-0.313613,-0.403875,0.0646108,-0.133415,-0.245973,-0.316959,-0.213766,0.397873,0.49417,0.17281,0.213903,0.214016,0.104612,-0.0199857,0.482324,0.240467,0.235371,-0.0309752,0.206408,0.272397,0.0334239,0.190558,0.180752,0.0405684,0.0474823,0.403172,0.339979,-0.23815,-0.356901,-0.0248234,0.0548894,0.0656873,0.0678594,-0.0993925,0.158008,0.268901,0.511524,-0.00699682,-0.070812,-0.0854173,0.297596,-0.128757,0.125633,-0.0126861,0.225318,-0.141426,-0.123536,-0.12184,-0.0204041,-0.00153813,-0.107028,0.342469,-0.201847,0.0753591,-0.138846,-0.062152,0.126852,-0.377664,0.0889125,-0.227849,0.00964538,0.0222947,0.372726,0.340825,0.542489,0.501157,-0.116083,0.0954851,-0.11075,0.471311,0.112853,0.0328376,-0.114593,-0.203106,-0.239093,-0.222884,-0.248967,0.049498,0.146998,0.124092,-0.158998,0.238598,-0.108413,-0.251824,-0.36293,-0.0517046,0.234748,0.304931,0.117066,-0.0950238,0.271096,0.44488,0.274641,0.0725833,0.0718711,0.156886,0.117146,-0.237427,0.111053,-0.295815,-0.123194,-0.22176,-0.137364,0.152194,0.0429182,-0.142897,0.0628498,0.296245,0.137734,-0.020149,-0.189386,-0.14869,0.368771,0.217432,0.13671,0.0841755,0.353798,0.293632,0.311031,0.464856,0.625299,0.297205,0.045046,0.244603,-0.220795,-0.307538,-0.120245,0.202962,0.138458,-0.249646,-0.141005,0.35739,-0.0908353,0.0849178,0.346806,0.0988297,-0.0294216,-0.244393,-0.197322,0.171857,0.200251,0.167417,-0.0146817,0.00190062,0.382995,-0.0993442,0.287498,0.268887,0.466348,0.00688464,-0.30137,0.236788,0.179995,-0.177086,0.333272,-0.0465862,-0.193588,-0.133347,-0.0583439,0.251036,0.0372997,0.321918,-0.271822,0.00807518,-0.115253,0.0189588,-0.160149,0.112572,-0.128785,-0.269886,-0.266306,0.195086,0.0957156,-0.204584,0.207301,0.0403141,0.0245068,0.182055,0.031227,0.165421,-0.262852,-0.229071,0.00608316,-0.169709,0.27609,-0.100994,0.201047,0.0977569,-0.175796,0.0745781,-0.0543474,-0.0181372,0.227323,0.172338,-0.280512,-0.278843,-0.240667,-0.0885704,0.319771,0.108812,0.252185,-0.061346,0.30981,0.362893,-0.183338,-0.306355,0.294896,0.138873,0.153916,-0.208699,-0.138925,0.143474,0.0802392,0.114869,-0.164046,-0.0315958,0.122346,0.2417,0.185153,-0.0346507,-0.102286,-0.0826106,0.150652,0.395725,0.107152,-0.0801793,0.24628,-0.168433,0.143132,0.339692,0.33292,0.328285,-0.208012,0.327076,-0.263834,0.0786436,0.0283488,0.246571,0.279983,0.0975219,0.215851,0.0251228,0.322944,-0.0525956,0.0859645
-0.112732,0.023542,0.0709463,0.279662,0.0919462,0.116108,0.381991,-0.0448622,-0.184725,0.169975,0.0292433,0.0466642,0.0639179,0.0871822,-0.00999787,0.119996,-0.10423,-0.022132,0.0332194,0.222538,0.0578936,0.183828,0.134416,-0.125849,-0.199402,0.0736594,-0.0213203,-0.00343946,0.277547,0.180453,0.335227,-0.0726127,0.290643,0.00399485,-0.0623371,0.216204,-0.109689,0.257132,0.0679309,-0.138923,0.395498,-0.272525,-0.111985,-0.00102544,0.187759,-0.12822,-0.127345,0.148686,0.222047,0.135612,0.230122,0.0825037,0.143281,-0.0197821,-0.0576373,-0.105213,-0.202777,-0.168426,0.291177,0.311258,-0.255779,-0.0534925,-0.0565231,0.374847,-0.0857512,0.0325213,-0.268887,0.375315,-0.0656016,-0.0909953,-0.180813,0.0793153,0.357915,0.066133,-0.0339725,0.20593,-0.234721,-0.00244853,-0.121623,-0.0878445,0.34452,-0.297031,0.203397,0.2975,0.111087,0.0868831,0.346657,-0.154924,-0.249973,-0.208801,-0.19779,0.157293,0.278827,-0.0785321,0.243211,0.0220086,0.285511,-0.308874,-0.0605845,0.0349719,0.325693,0.23459,-0.19848,0.328248,-0.0061774,0.386229,-0.125068,-0.220852,0.19472,-0.0953643,-0.277825,-0.272228,0.186114,-0.213822,0.309378,-0.0264901,0.0206037,-0.182248,0.113134,0.143718,0.116415,0.349773,-0.217375,0.165982,-0.0363426,0.0239852,-0.125448,0.199718,-0.270539,0.259437,0.0445224,0.176058,0.312204,0.0759978,0.216426,0.29179,-0.123169,0.135366,0.36894,0.236381,-0.0598804,0.216129,-0.150653,-0.152441,-0.131821,0.209299,-0.114865,-0.0795198,-0.188177,0.301546,0.10604,0.296819,-0.0613316,-0.287861,0.314027,-0.166318,-0.271967,0.101938,0.250021,-0.0437022,0.0929298,0.0676488,0.0141752,0.169956,-0.0187495,0.262253,-0.169967,0.242235,-0.0675924,0.000662237,-0.260893,-0.137944,0.0948356,-0.085305,0.044043,-0.188793,-0.269898,0.148204,-0.0054532,-0.28663,-0.19285,-0.293983,-0.193468,-0.105383,0.0872591,-0.165167,-0.10135,-0.200382,0.28558,-0.12733,-0.215947,0.237998,0.461212,0.0332396,-0.0480772,-0.129437,-0.0381542,0.26913,0.262065,-0.298757,-0.294691,-0.291305,0.170974,0.133913,0.294175,-0.244097,-0.0112078,0.272615,0.176541,-0.282026,0.0190177,0.119107,-0.331401,-0.0460407,0.209441,0.0960715,-0.234574,0.45148,-0.127348,0.322069,0.082074,-0.0607525,0.301503,0.216686,-0.211557,-0.0478008,-0.169329,-0.0579876,0.0956972,-0.202286,0.419736,0.369441,0.371979,0.263462,-0.11938,0.294424,-0.331397,-0.296998,0.358409,0.125533,-0.0312678,-0.341485,-0.209277,0.0430341,-0.23753,-0.13085,0.342727,0.0793795,-0.19457,0.345284,0.294253,0.0131563,-0.0564196,-0.0784231,0.00476104,-0.129134,0.309977,0.151844,-0.0204009,0.501162,0.390853,0.0845598,0.231409,-0.208979,0.16829,0.080404,-0.0852544,-0.0499633,-0.122211,0.101906,0.126129,-0.209358,-0.00263928,-0.253178,0.0665348,-0.150473,-0.309907,-0.250439,0.00839593,-0.170646,0.244841,-0.00110301,0.356554,-0.171479,0.241957,0.0277356,-0.240805,0.144752,-0.255701,0.14969,0.0819199,0.00893359,-0.0750234,-0.266048,-0.185459,-0.0985082,0.16815,-0.297156,-0.213674,0.153372,-0.178865,-0.347013,-0.0852855,0.0307423,-0.186075,0.0806396,-0.164789,-0.219349,0.280923,-0.138263,-0.162754,0.173582,-0.110481,0.113573,-0.194857,-0.110468,-0.418139,-0.159849,-0.229904,-0.143277,-0.278964,-0.0303364,0.0978624,-0.551527,0.00567822,0.0341088,-0.160148,-0.306959,-0.212918,-0.0662124,-0.225991,0.150104,-0.0456615,-0.279123,0.390573,0.174794,0.182354,-0.195681,0.0840872,0.126107,0.256612,-0.427439,-0.198784,0.0479451,-0.197431,-0.369933,0.156015,0.221718,0.195114,-0.279885,-0.329216,-0.217546,-0.115251,-0.134119,0.0256234,-0.0143929,-0.362776,-0.212314,-0.039071,-0.0972658,-0.227516,0.30821,-0.0658864,0.177174,0.343516,-0.271929,-0.120904,-0.258613,-0.438047,-0.0842992,-0.481864,-0.14318,-0.0350266,-0.151731,0.369731,0.173046,0.244365,0.023244,0.288356,0.216095,0.271344,-0.239147,-0.149934,-0.188206,0.0446812,-0.237323,-0.0916578,0.123407,0.180821,-0.0163215,-0.0100267,-0.285964,-0.188464,0.0368596,0.100353,0.0949166,0.185267,-0.42515,-0.624796,-0.477378,-0.119393,-0.0824485,0.290939,0.427113,-0.0275878,0.0884122,0.30016,0.00980859,0.109336,-0.145021,0.0807605,0.300523,0.0130883,-0.0522605,0.143948,0.0624226,0.29024,-0.0594819,0.254184,-0.283256,-0.291839,0.0353845,0.114038,-0.0175475,0.0266864,0.0726224,-0.0601949,-0.346252,-0.27657,0.0294863,0.210444,-0.0594951,-0.179592,-0.258007,0.0356107,0.226458,0.110583,-0.106701,-0.263131,-0.075036,0.00601746,0.0195303,0.189068,-0.218724,-0.17947,0.133941,-0.091771,0.278278,0.199487,0.281948,0.31561,0.01455,-0.149104,-0.32943,-0.251007,-0.212973,-0.194394,0.31568,0.273466,0.0980681,0.0517047,0.25986,-0.346111,0.177073,0.045738,-0.0917927,-0.0929782,0.141096,-0.0784847,-0.324468,0.26844,0.0504168,0.119454,-0.214192,-0.260726,0.278524,0.179684,0.299484,-0.135291,0.0265444,-0.0472066,-0.403646,0.233145,-0.141853,0.127665,0.128943,0.386294,0.00457756,-0.0704234,-0.0200946,-0.188609,-0.244216,-0.359526,-0.33934,-0.13272,0.0667029,-0.121917,0.057799,0.196953,-0.0859209,-0.291965,-0.0189621,-0.291717,0.170447,0.0843837,0.198674,0.117705,0.248581,0.195892,-0.291668,-0.283624,0.195226,0.0624597,0.26599,0.234329,0.0233257,0.0616935,-0.396286,-0.235905,0.266514,0.248335,0.157078,0.178809,0.0840773,-0.260898,-0.0347378,0.192374,-0.354057,-0.304084,-0.239901,0.0668717,0.123551,0.198932,-0.284896,-0.249507,0.245506,-0.347128,0.105997,-0.230926,0.118891,-0.102651,0.396296,-0.156018,0.0522492,-0.331677,-0.264504,-0.114275,-0.132746,-0.280065,-0.445223,-0.470258,-0.0142081,-0.0704531,-0.296692,-0.375843,0.0022997,0.125224,-0.120893,0.240291,0.357097,-0.222517,-0.285345,-0.0687621,0.234107,-0.0154644,-0.281598,0.221211,-0.00805638,0.217109,0.261947,0.16686,-0.202515,-0.296025,0.141525,-0.0249793,-0.126675,0.0891233,-0.0795653,-0.310623,-0.415608,0.0527391,-0.420289,-0.188967,0.0166861,-0.175111,-0.255152,-0.153629,-0.10656,-0.161419,0.369387,-0.0907273,0.00513014,0.344178,-0.223903,0.191776,0.219311,0.387031,0.0342897,0.249093,-0.0790273,-0.0626119,0.144959,-0.269103,-0.195058,0.0768904,-0.292907,-0.273593,-0.379582,0.00733399,0.114419,-0.340624,0.262943,-0.241673,-0.281759,0.106981,-0.129962,0.252531,0.35768,0.0316824,-0.0579841,0.0111841,-0.255668,0.0711851,0.168032,0.321822,0.0716898,0.180474,0.211045,-0.348994,-0.017319,0.141247,0.323825,-0.119486,0.131251,0.131426,0.278599,0.180134,0.261612,-0.275529,-0.0850262,0.236832,0.349541,-0.0101228,0.0270241,0.286435,0.391647,0.172229,0.3521,0.0601969,-0.0915941,0.00608357,0.092811,0.247893,0.468742,-0.0357299,-0.267027,-0.0304288,-0.158873,0.0913868,-0.00659139,0.277852,0.0536288,-0.0263847,-0.290037,0.143185,0.228397,-0.127826,-0.147608,-0.180361,-0.239501,0.276818,0.0336466,0.222645,0.024482,0.120466,-0.146399,-0.237717,-0.0495151,-0.0190985,0.105817,0.452388,0.404641,0.399553,0.0500364,0.257457,0.107254,0.354009,0.216583,0.200976,-0.374115,0.21467,0.273313,0.173284,0.00647958,0.331853,0.198121,-0.123207,-0.133014,-0.244819,-0.0727623,-0.0841273,0.141572,-0.278018,0.161312,0.392721,0.232441,0.0476579,0.3299,0.41651,-0.0369583,0.0372309,0.266108,0.244667,0.0341986,0.124383,0.328381,0.276382,0.222758,0.200206,-0.0434982,-0.271449,-0.162529,0.310197,0.0261548,0.0114522,0.087524,0.231446,0.0492416,0.304913,0.087759,-0.291348,0.330528,-0.0169647,-0.287659,0.0182504,-0.271358,0.0199799,0.0491987,-0.0075792,0.0990666,-0.173857,0.0753533,0.159995,-0.0339215,-0.212525,-0.104625,0.207489,0.236312,-0.0107669,0.285564,0.304422,0.0147831,0.267635,0.0827387,0.290173,-0.261419,0.244349,-0.265413,0.309656,-0.207648,0.23448,-0.0543474,0.0293986,-0.275936,0.0461551,-0.00323733,0.243835,0.110233,-0.210575,-0.0453536,-0.12273,0.226699,-0.0192189,0.145962,-0.286824,-0.246073,-0.0464004,0.0133091,0.336637,-0.125849,0.344478,0.218928,0.0872249,0.0135227
0.272207,0.34012,-0.0155523,0.317496,-0.160414,0.201559,-0.194702,-0.148302,0.00969878,-0.0163684,-0.0504004,-0.156207,-0.0315958,0.172613,0.276992,-0.0900662,0.132002,-0.0246529,0.0498611,0.0633839,-0.290963,0.170818,-0.0330912,-0.0483444,-0.223478,-0.0802606,-0.0787225,-0.280709,0.0788507,-0.195322,-0.232023,0.243174,-0.190365,-0.0778466,0.23495,0.136871,0.38488,0.390128,0.0496102,-0.140197,0.15862,0.151987,-0.198718,-0.0888058,0.166076,-0.121427,-0.033134,-0.297244,0.10831,0.15548,-0.238133,-0.169024,-0.187524,-0.00972015,0.173873,0.17054,-0.107221,-0.0242683,0.168746,-0.158513,-0.114164,-0.0385607,0.268838,0.209866,-0.170334,0.350911,0.149662,-0.0593899,-0.186235,0.386485,0.338285,0.116519,0.0395126,-0.199491,0.252399,0.126986,0.184051,-0.104526,-0.109119,0.0138645,-0.282141,-0.0284128,0.0587267,0.0657979,0.249284,-0.0951933,0.310382,-0.0431318,-0.264649,-0.0542558,-0.142762,-0.109928,0.320025,0.0217931,-0.238321,0.0737142,0.091905,-0.251969,-0.105692,0.0608092,0.111864,0.0351735,-0.0504211,0.145454,-0.101074,-0.167629,0.29943,0.293934,0.166811,0.128391,-0.0292032,-0.0972228,-0.14294,-0.290408,0.257659,0.191006,0.131214,-0.0200455,0.375861,0.216705,0.393864,-0.228963,0.27071,-0.195643,0.320856,0.248478,-0.193131,-0.153883,-0.185928,-0.112431,0.0925917,-0.260125,0.339566,0.284023,0.245219,0.0607502,0.142481,-0.179455,-0.024188,-0.227558,0.0290109,0.144819,0.117036,-0.238231,0.216327,-0.23312,0.0683664,-0.0538624,-0.177824,0.05016,0.393332,0.288824,0.126905,-0.140204,-0.00192901,-0.326648,0.0514733,0.303157,0.137406,0.351105,-0.095378,-0.205303,0.160218,-0.178399,-0.0097511,-0.218851,-0.069151,-0.0403333,-0.00777614,0.134053,0.352612,0.318384,0.282456,0.0636615,0.278414,-0.0795845,-0.0141121,-0.0416113,0.179248,-0.150636,0.015815,0.13944,0.220237,0.186027,-0.249274,0.00424309,0.0547592,0.32015,-0.202224,0.134694,0.295717,0.0129823,-0.131444,-0.000431283,0.076833,0.128968,-0.0567614,-0.233198,-0.291998,-0.152388,0.293379,-0.0812683,0.0819317,-0.278922,-0.151682,0.36206,-0.323788,-0.214103,-0.243565,-0.0703424,-0.445361,-0.322173,-0.324376,0.0735207,-0.357049,0.157603,-0.27468,0.254233,-0.241378,0.117301,0.0101549,0.102418,-0.10584,0.223521,0.36411,-0.186916,0.0764443,0.0235531,0.188999,-0.182488,0.290065,-0.38749,-0.0373923,0.387732,-0.385001,-0.429016,-0.595197,-0.309424,-0.246989,-0.130061,-0.492462,-0.458388,0.0355976,0.0625172,0.130535,0.13612,-0.0136986,-0.0312532,0.187633,0.166402,0.355685,0.25501,-0.235441,0.358254,0.00756486,0.0137072,0.0328906,0.0371106,0.0135394,-0.259462,-0.228543,-0.156047,-0.333921,-0.177544,-0.0411572,0.0518325,-0.104935,-0.0258115,-0.4521,0.154802,-0.0629574,0.316707,-0.243276,0.191276,-0.167394,0.287103,0.139792,-0.213818,0.388323,0.0131745,0.366631,0.113234,0.192249,-0.0386734,0.196487,0.132395,0.213606,-0.191119,0.336828,-0.0671636,-0.520219,-0.0348338,-0.427462,-0.350053,-0.289942,-0.0883427,0.120129,0.108797,-0.0087015,0.32976,0.130893,-0.14134,0.197576,0.0840355,-0.0614194,0.399745,0.335623,0.0727505,0.0962401,-0.298726,-0.194681,0.274917,-0.115936,0.00825062,-0.122543,0.206233,-0.18758,-0.166626,-0.522551,-0.165591,-0.516544,0.0169717,-0.35193,-0.0822784,-0.350122,-0.252786,0.202654,0.236625,-0.0447348,-0.0408263,-0.0837078,-0.245092,0.0533233,0.202425,-0.214375,0.22507,-0.00121769,-0.0257332,0.0560776,0.226394,0.249396,-0.163528,-0.233579,0.353381,0.000804019,-0.290869,-0.443022,-0.223028,0.0119781,-0.283783,0.237805,-0.276812,0.325308,0.210329,-0.376993,-0.285867,-0.142305,0.0147766,-0.0135694,0.158862,-0.0916302,-0.162565,-0.222841,0.215614,-0.157125,0.062894,0.213293,-0.122726,0.17972,0.22449,-0.0627853,0.195872,0.146288,0.146286,0.215922,-0.0892434,-0.369893,0.27463,0.142724,-0.130165,0.0557254,-0.302557,0.0509886,-0.238888,0.107447,0.168458,-0.310428,0.122215,-0.29031,0.022101,0.0549731,0.311057,-0.170882,0.214316,0.153765,0.285623,-0.147272,-0.0887574,0.185908,0.12011,0.0704758,-0.105464,-0.214557,0.0306921,0.261143,0.382871,-0.154729,0.250527,0.065051,0.0673869,0.1411,0.121803,-0.0851511,-0.0584398,-0.371485,0.0795351,-0.210194,0.160016,0.242671,0.277577,0.0686392,0.117848,0.373834,0.10265,0.24985,0.193368,0.208257,0.33435,0.0767009,-0.0505882,-0.0801459,0.315156,0.155121,0.0783161,-0.304406,-0.380963,-0.27633,-0.207268,0.244691,0.322872,-0.107668,0.220471,0.263015,-0.045567,-0.360609,0.0734718,-0.22518,-0.101719,0.347639,-0.125346,-0.275471,-0.0036217,0.346531,0.212506,-0.231762,0.283162,-0.0300998,0.00167284,0.0363121,0.0934162,0.258892,0.0922263,0.0516128,-0.104091,-0.427662,0.0437786,-0.0893985,-0.130982,-0.0953147,0.378082,0.21199,0.177852,-0.341505,-0.116749,0.348988,0.299191,0.242982,-0.087193,-0.196186,0.258999,0.070231,0.02754,0.0561647,0.192445,-0.0239603,0.296826,0.340869,-0.0700896,0.257466,-0.0163419,-0.49742,-0.253407,0.224377,-0.412263,-0.293908,-0.0931971,0.173901,0.266244,0.0341604,-0.0850019,-0.187978,-0.147793,0.191977,0.131783,0.00521255,0.00132688,0.113071,0.0711782,-0.110968,-0.292388,-0.287604,-0.230085,-0.0635466,0.297093,0.217586,0.154629,-0.376954,0.0797527,-0.38698,0.273842,-0.111697,0.135572,-0.38371,0.365867,-0.211143,0.205326,0.257855,-0.0287045,-0.151036,-0.125775,0.297949,-0.126257,0.173766,-0.0330485,-0.0193492,-0.263245,0.152092,-0.257093,0.180062,0.149192,-0.0832465,-0.301602,0.180128,-0.0607456,-0.343362,0.015654,-0.402007,-0.106244,0.0501517,0.121453,-0.113291,0.0782849,-0.152913,-0.047365,-0.049243,-0.316807,-0.144699,0.177366,-0.233617,-0.121107,0.340696,0.164666,-0.110021,-0.188782,0.0686824,0.292138,-0.192811,0.282408,-0.208852,-0.043523,0.0559722,0.247636,-0.00491555,-0.246938,0.26835,-0.181437,-0.0887609,0.222156,0.198147,0.0418908,0.198621,-0.123782,-0.22917,-0.246619,0.0353111,0.23686,0.205125,-0.158548,-0.0719077,0.10893,-0.0939411,-0.275975,-0.052981,0.29455,0.0952641,-0.134593,-0.225925,0.10241,0.133197,-0.253585,0.283853,0.148142,-0.285403,-0.157378,0.309188,0.165214,0.0239096,0.0738479,0.125821,-0.242395,0.149029,0.152204,0.0397448,0.124168,0.324721,0.0518696,-0.00482804,0.314612,0.358271,0.212992,-0.306858,0.138283,0.140616,-0.398616,-0.189416,0.162496,0.032685,0.0333139,0.281822,-0.214969,-0.168153,-0.141405,-0.0737604,0.322202,-0.171262,-0.235861,0.208907,0.294152,-0.184881,0.194316,-0.232619,-0.0504328,-0.28802,0.152211,-0.159645,0.153108,-0.217424,-0.0603307,-0.300949,0.0693786,0.0441307,-0.2527,0.0939361,-0.336287,0.30404,-0.185731,0.207327,-0.113853,-0.354416,0.1064,0.100946,0.294575,0.062376,-0.189115,-0.22282,0.254871,0.345741,-0.152605,0.145196,0.0106568,-0.22676,-0.0248665,0.0140995,0.276437,0.162911,0.398864,0.19908,-0.316116,-0.0939366,-0.142389,0.117366,0.30487,0.276122,0.186882,0.128379,-0.211156,-0.178191,0.0948082,-0.115099,0.422857,0.157438,-0.130445,-0.249227,0.0223702,0.355042,-0.0919747,0.109711,0.312611,0.0870754,0.31756,-0.0918821,0.312006,-0.240953,0.335591,0.221587,0.257183,0.353808,0.374095,0.170789,0.304807,-0.123891,0.313517,-0.234228,-0.217177,-0.130064,0.119937,0.306333,0.00712171,-0.215546,-0.258402,-0.165485,0.334537,0.0641833,-0.145978,0.315578,0.0792993,-0.236146,-0.215745,0.136616,0.3815,0.363213,0.152766,-0.220875,-0.131582,-0.212765,0.139605,-0.147975,0.210665,0.231027,-0.169875,0.13499,-0.169636,-0.0661551,0.0555461,-0.133342,0.0994304,0.365098,0.198294,-0.28039,0.0926152,-0.291602,-0.0845119,0.0861354,0.189703,-0.0907071,0.279128,-0.0248879,-0.0531724,0.173894,-0.247896,-0.0686606,-0.274151,0.074029,0.0992576,-0.129923,-0.0959266,-0.138117,0.262273,0.0204871,-0.125742,0.057445,0.134579,0.200395,0.00257031,-0.109429,0.0781242,-0.0894467,0.205768,0.121577,-0.124653,0.243837,-0.101431,0.0547532,-0.228071
0.0725486,-0.263448,-0.170092,0.294552,0.214185,0.222175,-0.0747704,0.00209355,-0.238517,-0.181576,-0.123362,-0.239339,0.144349,0.00185856,0.00792563,0.0913053,-0.126234,-0.233433,-0.196261,0.187033,0.378445,0.25345,0.211451,-0.153792,0.292117,-0.0754754,0.00465712,0.318885,0.00215763,0.255437,-0.206366,-0.286926,0.117945,0.267293,0.316727,-0.0419518,0.268062,-0.131844,0.195631,-0.0303447,0.0896796,0.140787,0.100171,-0.274899,-0.28637,0.204529,0.272954,0.363362,0.198654,-0.157659,-0.195065,-0.141124,-0.146208,-0.19686,-0.0102329,0.164943,0.166909,-0.169451,-0.175027,0.1536,-0.221876,0.385623,0.0322592,0.0831657,0.0472781,0.391144,0.140717,0.332485,-0.0778527,-0.285146,0.088304,-0.290332,0.15861,0.262182,0.022517,0.159333,0.325478,0.301589,0.0217271,0.345759,-0.131959,0.157787,0.0673574,0.00621662,-0.274877,0.397479,-0.263662,0.372506,0.292196,-0.0810889,-0.226869,0.391372,0.227694,0.0139592,-0.172356,-0.204627,-0.110197,0.196082,-0.169351,-0.039554,0.198967,0.343472,0.123725,-0.0275213,0.189434,-0.0566334,0.0721298,0.137851,0.114024,-0.108631,0.0584917,-0.0597522,0.0517624,0.17853,0.269216,0.369451,0.246265,0.0433625,-0.00321784,-0.189325,0.29671,0.33255,0.402909,0.222549,0.343461,-0.154031,0.244886,-0.293557,-0.169313,-0.0823571,0.347826,-0.193302,-0.0635797,0.0249775,0.150096,0.00559516,-0.199876,0.342855,0.263362,0.382739,-0.19906,0.357573,-0.216896,0.381348,0.0126785,0.177008,-0.188464,0.345515,0.13629,0.0180197,-0.147663,0.24713,-0.36268,-0.360028,-0.273823,-0.207725,-0.208775,-0.101288,-0.241054,0.0533645,0.370935,-0.097733,0.0922736,0.360154,-0.240993,0.187765,0.0451146,0.278423,0.185751,0.00337532,0.29693,-0.182014,-0.00974216,0.128315,0.0905088,0.0175312,-0.119575,-0.201055,0.307376,-0.129073,-0.262948,-0.27759,-0.181396,-0.420268,-0.0320745,0.022993,0.0643005,-0.251626,0.264103,-0.177414,0.213098,0.142661,-0.100085,-0.107696,0.122776,0.284512,0.240483,0.0455031,0.380354,0.00572274,0.0917599,0.418188,0.30056,-0.288912,-0.342749,0.0226203,0.123215,-0.235278,-0.134442,0.108487,-0.128988,0.0461433,0.096941,-0.164649,0.175822,-0.110258,0.220809,0.188007,0.0594858,0.00267824,0.306006,-0.174185,0.0640565,0.0546857,-0.0189703,0.355335,0.30826,0.0592011,-0.150913,0.0249538,0.370161,0.174252,0.286411,0.022326,-0.266113,-0.578473,-0.247246,0.0149186,-0.149122,-0.213775,-0.496446,0.00478458,-0.149634,0.257983,0.0779934,-0.17713,0.0619878,0.140681,0.388633,0.25841,0.327173,0.101835,0.329438,0.234576,-0.183622,-0.271205,0.313044,0.00453674,0.191272,0.104121,0.000964972,-0.139321,-0.356975,-0.204572,-0.108293,0.136127,0.176412,0.0380032,0.0158038,0.104807,-0.14311,0.177073,-0.220005,0.206167,-0.187659,0.308701,0.382,0.0698145,0.30065,0.166913,0.217667,0.367401,-0.129855,0.118798,0.281666,0.106551,-0.0701733,-0.276748,-0.208813,0.0402294,-0.383707,-0.578822,0.118191,-0.158493,-0.104564,-0.408888,-0.257723,0.244519,-0.0547659,-0.198606,0.0344172,0.035674,0.100299,0.301992,0.180713,0.326196,0.347311,0.36763,0.0365734,-0.26434,-0.0807173,0.106901,0.130948,0.22655,0.0209069,0.187839,0.226538,-0.22263,-0.350284,-0.333775,-0.17442,0.298501,-0.199267,-0.235065,-0.147702,-0.192574,-0.308614,0.228951,0.270941,0.40344,-0.142894,0.408041,-0.171777,0.32351,0.0523032,-0.101381,-0.054326,0.250984,-0.00971109,0.0633518,0.156753,0.238991,0.0661115,-0.128294,-0.016203,0.129753,-0.322227,-0.00690481,0.262044,0.129939,0.142685,0.0321935,0.309778,-0.136059,0.000255606,-0.200083,0.256121,0.544622,0.256922,0.405719,-0.0129081,-0.192794,-0.255372,0.136589,0.109271,0.0113076,-0.139836,0.504452,0.0828456,0.316827,-0.321228,0.25392,-0.0235496,-0.23457,0.248603,-0.336808,-0.346483,0.196296,0.147469,0.154419,0.0395879,0.0132297,-0.0169001,-0.302453,0.0574926,0.178116,0.0239212,-0.324046,-0.112515,0.129683,-0.157728,0.0437834,-0.225571,-0.173078,0.396839,0.484745,0.071962,-0.159319,0.177651,0.185374,0.333289,-0.110535,0.059846,-0.19277,0.0777614,-0.186227,-0.107172,-0.187025,-0.154372,-0.238757,-0.0497292,0.192926,0.446337,0.395962,-0.0234474,0.0155577,-0.268216,0.099835,0.171246,-0.143311,0.156847,-0.273131,-0.0362356,0.315958,-0.0855758,0.139018,-0.145779,0.0623122,-0.0388722,0.354498,0.14024,-0.46418,-0.368682,-0.123641,-0.143802,-0.0154599,-0.117242,-0.160455,-0.000797696,0.146595,0.309162,0.303833,-0.362386,-0.215126,-0.0882117,-0.187114,-0.0674009,0.100779,0.349626,0.294545,0.0350991,0.0479466,0.0987292,0.278335,0.170176,0.0294355,-0.04561,-0.0854494,-0.304359,-0.224569,-0.383266,-0.439264,0.0942914,-0.397104,-0.307114,-0.299562,0.0928104,0.385419,0.705002,0.374612,-0.0256025,-0.118185,-0.294096,0.0275693,-0.116274,0.0272109,0.321213,0.236581,-0.0938556,-0.207804,0.30615,0.137322,0.128688,-0.095608,0.280035,-0.174144,-0.267073,-0.517376,0.185052,-0.330821,0.10151,-0.485166,-0.0460466,-0.0403408,-0.0107063,-0.0227654,0.0757288,0.282768,0.0235326,0.180329,-0.0306832,0.0340296,-0.302143,0.211215,0.217689,0.138493,0.0393835,-0.177686,-0.210226,-0.0594642,-0.0407388,-0.161445,-0.00440033,-0.0992187,-0.155453,-0.36439,-0.188639,-0.251918,-0.290332,0.06185,0.269913,0.251129,0.167046,0.167783,0.349969,0.119864,0.0124294,0.221731,-0.317663,0.217286,-0.042328,-0.0155364,0.235121,0.309677,-0.0600012,-0.231182,0.0393501,-0.0551944,-0.0470413,-0.110301,0.194689,-0.0247738,0.0429183,-0.174655,-0.439734,-0.547851,-0.30015,-0.109256,-0.132515,0.0511956,-0.447952,-0.202707,0.149212,0.152772,-0.250775,-0.153172,0.167773,0.334512,-0.105316,-0.0846132,0.0778039,-0.127836,0.189506,0.248355,-0.257591,-0.261636,-0.108934,0.135731,-0.140537,0.272476,-0.217938,-0.0808763,-0.0253389,0.00862447,-0.354112,-0.177201,0.174493,-0.0573186,-0.0511779,0.12111,-0.0144673,0.303178,-0.181758,0.01851,-0.167735,0.219735,-0.108542,0.209502,0.167785,0.393612,-0.169339,0.263348,0.145032,0.0666878,0.154478,-0.0440863,-0.145656,-0.213042,-0.115058,0.0627402,0.0125955,-0.448473,0.105565,0.146024,-0.099394,0.0456835,-0.0198806,-0.0345386,0.484529,0.0315874,-0.231018,0.0421938,0.213103,0.0234225,0.132014,0.255907,0.12132,0.220679,-0.0111493,-0.117849,-0.0600729,0.00627405,0.206558,0.0772855,-0.193554,0.0449399,0.155137,-0.119463,0.364082,0.144273,-0.14435,0.176551,0.0878148,-0.137133,-0.000481654,0.0616517,0.258879,0.419817,0.323656,0.122079,0.162537,-0.0493559,-0.271543,-0.00401625,0.15815,0.314057,0.271637,0.118126,0.216832,0.144189,-0.361993,-0.170701,-0.206236,0.34783,0.295276,0.0356287,-0.0470747,-0.291594,0.288617,0.292937,0.399702,-0.172159,0.429728,0.208554,-0.0622661,-0.190017,0.165217,-0.253593,0.227631,0.211511,-0.135883,-0.058855,0.258727,0.0387951,0.114457,-0.0525524,0.106535,0.134817,-0.365929,-0.232684,0.293506,0.334706,-0.165303,-0.290717,0.311478,0.176882,0.346699,-0.309665,-0.132411,-0.213016,0.199425,0.207813,0.41079,-0.107339,-0.0836816,0.204443,0.135813,-0.299812,-0.120743,-0.180132,-0.0644093,0.21301,0.0455458,0.388165,0.291904,0.322758,0.128845,-0.297513,0.267598,-0.238963,0.109698,0.323902,0.182587,-0.230448,0.0674585,0.0847295,-0.0916912,-0.0189005,0.316688,0.113919,-0.260402,0.302054,0.0683538,0.356434,-0.0702491,0.30235,0.263961,0.381799,-0.265926,0.268169,0.318308,-0.214975,0.365903,0.173204,0.351702,-0.236359,-0.0125871,0.289935,0.079695,0.00536175,-0.00560683,-0.198468,0.286175,0.211974,0.356737,0.270657,-0.146033,0.284611,-0.0478139,0.10501,-0.0735516,-0.27131,-0.24687,0.242833,0.164708,-0.0634907,0.328135,-0.175967,0.298526,0.11504,0.115702,0.302542,-0.292903,0.353554,0.305253,0.320066,0.281343,-0.224162,0.0248237,0.250182,-0.109677,-0.228789,-0.0824029,-0.0332125,-0.157351,0.262856,0.253087,0.384832,0.366781,0.385601,0.296731,0.0258492,-0.195001,-0.0444136
0.326981,-0.0686819,0.248985,-0.204743,0.034373,-0.193762,0.303717,0.0799402,0.0717582,0.105631,0.113764,0.396836,-0.135035,-0.0604786,0.0361247,-0.0362316,-0.156035,-0.0825678,-0.105875,0.304999,-0.19671,-0.195599,-0.203119,-0.269579,0.151335,0.110468,0.35847,0.115702,-0.141957,0.285324,-0.198889,-0.0704123,-0.0399274,-0.159795,-0.222602,0.305664,0.132828,-0.0331061,-0.10789,0.202579,-0.0126878,0.0887676,-0.221812,-0.230442,0.315873,0.177804,-0.146892,-0.196838,-0.203226,-0.180517,0.0862636,0.39451,-0.0459517,-0.0574023,-0.234544,-0.0888272,-0.158022,0.263384,0.354817,0.172271,0.218799,-0.189705,-0.191438,0.139912,0.149263,-0.15141,-0.0229918,0.0437052,0.15003,-0.210951,0.107539,0.349425,-0.251673,0.0674457,0.105666,0.0100055,0.0120688,-0.174205,-0.0184123,0.103589,-0.270434,-0.107733,0.134031,-0.186114,-0.174834,0.0898739,0.0964537,-0.0643025,0.00803602,0.369038,-0.150029,0.125212,-0.00097492,0.0633054,-0.268658,0.321529,-0.21599,-0.0451626,0.370776,-0.00352893,0.184604,-0.085315,-0.0932802,0.329705,0.150081,-0.0266893,0.0809545,0.146948,-0.00426375,0.299167,0.015424,0.208972,0.385644,0.181072,0.0765221,0.0207434,0.109201,-0.308604,-0.261674,0.255604,0.107004,0.0206524,0.0843934,-0.125884,-0.190288,0.263506,0.24291,0.137603,0.116227,0.267467,0.114679,0.00309892,0.154015,0.0212806,0.34982,-0.144028,0.041251,-0.14496,-0.204943,0.183914,0.377612,-0.126405,0.23666,0.0975619,-0.0951796,0.11831,0.28566,-0.0573553,-0.0383945,0.149831,-0.145496,-0.122699,-0.19104,-0.258905,-0.00364061,0.231636,0.018625,-0.0510298,-0.118342,-0.138554,0.31294,0.205696,0.0837293,0.128994,-0.235511,0.272097,-0.209977,-0.000192285,-0.0691519,-0.110532,0.32689,-0.283846,-0.234287,0.12141,0.227315,0.321191,0.0909482,0.0658736,0.265895,0.211052,-0.258647,0.304364,0.0513288,-0.102172,-0.169612,0.1237,0.146849,0.273897,0.212616,-0.208915,-0.0905569,-0.331623,-0.112825,0.236281,0.391893,0.222324,0.169836,-0.0594531,0.00443713,0.373424,-0.223768,0.265265,0.349678,-0.0589336,0.0482999,0.371379,-0.253003,0.144732,0.228926,0.171432,0.304568,-0.300652,-0.18342,-0.157106,0.154562,-0.265161,0.0572001,0.190354,-0.0861991,-0.146913,-0.190165,-0.125265,-0.0531103,-0.0591114,0.0688955,0.0363377,-0.225376,0.213847,0.0597416,0.0266687,-0.0107865,-0.340469,-0.37072,-0.0299826,-0.274378,-0.248076,0.26515,0.121391,-0.338218,-0.0372372,-0.259761,-0.167354,-0.0536041,0.134414,0.118544,-0.212502,-0.217184,-0.321148,0.0530618,0.303047,-0.270867,0.354134,0.308524,0.337837,-0.240103,-0.134631,-0.0918968,0.0266981,0.154739,0.158417,0.0166772,-0.0299148,-0.347901,-0.307967,0.0124236,0.10571,-0.167098,0.206518,0.0433529,-0.0841254,-0.0183185,0.305734,-0.315531,0.0709047,-0.381884,-0.320912,-0.00169865,-0.0073314,-0.268757,0.0493473,-0.151186,-0.155654,0.24205,-0.0839053,-0.0558597,-0.358157,-0.0730609,0.090175,0.0928333,0.343555,0.087598,-0.295721,0.127805,-0.426462,0.055542,-0.236461,0.14676,0.278946,0.152844,0.176935,0.187622,0.0284225,0.00691716,-0.109359,-0.263061,0.324056,0.363448,0.154695,-0.0143986,-0.103661,0.214031,-0.0660901,-0.174391,-0.350319,-0.011899,0.13282,-0.238078,0.0501501,-0.403393,0.165356,-0.391234,0.0242012,0.149527,0.283076,0.101918,0.423339,-0.0811792,0.120105,0.0768781,-0.1734,-0.306049,0.172889,-0.473495,0.253053,-0.0897158,0.092831,0.204465,0.0239824,-0.281536,-0.0976601,0.210759,-0.0988784,0.32599,0.135326,0.175006,-0.374737,-0.326566,0.22515,-0.0668851,0.022612,-0.0597874,-0.0475714,-0.0797589,-0.0474631,0.199911,0.0564846,0.00316059,-0.313189,-0.200702,0.0485257,-0.296481,0.0824279,0.181515,0.0107188,-0.100897,0.0877375,-0.200722,0.101124,0.2994,-0.0245029,0.0187886,-0.0647422,0.321744,-0.154722,0.026016,-0.201094,-0.0737794,0.229983,-0.0897624,0.33261,0.314648,0.192082,-0.113782,-0.225485,-0.35424,0.220159,-0.287105,-0.526469,-0.0541442,-0.0465317,0.359268,-0.279784,0.0688528,0.344792,0.0754884,0.168833,0.35223,-0.0688337,0.177322,0.102514,-0.089586,-0.0997939,-0.205851,0.00969923,0.341719,-0.175602,0.167156,-0.0974929,0.453482,0.0881651,0.379688,0.339775,0.0338789,0.317526,-0.181263,0.0368112,0.0505239,0.24429,-0.195028,-0.28581,0.161354,-0.0189585,0.246347,0.431702,-0.0647712,0.0780462,-0.111167,0.271382,-0.00535007,-0.174468,0.298807,0.164472,0.277893,0.219642,0.156352,0.264852,-0.109314,0.254654,-0.00172448,0.330597,0.0115981,0.196783,0.198994,-0.419667,-0.137756,0.345664,-0.112771,-0.277493,0.276159,-0.136269,0.141923,-0.0658588,0.086795,-0.307122,-0.0174542,-0.339757,0.182612,0.118447,-0.232019,0.0858046,-0.0211326,0.285757,0.00685193,-0.339958,0.0261366,-0.0219992,0.00175466,-0.264952,0.366435,0.107838,-0.102961,-0.140962,-0.037175,-0.134477,-0.177192,0.313134,0.39451,0.214435,0.365503,-0.154485,-0.188132,0.238098,-0.286508,-0.533717,0.062087,-0.0473328,0.111857,0.0150789,0.224833,0.120355,-0.017861,-0.303272,-0.4258,-0.448305,0.137025,0.0981383,-0.140872,0.110946,-0.0111424,-0.150542,-0.0647668,0.208997,0.409942,0.24198,-0.148836,0.355553,0.135743,0.171294,0.0378497,0.325506,0.150112,-0.178783,-0.0391807,-0.103828,-0.253976,0.337207,0.138963,0.283302,-0.037741,-0.275031,-0.0463679,-0.274544,-0.0719349,-0.223556,0.16427,0.107201,-0.168,-0.0939138,-0.135428,0.407265,-0.195249,0.0373764,-0.0860714,0.334672,-0.00544858,0.274137,0.426296,0.0785769,-0.362841,-0.224765,-0.154669,-0.00541837,-0.307314,0.0630128,0.350775,0.0862822,-0.184571,-0.330784,-0.307134,-0.160566,-0.233516,0.155521,-0.0886791,0.223209,0.118858,0.0150674,0.317527,0.088257,-0.185113,0.113418,0.0862636,0.379235,-0.102676,0.155947,-0.258797,0.177568,-0.00274974,-0.0398662,-0.0345272,-0.117601,0.143842,-0.405431,-0.125048,-0.123018,-0.0991206,0.0121034,0.0113152,-0.117659,0.212481,-0.293467,0.348597,0.0685323,0.234253,0.0752869,0.165627,0.093293,-0.164408,-0.121902,0.0988891,0.0840205,0.148099,-0.0671353,0.147322,-0.282904,0.25061,0.197624,-0.40185,-0.499746,-0.121309,0.15546,-0.34573,-0.364994,0.0941437,-0.301455,-0.165511,-0.221911,0.281189,0.0498457,-0.0779271,-0.0431981,0.0274781,0.0927496,0.317055,-0.203452,-0.193337,0.131159,0.305832,0.285601,-0.108792,0.322693,0.305346,-0.182272,0.0168438,-0.399262,-0.458218,-0.027086,-0.0977765,0.303056,-0.244304,0.166996,-0.281994,-0.277158,0.0513382,0.206795,0.356115,-0.158734,0.193946,0.187667,0.417349,-0.0569058,0.00562684,-0.269968,0.0411089,0.378744,-0.149391,-0.273745,0.0310167,-0.145234,-0.273679,-0.129921,-0.0711981,0.109779,-0.16016,-0.079369,0.198469,-0.154166,0.0358635,0.109486,-0.207181,0.0486714,-0.1315,-0.156669,0.159463,0.408854,0.174196,-0.239735,-0.0513127,0.156742,0.0493369,0.0888349,-0.18189,-0.214933,0.0182012,-0.0391583,0.3242,0.358078,-0.157994,-0.308576,0.17064,-0.157326,-0.214976,-0.0363316,0.244294,0.345613,0.232119,0.00217695,0.0431457,-0.185961,-0.171791,0.282427,0.180148,-0.0111948,0.265896,0.0684884,0.381971,-0.261993,-0.152753,0.395914,-0.0686606,0.344862,0.238197,0.109336,0.334074,0.120423,-0.195445,-0.11248,-0.318758,0.0731187,0.171224,-0.034571,-0.206906,0.325931,-0.224783,0.0598917,-0.198611,0.130049,-0.221387,-0.180249,0.0191418,-0.0537683,0.122772,-0.177578,0.312166,0.389366,-0.0672697,-0.094937,-0.0666738,-0.00350353,-0.244841,-0.191519,0.288763,-0.00777614,-0.195849,0.37833,0.1838,0.0643507,0.0490956,0.294525,0.216583,-0.0182272,0.161074,-0.0386005,0.247904,0.212789,-0.167731,-0.161354,0.0233719,0.149915,0.100573,0.302129,0.168385,0.184213,-0.0986969,0.37868,0.14358,0.158641,0.131596,0.365798,0.331596,0.296368,-0.23621,-0.218714,-0.0958823,-0.243636,-0.260698,0.138256,-0.228317,0.0985259,0.381713,-0.0210639,0.083166,-0.0770932,-0.033614,0.0210583,0.252932,0.136027,0.12288,0.259816,0.0411237,-0.292502,0.367058,-0.106623,-0.0931852,0.0173253
-0.10109,0.0683828,-0.193442,-0.265734,-0.271929,0.0545823,0.285302,-0.289041,-0.0149114,0.145767,0.156281,-0.1242,0.231532,-0.233668,0.166118,-0.12711,-0.272271,-0.0931425,-0.0189703,0.146593,-0.132472,-0.24373,-0.0277078,-0.183422,0.139244,0.156761,0.0418287,-0.0582568,0.322538,0.250694,-0.0316813,0.118522,0.280367,-0.05768,-0.190365,-0.188431,0.257382,0.152766,-0.0472084,0.0683964,0.0363276,0.144534,-0.0041658,0.17242,-0.138966,0.117881,0.395984,-0.28417,0.143687,-0.20173,0.268661,-0.241017,-0.0781884,-0.132557,0.271459,0.357039,0.29639,-0.12664,-0.142427,0.108759,0.245952,0.00555442,-0.26678,-0.270121,0.0325082,-0.224034,0.368175,0.0199208,0.320272,0.179114,0.187856,0.305449,-0.290883,-0.174157,0.147802,0.053729,-0.098319,-0.282223,0.206694,-0.120957,0.349348,0.168831,0.274215,0.251741,0.0325144,0.116984,-0.0673147,-0.020188,-0.191003,-0.129592,0.397021,-0.221743,0.317674,0.383026,0.00623725,0.136651,0.398878,0.0784004,-0.127006,0.146199,0.378063,0.14743,-0.180882,0.0446721,-0.256913,0.0619042,0.314887,-0.0904885,0.024713,0.298547,0.0481521,-0.151335,-0.0386243,0.243452,0.3978,-0.100385,-0.034774,0.0550452,-0.0971493,0.403261,0.252263,0.0781096,0.208674,0.160422,0.357354,0.110294,0.186363,0.350635,0.0623806,0.263516,0.0683893,-0.218293,0.174196,-0.211422,-0.286974,0.144256,0.279948,0.422027,-0.171556,-0.283251,-0.191348,-0.0716086,-0.281715,-0.254713,0.200114,0.0824814,0.0413354,0.122213,0.0730287,0.290323,0.221192,0.135962,0.193754,0.18266,-0.0194187,-0.119938,0.348819,0.0764227,-0.16671,0.289151,-0.0378099,0.265933,0.0512654,-0.0419669,-0.0898817,0.041319,0.146617,0.152339,0.363918,-0.182568,-0.135182,-0.260835,0.0315984,-0.102837,-0.243606,0.416889,0.412132,-0.270676,0.177198,0.155487,0.162465,-0.173426,-0.0792615,-0.329633,-0.15306,-0.0855456,-0.0187171,0.28709,-0.0891092,-0.0327948,0.355048,0.12053,-0.0945468,0.376789,0.177196,0.107904,0.3069,0.109806,-0.0296771,0.0941379,-0.124448,0.224077,-0.152727,-0.0277251,0.0592277,-0.20997,-0.208477,0.0832002,-0.183911,0.102646,-0.307131,0.30583,0.0344453,-0.250551,0.0529943,-0.367595,-0.272741,0.16799,0.496456,-0.210616,0.0307922,-0.010381,-0.146979,0.196305,-0.292843,0.118976,0.345796,-0.212034,-0.0609714,-0.144948,0.183346,0.0932105,0.284925,-0.0288553,0.02609,-0.0695007,-0.0704524,-0.300658,-0.0249816,-0.0301233,0.141604,-0.220076,-0.103684,-0.299742,-0.152919,-0.0627584,0.198534,0.207694,0.244114,0.250365,0.380819,-0.0510987,-0.237449,0.0316191,0.0163841,0.168145,0.411409,0.0161914,0.139228,0.366252,-0.0601966,-0.123076,0.293581,-0.051009,-0.107327,0.0791286,0.314925,0.288225,-0.0489764,-0.39443,0.0502512,0.134749,-0.0976158,-0.318777,0.109541,0.331429,0.300551,0.192638,0.365496,0.155992,-0.10799,0.0779352,0.363018,0.0956267,0.0208053,0.0777879,-0.342172,0.172068,0.220487,-0.158853,-0.136394,-0.151398,-0.122599,-0.254817,0.0202054,0.327786,-0.333194,-0.285755,0.263699,0.27663,-0.169131,-0.07115,-0.18732,-0.240402,-0.324232,-0.0638051,0.0869486,-0.227258,-0.0512711,-0.247976,-0.281857,0.318121,0.22005,0.139271,0.393143,-0.148119,-0.0447771,0.141422,-0.28181,0.170619,0.0784563,0.0121111,0.0646533,0.0804229,0.0249748,0.0125417,-0.116789,-0.293677,-0.115285,0.00615599,-0.0583158,-0.322406,-0.137347,-0.0381476,0.174555,0.273449,0.268896,0.0468288,0.0163724,-0.179716,0.293169,0.0559447,0.0299214,-0.0099075,0.163676,0.225286,-0.105154,-0.279104,0.0553204,0.0467605,-0.359487,-0.38926,-0.0293628,0.00895016,0.0375248,0.0472514,-0.297906,0.276705,-0.288843,-0.146421,-0.167177,-0.254603,0.306659,0.0614404,0.321876,0.0487103,-0.0271663,0.310532,0.00610029,-0.337051,-0.116344,-0.322656,-0.0605489,0.0521672,0.171838,-0.216653,0.173614,-0.253165,-0.195074,-0.47008,-0.213687,0.32662,0.517016,0.309211,0.326687,0.0964697,-0.0439247,0.274132,-0.0730607,0.294281,0.028353,0.0883354,-0.122709,0.00751178,-0.194916,-0.172085,-0.310109,-0.10878,0.022016,-0.0225937,-0.386261,-0.0613495,0.105105,0.289798,0.104325,0.136185,-0.204384,-0.165951,0.0414459,0.145033,0.446724,-0.247098,-0.118051,-0.0974152,-0.0965831,-0.03417,0.249932,0.321497,0.407657,-0.229125,-0.0450331,0.146203,-0.20521,0.339105,-0.165793,-0.00325852,-0.203246,-0.197992,-0.354284,-0.111035,0.0931667,-0.373099,0.0744638,-0.0114226,-0.0500835,-0.209432,-0.154518,0.289209,-0.137817,-0.414478,-0.431182,-0.255485,0.0586698,-0.22868,0.012479,-0.0233215,0.0248291,0.289301,-0.227302,0.28023,0.0841982,-0.213471,-0.251923,-0.066699,-0.394597,0.156983,0.0473495,0.0119938,0.434492,-0.10563,-0.131629,-0.184142,-0.357365,0.144481,-0.171994,0.316727,-0.147325,0.0697692,-0.671248,-0.604892,0.035387,-0.0767579,-0.25136,0.368852,0.172557,-0.0471909,0.258385,0.0443396,-0.250218,0.296482,0.275669,-0.0645137,0.226283,0.215934,-0.174344,0.0766007,0.460266,0.336304,-0.137425,-0.126018,-0.206233,-0.377428,-0.0170778,0.29836,0.11036,0.051539,-0.604457,-0.306185,-0.126313,-0.103973,-0.214351,0.392676,0.182834,-0.0595904,-0.158898,-0.119049,0.123721,0.00200779,0.102127,-0.167891,-0.0178994,-0.272594,0.448458,0.479169,0.266453,0.000296527,0.332169,0.182691,-0.0863481,0.326194,-0.19265,0.243597,0.11254,-0.387344,-0.406962,-0.340644,0.0497198,0.130581,0.147512,-0.0991359,0.0948227,0.331244,0.0879086,-0.206729,0.0411443,-0.0817975,0.282793,0.0149948,0.225731,0.15726,0.0478753,0.307883,0.198578,0.292557,0.0387085,0.155927,-0.218988,-0.102985,-0.0262748,0.174199,-0.37575,-0.323423,-0.303254,0.0099175,0.197354,0.00954638,-0.303721,-0.264259,-0.239106,-0.0487597,-0.0991669,0.216001,0.123003,-0.183041,0.100093,-0.254172,-0.199691,0.33852,0.11079,0.353891,0.392486,0.110699,0.0778229,-0.15006,0.105784,0.222809,-0.156553,-0.142399,0.279361,-0.256788,0.288843,-0.116064,0.233898,0.0501773,0.014944,-0.19055,0.39602,-0.203543,0.0405896,-0.0929716,-0.0753656,-0.122909,0.0485439,0.281933,-0.208279,-0.23557,0.43237,-0.0321468,-0.0645651,-0.111937,-0.309056,-0.312921,-0.0754868,-0.0848343,-0.145816,-0.263812,0.212047,0.302905,0.322665,0.269422,-0.0718095,0.0558952,0.281879,0.309651,-0.0870402,-0.196324,0.192138,0.113416,0.0501205,0.293306,0.0528433,0.184914,0.0406179,0.0637703,0.0942774,-0.122963,-0.144505,-0.0386823,-0.141082,-0.245378,0.230886,-0.169132,0.0260669,0.02787,-0.351414,-0.160374,0.141923,-0.208814,-0.270301,0.117815,-0.16167,0.244431,-0.0323213,-0.0489639,-0.162166,0.113929,0.0349802,0.190962,0.0560559,0.0826302,0.376,-0.0663687,0.481006,0.406729,0.153011,-0.0161278,-0.291838,-0.403783,-0.097175,-0.333386,-0.299035,0.0218531,0.106184,-0.16653,0.388505,-0.245672,-0.316609,-0.0698229,0.362441,0.252771,0.392517,-0.206323,-0.145973,0.392459,-0.0605858,0.0974037,0.191453,-0.144954,-0.162941,0.450198,-0.18334,-0.177019,-0.0852181,-0.290469,-0.0326919,-0.21282,-0.288727,-0.269946,-0.0141486,0.00563371,-0.227568,0.122211,0.272276,-0.0962775,-0.113884,0.168112,-0.119408,0.39525,0.14734,0.189703,-0.00380263,-0.0555651,-0.0588336,-0.0577655,0.368226,-0.253257,-0.194657,0.254182,-0.23817,-0.0875134,-0.223371,0.0811209,0.116275,-0.0186307,-0.120431,0.204332,0.0877958,0.350827,-0.115786,0.18107,0.232641,0.333414,0.132704,-0.154673,0.300226,-0.0541124,0.343644,-0.0273446,0.38887,-0.229994,0.268874,0.200897,0.202477,0.10456,0.337925,-0.123121,0.35275,0.390106,-0.183554,0.339378,0.0745176,0.28049,-0.0941852,0.39405,0.32748,0.388202,-0.194801,0.246277,-0.182379,-0.0957723,-0.179531,0.0826319,-0.049498,0.171908,-0.0811792,0.136146,0.0854945,-0.243345,-0.0337321,0.275924,0.357979,-0.050438,0.402762,-0.0863421,0.0250279,0.379895,0.0184235,0.136253,0.195236,0.282653,-0.0334544,-0.0906826,-0.0327325,0.194662,0.175287,0.175308,0.205148,-0.190622,0.105554,-0.032194,0.0465926,0.310105,-0.11959,-0.2442
0.114142,0.304807,0.328306,0.344072,0.369814,0.127921,0.134608,-0.0394147,-0.172869,0.295894,-0.171617,0.23262,-0.289383,0.166781,0.291412,-0.102307,0.00999784,0.314399,-0.0772485,0.246422,0.0392651,-0.110874,-0.155672,-0.255886,-0.0405683,0.187011,0.280901,-0.272015,-0.125465,0.0991241,0.299402,0.0266609,-0.239607,0.263128,0.141786,0.0991676,0.335098,0.186815,0.132539,-0.0631834,-0.27231,0.279617,0.318137,0.248045,0.0779107,0.0228797,0.353963,0.303375,-0.0448195,0.0657124,0.388079,0.0537278,0.12476,0.158919,0.310916,-0.0474899,-0.0979064,-0.0209785,0.174664,0.148366,0.375668,-0.292459,-0.056488,0.271762,0.233681,0.385813,-0.0912591,0.0111937,-0.295525,0.225723,-0.0226076,0.358905,-0.202762,0.178458,-0.201749,0.0327155,0.380317,0.269637,0.134907,0.347212,-0.276031,-0.0681692,0.351656,-0.262081,-0.135548,0.111194,0.194681,0.215403,-0.13726,-0.129773,0.00571611,0.0431675,0.370736,0.0202824,-0.208159,-0.205552,0.266469,-0.28355,-0.141843,0.293693,0.167564,0.289468,0.388569,-0.096973,-0.0336199,0.399188,0.0922675,-0.0521222,-0.296159,0.264986,0.27712,0.357488,-0.093463,-0.282525,-0.125529,-0.0089511,0.156089,0.0159754,0.215019,-0.142745,-0.16035,-0.0817646,0.331146,-0.1025,-0.0776634,0.291278,0.149739,-0.0577908,0.204489,0.220403,-0.121795,0.000690532,-0.281655,0.184956,0.0416982,-0.00227613,0.347584,0.00673777,-0.153338,-0.0664815,-0.190835,-0.138945,0.0574071,-0.103111,-0.111569,0.0175188,0.0593602,0.348347,0.318945,-0.0985485,-0.231981,0.293277,0.103416,-0.296593,0.0859425,-0.190889,-0.342161,0.233301,-0.0675635,-0.141215,-0.133759,-0.212112,0.288274,-0.0192611,-0.207887,0.188664,0.37884,-0.12085,-0.122602,0.344285,0.234075,0.218322,0.184266,0.0340007,0.142383,-0.161675,-0.0760299,0.162839,-0.36099,0.0239711,0.257152,0.267921,0.311829,0.0267989,-0.367018,0.159428,-0.188619,0.152533,0.111547,0.132642,0.35096,0.208877,0.0690877,-0.121031,0.246741,-0.225571,0.12382,0.321,0.119005,0.143498,-0.233211,0.00520759,-0.049308,-0.121787,0.109756,0.0742676,-0.177646,0.298099,-0.173938,0.307596,-0.210948,-0.182122,-0.259258,0.0345391,-0.0860089,-0.320441,-0.134437,-0.250979,-0.0319106,0.225285,0.0972117,-0.256884,0.185512,-0.0941049,0.262679,-0.022854,0.123791,0.0990857,-0.271632,0.34417,0.0284044,-0.199154,-0.065788,-0.25174,0.138826,-0.277703,0.257983,-0.0472982,-0.04073,0.00209055,0.245834,0.0350278,0.0625205,0.317596,-0.135196,-0.116418,0.0158594,0.293871,0.0268523,0.227094,-0.247694,0.247254,-0.119697,0.280638,-0.101323,0.0415699,0.171435,0.35181,-0.205733,-0.40871,0.0408663,-0.286774,0.240507,0.143018,0.0479207,-0.027423,-0.281409,0.142737,-0.364806,-0.123469,-0.16378,-0.298668,0.111752,0.305825,0.0720694,-0.094594,-0.181919,0.251301,0.231529,-0.290683,-0.102264,0.25777,0.153395,-0.0178135,0.04386,-0.384557,-0.281548,0.0141457,-0.501536,-0.150118,-0.340766,-0.240864,0.05714,0.127097,-0.312282,0.177823,-0.194635,0.237458,-0.132348,-0.14766,0.0144689,-0.15707,0.231204,-0.0709003,0.235384,0.268127,0.228772,-0.162604,-0.209421,-0.0042595,-0.158062,0.17521,-0.151009,-0.344379,-0.38576,0.00532214,-0.384177,-0.0131798,-0.125279,-0.050071,-0.379525,0.194387,-0.068098,-0.161392,0.182531,-0.280484,-0.0947014,0.351703,-0.153397,-0.39994,0.0173692,0.231277,-0.063853,-0.26499,-0.0861074,-0.0147608,0.0825037,-0.276448,0.221108,-0.258188,0.144848,-0.332715,-0.338145,-0.235285,-0.105041,-0.212216,-0.0592613,0.0286592,0.274301,-0.34395,-0.338804,-0.440128,-0.232199,0.220288,0.344451,0.393071,0.244163,0.19417,0.242969,-0.191812,0.0890631,0.126307,0.227852,0.0401657,0.377334,0.379221,0.275556,0.177897,0.122387,-0.0123583,0.205473,-0.211774,-0.0584906,0.118498,0.425825,0.0454757,-0.158821,-0.196271,-0.267853,0.0305619,0.239099,-0.00425818,-0.125198,-0.0704347,-0.16456,0.0773898,-0.0478289,0.285349,-0.297718,0.0602977,0.352866,-0.167001,0.345759,0.211813,-0.178113,-0.236505,0.112858,-0.354322,-0.00767389,0.228478,0.00666962,-0.0478756,-0.148031,0.119577,0.228774,-0.226997,0.33804,0.255373,0.127823,0.02082,-0.31549,-0.157563,-0.0462864,0.385331,0.127279,0.136207,-0.21355,-0.231268,0.0193197,0.104271,0.232151,-0.176394,-0.288823,0.291969,0.225299,-0.0553094,0.0577796,-0.191809,0.273028,0.260011,0.271695,0.138216,0.391691,0.301658,0.209174,0.0849857,-0.0287506,0.109045,-0.0484939,-0.260455,-0.0871599,-0.192688,-0.0813716,-0.0554781,-0.0957269,0.248831,0.330394,-0.235929,-0.102905,-0.294975,-0.00434087,0.183934,0.330347,0.290787,-0.131343,-0.205941,-0.322274,-0.391393,0.239962,-0.272087,-0.221516,0.234944,0.206557,-0.310545,0.152986,0.0594495,0.232773,-0.106556,0.210169,0.161295,0.207284,-0.2226,-0.268429,-0.318174,0.378843,-0.0800997,-0.0386883,-0.134672,0.287026,-0.0906413,-0.207406,0.0973451,0.25964,-0.146966,-0.253145,0.0703263,0.0207601,0.114219,-0.13942,0.209018,-0.0945575,-0.451668,0.112018,-0.351922,-0.33843,-0.333603,-0.185888,-0.330641,0.179987,0.036619,-0.128812,0.187127,0.14014,0.282707,-0.133518,0.312427,0.31218,-0.0293869,0.371532,-0.335829,-0.225455,-0.305173,0.0115882,0.0824411,-0.301553,-0.184327,-0.203222,-0.415327,-0.361542,0.163087,-0.398061,0.0769198,-0.246438,0.0998107,-0.241782,-0.442222,0.0211297,0.0456925,0.317684,0.375701,0.132302,-0.142195,-0.0811152,0.0843837,-0.0683696,-0.266734,0.0561769,0.344448,0.207455,0.121154,-0.0481379,0.0411669,0.294102,-0.142484,0.123255,-0.384118,-0.395099,-0.10962,-0.0505371,-0.13482,-0.158939,0.028231,0.304409,-0.280331,-0.354955,0.0390594,-0.0470901,-0.291269,0.399689,0.134521,0.0310617,-0.111878,0.245678,-0.123865,-0.179463,0.250036,-0.109751,0.0294998,0.309372,0.0437562,-0.290101,0.0903869,0.164691,-0.252486,0.271585,-0.0875748,-0.352741,0.115205,0.112216,-0.277868,-0.350273,0.0318566,0.212111,0.0790145,-0.174828,-0.216051,-0.0791891,0.276464,0.127515,-0.256783,0.0652796,0.00983293,-0.266638,-0.261093,-0.0603988,0.141269,0.215442,0.101983,-0.20202,-0.354504,0.198965,-0.107579,0.0743144,-0.405126,0.170287,-0.0394786,-0.318967,-0.263538,-0.135737,0.202111,-0.276494,-0.188067,0.0702897,-0.237117,0.393042,-0.0354624,-0.170284,0.190023,-0.0954989,0.238943,-0.204346,0.218148,0.157454,0.367475,0.282523,-0.0646127,0.301444,0.340714,-0.273609,-0.289689,0.0361175,-0.371426,0.0244388,0.197946,0.118258,-0.307776,-0.194932,-0.313397,-0.108249,0.223659,0.017049,0.110684,-0.0156645,0.181286,0.286563,-0.138774,0.0777004,0.122065,0.130096,-0.219752,0.0871849,0.235803,0.345474,-0.104475,0.275333,-0.230882,0.198584,0.277138,0.150816,-0.30322,-0.00234682,0.0772335,0.300652,-0.315283,-0.285196,0.178552,-0.195502,-0.00804746,-0.086577,0.272205,0.0717158,0.0747062,0.16505,0.0715445,0.143219,-0.0662682,-0.0384799,0.312455,-0.266482,0.174187,0.00248656,0.181752,-0.141609,0.149986,0.223372,0.158542,0.115836,0.0931175,-0.0387531,0.300098,-0.162341,-0.151361,-0.0494493,-0.0147005,0.357898,-0.0123784,-0.0122693,-0.281867,-0.026661,-0.274407,-0.132151,0.128007,0.284747,0.259325,0.0830064,-0.121068,-0.179048,-0.22003,-0.0197628,0.0731303,-0.180808,0.334665,0.287043,0.36816,0.37759,0.084624,-0.162975,-0.00514019,-0.0247307,-0.241789,-0.229405,-0.170081,0.177806,-0.194092,0.341911,-0.0193549,-0.125785,0.0317881,0.392651,0.31457,-0.0300791,-0.0135014,-0.298946,0.283668,-0.126088,0.174478,0.360531,0.0759041,0.372002,0.00831396,0.310885,-0.018489,0.06143,0.0532404,-0.0144822,0.136138,-0.300706,-0.127128,0.136037,0.26018,0.282845,-0.116962,-0.054561,0.12273,0.286584,0.389959,0.398889,-0.246336,0.078338,-0.0142918,0.0240333,0.0641743,0.121934,-0.0455901,-0.0837328,0.079345,0.256844,-0.159197,0.331788,-0.103482,0.0317026,-0.239434,0.151557,-0.0545249,0.293824,0.199958,0.366225,0.0690451,-0.249583,0.204678,-0.207349,0.188571,0.034907,0.103162
0.298248,-0.201773,0.338112,-0.137684,-0.0817133,0.134437,0.0739158,-0.0786584,0.24217,-0.0419352,-0.277525,-0.198526,0.171844,0.0165136,0.131831,-0.0619953,0.313031,0.107691,0.213266,-0.0681692,-0.0917325,0.318052,0.31474,0.0671011,0.0715659,0.156655,0.00628069,-0.00807521,0.133476,0.156847,0.362465,0.00912195,0.156633,0.367721,0.175475,0.273745,-0.0695099,0.307378,0.386267,-0.153954,-0.194305,0.397082,-0.147981,-0.0151891,-0.0268532,0.357167,0.280901,0.363704,0.0593677,0.17178,-0.108737,0.247853,-0.17272,-0.191754,-0.0429609,0.337236,0.0621021,-0.194339,0.326917,-0.162124,0.239393,0.306285,0.317649,-0.179376,-0.261189,-0.0482453,0.0164541,-0.234574,-0.0765376,-0.0851825,0.15391,0.39389,-0.233052,-0.209831,-0.148272,-0.154734,0.0722709,-0.276855,0.117202,0.254006,0.237492,0.36379,-0.184191,0.0334544,0.0100192,0.389938,-0.22288,0.217624,0.0912276,-0.0687282,0.243906,-0.0699329,-0.269207,-0.178059,0.36002,0.385082,0.14735,0.243794,-0.269686,0.226729,-0.112841,-0.254087,-0.0672311,0.0345184,-0.0250321,0.160492,0.142348,-0.29096,0.364066,-0.00982699,-0.225935,0.0793847,0.310938,0.368062,-0.291177,0.2978,-0.314298,0.26875,0.333609,0.215228,0.0592679,0.0958215,0.310541,-0.0185013,0.135888,-0.247575,0.273914,-0.343257,-0.114879,0.359759,0.277553,0.359326,-0.305216,-0.313618,0.358656,-0.00514731,-0.208493,0.144111,0.104814,0.185516,-0.102841,0.00200811,0.109749,0.244406,-0.0619449,-0.0319274,0.329035,0.163578,0.0299546,0.21681,0.105309,0.136453,0.227532,0.195207,0.219177,0.104966,0.146911,0.267532,-0.0774191,-0.154355,-0.193851,0.0725817,0.21655,-0.0892361,-0.139803,0.0751241,-0.100914,0.0255501,0.157381,-0.153706,0.20488,0.0641095,0.354667,-0.259226,-0.122384,0.315299,0.251831,-0.362056,0.021973,-0.0871864,0.0697005,0.270154,-0.165406,-0.26423,0.164116,-0.125952,-0.263126,-0.046664,-0.414839,-0.21826,-0.134326,0.201587,0.299705,0.17404,-0.135962,0.210472,-0.172997,0.239372,-0.104344,-0.230513,0.100863,0.223209,-0.181278,-0.259792,-0.37387,-0.528016,-0.125167,-0.0124688,0.194323,-0.237377,-0.217455,0.0341956,0.0117837,-0.211184,-0.00322202,-0.0754375,-0.408608,-0.112029,0.162161,0.244325,-0.166038,0.311899,-0.0349918,-0.18677,0.226939,-0.146261,-0.164432,0.0950442,-0.249307,-0.00676254,0.230496,0.20525,0.112727,0.0663536,0.166476,0.152794,0.202945,-0.0293877,-0.0188857,0.232783,-0.080029,0.153354,-0.0535668,-0.273047,-0.31137,-0.312822,0.103172,-0.0325652,0.408591,-0.228606,-0.137804,0.221801,-0.0841273,0.087404,0.00429881,-0.0289705,-0.286327,-0.0293682,-0.330564,0.0522632,0.125665,-0.40624,0.251149,0.223882,0.00189231,-0.404842,0.173254,0.332969,0.271094,0.041478,0.094126,0.205055,-0.322032,-0.271116,0.259235,0.308094,-0.0565822,-0.138997,-0.0697282,0.249822,0.172485,0.0957348,-0.0921013,-0.172167,0.197535,-0.205855,-0.199893,-0.373478,-0.528339,-0.547372,-0.432096,-0.447298,-0.201836,0.110798,0.00128215,0.198395,-0.0735982,-0.179147,0.330553,-0.247126,0.0477425,0.249734,-0.110923,0.206292,0.263502,0.246882,0.279141,-0.0178076,0.372399,-0.274121,0.19843,-0.219407,0.164974,-0.301978,0.233722,-0.345114,-0.155123,-0.190545,-0.5194,0.074502,-0.169855,-0.210021,0.0209818,-0.0800273,0.253381,-0.0959699,0.477521,-0.0255213,0.329421,0.0202197,0.0331437,-0.358796,0.0785199,0.16028,-0.100749,0.3797,-0.223884,-0.00397383,0.338088,-0.261042,-0.365504,-0.0829468,0.157252,-0.195891,-0.317967,-0.121248,0.120446,-0.247919,-0.118255,-0.0767363,-0.128286,0.192028,0.179688,0.461769,0.408758,0.300877,0.314431,0.320774,0.261298,0.101938,-0.19202,0.214731,-0.0102981,0.0343321,0.193292,0.280329,0.0216846,0.355563,-0.315036,0.107287,0.275551,-0.0507046,-0.348069,-0.157178,0.0668318,0.198935,-0.10022,-0.0370565,0.389809,-0.0739642,0.234136,0.359419,0.147299,0.400318,-0.100452,0.435772,-0.183025,-0.297513,0.301828,-0.0256858,0.0677187,-0.116226,0.138752,-0.00163867,0.356515,-0.101662,0.341682,0.327802,0.0615004,0.0534653,0.213323,0.161574,-0.362259,0.361243,-0.3246,-0.00827845,0.201985,-0.0285646,0.281225,0.29997,-0.253655,0.149984,0.138067,0.300479,-0.315623,0.103607,-0.357272,-0.172564,-0.192016,-0.220118,0.14655,-0.263463,-0.297063,0.0537733,0.252863,0.337609,-0.294738,-0.337491,-0.284605,-0.0809717,0.335044,0.330629,-0.146562,0.250779,0.0756737,0.445252,-0.0112836,-0.381813,-0.153677,-0.233969,-0.144942,-0.0975421,-0.177346,-0.393105,-0.175051,0.137019,-0.0788894,-0.171814,0.0569109,-0.15032,-0.191062,-0.0822886,-0.14046,0.262418,-0.0670151,-0.212305,0.0517844,0.306139,-0.170323,0.294223,-0.127802,0.138746,-0.224365,-0.3477,-0.128402,0.0708901,-0.108685,-0.500729,-0.0339366,-0.262274,-0.0065309,-0.399901,-0.36363,0.0385051,-0.108989,0.184214,0.242213,-0.154381,-0.0691845,0.392137,-0.232528,-0.380953,-0.0683111,-0.0623925,-0.21102,-0.297737,-0.273835,-0.356172,0.123789,-0.505296,-0.169762,0.146454,-0.418714,-0.371958,-0.40587,0.187398,-0.189612,-0.26907,-0.292546,-0.389659,-0.0651034,0.0191485,-0.227005,0.3354,0.187353,0.105617,-0.0618418,0.420282,0.009654,0.0924314,-0.285234,-0.274318,-0.189157,-0.223856,0.128549,-0.183338,-0.0854321,-0.203243,-0.0705634,0.333735,-0.0545481,-0.345215,0.163581,0.0889925,-0.150755,-0.226317,-0.415643,-0.364531,0.19739,0.233814,-0.257972,-0.0718523,0.0903867,0.1417,-0.0883732,0.0910967,-0.284,-0.326614,-0.162818,0.390219,0.135861,-0.333561,0.0589463,-0.0664294,-0.172202,0.0674293,0.0758257,0.289957,-0.0671933,-0.0212317,-0.426401,-0.376535,-0.319377,0.0361045,-0.37333,-0.373619,-0.328266,-0.144344,0.203952,0.106418,0.298825,-0.135548,-0.242477,-0.170492,0.398382,-0.0857956,-0.022718,-0.0988915,0.218212,-0.171491,-0.360136,0.197871,0.187137,-0.0652536,-0.0187912,-0.266602,-0.148674,0.0570112,-0.183153,-0.0407461,0.0828392,-0.142595,0.181492,-0.260833,0.199352,0.0524245,-0.103271,0.381827,0.047148,0.114335,0.254975,0.298932,-0.282533,-0.0522796,0.228563,-0.38021,-0.177295,0.17796,0.0279036,0.0976605,-0.114702,0.182599,-0.222381,0.195414,0.149631,0.0206012,-0.167068,-0.0743643,-0.212193,0.112642,0.186225,0.238335,0.207732,-0.258713,0.235692,-0.143603,0.111686,-0.129374,0.188998,0.128484,-0.186256,0.0378732,0.320041,-0.356196,0.342959,-0.233022,-0.0927093,0.252124,-0.295355,0.00937976,0.118668,0.324349,0.275334,0.15094,-0.254084,-0.0924573,-0.142382,-0.220385,0.278361,-0.0308275,0.0277061,0.208868,0.0737853,-0.15689,0.347682,0.399829,-0.0866185,0.131651,-0.157467,-0.0767126,0.335529,-0.117179,-0.258656,0.0589879,0.243062,-0.190382,0.312095,-0.197943,0.0594621,-0.248694,-0.179086,-0.108886,-0.188638,-0.207124,-0.0564181,0.303127,0.172916,0.202497,0.310241,-0.0124964,-0.296989,-0.0558214,0.224845,-0.288379,0.391972,0.199462,-0.119976,-0.22385,0.242219,0.0181639,-0.057065,-0.103249,-0.271082,0.259266,-0.0972134,0.145243,-0.0313535,-0.077082,0.228953,-0.182683,-0.177017,-0.00286891,-0.267233,-0.150914,-0.0720975,0.120167,0.122421,-0.215651,0.234886,0.0853236,0.326853,0.223392,-0.278509,0.160842,0.301281,0.370087,-0.226101,0.296618,0.152157,-0.294905,0.141451,0.244807,-0.0644212,-0.107749,0.34166,-0.0556018,-0.0117282,0.0865303,-0.211504,-0.0921638,0.0798505,-0.0561978,-0.0555432,-0.240248,-0.161114,0.250203,-0.250545,-0.240077,0.330058,0.385858,-0.0422773,-0.138923,-0.066355,-0.206661,-0.0988415,0.221344,-0.237017,-0.149434,-0.0168046,0.0424233,0.272769,-0.262073,-0.086801,0.0953093,0.0408458,-0.244148,0.106859,0.0970262,-0.24613,0.0362167,-0.193078,0.390387,0.293164,0.344542,-0.296261,0.0587481,-0.172399,0.173852,0.363747,0.0974151,0.268938,-0.26129,-0.278943,0.120415,-0.22103,-0.121937,-0.188999,0.297458,0.357573,0.0563341,0.268169,0.321396,-0.207887,-0.268479,-0.154399,0.155488,0.0908994,-0.281393,0.333113,-0.0446486,-0.0345866,0.1326,-0.194275,-0.287631
0.3141,0.294467,0.395557,0.219547,-0.0460799,-0.182696,0.020658,0.30047,-0.169579,-0.234285,0.234591,0.302969,0.325187,-0.0300363,0.371053,-0.197885,-0.166161,0.229908,0.319825,0.210489,0.323521,0.180474,0.317902,0.241765,0.02884,-0.0596027,-0.209378,-0.17492,-0.00339672,-0.183636,-0.273061,-0.283038,-0.262209,-0.215766,0.123072,-0.192658,0.29677,-0.180462,-0.220465,0.167082,-0.203891,0.397418,-0.215958,0.132664,-0.231126,0.0387951,-0.230549,0.178146,0.334181,-0.282867,0.173211,-0.234181,-0.272036,-0.19592,0.29075,0.127964,0.0480025,0.0730186,-0.247832,0.273147,-0.278466,0.332856,0.208538,0.0660242,-0.240981,0.316206,0.161885,0.0710878,0.0806108,-0.122172,0.0211894,0.13393,-0.250195,0.278965,-0.170263,0.319296,0.375159,-0.173102,-0.288984,0.00382394,-0.00138861,0.0727195,0.239415,0.0295022,-0.0326213,-0.0570178,0.157445,0.213758,-0.174792,-0.139229,-0.24297,0.0488258,0.260837,-0.117313,-0.192901,0.349716,0.346739,-0.0128729,0.0593725,-0.25022,-0.217006,0.150718,-0.250981,-0.142685,0.160388,0.261253,0.100929,-0.248581,0.00161214,0.169536,-0.200299,-0.108161,-0.0358043,0.160649,-0.0987396,0.227879,0.0358615,0.280705,0.324734,0.119749,-0.0839926,-0.160985,-0.293705,0.277415,-0.225213,-0.0714954,-0.101868,0.098312,0.317027,-0.170692,-0.277504,-0.0539425,-0.288677,-0.1354,0.101675,0.337103,0.281922,-0.134575,-0.0412444,-0.289468,-0.0689596,0.360308,0.394982,0.391086,0.170192,0.349462,0.295464,-0.145724,0.158697,0.25154,-0.173259,0.111058,-0.281214,0.020437,-0.0742499,0.291819,-0.223342,0.257033,-0.252232,0.135114,-0.00618415,0.269013,0.175299,-0.0151232,0.0457051,0.0591018,0.0778919,-0.273595,0.320872,0.206665,-0.076517,0.365533,-0.149306,0.0884909,-0.259582,-0.121333,0.0129007,-0.293749,0.156814,0.0871828,-0.264188,-0.223165,-0.198793,-0.290754,0.147621,-0.350469,0.236567,-0.36748,0.263517,-0.126908,0.235582,0.000990379,0.0941373,-0.246747,-0.0604121,0.147233,0.0945311,0.215104,0.197439,0.290386,-0.0694964,0.346596,0.119287,0.0390254,-0.0429425,0.141144,0.284773,0.0858791,-0.196954,0.223104,-0.00667262,-0.324585,0.122536,-0.0812168,0.0775669,-0.258123,-0.340036,-0.178809,-0.161264,-0.221323,-0.312047,0.148892,-0.119724,0.307391,-0.146123,0.315068,0.0748258,0.304915,-0.278033,0.187072,0.21302,-0.0170904,0.277443,0.0733113,0.277257,0.103814,0.318781,-0.137421,-0.225218,0.178623,0.227066,-0.087781,0.0183466,-0.33515,-0.280288,0.106513,-0.261507,-0.35222,0.315061,0.0128892,-0.0463447,0.0439633,-0.273681,0.157516,0.149327,0.336098,0.291236,-0.13615,-0.186366,-0.204338,-0.122877,0.252187,-0.0807039,0.280292,0.182185,0.320155,0.0882667,0.384226,0.334568,-0.343537,-0.0511296,0.264594,-0.23651,0.128294,-0.0320732,-0.056852,0.250825,0.303201,0.111661,0.117095,0.116343,-0.0754909,0.241193,0.199193,-0.148387,0.0662907,-0.38374,-0.196021,-0.402315,-0.0168874,-0.318847,0.0291142,-0.186253,0.103494,-0.0665603,-0.159093,-0.0734827,0.351703,-0.0150138,-0.111174,0.293658,0.229208,-0.212095,-0.167155,0.0334798,-0.150888,0.263196,0.252195,-0.210404,0.0397335,0.167442,0.280477,0.0356479,-0.131418,-0.128169,0.0857416,0.0766009,0.130536,0.187253,-0.191852,0.329746,-0.284954,0.293398,0.0803113,-0.0293089,0.0880051,0.136418,-0.100888,-0.260183,0.254019,0.0757753,0.0918289,-0.0835833,0.223646,0.0238791,0.0355977,0.105426,-0.0694029,-0.123246,0.123561,-0.388394,-0.0755934,-0.384513,-0.123499,-0.00831088,0.242756,-0.13732,-0.103178,-0.066356,-0.00879118,0.143737,0.140627,0.0796941,-0.0547166,0.14867,-0.162666,-0.238131,-0.195596,0.164431,0.0852939,-0.263382,-0.0449124,-0.0947817,-0.166869,0.0629352,-0.143811,0.171751,-0.096142,-0.281294,-0.00279299,-0.391099,-0.39577,-0.194726,-0.305468,0.365136,-0.0298849,0.208763,-0.0751981,0.283561,-0.363951,0.173358,-0.0543642,0.0545376,0.40525,0.145153,-0.209052,-0.283651,0.0770213,0.227547,0.252526,0.310685,-0.0299491,0.0768853,0.339494,0.130319,0.0965046,-0.0998604,-0.171447,-0.0238937,0.141886,-0.0693258,-0.269905,-0.00267345,0.277388,0.0328226,-0.182831,0.249349,-0.289331,0.021201,0.0789401,0.0516897,-0.0564247,-0.0837507,-0.108266,-0.383925,-0.379283,0.212165,0.0249909,-0.0990477,0.248121,-0.151485,-0.281545,0.173151,0.233381,0.220191,-0.2239,-0.0254594,-0.184917,0.187231,-0.224381,-0.257527,-0.265689,0.308179,0.00966195,-0.0103792,0.146974,-0.17793,0.0143481,0.319843,-0.206225,-0.133343,-0.0961059,0.243918,0.208122,-0.0669355,-0.258603,0.260622,0.117754,-0.152937,-0.236277,-0.201177,0.323459,-0.0671801,-0.194321,-0.339267,-0.191946,0.182041,-0.0537136,0.0509439,0.0178674,-0.00207393,-0.354158,0.175913,0.155431,-0.190931,-0.292242,-0.0158788,-0.189942,-0.0760414,-0.140846,0.291051,-0.248838,-0.134303,0.113623,-0.323276,0.200241,0.167891,0.26687,-0.251305,0.230089,-0.226397,-0.202826,-0.0695219,-0.307817,-0.0357859,0.135656,-0.296843,0.0313162,0.0369386,-0.0208558,0.0654821,-0.19281,0.0592982,-0.287503,0.218846,0.237953,-0.0789404,0.239886,0.0974852,-0.253415,-0.20228,-0.11186,0.359549,-0.123757,-0.0177099,0.253261,0.380034,-0.0514841,-0.230387,0.0550532,-0.21262,0.209579,-0.129287,-0.191898,-0.139662,-0.442968,-0.143155,-0.274309,0.177331,0.180949,-0.058601,0.0881887,-0.131064,-0.0811813,-0.0609025,-0.266315,0.233699,0.307435,0.242052,0.0314807,-0.165994,0.0105807,-0.254881,0.0215338,0.352706,0.256762,-0.080108,0.246143,0.134005,0.178182,-0.17524,0.250074,-0.136207,0.116289,0.0143792,0.143831,-0.321802,-0.0172756,0.114968,0.264766,-0.396593,-0.284789,-0.374251,-0.0556068,0.195621,-0.272259,0.336095,0.13995,0.240004,-0.0256328,0.275753,-0.0356548,0.0910345,0.329417,0.210001,0.0982926,0.30831,0.302737,0.084705,-0.031848,-0.262135,-0.391139,-0.177681,-0.225334,-0.0903147,0.233864,-0.1792,-0.276998,-0.109719,0.0331076,0.111039,-0.221435,0.322511,0.218382,-0.222526,-0.145474,-0.0741097,0.108964,0.177526,0.170882,0.079202,0.314809,-0.00603469,-0.0863927,0.305455,-0.0510324,-0.139313,0.314668,0.282602,0.100091,-0.0433322,-0.237726,0.110709,-0.288766,-0.0331752,-0.179029,-0.098937,0.148396,0.160992,-0.0145667,0.0269962,-0.140965,0.129917,0.0694598,0.0777734,0.161993,-0.287909,0.267293,-0.145538,0.396193,-0.107488,-0.267264,-0.197913,0.17991,0.125941,-0.268226,0.187417,-0.100379,0.317746,0.18727,-0.341328,-0.348078,-0.281886,-0.332786,-0.117088,-0.282063,0.15914,0.335466,-0.294151,0.0195767,0.248009,0.0387524,0.153166,0.00296944,-0.00623798,-0.00373855,0.382574,0.244164,-0.19125,-0.233274,-0.212914,0.122167,0.354778,-0.233065,0.0330181,-0.272019,0.328306,0.233054,-0.124436,0.0517275,0.0091159,0.146486,0.0129962,-0.290199,-0.0898731,0.151625,-0.164314,0.0109604,0.0622953,-0.164945,0.135764,0.114142,0.0193335,-0.0106815,0.252497,0.204221,0.298121,0.330381,-0.012332,0.371777,-0.124812,0.428178,-0.201873,-0.255949,0.163991,0.354778,0.162467,-0.113568,0.37222,0.167084,-0.0741105,-0.0634534,0.133496,-0.240817,-0.0509905,-0.0918523,0.248039,0.0183111,0.0744926,-0.249413,-0.000277758,-0.264837,0.284576,0.306793,-0.233465,0.0480927,-0.0303826,0.410204,0.0261556,0.158387,0.361682,0.348964,-0.100216,0.255094,0.380926,0.112095,0.0022158,-0.0590893,0.21702,0.00555903,0.254838,-0.269722,0.356304,-0.177127,0.181328,0.367785,0.276437,0.0953856,0.208246,-0.103098,-0.00997654,-0.0392651,0.166734,-0.258107,-0.150236,0.271774,-0.0719305,-0.179622,-0.0356414,0.118777,0.0136806,0.373556,0.255368,-0.0899531,0.142741,0.260958,0.348177,0.240106,0.28746,0.199062,0.233091,0.043025,0.10047,-0.0488144,0.325486,-0.21348,0.311643,0.381585,-0.224055,0.00980559,0.118137,-0.268874,-0.0717666,-0.247739,-0.132126,0.010074,-0.0659976,0.312284,0.376073,0.385986,-0.0988251,-0.17474,0.380237,0.344598,-0.134808,0.202525,0.320145,0.06975,0.215509,0.0436018,-0.134523,-0.275304,0.292224,-0.0551378
